{
    "CNN_input_1": [
        {
            "b": [
                0.022888680920004845,
                -0.020323291420936584,
                0.0832027792930603,
                -0.012088082730770111,
                0.0188775435090065,
                -0.07151424884796143,
                0.0317067913711071,
                0.01844230480492115,
                -0.06059650331735611,
                -0.02762659825384617,
                0.003434685291722417,
                0.05544360727071762,
                -0.03208211436867714,
                0.0061126453801989555,
                0.018923897296190262,
                0.006732809357345104,
                0.004209490492939949,
                0.011671478860080242,
                0.030353033915162086,
                0.015835095196962357,
                -0.17961324751377106,
                -0.007585953455418348,
                -0.18297258019447327,
                0.006706849206238985
            ],
            "w": [
                [
                    [
                        [
                            -0.6040708422660828,
                            0.034431327134370804
                        ],
                        [
                            -0.34833595156669617,
                            -0.1554429978132248
                        ]
                    ]
                ],
                [
                    [
                        [
                            -0.016840148717164993,
                            -0.004967717919498682
                        ],
                        [
                            0.05239730700850487,
                            0.05587350204586983
                        ]
                    ]
                ],
                [
                    [
                        [
                            0.26234370470046997,
                            -0.3908272981643677
                        ],
                        [
                            -0.8906785249710083,
                            -0.9456803202629089
                        ]
                    ]
                ],
                [
                    [
                        [
                            -0.029666878283023834,
                            0.011360988020896912
                        ],
                        [
                            0.08688868582248688,
                            -0.035657912492752075
                        ]
                    ]
                ],
                [
                    [
                        [
                            -0.026401448994874954,
                            -0.010148662142455578
                        ],
                        [
                            -0.052327513694763184,
                            -0.006815439555794001
                        ]
                    ]
                ],
                [
                    [
                        [
                            0.6273883581161499,
                            0.25944387912750244
                        ],
                        [
                            0.11288493871688843,
                            0.004384705331176519
                        ]
                    ]
                ],
                [
                    [
                        [
                            -0.05921553820371628,
                            -0.08848695456981659
                        ],
                        [
                            0.04099589213728905,
                            0.011252161115407944
                        ]
                    ]
                ],
                [
                    [
                        [
                            -0.08139188587665558,
                            0.012170495465397835
                        ],
                        [
                            0.010722738690674305,
                            -0.04279234632849693
                        ]
                    ]
                ],
                [
                    [
                        [
                            0.014108897186815739,
                            -0.0879041850566864
                        ],
                        [
                            0.08481091260910034,
                            0.05416674539446831
                        ]
                    ]
                ],
                [
                    [
                        [
                            -0.062472742050886154,
                            0.04422555863857269
                        ],
                        [
                            -0.06575604528188705,
                            0.0388040691614151
                        ]
                    ]
                ],
                [
                    [
                        [
                            -0.0037380363792181015,
                            -0.00928735826164484
                        ],
                        [
                            -0.029829224571585655,
                            0.0037934686988592148
                        ]
                    ]
                ],
                [
                    [
                        [
                            0.3397146165370941,
                            -0.1786535680294037
                        ],
                        [
                            0.41950106620788574,
                            0.22701936960220337
                        ]
                    ]
                ],
                [
                    [
                        [
                            0.01590755581855774,
                            -0.04596203565597534
                        ],
                        [
                            -0.011499406769871712,
                            0.02002713829278946
                        ]
                    ]
                ],
                [
                    [
                        [
                            0.013864786364138126,
                            0.041081156581640244
                        ],
                        [
                            0.04426897317171097,
                            0.041791826486587524
                        ]
                    ]
                ],
                [
                    [
                        [
                            0.015679793432354927,
                            -0.05531875044107437
                        ],
                        [
                            0.022419225424528122,
                            0.0383574552834034
                        ]
                    ]
                ],
                [
                    [
                        [
                            0.19489260017871857,
                            0.2872394919395447
                        ],
                        [
                            -0.05342407897114754,
                            0.2636045813560486
                        ]
                    ]
                ],
                [
                    [
                        [
                            -0.04560769721865654,
                            0.0015224127564579248
                        ],
                        [
                            -0.00798812322318554,
                            0.030698534101247787
                        ]
                    ]
                ],
                [
                    [
                        [
                            0.04411382973194122,
                            -0.06045101210474968
                        ],
                        [
                            -0.027766425162553787,
                            -0.04958590865135193
                        ]
                    ]
                ],
                [
                    [
                        [
                            -0.04919048398733139,
                            -0.05147867277264595
                        ],
                        [
                            -0.01854940690100193,
                            0.011729372665286064
                        ]
                    ]
                ],
                [
                    [
                        [
                            0.03166664019227028,
                            -0.02443169243633747
                        ],
                        [
                            -0.03225868195295334,
                            0.028285982087254524
                        ]
                    ]
                ],
                [
                    [
                        [
                            -0.05304005742073059,
                            0.2784987986087799
                        ],
                        [
                            -0.43673884868621826,
                            -0.0036224666982889175
                        ]
                    ]
                ],
                [
                    [
                        [
                            0.0059385779313743114,
                            0.06475480645895004
                        ],
                        [
                            0.027937954291701317,
                            0.1134241595864296
                        ]
                    ]
                ],
                [
                    [
                        [
                            0.049307823181152344,
                            -0.42232275009155273
                        ],
                        [
                            -0.6163455843925476,
                            -0.19595259428024292
                        ]
                    ]
                ],
                [
                    [
                        [
                            0.038552578538656235,
                            -0.0675460696220398
                        ],
                        [
                            -0.06441796571016312,
                            -0.015897467732429504
                        ]
                    ]
                ]
            ]
        }
    ],
    "CNN_input_2": [
        {
            "b": [
                0.07501601427793503,
                -0.169310063123703,
                0.029291050508618355,
                -0.18106424808502197,
                0.22250059247016907,
                0.15336711704730988,
                0.19665193557739258,
                0.09775163978338242,
                0.10081280022859573,
                0.12546417117118835,
                0.5089979767799377,
                -0.20685261487960815,
                0.03755626827478409,
                -0.05391298234462738,
                -0.25634196400642395,
                0.02934548817574978,
                0.16340386867523193,
                0.0796811655163765,
                0.003594497684389353,
                -0.437727689743042,
                -0.14603190124034882,
                -0.10093418508768082,
                0.09109842777252197,
                0.3093784749507904
            ],
            "w": [
                [
                    [
                        [
                            -1.2333216667175293
                        ]
                    ],
                    [
                        [
                            0.5689793229103088
                        ]
                    ],
                    [
                        [
                            -0.1314309984445572
                        ]
                    ],
                    [
                        [
                            -1.08896803855896
                        ]
                    ],
                    [
                        [
                            -0.5783367156982422
                        ]
                    ],
                    [
                        [
                            -0.1324964165687561
                        ]
                    ]
                ],
                [
                    [
                        [
                            -0.8814168572425842
                        ]
                    ],
                    [
                        [
                            -0.18593361973762512
                        ]
                    ],
                    [
                        [
                            0.19973795115947723
                        ]
                    ],
                    [
                        [
                            -0.19833403825759888
                        ]
                    ],
                    [
                        [
                            -1.2806291580200195
                        ]
                    ],
                    [
                        [
                            -0.6812795400619507
                        ]
                    ]
                ],
                [
                    [
                        [
                            -0.6356144547462463
                        ]
                    ],
                    [
                        [
                            0.7495042085647583
                        ]
                    ],
                    [
                        [
                            -0.08357851207256317
                        ]
                    ],
                    [
                        [
                            0.6344296932220459
                        ]
                    ],
                    [
                        [
                            -0.6401609182357788
                        ]
                    ],
                    [
                        [
                            -0.8364660143852234
                        ]
                    ]
                ],
                [
                    [
                        [
                            -0.7434431314468384
                        ]
                    ],
                    [
                        [
                            -1.3274178504943848
                        ]
                    ],
                    [
                        [
                            0.1693577766418457
                        ]
                    ],
                    [
                        [
                            0.1402912437915802
                        ]
                    ],
                    [
                        [
                            1.302126169204712
                        ]
                    ],
                    [
                        [
                            -0.3764478862285614
                        ]
                    ]
                ],
                [
                    [
                        [
                            -0.30076631903648376
                        ]
                    ],
                    [
                        [
                            -0.33115798234939575
                        ]
                    ],
                    [
                        [
                            -0.21188805997371674
                        ]
                    ],
                    [
                        [
                            0.8875043988227844
                        ]
                    ],
                    [
                        [
                            0.9659534096717834
                        ]
                    ],
                    [
                        [
                            -0.32298776507377625
                        ]
                    ]
                ],
                [
                    [
                        [
                            -1.163248062133789
                        ]
                    ],
                    [
                        [
                            -0.2594663202762604
                        ]
                    ],
                    [
                        [
                            -0.23991723358631134
                        ]
                    ],
                    [
                        [
                            -0.07890486717224121
                        ]
                    ],
                    [
                        [
                            0.42717230319976807
                        ]
                    ],
                    [
                        [
                            -1.0921913385391235
                        ]
                    ]
                ],
                [
                    [
                        [
                            0.20232072472572327
                        ]
                    ],
                    [
                        [
                            0.5812631845474243
                        ]
                    ],
                    [
                        [
                            -0.18013936281204224
                        ]
                    ],
                    [
                        [
                            -0.4391981363296509
                        ]
                    ],
                    [
                        [
                            0.5748758316040039
                        ]
                    ],
                    [
                        [
                            0.4521998465061188
                        ]
                    ]
                ],
                [
                    [
                        [
                            -1.7525267601013184
                        ]
                    ],
                    [
                        [
                            0.07795652747154236
                        ]
                    ],
                    [
                        [
                            -0.09846029430627823
                        ]
                    ],
                    [
                        [
                            1.1232199668884277
                        ]
                    ],
                    [
                        [
                            0.463077187538147
                        ]
                    ],
                    [
                        [
                            -0.03451327979564667
                        ]
                    ]
                ],
                [
                    [
                        [
                            -0.4121165871620178
                        ]
                    ],
                    [
                        [
                            -0.037170205265283585
                        ]
                    ],
                    [
                        [
                            -0.0151274548843503
                        ]
                    ],
                    [
                        [
                            -0.9106022119522095
                        ]
                    ],
                    [
                        [
                            -0.13013362884521484
                        ]
                    ],
                    [
                        [
                            0.7147462368011475
                        ]
                    ]
                ],
                [
                    [
                        [
                            0.06313078105449677
                        ]
                    ],
                    [
                        [
                            -0.23135650157928467
                        ]
                    ],
                    [
                        [
                            -0.15063293278217316
                        ]
                    ],
                    [
                        [
                            -0.3091094195842743
                        ]
                    ],
                    [
                        [
                            -0.5825557112693787
                        ]
                    ],
                    [
                        [
                            0.45361799001693726
                        ]
                    ]
                ],
                [
                    [
                        [
                            -0.6980897784233093
                        ]
                    ],
                    [
                        [
                            0.568853497505188
                        ]
                    ],
                    [
                        [
                            -0.49813899397850037
                        ]
                    ],
                    [
                        [
                            0.9816998839378357
                        ]
                    ],
                    [
                        [
                            0.24059328436851501
                        ]
                    ],
                    [
                        [
                            0.3888132572174072
                        ]
                    ]
                ],
                [
                    [
                        [
                            0.3609480857849121
                        ]
                    ],
                    [
                        [
                            0.6432448625564575
                        ]
                    ],
                    [
                        [
                            0.25884976983070374
                        ]
                    ],
                    [
                        [
                            0.4508953392505646
                        ]
                    ],
                    [
                        [
                            -0.39402925968170166
                        ]
                    ],
                    [
                        [
                            0.4683728814125061
                        ]
                    ]
                ],
                [
                    [
                        [
                            -0.7058289051055908
                        ]
                    ],
                    [
                        [
                            0.23354719579219818
                        ]
                    ],
                    [
                        [
                            -0.04083998501300812
                        ]
                    ],
                    [
                        [
                            0.3675040304660797
                        ]
                    ],
                    [
                        [
                            0.0016936741303652525
                        ]
                    ],
                    [
                        [
                            0.3748880624771118
                        ]
                    ]
                ],
                [
                    [
                        [
                            -0.7214171886444092
                        ]
                    ],
                    [
                        [
                            -0.19968460500240326
                        ]
                    ],
                    [
                        [
                            0.03667778894305229
                        ]
                    ],
                    [
                        [
                            0.003106797579675913
                        ]
                    ],
                    [
                        [
                            -0.5305464863777161
                        ]
                    ],
                    [
                        [
                            0.753064751625061
                        ]
                    ]
                ],
                [
                    [
                        [
                            0.12430237978696823
                        ]
                    ],
                    [
                        [
                            -0.023778894916176796
                        ]
                    ],
                    [
                        [
                            0.2731388211250305
                        ]
                    ],
                    [
                        [
                            -0.23655547201633453
                        ]
                    ],
                    [
                        [
                            -0.3890380561351776
                        ]
                    ],
                    [
                        [
                            0.38344132900238037
                        ]
                    ]
                ],
                [
                    [
                        [
                            -0.31675830483436584
                        ]
                    ],
                    [
                        [
                            0.0861557126045227
                        ]
                    ],
                    [
                        [
                            0.07744362950325012
                        ]
                    ],
                    [
                        [
                            0.1660691201686859
                        ]
                    ],
                    [
                        [
                            0.647459089756012
                        ]
                    ],
                    [
                        [
                            0.4534779489040375
                        ]
                    ]
                ],
                [
                    [
                        [
                            0.01598968356847763
                        ]
                    ],
                    [
                        [
                            -0.5840282440185547
                        ]
                    ],
                    [
                        [
                            -0.14693763852119446
                        ]
                    ],
                    [
                        [
                            -0.14859779179096222
                        ]
                    ],
                    [
                        [
                            0.025518184527754784
                        ]
                    ],
                    [
                        [
                            -0.1389068067073822
                        ]
                    ]
                ],
                [
                    [
                        [
                            -0.5180583596229553
                        ]
                    ],
                    [
                        [
                            -0.6244142055511475
                        ]
                    ],
                    [
                        [
                            -0.10850021243095398
                        ]
                    ],
                    [
                        [
                            -0.3009602129459381
                        ]
                    ],
                    [
                        [
                            0.026826022192835808
                        ]
                    ],
                    [
                        [
                            -0.022575804963707924
                        ]
                    ]
                ],
                [
                    [
                        [
                            -0.29445338249206543
                        ]
                    ],
                    [
                        [
                            0.9123830795288086
                        ]
                    ],
                    [
                        [
                            -0.02032962255179882
                        ]
                    ],
                    [
                        [
                            0.15301182866096497
                        ]
                    ],
                    [
                        [
                            -0.01168898306787014
                        ]
                    ],
                    [
                        [
                            -0.6915347576141357
                        ]
                    ]
                ],
                [
                    [
                        [
                            0.7064498662948608
                        ]
                    ],
                    [
                        [
                            0.48152199387550354
                        ]
                    ],
                    [
                        [
                            0.4497448801994324
                        ]
                    ],
                    [
                        [
                            0.6671751141548157
                        ]
                    ],
                    [
                        [
                            -1.069475531578064
                        ]
                    ],
                    [
                        [
                            0.15681244432926178
                        ]
                    ]
                ],
                [
                    [
                        [
                            -0.5353457927703857
                        ]
                    ],
                    [
                        [
                            -1.013489842414856
                        ]
                    ],
                    [
                        [
                            0.2653614282608032
                        ]
                    ],
                    [
                        [
                            0.7068362236022949
                        ]
                    ],
                    [
                        [
                            -0.5574894547462463
                        ]
                    ],
                    [
                        [
                            0.5802856683731079
                        ]
                    ]
                ],
                [
                    [
                        [
                            0.5591495037078857
                        ]
                    ],
                    [
                        [
                            0.13335268199443817
                        ]
                    ],
                    [
                        [
                            0.12234227359294891
                        ]
                    ],
                    [
                        [
                            0.01710427738726139
                        ]
                    ],
                    [
                        [
                            0.03827366605401039
                        ]
                    ],
                    [
                        [
                            0.38517284393310547
                        ]
                    ]
                ],
                [
                    [
                        [
                            0.8484799861907959
                        ]
                    ],
                    [
                        [
                            0.6854918599128723
                        ]
                    ],
                    [
                        [
                            -0.2279212325811386
                        ]
                    ],
                    [
                        [
                            0.41102126240730286
                        ]
                    ],
                    [
                        [
                            0.532768726348877
                        ]
                    ],
                    [
                        [
                            -0.8638507723808289
                        ]
                    ]
                ],
                [
                    [
                        [
                            -0.27041783928871155
                        ]
                    ],
                    [
                        [
                            -0.1018114760518074
                        ]
                    ],
                    [
                        [
                            -0.32843253016471863
                        ]
                    ],
                    [
                        [
                            0.38126668334007263
                        ]
                    ],
                    [
                        [
                            0.5649306774139404
                        ]
                    ],
                    [
                        [
                            0.27802127599716187
                        ]
                    ]
                ]
            ]
        }
    ],
    "CNN_stage_2": [
        {
            "b": [
                0.001580410054884851,
                -0.21812932193279266,
                -0.1452273577451706,
                -0.32982078194618225,
                -0.10924915224313736,
                0.0846065878868103,
                -0.026989426463842392,
                -0.24134990572929382,
                -0.05073805898427963,
                -0.0687929317355156,
                -0.09928916394710541,
                -0.14874900877475739,
                -0.27263709902763367,
                -0.17291997373104095,
                -0.4043801724910736,
                -0.05213577300310135,
                -0.2944944202899933,
                -0.18113762140274048,
                -0.06766645610332489,
                -0.28400784730911255,
                -0.4580148458480835,
                0.017891742289066315,
                -0.1984744369983673,
                -0.0613369420170784
            ],
            "w": [
                [
                    [
                        [
                            -1.3999426364898682,
                            0.4235691726207733
                        ],
                        [
                            0.2939895987510681,
                            -0.31562817096710205
                        ]
                    ],
                    [
                        [
                            0.09225456416606903,
                            0.2973839044570923
                        ],
                        [
                            0.09255906939506531,
                            -0.23717866837978363
                        ]
                    ],
                    [
                        [
                            0.5020074248313904,
                            0.029953686520457268
                        ],
                        [
                            0.11312940716743469,
                            -0.43231651186943054
                        ]
                    ],
                    [
                        [
                            0.1661207526922226,
                            -0.03600817173719406
                        ],
                        [
                            -0.28234294056892395,
                            -0.007017918396741152
                        ]
                    ],
                    [
                        [
                            -0.04996267706155777,
                            -0.070381760597229
                        ],
                        [
                            0.2699037492275238,
                            0.21461789309978485
                        ]
                    ],
                    [
                        [
                            0.2994479238986969,
                            -0.3365221917629242
                        ],
                        [
                            -0.32641303539276123,
                            -0.22549188137054443
                        ]
                    ],
                    [
                        [
                            -0.20096856355667114,
                            0.36294248700141907
                        ],
                        [
                            0.24918323755264282,
                            -0.05288005992770195
                        ]
                    ],
                    [
                        [
                            0.012103695422410965,
                            0.23520155251026154
                        ],
                        [
                            -0.09155284613370895,
                            0.029919279739260674
                        ]
                    ],
                    [
                        [
                            -0.029695607721805573,
                            -0.07010684162378311
                        ],
                        [
                            0.31926587224006653,
                            -0.6183596253395081
                        ]
                    ],
                    [
                        [
                            -0.30740925669670105,
                            0.037783633917570114
                        ],
                        [
                            0.18038196861743927,
                            -0.20587673783302307
                        ]
                    ],
                    [
                        [
                            -0.7646582126617432,
                            0.737514853477478
                        ],
                        [
                            0.11948633193969727,
                            -0.3500204086303711
                        ]
                    ],
                    [
                        [
                            -1.382714033126831,
                            0.14423440396785736
                        ],
                        [
                            -0.09387235343456268,
                            0.09249011427164078
                        ]
                    ],
                    [
                        [
                            -0.1442711502313614,
                            -0.15299764275550842
                        ],
                        [
                            0.1682874858379364,
                            -0.11058104783296585
                        ]
                    ],
                    [
                        [
                            0.31547343730926514,
                            0.11524209380149841
                        ],
                        [
                            0.11456787586212158,
                            -0.46748146414756775
                        ]
                    ],
                    [
                        [
                            0.005986137315630913,
                            0.6661791801452637
                        ],
                        [
                            -0.07577770203351974,
                            -0.47456464171409607
                        ]
                    ],
                    [
                        [
                            -0.039280641824007034,
                            0.4998653531074524
                        ],
                        [
                            0.44986793398857117,
                            -0.9629278779029846
                        ]
                    ],
                    [
                        [
                            0.18910039961338043,
                            0.2134309858083725
                        ],
                        [
                            0.08632282167673111,
                            0.07275623828172684
                        ]
                    ],
                    [
                        [
                            0.1561952829360962,
                            0.12887050211429596
                        ],
                        [
                            -0.24306035041809082,
                            0.20483331382274628
                        ]
                    ],
                    [
                        [
                            0.11614617705345154,
                            0.10458322614431381
                        ],
                        [
                            -0.0655081570148468,
                            -0.4483964145183563
                        ]
                    ],
                    [
                        [
                            -0.18645787239074707,
                            -0.10417573153972626
                        ],
                        [
                            -0.2855179011821747,
                            0.43702787160873413
                        ]
                    ],
                    [
                        [
                            1.04701828956604,
                            -0.43786826729774475
                        ],
                        [
                            0.1690273880958557,
                            0.2294824719429016
                        ]
                    ],
                    [
                        [
                            -0.04244042932987213,
                            -0.1194833442568779
                        ],
                        [
                            -0.13642457127571106,
                            0.29758480191230774
                        ]
                    ],
                    [
                        [
                            0.466866135597229,
                            -0.8514712452888489
                        ],
                        [
                            -0.2423342764377594,
                            0.4363093376159668
                        ]
                    ],
                    [
                        [
                            0.04045736417174339,
                            -0.32102346420288086
                        ],
                        [
                            0.05159414932131767,
                            0.023429375141859055
                        ]
                    ]
                ],
                [
                    [
                        [
                            -1.3111764192581177,
                            0.211421400308609
                        ],
                        [
                            0.31754806637763977,
                            0.21939478814601898
                        ]
                    ],
                    [
                        [
                            -0.19728438556194305,
                            -0.23930691182613373
                        ],
                        [
                            -0.06810084730386734,
                            0.05024302378296852
                        ]
                    ],
                    [
                        [
                            0.12658004462718964,
                            0.2789938151836395
                        ],
                        [
                            0.17342570424079895,
                            0.7880848050117493
                        ]
                    ],
                    [
                        [
                            -0.027470402419567108,
                            0.2625979781150818
                        ],
                        [
                            0.4665159285068512,
                            0.06296282261610031
                        ]
                    ],
                    [
                        [
                            0.08776715397834778,
                            -0.16265635192394257
                        ],
                        [
                            0.2986641526222229,
                            -0.23123788833618164
                        ]
                    ],
                    [
                        [
                            0.2592346668243408,
                            0.011911740526556969
                        ],
                        [
                            0.03871222212910652,
                            -0.34664031863212585
                        ]
                    ],
                    [
                        [
                            -0.46004894375801086,
                            0.374458909034729
                        ],
                        [
                            0.14301669597625732,
                            -0.5116170048713684
                        ]
                    ],
                    [
                        [
                            0.014291890896856785,
                            -0.22632314264774323
                        ],
                        [
                            0.08820085972547531,
                            -0.4049539268016815
                        ]
                    ],
                    [
                        [
                            0.1840486228466034,
                            -0.3254765272140503
                        ],
                        [
                            0.29076752066612244,
                            0.10383228957653046
                        ]
                    ],
                    [
                        [
                            0.20626938343048096,
                            -0.586908757686615
                        ],
                        [
                            -0.09524545073509216,
                            0.15066677331924438
                        ]
                    ],
                    [
                        [
                            -1.0404928922653198,
                            0.5603614449501038
                        ],
                        [
                            -0.288026362657547,
                            -0.8287385106086731
                        ]
                    ],
                    [
                        [
                            -1.1498836278915405,
                            0.4845546782016754
                        ],
                        [
                            -0.8010537624359131,
                            0.6814481616020203
                        ]
                    ],
                    [
                        [
                            0.036647140979766846,
                            0.08595223724842072
                        ],
                        [
                            0.0048654573038220406,
                            -0.11129789799451828
                        ]
                    ],
                    [
                        [
                            0.3281480669975281,
                            0.207439586520195
                        ],
                        [
                            -0.08242059499025345,
                            0.2108098566532135
                        ]
                    ],
                    [
                        [
                            -0.06325549632310867,
                            0.23920772969722748
                        ],
                        [
                            1.0159132480621338,
                            -0.19096890091896057
                        ]
                    ],
                    [
                        [
                            -0.5612087249755859,
                            0.3417871594429016
                        ],
                        [
                            0.7033538222312927,
                            0.0025071115233004093
                        ]
                    ],
                    [
                        [
                            0.11757650226354599,
                            -0.6488243937492371
                        ],
                        [
                            -0.35841041803359985,
                            0.40181243419647217
                        ]
                    ],
                    [
                        [
                            -0.4745200276374817,
                            0.3648996949195862
                        ],
                        [
                            0.004797990899533033,
                            0.3233303725719452
                        ]
                    ],
                    [
                        [
                            -0.028471406549215317,
                            -0.4587007761001587
                        ],
                        [
                            0.29270580410957336,
                            -0.002507715718820691
                        ]
                    ],
                    [
                        [
                            -0.346804678440094,
                            -0.5069026947021484
                        ],
                        [
                            -0.1005304828286171,
                            0.037907619029283524
                        ]
                    ],
                    [
                        [
                            0.8194422721862793,
                            0.22170527279376984
                        ],
                        [
                            0.09039974212646484,
                            -0.7359412312507629
                        ]
                    ],
                    [
                        [
                            -0.4395625591278076,
                            0.17691700160503387
                        ],
                        [
                            0.22785669565200806,
                            -0.046370696276426315
                        ]
                    ],
                    [
                        [
                            0.5317590236663818,
                            0.07838821411132812
                        ],
                        [
                            -0.48011115193367004,
                            0.3788347542285919
                        ]
                    ],
                    [
                        [
                            0.23266209661960602,
                            -0.14049765467643738
                        ],
                        [
                            -0.09269716590642929,
                            -0.4538141191005707
                        ]
                    ]
                ],
                [
                    [
                        [
                            0.4826599955558777,
                            0.4903043210506439
                        ],
                        [
                            0.27232712507247925,
                            -0.4438057839870453
                        ]
                    ],
                    [
                        [
                            -0.12314391136169434,
                            -0.10363592952489853
                        ],
                        [
                            0.043569210916757584,
                            0.8749043941497803
                        ]
                    ],
                    [
                        [
                            0.2754005491733551,
                            0.28966256976127625
                        ],
                        [
                            0.2078777253627777,
                            0.08634328842163086
                        ]
                    ],
                    [
                        [
                            0.16249342262744904,
                            0.11966271698474884
                        ],
                        [
                            0.32949379086494446,
                            -0.42320945858955383
                        ]
                    ],
                    [
                        [
                            -0.24324941635131836,
                            -0.7545900344848633
                        ],
                        [
                            -0.2512158751487732,
                            0.21892285346984863
                        ]
                    ],
                    [
                        [
                            -0.4745139181613922,
                            0.2922537624835968
                        ],
                        [
                            -0.5460451245307922,
                            -0.38335344195365906
                        ]
                    ],
                    [
                        [
                            1.4684685468673706,
                            0.23829393088817596
                        ],
                        [
                            0.012419445440173149,
                            0.0777817815542221
                        ]
                    ],
                    [
                        [
                            0.10674139857292175,
                            -0.06533367186784744
                        ],
                        [
                            -0.20732858777046204,
                            0.07778188586235046
                        ]
                    ],
                    [
                        [
                            0.5967859029769897,
                            0.19587229192256927
                        ],
                        [
                            -0.13155345618724823,
                            0.16848042607307434
                        ]
                    ],
                    [
                        [
                            0.08802098035812378,
                            0.38624441623687744
                        ],
                        [
                            -0.19229799509048462,
                            0.32487165927886963
                        ]
                    ],
                    [
                        [
                            1.0127129554748535,
                            -1.3564528226852417
                        ],
                        [
                            -1.128329873085022,
                            1.1423977613449097
                        ]
                    ],
                    [
                        [
                            0.5342086553573608,
                            0.24801956117153168
                        ],
                        [
                            0.4622424244880676,
                            -1.3481426239013672
                        ]
                    ],
                    [
                        [
                            -0.3891606032848358,
                            -0.20226359367370605
                        ],
                        [
                            -0.5064322352409363,
                            0.3167760670185089
                        ]
                    ],
                    [
                        [
                            -0.038012776523828506,
                            -0.2760896682739258
                        ],
                        [
                            -0.5381780862808228,
                            0.1905129849910736
                        ]
                    ],
                    [
                        [
                            -0.07361114025115967,
                            0.8389609456062317
                        ],
                        [
                            0.16218161582946777,
                            -0.6598837971687317
                        ]
                    ],
                    [
                        [
                            0.5765964388847351,
                            0.05846433341503143
                        ],
                        [
                            -1.0433763265609741,
                            0.23089146614074707
                        ]
                    ],
                    [
                        [
                            0.31740856170654297,
                            -0.38912510871887207
                        ],
                        [
                            0.02162093296647072,
                            0.006845191121101379
                        ]
                    ],
                    [
                        [
                            -0.2014964371919632,
                            -0.19515351951122284
                        ],
                        [
                            -0.5542876720428467,
                            0.17463357746601105
                        ]
                    ],
                    [
                        [
                            0.06714289635419846,
                            0.2589840590953827
                        ],
                        [
                            0.1592191904783249,
                            0.14507700502872467
                        ]
                    ],
                    [
                        [
                            0.22564634680747986,
                            -0.6080883741378784
                        ],
                        [
                            -0.06117381155490875,
                            -0.18086010217666626
                        ]
                    ],
                    [
                        [
                            -0.4759376049041748,
                            -1.0604424476623535
                        ],
                        [
                            -0.31679767370224,
                            1.364052653312683
                        ]
                    ],
                    [
                        [
                            -0.47737693786621094,
                            -0.561162531375885
                        ],
                        [
                            -0.5937147736549377,
                            0.18838344514369965
                        ]
                    ],
                    [
                        [
                            -1.0896834135055542,
                            -0.8337185978889465
                        ],
                        [
                            0.28467002511024475,
                            0.5174435377120972
                        ]
                    ],
                    [
                        [
                            -0.12006685137748718,
                            -0.08292628824710846
                        ],
                        [
                            0.4619736969470978,
                            -0.2042900174856186
                        ]
                    ]
                ],
                [
                    [
                        [
                            -0.17462781071662903,
                            -0.21017637848854065
                        ],
                        [
                            -0.20789965987205505,
                            -0.1440812051296234
                        ]
                    ],
                    [
                        [
                            0.06447292119264603,
                            -0.10836299508810043
                        ],
                        [
                            -0.0007700406131334603,
                            -0.13693952560424805
                        ]
                    ],
                    [
                        [
                            -0.18059049546718597,
                            -0.10147889703512192
                        ],
                        [
                            -0.38845592737197876,
                            0.0462508425116539
                        ]
                    ],
                    [
                        [
                            -0.13949370384216309,
                            0.053638096898794174
                        ],
                        [
                            0.062310878187417984,
                            0.029424184933304787
                        ]
                    ],
                    [
                        [
                            0.25508591532707214,
                            0.1494206339120865
                        ],
                        [
                            0.10011667758226395,
                            -0.012085728347301483
                        ]
                    ],
                    [
                        [
                            -0.01090816780924797,
                            -0.02249748818576336
                        ],
                        [
                            0.0904899388551712,
                            0.1482924371957779
                        ]
                    ],
                    [
                        [
                            -1.5609618913003942e-06,
                            -0.22711679339408875
                        ],
                        [
                            0.36505240201950073,
                            -0.09137967228889465
                        ]
                    ],
                    [
                        [
                            0.19835422933101654,
                            -0.027897970750927925
                        ],
                        [
                            -0.45353201031684875,
                            -0.33543235063552856
                        ]
                    ],
                    [
                        [
                            -0.13741295039653778,
                            -0.21176177263259888
                        ],
                        [
                            -0.31160545349121094,
                            -0.14320862293243408
                        ]
                    ],
                    [
                        [
                            -0.12504547834396362,
                            -0.3655341863632202
                        ],
                        [
                            0.0009013931266963482,
                            0.0824221670627594
                        ]
                    ],
                    [
                        [
                            0.15798503160476685,
                            -0.028971832245588303
                        ],
                        [
                            -0.13884812593460083,
                            0.08200926333665848
                        ]
                    ],
                    [
                        [
                            -0.10200591385364532,
                            -0.12831120193004608
                        ],
                        [
                            0.0742177963256836,
                            0.10145247727632523
                        ]
                    ],
                    [
                        [
                            -0.0929088220000267,
                            0.27107518911361694
                        ],
                        [
                            -0.18336892127990723,
                            -0.012675148434937
                        ]
                    ],
                    [
                        [
                            0.210831418633461,
                            0.1061808243393898
                        ],
                        [
                            -0.09468605369329453,
                            0.2666966915130615
                        ]
                    ],
                    [
                        [
                            0.2593163847923279,
                            0.11441618949174881
                        ],
                        [
                            0.11362418532371521,
                            -0.010597056709229946
                        ]
                    ],
                    [
                        [
                            -0.1303759217262268,
                            -0.11301074922084808
                        ],
                        [
                            -0.0836329311132431,
                            0.15938466787338257
                        ]
                    ],
                    [
                        [
                            0.012035263702273369,
                            0.1297077238559723
                        ],
                        [
                            -0.2750970423221588,
                            -0.04183250293135643
                        ]
                    ],
                    [
                        [
                            -0.09551796317100525,
                            -0.028568649664521217
                        ],
                        [
                            -0.034834396094083786,
                            -0.21171921491622925
                        ]
                    ],
                    [
                        [
                            0.15827730298042297,
                            0.18820820748806
                        ],
                        [
                            -0.11692993342876434,
                            0.2482610046863556
                        ]
                    ],
                    [
                        [
                            0.024874592199921608,
                            -0.14216284453868866
                        ],
                        [
                            -0.024203680455684662,
                            0.3395449221134186
                        ]
                    ],
                    [
                        [
                            -0.46057388186454773,
                            -0.05794224888086319
                        ],
                        [
                            -0.3338845670223236,
                            -0.22473053634166718
                        ]
                    ],
                    [
                        [
                            -0.10803572833538055,
                            -0.12434728443622589
                        ],
                        [
                            0.11258604377508163,
                            0.32451993227005005
                        ]
                    ],
                    [
                        [
                            -0.14765532314777374,
                            0.09677253663539886
                        ],
                        [
                            -0.06966836750507355,
                            0.23871831595897675
                        ]
                    ],
                    [
                        [
                            -0.2274748980998993,
                            -0.12724798917770386
                        ],
                        [
                            0.08752959221601486,
                            0.2013867050409317
                        ]
                    ]
                ],
                [
                    [
                        [
                            0.698664128780365,
                            0.5672844648361206
                        ],
                        [
                            -0.3099360764026642,
                            -0.04122864827513695
                        ]
                    ],
                    [
                        [
                            -0.17242871224880219,
                            0.17949779331684113
                        ],
                        [
                            0.07988578081130981,
                            0.25938093662261963
                        ]
                    ],
                    [
                        [
                            0.18350084125995636,
                            -0.07776838541030884
                        ],
                        [
                            0.23886331915855408,
                            -0.008748319000005722
                        ]
                    ],
                    [
                        [
                            -0.5023144483566284,
                            0.2165139615535736
                        ],
                        [
                            -0.14951641857624054,
                            0.29715028405189514
                        ]
                    ],
                    [
                        [
                            -0.36123788356781006,
                            0.6075604557991028
                        ],
                        [
                            -0.25007644295692444,
                            -0.7117202281951904
                        ]
                    ],
                    [
                        [
                            -0.6017494797706604,
                            -0.24324774742126465
                        ],
                        [
                            -0.06811890006065369,
                            0.32854369282722473
                        ]
                    ],
                    [
                        [
                            0.07494419068098068,
                            -0.039832405745983124
                        ],
                        [
                            -0.23973536491394043,
                            0.4689755141735077
                        ]
                    ],
                    [
                        [
                            -0.09845675528049469,
                            0.21766167879104614
                        ],
                        [
                            0.31570765376091003,
                            0.17249856889247894
                        ]
                    ],
                    [
                        [
                            -0.47532323002815247,
                            -0.11433670669794083
                        ],
                        [
                            0.0033120319712907076,
                            -0.7284101247787476
                        ]
                    ],
                    [
                        [
                            -0.19030338525772095,
                            -0.05110463500022888
                        ],
                        [
                            0.1445399522781372,
                            -0.20211949944496155
                        ]
                    ],
                    [
                        [
                            1.072218894958496,
                            0.1111811175942421
                        ],
                        [
                            -0.6120792627334595,
                            0.9836887121200562
                        ]
                    ],
                    [
                        [
                            1.2595093250274658,
                            0.5497281551361084
                        ],
                        [
                            0.738394558429718,
                            -0.4762985408306122
                        ]
                    ],
                    [
                        [
                            -0.30003711581230164,
                            0.03827355057001114
                        ],
                        [
                            0.058423954993486404,
                            0.4848431348800659
                        ]
                    ],
                    [
                        [
                            -0.06622283905744553,
                            -0.31063148379325867
                        ],
                        [
                            -0.07383733242750168,
                            0.4593448042869568
                        ]
                    ],
                    [
                        [
                            -0.06835951656103134,
                            -0.13299421966075897
                        ],
                        [
                            -0.2929469347000122,
                            0.5906815528869629
                        ]
                    ],
                    [
                        [
                            0.4077167510986328,
                            -0.08836641162633896
                        ],
                        [
                            -1.1620675325393677,
                            -0.20395049452781677
                        ]
                    ],
                    [
                        [
                            0.35193610191345215,
                            0.34876251220703125
                        ],
                        [
                            0.24418757855892181,
                            -0.27622345089912415
                        ]
                    ],
                    [
                        [
                            -0.37869954109191895,
                            0.16306297481060028
                        ],
                        [
                            0.0634235069155693,
                            0.2568964660167694
                        ]
                    ],
                    [
                        [
                            0.11441253125667572,
                            -0.2767044007778168
                        ],
                        [
                            0.04527852311730385,
                            -0.7978641986846924
                        ]
                    ],
                    [
                        [
                            0.6937829256057739,
                            0.6429914236068726
                        ],
                        [
                            -0.23752273619174957,
                            0.09442263096570969
                        ]
                    ],
                    [
                        [
                            1.3211653232574463,
                            -0.9646073579788208
                        ],
                        [
                            -0.7674984335899353,
                            1.037933588027954
                        ]
                    ],
                    [
                        [
                            -0.5790217518806458,
                            -0.3188287615776062
                        ],
                        [
                            -0.26227107644081116,
                            -0.3032539188861847
                        ]
                    ],
                    [
                        [
                            -0.3504643142223358,
                            -0.4368465542793274
                        ],
                        [
                            0.24500562250614166,
                            -0.3403781056404114
                        ]
                    ],
                    [
                        [
                            -0.04675811529159546,
                            -0.2692009508609772
                        ],
                        [
                            -0.025243429467082024,
                            -0.23550066351890564
                        ]
                    ]
                ],
                [
                    [
                        [
                            -0.9689897298812866,
                            0.06226447969675064
                        ],
                        [
                            0.22390246391296387,
                            0.2853224575519562
                        ]
                    ],
                    [
                        [
                            -0.3947829306125641,
                            0.03795521706342697
                        ],
                        [
                            0.21705102920532227,
                            -0.0732031911611557
                        ]
                    ],
                    [
                        [
                            -1.6744381189346313,
                            -0.31053271889686584
                        ],
                        [
                            0.13973800837993622,
                            0.1553208827972412
                        ]
                    ],
                    [
                        [
                            -0.054689694195985794,
                            -0.20821937918663025
                        ],
                        [
                            -0.14161737263202667,
                            -0.01790979504585266
                        ]
                    ],
                    [
                        [
                            0.4650110602378845,
                            -0.2241317182779312
                        ],
                        [
                            0.03579985350370407,
                            -0.07671146094799042
                        ]
                    ],
                    [
                        [
                            1.4847819805145264,
                            0.9630555510520935
                        ],
                        [
                            -0.26259809732437134,
                            -0.44102829694747925
                        ]
                    ],
                    [
                        [
                            -0.05860672518610954,
                            0.629252552986145
                        ],
                        [
                            0.10104012489318848,
                            -0.3371816873550415
                        ]
                    ],
                    [
                        [
                            0.1346137672662735,
                            0.008874126709997654
                        ],
                        [
                            -0.07709068059921265,
                            0.1862427145242691
                        ]
                    ],
                    [
                        [
                            0.11634621769189835,
                            0.05421172454953194
                        ],
                        [
                            -0.1484905481338501,
                            -0.1277959644794464
                        ]
                    ],
                    [
                        [
                            -0.042188651859760284,
                            0.14542965590953827
                        ],
                        [
                            3.4726639569271356e-05,
                            0.2523594796657562
                        ]
                    ],
                    [
                        [
                            -0.5167698264122009,
                            -0.34979069232940674
                        ],
                        [
                            0.001666523632593453,
                            0.4190051853656769
                        ]
                    ],
                    [
                        [
                            -1.0958424806594849,
                            -0.19501140713691711
                        ],
                        [
                            -0.11983799934387207,
                            0.5285067558288574
                        ]
                    ],
                    [
                        [
                            -0.1161465123295784,
                            0.003051819745451212
                        ],
                        [
                            0.32596999406814575,
                            0.0031767473556101322
                        ]
                    ],
                    [
                        [
                            -0.1391088366508484,
                            0.18090863525867462
                        ],
                        [
                            0.1383916735649109,
                            -0.08972182124853134
                        ]
                    ],
                    [
                        [
                            0.1793089509010315,
                            0.21077869832515717
                        ],
                        [
                            0.004382673185318708,
                            -0.35473930835723877
                        ]
                    ],
                    [
                        [
                            -0.4140619933605194,
                            -0.4662621319293976
                        ],
                        [
                            0.17298012971878052,
                            0.1933838427066803
                        ]
                    ],
                    [
                        [
                            -0.1339349001646042,
                            0.005745797883719206
                        ],
                        [
                            -0.2977774143218994,
                            0.23756623268127441
                        ]
                    ],
                    [
                        [
                            -0.053619883954524994,
                            0.04910333454608917
                        ],
                        [
                            0.07124203443527222,
                            -0.32656484842300415
                        ]
                    ],
                    [
                        [
                            0.1890890747308731,
                            -0.34319302439689636
                        ],
                        [
                            0.049307167530059814,
                            -0.29517900943756104
                        ]
                    ],
                    [
                        [
                            -0.5311961770057678,
                            0.15128257870674133
                        ],
                        [
                            0.3262016475200653,
                            0.31122809648513794
                        ]
                    ],
                    [
                        [
                            0.20279505848884583,
                            -0.8311744928359985
                        ],
                        [
                            0.13382555544376373,
                            0.5370587110519409
                        ]
                    ],
                    [
                        [
                            -0.3183315694332123,
                            -0.16209910809993744
                        ],
                        [
                            0.10193958878517151,
                            -0.06401275098323822
                        ]
                    ],
                    [
                        [
                            -0.033828385174274445,
                            -0.5347018837928772
                        ],
                        [
                            -0.16888362169265747,
                            -0.04896653816103935
                        ]
                    ],
                    [
                        [
                            -0.003212675452232361,
                            0.20259597897529602
                        ],
                        [
                            -0.10152209550142288,
                            -0.22530074417591095
                        ]
                    ]
                ],
                [
                    [
                        [
                            -1.0254067182540894,
                            -1.088569164276123
                        ],
                        [
                            0.21319973468780518,
                            0.8884096741676331
                        ]
                    ],
                    [
                        [
                            -0.08250472694635391,
                            -0.02761363424360752
                        ],
                        [
                            -0.025269336998462677,
                            0.2003013789653778
                        ]
                    ],
                    [
                        [
                            -0.04847779497504234,
                            -0.14228101074695587
                        ],
                        [
                            -0.47413164377212524,
                            0.9515561461448669
                        ]
                    ],
                    [
                        [
                            0.06417997926473618,
                            -0.08269531279802322
                        ],
                        [
                            -0.013796363025903702,
                            0.026544375345110893
                        ]
                    ],
                    [
                        [
                            -0.13515347242355347,
                            0.2588939368724823
                        ],
                        [
                            0.0696810632944107,
                            -0.13996686041355133
                        ]
                    ],
                    [
                        [
                            0.7238292694091797,
                            0.7867019176483154
                        ],
                        [
                            -0.25944843888282776,
                            -0.1346946656703949
                        ]
                    ],
                    [
                        [
                            -0.07770642638206482,
                            0.10162288695573807
                        ],
                        [
                            -0.17360354959964752,
                            0.02347021922469139
                        ]
                    ],
                    [
                        [
                            -0.0641152635216713,
                            -0.36634305119514465
                        ],
                        [
                            -0.07652503997087479,
                            0.35001593828201294
                        ]
                    ],
                    [
                        [
                            -0.06117262318730354,
                            -0.22941894829273224
                        ],
                        [
                            -0.10248836874961853,
                            0.1653384119272232
                        ]
                    ],
                    [
                        [
                            0.12633225321769714,
                            -0.1918509602546692
                        ],
                        [
                            -0.23487043380737305,
                            0.22570866346359253
                        ]
                    ],
                    [
                        [
                            -0.46537071466445923,
                            -0.5762736797332764
                        ],
                        [
                            0.685184121131897,
                            -0.0238046757876873
                        ]
                    ],
                    [
                        [
                            -0.14242562651634216,
                            -0.2804860472679138
                        ],
                        [
                            0.10135143250226974,
                            0.07622450590133667
                        ]
                    ],
                    [
                        [
                            0.22130721807479858,
                            -0.15192492306232452
                        ],
                        [
                            -0.18866115808486938,
                            0.26499900221824646
                        ]
                    ],
                    [
                        [
                            -0.22136671841144562,
                            0.028648389503359795
                        ],
                        [
                            0.12195904552936554,
                            -0.1750873178243637
                        ]
                    ],
                    [
                        [
                            -0.04350368678569794,
                            -0.18883870542049408
                        ],
                        [
                            0.09403084218502045,
                            0.005603369791060686
                        ]
                    ],
                    [
                        [
                            -1.3039522171020508,
                            -0.4403966963291168
                        ],
                        [
                            -0.17146466672420502,
                            0.6724787950515747
                        ]
                    ],
                    [
                        [
                            0.06620678305625916,
                            0.18559613823890686
                        ],
                        [
                            -0.1293887048959732,
                            0.010554363019764423
                        ]
                    ],
                    [
                        [
                            -0.008334949612617493,
                            0.011489608325064182
                        ],
                        [
                            0.09062635898590088,
                            -0.21860277652740479
                        ]
                    ],
                    [
                        [
                            0.042621638625860214,
                            0.0942445918917656
                        ],
                        [
                            -0.12624315917491913,
                            0.3381495177745819
                        ]
                    ],
                    [
                        [
                            -0.06647665798664093,
                            0.026366591453552246
                        ],
                        [
                            0.13551659882068634,
                            -0.4732397198677063
                        ]
                    ],
                    [
                        [
                            -1.339365005493164,
                            -0.3538270592689514
                        ],
                        [
                            0.5960764288902283,
                            0.25867417454719543
                        ]
                    ],
                    [
                        [
                            -0.02649790421128273,
                            0.47851163148880005
                        ],
                        [
                            0.0268863458186388,
                            -0.29920631647109985
                        ]
                    ],
                    [
                        [
                            0.2982614040374756,
                            0.4864583909511566
                        ],
                        [
                            -0.4861449897289276,
                            -0.36891821026802063
                        ]
                    ],
                    [
                        [
                            0.21151746809482574,
                            -0.08713479340076447
                        ],
                        [
                            0.14740844070911407,
                            0.00941019132733345
                        ]
                    ]
                ],
                [
                    [
                        [
                            -0.19072049856185913,
                            -0.018882492557168007
                        ],
                        [
                            -0.09846214950084686,
                            0.012400690466165543
                        ]
                    ],
                    [
                        [
                            -0.33659303188323975,
                            -0.04663654416799545
                        ],
                        [
                            -0.07849104702472687,
                            -0.06147246062755585
                        ]
                    ],
                    [
                        [
                            0.12703722715377808,
                            -0.16694077849388123
                        ],
                        [
                            -0.2056407630443573,
                            -0.2752891182899475
                        ]
                    ],
                    [
                        [
                            0.20212297141551971,
                            -0.08557500690221786
                        ],
                        [
                            0.09748463332653046,
                            0.05489369481801987
                        ]
                    ],
                    [
                        [
                            0.31477776169776917,
                            0.2055942863225937
                        ],
                        [
                            0.4099389612674713,
                            0.05441257357597351
                        ]
                    ],
                    [
                        [
                            -0.12244417518377304,
                            -0.008614780381321907
                        ],
                        [
                            -0.028397388756275177,
                            -0.17412561178207397
                        ]
                    ],
                    [
                        [
                            0.04653378576040268,
                            0.1507686972618103
                        ],
                        [
                            0.22422663867473602,
                            0.13690517842769623
                        ]
                    ],
                    [
                        [
                            -0.14617766439914703,
                            0.03579791262745857
                        ],
                        [
                            -0.2553882896900177,
                            -0.09132597595453262
                        ]
                    ],
                    [
                        [
                            0.17163503170013428,
                            -0.1403876692056656
                        ],
                        [
                            -0.17815394699573517,
                            -0.12902411818504333
                        ]
                    ],
                    [
                        [
                            0.11758781969547272,
                            0.10893663018941879
                        ],
                        [
                            -0.029511671513319016,
                            -0.20169034600257874
                        ]
                    ],
                    [
                        [
                            0.05093502998352051,
                            -0.13498719036579132
                        ],
                        [
                            0.25248390436172485,
                            0.13338351249694824
                        ]
                    ],
                    [
                        [
                            0.2698250412940979,
                            0.1120695099234581
                        ],
                        [
                            -0.060423169285058975,
                            -0.10673234611749649
                        ]
                    ],
                    [
                        [
                            -0.016826612874865532,
                            0.06777337938547134
                        ],
                        [
                            0.07257620245218277,
                            -0.16205309331417084
                        ]
                    ],
                    [
                        [
                            0.24451132118701935,
                            -0.08814293891191483
                        ],
                        [
                            -0.02312994748353958,
                            -0.2426689714193344
                        ]
                    ],
                    [
                        [
                            0.2564818263053894,
                            -0.12525318562984467
                        ],
                        [
                            0.1343376338481903,
                            0.3722034692764282
                        ]
                    ],
                    [
                        [
                            -0.050317056477069855,
                            -0.0306708961725235
                        ],
                        [
                            -0.053889352828264236,
                            -0.26188236474990845
                        ]
                    ],
                    [
                        [
                            0.09397353231906891,
                            -0.12103041261434555
                        ],
                        [
                            0.07513538002967834,
                            0.16388297080993652
                        ]
                    ],
                    [
                        [
                            -0.13807445764541626,
                            -0.0921124592423439
                        ],
                        [
                            -0.05986909195780754,
                            0.14448896050453186
                        ]
                    ],
                    [
                        [
                            0.06444603949785233,
                            0.12103624641895294
                        ],
                        [
                            0.28077325224876404,
                            0.20740124583244324
                        ]
                    ],
                    [
                        [
                            0.023441262543201447,
                            -0.005875975824892521
                        ],
                        [
                            -0.03933481127023697,
                            0.05374469608068466
                        ]
                    ],
                    [
                        [
                            0.015325043350458145,
                            -0.10214093327522278
                        ],
                        [
                            -0.0038021113723516464,
                            -0.10126780718564987
                        ]
                    ],
                    [
                        [
                            0.15885283052921295,
                            0.40457791090011597
                        ],
                        [
                            0.035791873931884766,
                            0.188460573554039
                        ]
                    ],
                    [
                        [
                            -0.02822655439376831,
                            -0.06953799724578857
                        ],
                        [
                            -0.12731541693210602,
