{
    "CNN_input_1": [
        {
            "b": [
                -0.024904336780309677,
                0.13605977594852448,
                0.20026135444641113,
                0.07398490607738495,
                -0.18399736285209656,
                0.15611957013607025,
                0.05142800882458687,
                0.09206178784370422
            ],
            "w": [
                [
                    [
                        [
                            -0.061999883502721786,
                            0.25501811504364014
                        ],
                        [
                            -0.39359718561172485,
                            0.10828127712011337
                        ]
                    ]
                ],
                [
                    [
                        [
                            -0.3936517536640167,
                            -0.06688229739665985
                        ],
                        [
                            0.03270578384399414,
                            -0.2997371256351471
                        ]
                    ]
                ],
                [
                    [
                        [
                            -0.12632350623607635,
                            -0.4288065731525421
                        ],
                        [
                            -0.07742774486541748,
                            -0.5349953174591064
                        ]
                    ]
                ],
                [
                    [
                        [
                            -0.22153443098068237,
                            -0.3939007818698883
                        ],
                        [
                            0.19072985649108887,
                            -0.239217147231102
                        ]
                    ]
                ],
                [
                    [
                        [
                            0.6166417002677917,
                            0.2234460860490799
                        ],
                        [
                            0.31895601749420166,
                            0.08638545870780945
                        ]
                    ]
                ],
                [
                    [
                        [
                            0.09332676976919174,
                            0.14089424908161163
                        ],
                        [
                            0.32415449619293213,
                            -0.3884226977825165
                        ]
                    ]
                ],
                [
                    [
                        [
                            -0.526360273361206,
                            0.1855161041021347
                        ],
                        [
                            0.09942198544740677,
                            -0.08153318613767624
                        ]
                    ]
                ],
                [
                    [
                        [
                            -0.4475724399089813,
                            0.17934975028038025
                        ],
                        [
                            -0.2376752495765686,
                            -0.07777504622936249
                        ]
                    ]
                ]
            ]
        }
    ],
    "CNN_input_2": [
        {
            "b": [
                0.8998372554779053,
                0.48686400055885315,
                0.020269036293029785,
                0.40536972880363464,
                0.031100211665034294,
                0.2687017619609833,
                0.2468070387840271,
                0.559754490852356
            ],
            "w": [
                [
                    [
                        [
                            -0.9209750890731812
                        ]
                    ],
                    [
                        [
                            0.5689793229103088
                        ]
                    ],
                    [
                        [
                            -0.20646309852600098
                        ]
                    ],
                    [
                        [
                            -0.9054024815559387
                        ]
                    ],
                    [
                        [
                            -0.5783367156982422
                        ]
                    ],
                    [
                        [
                            -0.1324964165687561
                        ]
                    ]
                ],
                [
                    [
                        [
                            -0.46814969182014465
                        ]
                    ],
                    [
                        [
                            -0.18593361973762512
                        ]
                    ],
                    [
                        [
                            0.3690492510795593
                        ]
                    ],
                    [
                        [
                            -0.47774359583854675
                        ]
                    ],
                    [
                        [
                            -1.2806291580200195
                        ]
                    ],
                    [
                        [
                            -0.6812795400619507
                        ]
                    ]
                ],
                [
                    [
                        [
                            -0.03342512249946594
                        ]
                    ],
                    [
                        [
                            0.7495042085647583
                        ]
                    ],
                    [
                        [
                            -0.112877257168293
                        ]
                    ],
                    [
                        [
                            -0.00986497662961483
                        ]
                    ],
                    [
                        [
                            -0.6401609182357788
                        ]
                    ],
                    [
                        [
                            -0.8364660143852234
                        ]
                    ]
                ],
                [
                    [
                        [
                            -0.42203065752983093
                        ]
                    ],
                    [
                        [
                            -1.3274178504943848
                        ]
                    ],
                    [
                        [
                            0.35042327642440796
                        ]
                    ],
                    [
                        [
                            -0.39826011657714844
                        ]
                    ],
                    [
                        [
                            1.302126169204712
                        ]
                    ],
                    [
                        [
                            -0.3764478862285614
                        ]
                    ]
                ],
                [
                    [
                        [
                            -0.04541937634348869
                        ]
                    ],
                    [
                        [
                            -0.33115798234939575
                        ]
                    ],
                    [
                        [
                            -0.43439432978630066
                        ]
                    ],
                    [
                        [
                            -0.046448975801467896
                        ]
                    ],
                    [
                        [
                            0.9659534096717834
                        ]
                    ],
                    [
                        [
                            -0.32298776507377625
                        ]
                    ]
                ],
                [
                    [
                        [
                            -0.27609437704086304
                        ]
                    ],
                    [
                        [
                            -0.2594663202762604
                        ]
                    ],
                    [
                        [
                            -0.39328640699386597
                        ]
                    ],
                    [
                        [
                            -0.2742398679256439
                        ]
                    ],
                    [
                        [
                            0.42717230319976807
                        ]
                    ],
                    [
                        [
                            -1.0921913385391235
                        ]
                    ]
                ],
                [
                    [
                        [
                            -0.24063897132873535
                        ]
                    ],
                    [
                        [
                            0.5812631845474243
                        ]
                    ],
                    [
                        [
                            -0.3767942488193512
                        ]
                    ],
                    [
                        [
                            -0.24883650243282318
                        ]
                    ],
                    [
                        [
                            0.5748758316040039
                        ]
                    ],
                    [
                        [
                            0.4521998465061188
                        ]
                    ]
                ],
                [
                    [
                        [
                            -0.5666054487228394
                        ]
                    ],
                    [
                        [
                            0.07795652747154236
                        ]
                    ],
                    [
                        [
                            -0.196210116147995
                        ]
                    ],
                    [
                        [
                            -0.5422131419181824
                        ]
                    ],
                    [
                        [
                            0.463077187538147
                        ]
                    ],
                    [
                        [
                            -0.03451327979564667
                        ]
                    ]
                ]
            ]
        }
    ],
    "CNN_stage_2": [
        {
            "b": [
                -0.1616295427083969,
                -0.046829454600811005,
                -0.008767900057137012,
                -0.004928073845803738,
                -0.027389535680413246,
                -0.0025904658250510693,
                -0.005282603669911623,
                -0.013010526075959206
            ],
            "w": [
                [
                    [
                        [
                            -0.5785856246948242,
                            -0.4333197772502899
                        ],
                        [
                            -0.024566521868109703,
                            -0.19057990610599518
                        ]
                    ],
                    [
                        [
                            0.1868346929550171,
                            -0.2704024612903595
                        ],
                        [
                            -0.17418812215328217,
                            0.13317695260047913
                        ]
                    ],
                    [
                        [
                            -0.3839627802371979,
                            -0.07132845371961594
                        ],
                        [
                            -0.013526818715035915,
                            -0.16349108517169952
                        ]
                    ],
                    [
                        [
                            0.12403073161840439,
                            -0.7136611342430115
                        ],
                        [
                            -0.42261117696762085,
                            0.3065144121646881
                        ]
                    ],
                    [
                        [
                            0.4697481095790863,
                            0.36511218547821045
                        ],
                        [
                            0.0796973779797554,
                            0.5945591330528259
                        ]
                    ],
                    [
                        [
                            0.5476213097572327,
                            -0.48211824893951416
                        ],
                        [
                            -0.1306362748146057,
                            -0.44342923164367676
                        ]
                    ],
                    [
                        [
                            0.35798028111457825,
                            -0.343265175819397
                        ],
                        [
                            -0.003314868314191699,
                            0.20197412371635437
                        ]
                    ],
                    [
                        [
                            -0.220631942152977,
                            -0.29833558201789856
                        ],
                        [
                            0.5734386444091797,
                            -0.07127749174833298
                        ]
                    ]
                ],
                [
                    [
                        [
                            0.52815842628479,
                            0.6733839511871338
                        ],
                        [
                            0.8255882263183594,
                            0.7110390663146973
                        ]
                    ],
                    [
                        [
                            0.7585344314575195,
                            -2.045146942138672
                        ],
                        [
                            -0.5619769096374512,
                            -0.19205383956432343
                        ]
                    ],
                    [
                        [
                            1.4281022548675537,
                            1.0788054466247559
                        ],
                        [
                            1.9159786701202393,
                            0.056261420249938965
                        ]
                    ],
                    [
                        [
                            1.6920490264892578,
                            -0.1826666295528412
                        ],
                        [
                            0.4738162159919739,
                            -0.11248436570167542
                        ]
                    ],
                    [
                        [
                            -1.974934458732605,
                            -1.4852550029754639
                        ],
                        [
                            -0.6250458359718323,
                            1.2448593378067017
                        ]
                    ],
                    [
                        [
                            -1.979406714439392,
                            -0.25231462717056274
                        ],
                        [
                            -1.7483829259872437,
                            -1.1255513429641724
                        ]
                    ],
                    [
                        [
                            -0.6960846185684204,
                            0.7362300157546997
                        ],
                        [
                            1.9774640798568726,
                            2.697263717651367
                        ]
                    ],
                    [
                        [
                            1.766748070716858,
                            -1.702846646308899
                        ],
                        [
                            -0.007892988622188568,
                            -1.142198085784912
                        ]
                    ]
                ],
                [
                    [
                        [
                            0.2565007507801056,
                            0.034036315977573395
                        ],
                        [
                            1.1855965852737427,
                            -0.9135378003120422
                        ]
                    ],
                    [
                        [
                            0.10076490789651871,
                            0.04604126140475273
                        ],
                        [
                            -1.7484244108200073,
                            1.843992829322815
                        ]
                    ],
                    [
                        [
                            -0.07537662237882614,
                            -2.4837167263031006
                        ],
                        [
                            -0.17149055004119873,
                            1.9741631746292114
                        ]
                    ],
                    [
                        [
                            -0.07015644758939743,
                            0.07809094339609146
                        ],
                        [
                            -1.3570971488952637,
                            1.3894875049591064
                        ]
                    ],
                    [
                        [
                            0.6517843008041382,
                            0.0031188614666461945
                        ],
                        [
                            -1.7372314929962158,
                            0.11617660522460938
                        ]
                    ],
                    [
                        [
                            0.8619782328605652,
                            -0.6008560061454773
                        ],
                        [
                            -2.465907096862793,
                            0.14893656969070435
                        ]
                    ],
                    [
                        [
                            -0.722161591053009,
                            -0.440816730260849
                        ],
                        [
                            -0.2850320041179657,
                            -1.184090256690979
                        ]
                    ],
                    [
                        [
                            -0.037384096533060074,
                            -1.3448392152786255
                        ],
                        [
                            4.401484966278076,
                            -0.3768711984157562
                        ]
                    ]
                ],
                [
                    [
                        [
                            -0.7632264494895935,
                            0.4243090748786926
                        ],
                        [
                            0.7032104134559631,
                            -0.015113498084247112
                        ]
                    ],
                    [
                        [
                            0.9684105515480042,
                            -1.2507781982421875
                        ],
                        [
                            -1.261578917503357,
                            -0.40181127190589905
                        ]
                    ],
                    [
                        [
                            1.3496993780136108,
                            -0.6534336805343628
                        ],
                        [
                            1.1656725406646729,
                            -0.08897750824689865
                        ]
                    ],
                    [
                        [
                            0.3380691409111023,
                            0.16767768561840057
                        ],
                        [
                            0.0500679537653923,
                            0.29426974058151245
                        ]
                    ],
                    [
                        [
                            -0.008504792116582394,
                            -1.0458229780197144
                        ],
                        [
                            -0.7678377032279968,
                            -0.04776241257786751
                        ]
                    ],
                    [
                        [
                            0.46679848432540894,
                            0.2872336506843567
                        ],
                        [
                            -0.6245437860488892,
                            -0.1470821499824524
                        ]
                    ],
                    [
                        [
                            2.3824641704559326,
                            0.8878649473190308
                        ],
                        [
                            1.4365030527114868,
                            0.6767873764038086
                        ]
                    ],
                    [
                        [
                            -1.1030247211456299,
                            -0.8546308875083923
                        ],
                        [
                            -0.2676314413547516,
                            -0.1878306120634079
                        ]
                    ]
                ],
                [
                    [
                        [
                            0.325155645608902,
                            0.6642774343490601
                        ],
                        [
                            0.2954082190990448,
                            0.30441269278526306
                        ]
                    ],
                    [
                        [
                            -0.6803840398788452,
                            -2.678226947784424
                        ],
                        [
                            0.27132633328437805,
                            0.5406413674354553
                        ]
                    ],
                    [
                        [
                            -2.6598527431488037,
                            -0.765722930431366
                        ],
                        [
                            -1.3434031009674072,
                            1.5426729917526245
                        ]
                    ],
                    [
                        [
                            -0.28300103545188904,
                            -2.319058895111084
                        ],
                        [
                            -0.4022907316684723,
                            0.01500758808106184
                        ]
                    ],
                    [
                        [
                            2.559690237045288,
                            1.0684782266616821
                        ],
                        [
                            -0.9321345686912537,
                            -2.260298728942871
                        ]
                    ],
                    [
                        [
                            0.5653709173202515,
                            -1.1501168012619019
                        ],
                        [
                            -0.35653579235076904,
                            -0.1622648984193802
                        ]
                    ],
                    [
                        [
                            -2.3118364810943604,
                            0.6100317239761353
                        ],
                        [
                            -4.864588737487793,
                            3.1096913814544678
                        ]
                    ],
                    [
                        [
                            -0.2999935448169708,
                            0.21496279537677765
                        ],
                        [
                            -0.2671298682689667,
                            1.4226957559585571
                        ]
                    ]
                ],
                [
                    [
                        [
                            0.2042236328125,
                            -0.263182133436203
                        ],
                        [
                            -0.6438852548599243,
                            0.028072232380509377
                        ]
                    ],
                    [
                        [
                            -1.3586634397506714,
                            1.6665343046188354
                        ],
                        [
                            0.07991518080234528,
                            -0.011727843433618546
                        ]
                    ],
                    [
                        [
                            -0.3131783902645111,
                            0.8718432784080505
                        ],
                        [
                            0.9635159373283386,
                            -0.7678489685058594
                        ]
                    ],
                    [
                        [
                            0.15433816611766815,
                            0.869090735912323
                        ],
                        [
                            -0.8206114768981934,
                            0.19294768571853638
                        ]
                    ],
                    [
                        [
                            1.7732264995574951,
                            -0.23401892185211182
                        ],
                        [
                            1.425169587135315,
                            0.9869141578674316
                        ]
                    ],
                    [
                        [
                            0.9500564932823181,
                            0.8793178200721741
                        ],
                        [
                            -0.0010320274159312248,
                            0.4217601716518402
                        ]
                    ],
                    [
                        [
                            1.3347580432891846,
                            -0.10939320176839828
                        ],
                        [
                            -0.0509539358317852,
                            -0.9499340653419495
                        ]
                    ],
                    [
                        [
                            -0.775553822517395,
                            -0.11529645323753357
                        ],
                        [
                            1.0599684715270996,
                            0.1486046463251114
                        ]
                    ]
                ],
                [
                    [
                        [
                            0.11754659563302994,
                            -0.1677628755569458
                        ],
                        [
                            0.41667744517326355,
                            -0.851168155670166
                        ]
                    ],
                    [
                        [
                            0.24055232107639313,
                            0.6375351548194885
                        ],
                        [
                            0.9773295521736145,
                            0.6793666481971741
                        ]
                    ],
                    [
                        [
                            -0.3676340878009796,
                            1.0772720575332642
                        ],
                        [
                            -1.8813862800598145,
                            -2.4772865772247314
                        ]
                    ],
                    [
                        [
                            0.14936700463294983,
                            -0.45482873916625977
                        ],
                        [
                            0.5094629526138306,
                            1.7292256355285645
                        ]
                    ],
                    [
                        [
                            0.008216372691094875,
                            -1.140446662902832
                        ],
                        [
                            0.6118001341819763,
                            -0.7383848428726196
                        ]
                    ],
                    [
                        [
                            0.521571695804596,
                            0.8740862607955933
                        ],
                        [
                            -0.6756436228752136,
                            5.960506916046143
                        ]
                    ],
                    [
                        [
                            0.598777711391449,
                            -1.5705363750457764
                        ],
                        [
                            -2.554802417755127,
                            -1.3252793550491333
                        ]
                    ],
                    [
                        [
                            -1.08836030960083,
                            1.1153167486190796
                        ],
                        [
                            -0.008983843959867954,
                            1.5515178442001343
                        ]
                    ]
                ],
                [
                    [
                        [
                            -0.24139922857284546,
                            0.015924062579870224
                        ],
                        [
                            -0.34781113266944885,
                            0.47279420495033264
                        ]
                    ],
                    [
                        [
                            -0.7640765905380249,
                            -0.7392411828041077
                        ],
                        [
                            0.4226008951663971,
                            -0.2878516912460327
                        ]
                    ],
                    [
                        [
                            0.48188215494155884,
                            -0.8559194207191467
                        ],
                        [
                            0.09198117256164551,
                            1.7685167789459229
                        ]
                    ],
                    [
                        [
                            0.34219178557395935,
                            -0.7269206047058105
                        ],
                        [
                            0.17519962787628174,
                            -0.2955923080444336
                        ]
                    ],
                    [
                        [
                            0.35341012477874756,
                            1.507204294204712
                        ],
                        [
                            0.026185516268014908,
                            -0.6059410572052002
                        ]
                    ],
                    [
                        [
                            0.29465991258621216,
                            -1.7452445030212402
                        ],
                        [
                            0.2450321614742279,
                            -0.08543424308300018
                        ]
                    ],
                    [
                        [
                            1.1894358396530151,
                            0.5731416344642639
                        ],
                        [
                            0.7157647609710693,
                            0.4090708792209625
                        ]
                    ],
                    [
                        [
                            0.06098582223057747,
                            0.8398163914680481
                        ],
                        [
                            -1.8877363204956055,
                            -1.3195173740386963
                        ]
                    ]
                ]
            ]
        }
    ],
    "MLP_stage_3": [
        {
            "b": [
                -0.08470191806554794,
                -0.007617755327373743,
                0.06981070339679718,
                0.40560322999954224,
                0.010438712313771248,
                0.07279416918754578,
                0.054388392716646194,
                0.57310551404953,
                -0.029606524854898453,
                -0.14278222620487213,
                -0.13245151937007904,
                0.01360052078962326,
                0.10851705819368362,
                0.20187635719776154,
                -0.0820256844162941,
                0.08770673722028732,
                0.4971330761909485,
                0.4033917784690857,
                0.14155161380767822,
                -0.10785482078790665,
                0.16184350848197937,
                0.05016292631626129,
                0.06872588396072388,
                -0.04439745098352432,
                0.03676189109683037,
                0.07476121932268143,
                -0.1732102781534195,
                -0.02768668904900551,
                -0.0811510682106018,
                0.07275307178497314,
                -0.0583258755505085,
                0.3342567980289459,
                -0.3230895698070526,
                0.006029712036252022,
                -0.024430327117443085,
                0.2897537052631378,
                0.0455712229013443,
                0.3118240237236023,
                0.035507842898368835,
                0.08132029324769974,
                0.33838918805122375,
                0.1296379417181015,
                0.03425057232379913,
                -0.20901471376419067,
                -0.13880181312561035,
                0.19778499007225037,
                0.02672111988067627,
                -0.21063873171806335,
                0.12348361313343048,
                0.03393510356545448
            ],
            "w": [
                [
                    0.03997895494103432,
                    -0.29394349455833435,
                    -0.10497953742742538,
                    -0.1714932918548584,
                    0.2528934180736542,
                    -0.44187551736831665,
                    0.6245135068893433,
                    0.20924365520477295,
                    0.4758700728416443,
                    -0.014023014344274998,
                    0.5191535949707031,
                    0.7703714370727539,
                    0.10150270164012909,
                    0.26797401905059814,
                    -0.9628626704216003,
                    0.32915541529655457,
                    -0.37796759605407715,
                    -0.4607849717140198,
                    -0.17529645562171936,
                    0.18010759353637695,
                    0.4439883232116699,
                    0.12287294864654541,
                    -0.06584812700748444,
                    -0.20056822896003723,
                    0.1613997370004654,
                    0.6069430112838745,
                    0.5889659523963928,
                    -0.4383765459060669,
                    -0.8056351542472839,
                    -0.5622100234031677,
                    0.3023736774921417,
                    -0.38501736521720886,
                    0.8680546879768372,
                    0.1131601557135582,
                    -0.2776401937007904,
                    0.46317020058631897,
                    0.35676148533821106,
                    0.3910178542137146,
                    0.23175030946731567,
                    0.2205899953842163,
                    0.2628759443759918,
                    -0.25487661361694336,
                    0.005808949004858732,
                    0.0775054469704628,
                    -0.20199131965637207,
                    -0.021057361736893654,
                    0.3234683573246002,
                    -0.4766623079776764,
                    -1.033447504043579,
                    0.19797435402870178
                ],
                [
                    1.650042176246643,
                    0.42561906576156616,
                    0.41878992319107056,
                    1.0293972492218018,
                    0.011212182231247425,
                    -0.03091432899236679,
                    0.2637792229652405,
                    -0.261447548866272,
                    -0.7567864060401917,
                    1.4767884016036987,
                    1.2065508365631104,
                    1.177321434020996,
                    -0.24417325854301453,
                    1.0952633619308472,
                    -0.5682487487792969,
                    0.1500866711139679,
                    1.026016354560852,
                    0.15682335197925568,
                    0.2685263454914093,
                    0.6099668741226196,
                    0.019014082849025726,
                    0.5076347589492798,
                    0.04620937630534172,
                    0.6276847124099731,
                    -0.15947726368904114,
                    1.308225393295288,
                    0.4092261493206024,
                    -1.4350471496582031,
                    -0.40796369314193726,
                    -0.5242116451263428,
                    3.6845033168792725,
                    0.5743690133094788,
                    2.318248987197876,
                    0.038289859890937805,
                    -1.2891749143600464,
                    2.6256489753723145,
                    0.5875697135925293,
                    0.3835049867630005,
                    -0.3166988790035248,
                    -0.03388512134552002,
                    0.23713000118732452,
                    -0.2814862132072449,
                    -0.23202447593212128,
                    1.0826910734176636,
                    -5.931707382202148,
                    0.39385172724723816,
                    -1.7054740190505981,
                    2.827385663986206,
                    -2.7516047954559326,
                    0.46640339493751526
                ],
                [
                    0.41101041436195374,
                    0.4009445905685425,
                    0.3700996935367584,
                    1.7383419275283813,
                    -0.3366147577762604,
                    0.584725022315979,
                    0.35256460309028625,
                    0.12857091426849365,
                    0.1469251811504364,
                    -0.08274885267019272,
                    0.4996347427368164,
                    0.45478230714797974,
                    1.1601769924163818,
                    0.6710621118545532,
                    0.07312891632318497,
                    0.575575590133667,
                    -1.934065341949463,
                    -1.1322108507156372,
                    0.7159974575042725,
                    0.4735611081123352,
                    -0.5531545877456665,
                    0.38366371393203735,
                    -0.24079926311969757,
                    0.49078497290611267,
                    1.3419100046157837,
                    0.1764131486415863,
                    0.11424952000379562,
                    0.6591041088104248,
                    -1.5959794521331787,
                    0.32349643111228943,
                    0.6317718625068665,
                    1.4756516218185425,
                    0.5262429118156433,
                    -1.8639106750488281,
                    0.41664695739746094,
                    1.7432575225830078,
                    0.5768555402755737,
                    0.4753245711326599,
                    1.2155094146728516,
                    -0.10260245203971863,
                    -0.07906093448400497,
                    0.8071449398994446,
                    0.36086541414260864,
                    0.46585673093795776,
                    1.9187804460525513,
                    0.1805761307477951,
                    1.6893290281295776,
                    0.4301995038986206,
                    -0.3519996106624603,
                    0.5458087921142578
                ],
                [
                    0.47024694085121155,
                    0.09152181446552277,
                    0.4565613865852356,
                    0.8019839525222778,
                    0.21184346079826355,
                    -0.09933341294527054,
                    0.08308055251836777,
                    -0.5965023040771484,
                    -0.20694276690483093,
                    -0.2280789017677307,
                    0.03180399164557457,
                    0.2445877194404602,
                    -2.9195518493652344,
                    0.08841085433959961,
                    0.10694538801908493,
                    -0.0993601605296135,
                    -0.16770242154598236,
                    -0.25301840901374817,
                    -0.45393338799476624,
                    0.22685685753822327,
                    -0.14777041971683502,
                    0.2319735884666443,
                    -0.06154203042387962,
                    0.3824116289615631,
                    0.07612136006355286,
                    0.3368000090122223,
                    0.2637719213962555,
                    -2.3294239044189453,
                    -0.6259980201721191,
                    -0.24654167890548706,
                    -1.3298105001449585,
                    0.39442992210388184,
                    0.24898572266101837,
                    0.1348194181919098,
                    -0.628025472164154,
                    0.9619342684745789,
                    0.12461758404970169,
                    0.1379491686820984,
                    0.31299179792404175,
                    0.11074118316173553,
                    -0.05477597936987877,
                    -0.5722751617431641,
                    -0.0007896861643530428,
                    -0.2902207374572754,
                    0.34588301181793213,
                    0.690166711807251,
                    0.3429076671600342,
                    0.13944599032402039,
                    0.6365169286727905,
                    0.8231108784675598
                ],
                [
                    0.018258623778820038,
                    0.008080967701971531,
                    4.000663757324219,
                    4.453330039978027,
                    0.38245975971221924,
                    -0.3027740716934204,
                    0.13146927952766418,
                    4.902995586395264,
                    2.049398899078369,
                    -2.6207151412963867,
                    -0.44481536746025085,
                    -1.4283314943313599,
                    -0.35173359513282776,
                    3.9854414463043213,
                    0.6967281103134155,
                    0.5082912445068359,
                    4.824701309204102,
                    4.393002033233643,
                    -0.16859011352062225,
                    -0.06436478346586227,
                    1.8815040588378906,
                    -0.20117086172103882,
                    0.7809596657752991,
                    -1.0049333572387695,
                    0.03947801887989044,
                    -0.8863697648048401,
                    -0.4577494263648987,
                    1.079958200454712,
                    -1.2604888677597046,
                    0.2821580469608307,
                    0.9706917405128479,
                    4.774961471557617,
                    -0.7023313045501709,
                    3.2213690280914307,
                    0.017592312768101692,
                    5.178332328796387,
                    -0.3833034336566925,
                    -0.2685745358467102,
                    0.05900966003537178,
                    -0.4214749336242676,
                    2.2700116634368896,
                    0.1607208400964737,
                    -0.2689352035522461,
                    -0.7606735825538635,
                    0.2450399100780487,
                    3.1378509998321533,
                    -0.08758553862571716,
                    -1.6145581007003784,
                    0.03599204123020172,
                    3.3671460151672363
                ],
                [
                    -2.569265842437744,
                    -0.8208476305007935,
                    1.3290989398956299,
                    0.039754319936037064,
                    3.813717842102051,
                    -3.1608450412750244,
                    -0.025002028793096542,
                    -4.2912917137146,
                    -0.9655125141143799,
                    -1.3952019214630127,
                    -1.7496579885482788,
                    -3.2884697914123535,
                    -4.864535808563232,
                    0.18712182343006134,
                    -0.7977797985076904,
                    -2.729537010192871,
                    -5.567635536193848,
                    -2.032470464706421,
                    -2.8231441974639893,
                    -1.46776282787323,
                    -0.9961934685707092,
                    -0.9777994155883789,
                    -0.17792758345603943,
                    -1.7299562692642212,
                    3.487856388092041,
                    -0.654686689376831,
                    -0.5204700231552124,
                    -1.322115421295166,
                    9.972628593444824,
                    -0.9206728339195251,
                    2.271449565887451,
                    -0.5174928307533264,
                    -1.4924147129058838,
                    0.8078978657722473,
                    2.6517679691314697,
                    0.25262629985809326,
                    0.8329598307609558,
                    -6.977588176727295,
                    2.942070960998535,
                    5.282408237457275,
                    -2.396620512008667,
                    -4.165000915527344,
                    -1.8556593656539917,
                    -0.07114143669605255,
                    5.519495964050293,
                    -1.1440190076828003,
                    4.165199279785156,
                    -1.7157025337219238,
                    -1.4384911060333252,
                    2.313694715499878
                ],
                [
                    -0.2064288854598999,
                    2.4888269901275635,
                    0.9222826361656189,
                    2.0978996753692627,
                    0.00024430963094346225,
                    -2.433473825454712,
                    1.3833742141723633,
                    2.5983455181121826,
                    0.15251728892326355,
                    1.0197930335998535,
                    0.6118897795677185,
                    -1.8356189727783203,
                    -2.318328857421875,
                    2.360957622528076,
                    1.0645391941070557,
                    -1.7316067218780518,
                    2.590914487838745,
                    2.4385123252868652,
                    -2.9201583862304688,
                    1.2147711515426636,
                    0.7375372052192688,
                    -0.4328998625278473,
                    2.4777371883392334,
                    1.3021011352539062,
                    -0.8551763892173767,
                    2.282416343688965,
                    1.3486127853393555,
                    0.5052218437194824,
                    -8.957599639892578,
                    -3.019963264465332,
                    1.8519009351730347,
                    2.1266791820526123,
                    1.0413514375686646,
                    1.826103687286377,
                    -0.4465997517108917,
                    2.5917861461639404,
                    2.999469757080078,
                    -7.346324443817139,
                    -0.6827892065048218,
                    -1.3797826766967773,
                    1.9734703302383423,
                    -2.5685033798217773,
                    -1.7860581874847412,
                    2.2135539054870605,
                    3.0359013080596924,
                    1.606789231300354,
                    -0.3523210287094116,
                    0.38239848613739014,
                    -3.986522912979126,
                    -0.019236331805586815
                ],
                [
                    3.4258062839508057,
                    3.306597948074341,
                    3.35837721824646,
                    4.213001251220703,
                    -2.061642646789551,
                    4.00501823425293,
                    3.4830777645111084,
                    3.8735122680664062,
                    -2.5694496631622314,
                    2.2025086879730225,
                    2.58457088470459,
                    3.73970103263855,
                    -0.17638438940048218,
                    4.007792949676514,
                    -0.05495678260922432,
                    -1.39765202999115,
                    3.9159345626831055,
                    3.649482250213623,
                    1.5858889818191528,
                    4.9276885986328125,
                    1.585151195526123,
                    3.330894708633423,
                    2.296644926071167,
                    1.6603518724441528,
                    0.1621546596288681,
                    3.9398577213287354,
                    3.126878261566162,
                    -1.5928528308868408,
                    -1.4621583223342896,
                    4.509130954742432,
                    -0.19521719217300415,
                    4.648784160614014,
                    2.7820568084716797,
                    -0.2259635180234909,
                    -0.39572829008102417,
                    5.088637351989746,
                    4.1701741218566895,
                    4.258263111114502,
                    -1.0261917114257812,
                    -1.5224565267562866,
                    3.5892174243927,
                    -0.18629863858222961,
                    3.9883334636688232,
                    1.772094488143921,
                    -0.14318963885307312,
                    3.307025909423828,
                    0.22700729966163635,
                    0.07442605495452881,
                    4.1286845207214355,
                    2.14505934715271
                ],
                [
                    -0.1267024129629135,
                    1.5319024324417114,
                    -0.10712286829948425,
                    0.9067395329475403,
                    -0.2774165868759155,
                    -1.5771607160568237,
                    1.5993239879608154,
                    1.9721791744232178,
                    0.8135231137275696,
                    -0.26139846444129944,
                    -0.6840201616287231,
                    -0.7690040469169617,
                    -2.3432562351226807,
                    0.605146586894989,
                    1.9632060527801514,
                    -1.5621665716171265,
                    2.3338027000427246,
                    -0.22643131017684937,
                    -2.3207175731658936,
                    -0.2880203425884247,
                    1.1082347631454468,
                    0.29048052430152893,
                    1.1149595975875854,
                    -0.6146492958068848,
                    1.613000750541687,
                    1.007990837097168,
                    2.8531267642974854,
                    1.319411277770996,
                    -10.458279609680176,
                    -1.7825207710266113,
                    -1.5470457077026367,
                    -0.03544486314058304,
                    1.275429606437683,
                    1.381659984588623,
                    2.217862606048584,
                    -0.5681858658790588,
                    3.504199981689453,
                    -5.187408924102783,
                    1.3252077102661133,
                    1.8200085163116455,
                    1.2496256828308105,
                    -2.196672201156616,
                    -1.5957924127578735,
                    2.4213340282440186,
                    -0.9922555088996887,
                    -0.1428518295288086,
                    1.4941928386688232,
                    -0.9202681183815002,
                    -2.381896495819092,
                    0.2648192346096039
                ],
                [
                    2.8121657371520996,
                    6.5464324951171875,
                    4.078293800354004,
                    6.277161121368408,
                    -5.318851470947266,
                    2.319443941116333,
                    5.177847862243652,
                    4.35994815826416,
                    0.6465096473693848,
                    2.2483973503112793,
                    1.202933669090271,
                    3.9354567527770996,
                    -0.9166080355644226,
                    4.490017414093018,
                    -1.8225573301315308,
                    -0.608672022819519,
                    4.168776512145996,
                    3.4400229454040527,
                    -0.6229539513587952,
                    3.709731101989746,
                    2.5253005027770996,
                    5.5857319831848145,
                    7.906545162200928,
                    3.561230182647705,
                    -2.85964298248291,
                    5.5669145584106445,
                    2.331988573074341,
                    0.6220607757568359,
                    0.9127644896507263,
                    2.2100348472595215,
                    8.427980422973633,
                    4.414433002471924,
                    3.313516139984131,
                    -1.9171652793884277,
                    -1.611449122428894,
                    5.727407455444336,
                    0.9179902076721191,
                    0.46893543004989624,
                    -3.519125461578369,
                    -5.003350257873535,
                    3.183502674102783,
                    -0.9805898070335388,
                    2.3824961185455322,
                    2.407442092895508,
                    -5.601480007171631,
                    4.999393939971924,
                    -4.587038040161133,
                    2.917679786682129,
                    2.010038137435913,
                    -1.3669888973236084
                ],
                [
                    -0.2718319594860077,
                    -2.327125310897827,
                    0.9594437479972839,
                    4.662920951843262,
                    -0.09289837628602982,
                    -1.6572294235229492,
                    -6.345610618591309,
                    3.1499531269073486,
                    2.9767355918884277,
                    -0.08280709385871887,
                    0.02161627821624279,
                    -3.607693672180176,
                    2.2885875701904297,
                    1.7418628931045532,
                    3.3031842708587646,
                    2.7830970287323,
                    1.8561172485351562,
                    -1.1409547328948975,
                    1.9436513185501099,
                    2.169491767883301,
                    0.809471845626831,
                    -4.603955268859863,
                    -2.802126169204712,
                    -0.2510450482368469,
                    -1.721106767654419,
                    -2.617875814437866,
                    -1.4550046920776367,
                    2.857295274734497,
                    -2.344156265258789,
                    -2.335172414779663,
                    3.1260013580322266,
                    -0.43021172285079956,
                    -1.060562252998352,
                    -5.049632549285889,
                    2.194486379623413,
                    2.884767532348633,
                    -4.945642471313477,
                    -2.348099708557129,
                    -1.9542479515075684,
                    2.3910069465637207,
                    0.03162821754813194,
                    2.677824020385742,
                    -1.6000862121582031,
                    -1.2554634809494019,
                    1.943377137184143,
                    0.4846773147583008,
                    -1.6749833822250366,
                    -0.31896695494651794,
                    -2.4977853298187256,
                    1.255305528640747
                ],
                [
                    0.5205538868904114,
                    -1.1294944286346436,
                    0.6169126033782959,
                    5.258868217468262,
                    1.8977681398391724,
                    0.38680851459503174,
                    -2.1091105937957764,
                    2.9498519897460938,
                    -2.139573812484741,
                    0.3941061794757843,
                    0.7158512473106384,
                    -0.5832399725914001,
                    -1.1407572031021118,
                    3.312326431274414,
                    2.016042470932007,
                    -0.900595486164093,
                    2.2304904460906982,
                    -0.6059494614601135,
                    -1.4211097955703735,
                    2.4343509674072266,
                    2.084275007247925,
                    -1.124414086341858,
                    -1.7101718187332153,
                    1.1961959600448608,
                    -1.1246758699417114,
                    -1.7414757013320923,
                    0.053948625922203064,
                    -2.642241954803467,
                    -1.789016604423523,
                    0.6616718769073486,
                    1.6765636205673218,
                    -0.9867541193962097,
                    1.7697211503982544,
                    2.464459180831909,
                    -0.12742219865322113,
                    3.602405548095703,
                    -3.1997182369232178,
                    -0.6802039742469788,
                    -1.1908009052276611,
                    2.871267080307007,
                    -1.2075070142745972,
                    -1.3786898851394653,
                    0.6389588713645935,
                    0.9765611886978149,
                    1.6436291933059692,
                    -0.7595516443252563,
                    -1.00249445438385,
                    0.979269802570343,
                    0.7630051970481873,
                    1.7178544998168945
                ],
                [
                    0.5647565126419067,
                    1.3394547700881958,
                    2.824282169342041,
                    6.832426071166992,
                    -0.2757543623447418,
                    -0.789496660232544,
                    1.7360988855361938,
                    3.942713975906372,
                    0.8141393661499023,
                    0.9774829745292664,
                    0.889282763004303,
                    1.6623471975326538,
                    -1.275039792060852,
                    5.312763214111328,
                    -0.7351323962211609,
                    -0.12050999701023102,
                    5.711733818054199,
                    3.665764570236206,
                    -0.6486077308654785,
                    0.6973480582237244,
                    1.5100698471069336,
                    0.8819323778152466,
                    2.1715376377105713,
                    0.9957669377326965,
                    0.15889428555965424,
                    1.376644492149353,
                    0.8705585598945618,
                    -0.35875821113586426,
                    -1.2223267555236816,
                    -1.2795026302337646,
                    2.763413667678833,
                    4.312616348266602,
                    1.9172866344451904,
                    0.034204814583063126,
                    -0.45931077003479004,
                    7.771681785583496,
                    1.2913707494735718,
                    -0.4017980396747589,
                    0.07013184577226639,
                    -0.1984323263168335,
                    3.698180913925171,
                    -1.364394187927246,
                    -0.5254744291305542,
                    1.0607390403747559,
                    0.16529519855976105,
                    3.5893659591674805,
                    -1.7891944646835327,
                    1.7192906141281128,
                    -0.48822611570358276,
                    2.47223162651062
                ],
                [
                    2.2434568405151367,
                    1.7064837217330933,
                    -4.557460308074951,
                    -7.220980167388916,
                    6.3503007888793945,
                    -2.8843960762023926,
                    1.0521681308746338,
                    -4.582785129547119,
                    -0.7734492421150208,
                    3.6386008262634277,
                    3.2818603515625,
                    0.6533721089363098,
                    -1.6789697408676147,
                    -8.080074310302734,
                    -0.9768676161766052,
                    -1.694421648979187,
                    -4.0457844734191895,
                    -10.899979591369629,
                    -3.9080891609191895,
                    2.436424732208252,
                    -3.049807071685791,
                    1.4600764513015747,
                    1.3475440740585327,
                    -0.2989814579486847,
                    3.331266403198242,
                    1.2904002666473389,
                    3.5616302490234375,
                    -1.6589008569717407,
                    6.831064701080322,
                    -5.554626941680908,
                    -9.035497665405273,
                    -9.753124237060547,
                    6.256686687469482,
                    -3.748218059539795,
                    0.06479062139987946,
                    -8.583061218261719,
                    1.2128337621688843,
                    -2.693406343460083,
                    4.020594596862793,
                    0.3126256465911865,
                    -4.785455703735352,
                    -2.078036069869995,
                    -1.163826823234558,
                    4.626152992248535,
                    3.8963968753814697,
                    -5.825995445251465,
                    3.5407004356384277,
                    5.287367820739746,
                    -6.3912434577941895,
                    -1.9972703456878662
                ],
                [
                    1.9850404262542725,
                    1.8496971130371094,
                    -3.785430669784546,
                    -8.626364707946777,
                    -9.311453819274902,
                    2.2468299865722656,
                    2.158482074737549,
                    -11.50967025756836,
                    -0.5156073570251465,
                    2.0886807441711426,
                    0.9781476855278015,
                    1.4051690101623535,
                    2.992710590362549,
                    -7.078822612762451,
                    -1.8761433362960815,
                    2.0477092266082764,
                    -10.895689964294434,
                    -8.038247108459473,
                    2.8589324951171875,
                    3.768890857696533,
                    -4.8236846923828125,
                    0.3998051881790161,
                    1.2420974969863892,
                    0.2819664776325226,
                    -6.522810935974121,
                    1.082141399383545,
                    2.5910112857818604,
                    -1.5160067081451416,
                    2.501779556274414,
                    2.4638216495513916,
                    -2.6733274459838867,
                    -8.842206954956055,
                    4.293371200561523,
                    -2.8836965560913086,
                    0.07934349775314331,
                    -5.950877666473389,
                    1.0009355545043945,
                    2.2194948196411133,
                    -6.748384475708008,
                    -1.3099567890167236,
                    -8.033361434936523,
                    2.834076404571533,
                    1.7306679487228394,
                    1.9200737476348877,
                    -5.056550979614258,
                    -5.962985038757324,
                    -7.002492427825928,
                    2.5335869789123535,
                    2.7114200592041016,
                    -3.5280370712280273
                ],
                [
                    2.243957042694092,
                    2.484687328338623,
                    0.8352997899055481,
                    11.734976768493652,
                    3.8663389682769775,
                    -0.7237966060638428,
                    4.842654705047607,
                    7.347724914550781,
                    -6.709382057189941,
                    1.638168454170227,
                    0.7496173977851868,
                    2.7182247638702393,
                    -6.149528980255127,
                    10.43845272064209,
                    3.5158326625823975,
                    -7.272379398345947,
                    5.478763103485107,
                    -2.8697240352630615,
                    -6.220208644866943,
                    6.869785308837891,
                    3.7462611198425293,
                    1.9226144552230835,
                    1.7903133630752563,
                    -1.079365849494934,
                    -2.632751226425171,
                    3.6657602787017822,
                    3.6198253631591797,
                    -4.707673072814941,
                    -3.429873466491699,
                    -2.2800354957580566,
                    3.847449541091919,
                    -1.1001173257827759,
                    2.293977737426758,
                    5.000758171081543,
                    -4.372562408447266,
                    10.312628746032715,
                    8.026346206665039,
                    -4.225225448608398,
                    -2.735820770263672,
                    3.1392078399658203,
                    -1.5188578367233276,
                    -7.05586051940918,
                    -0.9424160122871399,
                    0.506569504737854,
                    3.097909450531006,
                    -1.0038388967514038,
                    -1.9273236989974976,
                    -2.8793697357177734,
                    -2.055901050567627,
                    2.994968891143799
                ],
                [
                    1.4002269506454468,
                    -1.1719783544540405,
                    4.042751789093018,
                    8.637617111206055,
                    -2.2681808471679688,
                    1.91527259349823,
                    -1.2747082710266113,
                    8.229999542236328,
                    2.7725396156311035,
                    -2.4407455921173096,
                    0.021961696445941925,
                    0.6572210192680359,
                    0.6185939311981201,
                    8.183868408203125,
                    4.880444049835205,
                    0.1906021535396576,
                    8.10428237915039,
                    8.63012409210205,
                    0.33770015835762024,
                    0.6216510534286499,
                    4.2083892822265625,
                    -3.1209614276885986,
                    -0.04736872389912605,
                    0.6013968586921692,
                    -2.2012901306152344,
                    -2.875521183013916,
                    0.5063959956169128,
                    3.979031801223755,
                    -1.9007866382598877,
                    2.1451900005340576,
                    0.8846574425697327,
                    7.578816890716553,
                    0.31811830401420593,
                    5.7112860679626465,
                    2.760850429534912,
                    8.082147598266602,
                    1.8291419744491577,
                    1.6055824756622314,
                    -1.7474725246429443,
                    4.309086322784424,
                    6.826801300048828,
                    0.6680322885513306,
                    2.1471450328826904,
                    0.06285880506038666,
                    -2.3377299308776855,
                    5.743258476257324,
                    -2.0065815448760986,
                    -0.995364785194397,
                    2.048673391342163,
                    1.945135235786438
                ],
                [
                    2.735187530517578,
                    2.2395853996276855,
                    1.787697672843933,
                    11.49879264831543,
                    -5.250530242919922,
                    -0.267805814743042,
                    4.036614894866943,
                    6.975811004638672,
                    6.46619176864624,
                    2.2932186126708984,
                    4.130014419555664,
                    4.8843674659729,
                    5.342759132385254,
                    6.954285621643066,
                    -0.0844162181019783,
                    4.719274520874023,
                    6.241783142089844,
                    -1.9015599489212036,
                    3.06027889251709,
                    2.0519630908966064,
                    0.4954014718532562,
                    4.224829196929932,
                    -0.15051090717315674,
                    1.0920968055725098,
                    -0.47211986780166626,
                    0.3342494070529938,
                    1.9638339281082153,
                    6.292338848114014,
                    -1.9220091104507446,
                    -4.847564220428467,
                    6.784457683563232,
                    -0.2702142596244812,
                    4.3839430809021,
                    -5.634256362915039,
                    3.4011640548706055,
                    10.940744400024414,
                    2.500375270843506,
                    -2.8029613494873047,
                    -2.624258279800415,
                    -3.903595447540283,
                    -0.9584367275238037,
                    5.280239105224609,
                    0.6401386260986328,
                    5.333159446716309,
                    -0.5666910409927368,
                    -0.009734013117849827,
                    -1.371704339981079,
                    2.6496331691741943,
                    -0.42947471141815186,
                    3.5900912284851074
                ],
                [
                    3.972262382507324,
                    8.242974281311035,
                    5.190282344818115,
                    22.007091522216797,
                    -2.6963014602661133,
                    -2.6752474308013916,
                    12.614489555358887,
                    14.10246753692627,
                    -3.0268213748931885,
                    5.859210014343262,
                    5.458038806915283,
                    8.100781440734863,
                    -5.0600504875183105,
                    17.061037063598633,
                    -1.6807326078414917,
                    -5.194184303283691,
                    11.107433319091797,
                    10.50631046295166,
                    -5.063179969787598,
                    7.243495464324951,
                    8.343927383422852,
                    7.424398422241211,
                    8.64233684539795,
                    0.5538093447685242,
                    1.2578991651535034,
                    7.952683925628662,
                    8.146270751953125,
                    -1.3992938995361328,
                    -3.4840891361236572,
                    -3.2865428924560547,
                    11.89124584197998,
                    11.178326606750488,
                    4.3454155921936035,
                    0.12758880853652954,
                    -3.101078510284424,
                    21.05002784729004,
                    14.432144165039062,
                    -2.3209075927734375,
                    1.4603232145309448,
                    0.459221750497818,
                    8.090795516967773,
                    -4.739614486694336,
                    -0.053880658000707626,
                    3.2245728969573975,
                    5.993867874145508,
                    6.549232482910156,
                    2.070791482925415,
                    0.38421180844306946,
                    -4.002153396606445,
                    2.9771039485931396
                ],
                [
                    -0.8435928821563721,
                    2.4725871086120605,
                    6.3939642906188965,
                    7.662040710449219,
                    -0.6541579365730286,
                    -2.0603537559509277,
                    6.811709403991699,
                    4.834543704986572,
                    0.6452445983886719,
                    0.8719908595085144,
                    1.3087679147720337,
                    1.3236534595489502,
                    -0.019540423527359962,
                    7.390984535217285,
                    0.3875911831855774,
                    -0.2798117697238922,
                    4.514896392822266,
                    4.812081813812256,
                    -0.39857807755470276,
                    1.3916524648666382,
                    0.8786585927009583,
                    4.344111442565918,
                    3.6168336868286133,
                    0.22670188546180725,
                    -0.03313780948519707,
                    3.936223030090332,
                    4.011659145355225,
                    -1.0732702016830444,
                    -1.8699665069580078,
                    -2.402130365371704,
                    6.9807515144348145,
                    4.422519207000732,
                    0.1836005598306656,
                    1.6605113744735718,
                    -0.2786077857017517,
                    8.10545539855957,
                    1.8194972276687622,
                    0.6847842335700989,
                    -1.472793698310852,
                    0.2695360481739044,
                    3.3016841411590576,
                    -0.43453750014305115,
                    0.11830794811248779,
                    1.0382227897644043,
                    -1.1563491821289062,
                    4.271127700805664,
                    -1.5366833209991455,
                    0.12556731700897217,
                    -2.4451534748077393,
                    4.328636169433594
                ],
                [
                    5.5041680335998535,
                    1.6019129753112793,
                    -5.175407409667969,
                    -10.690305709838867,
                    10.644645690917969,
                    2.380514144897461,
                    4.288541316986084,
                    -11.719301223754883,
                    3.765622615814209,
                    5.350842475891113,
                    4.798691749572754,
                    5.192883491516113,
                    10.29228687286377,
                    -5.177753448486328,
                    2.056359052658081,
                    6.150578498840332,
                    -9.37155532836914,
                    -8.989997863769531,
                    8.635486602783203,
                    9.772273063659668,
                    -3.1782009601593018,
                    1.0368629693984985,
                    0.6123337149620056,
                    1.5560694932937622,
                    10.197628021240234,
                    1.8154711723327637,
                    5.477892875671387,
                    3.227719306945801,
                    -4.334910869598389,
                    -1.5996520519256592,
                    -8.874079704284668,
                    -7.967473983764648,
                    9.51883316040039,
                    -0.5543725490570068,
                    2.567514181137085,
                    -9.579955101013184,
                    1.5755722522735596,
                    8.61339282989502,
                    12.23438835144043,
                    -1.7489441633224487,
                    -8.272136688232422,
                    8.302106857299805,
                    7.049218654632568,
                    8.590087890625,
                    14.069230079650879,
                    -7.298711776733398,
                    9.5941801071167,
                    4.702873229980469,
                    -2.638239860534668,
                    -1.8492860794067383
                ],
                [
                    -7.856825351715088,
                    1.4213669300079346,
                    1.8969322443008423,
                    1.5232688188552856,
                    0.462492436170578,
                    -6.686258316040039,
                    1.5516101121902466,
                    0.31801557540893555,
                    -0.899796724319458,
                    -2.8381259441375732,
                    -1.488765835762024,
                    -0.3091421127319336,
                    -7.60228157043457,
                    2.511629581451416,
                    0.813539981842041,
                    -4.277578353881836,
                    0.45273643732070923,
                    -1.584006905555725,
                    -9.41674518585205,
                    -6.667061805725098,
                    0.8709774613380432,
                    -0.48889827728271484,
                    -0.11366813629865646,
                    -4.489022254943848,
                    -11.413853645324707,
                    0.22873763740062714,
                    -2.3000235557556152,
                    -3.826296806335449,
                    -1.7707010507583618,
                    -7.935802936553955,
                    13.000017166137695,
                    0.1522636115550995,
                    -0.7057293653488159,
                    1.7474838495254517,
                    -5.928844451904297,
                    7.242090225219727,
                    6.748355865478516,
                    -8.8552827835083,
                    -9.181961059570312,
                    1.0387245416641235,
                    0.24699272215366364,
                    -7.361114978790283,
                    -6.185824394226074,
                    -2.3385519981384277,
                    -14.149306297302246,
                    -1.2347677946090698,
                    -9.886262893676758,
                    -2.7225725650787354,
                    -11.559118270874023,
                    1.2385919094085693
                ],
                [
                    7.232990741729736,
                    9.758071899414062,
                    14.0762357711792,
                    24.26430892944336,
                    -1.2017775774002075,
                    -3.137981653213501,
                    16.241662979125977,
                    11.667930603027344,
                    0.21776428818702698,
                    11.7240571975708,
                    8.571100234985352,
                    13.7014741897583,
                    -5.4436259269714355,
                    21.056041717529297,
                    1.3735229969024658,
                    -6.091597080230713,
                    8.393660545349121,
                    11.650443077087402,
                    -8.14477252960205,
                    15.36711311340332,
                    3.9523839950561523,
                    11.795607566833496,
                    9.88893985748291,
                    5.944509983062744,
                    6.018596172332764,
                    14.503312110900879,
                    14.34853458404541,
                    13.845924377441406,
                    -13.912797927856445,
                    -5.323532581329346,
                    27.673044204711914,
                    13.036032676696777,
                    21.289310455322266,
                    0.26097431778907776,
                    2.574774742126465,
                    24.026615142822266,
                    18.979276657104492,
                    2.651761770248413,
                    2.5031189918518066,
                    -0.38853704929351807,
                    8.333054542541504,
                    -7.692481994628906,
                    -1.9144614934921265,
                    17.716670989990234,
                    12.389254570007324,
                    9.820639610290527,
                    2.9105451107025146,
                    14.905936241149902,
                    -6.430108070373535,
                    10.66462516784668
                ],
                [
                    5.863974571228027,
                    1.5226118564605713,
                    5.935779094696045,
                    11.47150707244873,
                    -0.36049333214759827,
                    8.484504699707031,
                    1.1827858686447144,
                    8.831707954406738,
                    -0.12993991374969482,
                    1.831519603729248,
                    1.4790222644805908,
                    5.2122650146484375,
                    4.718305587768555,
                    10.23820686340332,
                    3.318018913269043,
                    3.2501182556152344,
                    8.472899436950684,
                    8.081913948059082,
                    5.3749871253967285,
                    8.127251625061035,
                    4.114769458770752,
                    1.4752564430236816,
                    0.15070804953575134,
                    1.9661457538604736,
                    -0.6619307994842529,
                    1.5239802598953247,
                    0.6981661319732666,
                    4.61051082611084,
                    -2.354949474334717,
                    10.738576889038086,
                    2.2380921840667725,
                    7.630275726318359,
                    3.3270108699798584,
                    5.684558868408203,
                    0.9788163304328918,
                    12.011612892150879,
                    1.1271347999572754,
                    8.0120849609375,
                    -1.5663282871246338,
                    1.5263710021972656,
                    5.793006420135498,
                    3.2949914932250977,
                    8.540887832641602,
                    0.7165805101394653,
                    -0.6953960657119751,
                    5.828352451324463,
                    -1.2594857215881348,
                    2.2044942378997803,
                    9.477904319763184,
                    2.282979965209961
                ],
                [
                    -0.3239538073539734,
                    3.78996205329895,
                    2.7904045581817627,
                    11.076045036315918,
                    -1.5597047805786133,
                    -2.342968225479126,
                    2.9847779273986816,
                    8.135395050048828,
                    2.976234197616577,
                    0.26609718799591064,
                    1.5626425743103027,
                    1.9608154296875,
                    0.8592950701713562,
                    9.08323860168457,
                    2.98176908493042,
                    0.3641875088214874,
                    6.579091548919678,
                    6.23084831237793,
                    -0.8166843056678772,
                    1.0387580394744873,
                    5.251273155212402,
                    2.0388917922973633,
                    2.673963785171509,
                    -0.7546861171722412,
                    -3.4629967212677,
                    1.8303602933883667,
                    2.4650051593780518,
                    4.717621803283691,
                    -3.0859999656677246,
                    -4.504023551940918,
                    11.72384262084961,
                    5.461673736572266,
                    2.1119439601898193,
                    2.16776180267334,
                    2.930785894393921,
                    12.088749885559082,
                    4.762357711791992,
                    -2.605567455291748,
                    -3.5218276977539062,
                    3.2324533462524414,
                    2.865407705307007,
                    0.23927894234657288,
                    -1.902456283569336,
                    1.980828881263733,
                    -2.54518723487854,
                    3.7350258827209473,
                    -3.1252474784851074,
                    -0.22725175321102142,
                    -4.844027996063232,
                    1.3956178426742554
                ],
                [
                    1.1212319135665894,
                    9.496882438659668,
                    5.49655294418335,
                    13.182896614074707,
                    -6.289686679840088,
                    2.283832311630249,
                    4.999029159545898,
                    9.974559783935547,
                    2.593294858932495,
                    5.957159042358398,
                    4.660719871520996,
                    9.009757041931152,
                    -3.9642279148101807,
                    9.421564102172852,
                    -1.1775941848754883,
                    -2.453761100769043,
                    7.554129123687744,
                    10.282498359680176,
                    -4.0666728019714355,
                    -1.0468512773513794,
                    0.03747375309467316,
                    9.760960578918457,
                    11.983587265014648,
                    8.073019981384277,
                    -2.1571707725524902,
                    4.1135149002075195,
                    3.7785537242889404,
                    2.0293467044830322,
                    -4.0021162033081055,
                    0.23302632570266724,
                    17.366350173950195,
                    8.535439491271973,
                    3.6724414825439453,
                    -4.783820152282715,
                    -1.0987155437469482,
                    13.978874206542969,
                    5.1461405754089355,
                    -2.148319721221924,
                    -1.7931629419326782,
                    -7.179864883422852,
                    6.375218868255615,
                    -2.9450793266296387,
                    4.42579984664917,
                    3.952782392501831,
                    -4.159173011779785,
                    6.298863410949707,
                    -0.7245063185691833,
                    6.628108501434326,
                    2.498141050338745,
                    2.6283576488494873
                ],
                [
                    0.7515500783920288,
                    2.4723763465881348,
                    2.032031774520874,
                    4.053269863128662,
                    -0.6229329705238342,
                    0.5985697507858276,
                    1.2802852392196655,
                    3.293430805206299,
                    -0.033974941819906235,
                    4.002397060394287,
                    1.9369691610336304,
                    1.9283993244171143,
                    -1.887101173400879,
                    2.426785469055176,
                    0.1237645298242569,
                    -0.8066874146461487,
                    2.8129870891571045,
                    0.9953963756561279,
                    0.3120179772377014,
                    1.726382851600647,
                    2.2127978801727295,
                    2.5784800052642822,
                    1.6353330612182617,
                    0.9047494530677795,
                    -0.06156928092241287,
                    2.928973436355591,
                    1.7681183815002441,
                    -1.2912683486938477,
                    -0.8196973204612732,
                    0.4269920289516449,
                    0.45138445496559143,
                    1.6315381526947021,
                    3.157473087310791,
                    -1.2388566732406616,
                    -0.2032656967639923,
                    1.2429654598236084,
                    2.2695860862731934,
                    0.22158272564411163,
                    -1.139220118522644,
                    -0.7235843539237976,
                    3.138005018234253,
                    -1.1345444917678833,
                    0.8284258842468262,
                    2.881016254425049,
                    -0.5678381323814392,
                    2.1450343132019043,
                    -0.10676220804452896,
                    3.1150310039520264,
                    0.7419612407684326,
                    2.4621317386627197
                ],
                [
                    0.6880646347999573,
                    6.762707710266113,
                    3.9078826904296875,
                    4.733396530151367,
                    -3.507063627243042,
                    -0.38704338669776917,
                    3.693211317062378,
                    3.0410144329071045,
                    1.5550087690353394,
                    2.397787094116211,
                    2.722090005874634,
                    0.6710388660430908,
                    -1.891175627708435,
                    4.461977958679199,
                    0.13059081137180328,
                    -1.47148597240448,
                    3.2681219577789307,
                    3.53174090385437,
                    -1.838853120803833,
                    4.282060146331787,
                    0.9213656187057495,
                    3.5238938331604004,
                    6.226400852203369,
                    1.8913325071334839,
                    -3.367811441421509,
                    0.11778051406145096,
                    3.321561574935913,
                    2.5568604469299316,
                    2.058225631713867,
                    -0.5941505432128906,
                    6.206047534942627,
                    3.5085768699645996,
                    4.2891130447387695,
                    -1.6341382265090942,
                    -0.03855546563863754,
                    4.801393985748291,
                    3.75628662109375,
                    0.16943033039569855,
                    -3.077275276184082,
                    -4.6586127281188965,
                    2.982527732849121,
                    -1.4139388799667358,
                    0.4639270007610321,
                    3.1169862747192383,
                    -4.039770603179932,
                    4.4965338706970215,
                    -2.727543592453003,
                    2.7262752056121826,
                    -0.08458411693572998,
                    -1.6852518320083618
                ],
                [
                    2.4184768199920654,
                    2.2358641624450684,
                    -2.38826584815979,
                    -9.97512435913086,
                    -8.946476936340332,
                    2.118119478225708,
                    2.1216018199920654,
                    -14.043622016906738,
                    -1.2463704347610474,
                    3.846665620803833,
                    3.4630959033966064,
                    1.439206600189209,
                    2.5947301387786865,
                    -6.937277793884277,
                    -3.701080083847046,
                    1.3429908752441406,
                    -12.534046173095703,
                    -12.434699058532715,
                    2.3766746520996094,
                    5.626292705535889,
                    -3.452565908432007,
                    2.7375411987304688,
                    2.423023223876953,
                    -0.21505841612815857,
                    -7.272496700286865,
                    2.259989023208618,
                    5.373377799987793,
                    -3.18432354927063,
                    -0.29294201731681824,
                    2.0160207748413086,
                    -7.992894172668457,
                    -7.359485626220703,
                    6.086297988891602,
                    -1.2164368629455566,
                    -0.6186230182647705,
                    -8.75404167175293,
                    4.025202751159668,
                    2.644196033477783,
                    -7.541144371032715,
                    -2.863302230834961,
                    -8.776907920837402,
                    1.6331590414047241,
                    0.9562366604804993,
                    4.072314739227295,
                    -6.839855194091797,
                    -4.1365203857421875,
                    -8.003680229187012,
                    3.6692683696746826,
                    1.3336321115493774,
                    -2.189089775085449
                ],
                [
                    0.7902997732162476,
                    -0.6943784356117249,
                    1.0899689197540283,
                    1.1841378211975098,
                    0.5045017004013062,
                    1.0928505659103394,
                    1.022438406944275,
                    1.9957865476608276,
                    0.594942569732666,
                    0.34239259362220764,
                    -0.24832932651042938,
                    0.2297249138355255,
                    0.618671715259552,
                    0.6947387456893921,
                    0.658037543296814,
                    -0.12180067598819733,
                    1.7995131015777588,
                    1.514426827430725,
                    1.188865303993225,
                    1.1363236904144287,
                    0.9354299306869507,
                    0.43298813700675964,
                    1.2704105377197266,
                    0.03345780819654465,
                    -0.5985959768295288,
                    0.18259143829345703,
                    0.10096485167741776,
                    0.26909002661705017,
                    0.0623251236975193,
                    2.705484628677368,
                    0.8334507346153259,
                    1.3887356519699097,
                    0.683404803276062,
                    -0.5889506340026855,
                    1.1370556354522705,
                    2.1909372806549072,
                    0.05808790400624275,
                    1.876046895980835,
                    -0.5494049787521362,
                    0.06761710345745087,
                    1.1651860475540161,
                    0.30110353231430054,
                    2.0808334350585938,
                    -0.27983787655830383,
                    0.02468731254339218,
                    1.560848355293274,
                    -0.46731024980545044,
                    -0.3302711248397827,
                    1.5782357454299927,
                    0.7621029019355774
                ],
                [
                    3.205552101135254,
                    1.3335258960723877,
                    0.6759828925132751,
                    1.1760997772216797,
                    0.6859725117683411,
                    2.4325575828552246,
                    1.002762794494629,
                    0.4338768422603607,
                    -0.533979058265686,
                    4.123239994049072,
                    2.1658780574798584,
                    2.5421059131622314,
                    1.6292603015899658,
                    1.05549955368042,
                    -0.8850717544555664,
                    1.1300374269485474,
                    0.9370133876800537,
                    1.1875190734863281,
                    0.9720013737678528,
                    2.5318965911865234,
                    -0.17242349684238434,
                    2.643256187438965,
                    1.2453049421310425,
                    0.3173066973686218,
                    0.790648341178894,
                    2.8208773136138916,
                    1.416174292564392,
                    0.4816059172153473,
                    -1.1950898170471191,
                    1.94564950466156,
                    -0.4532068967819214,
                    1.072094440460205,
                    3.57326078414917,
                    -0.03384384885430336,
                    -0.3507399559020996,
                    0.052856143563985825,
                    3.2223331928253174,
                    1.920089840888977,
                    1.1264820098876953,
                    -0.8971492648124695,
                    2.2559354305267334,
                    1.339493989944458,
                    1.8181569576263428,
                    2.9364426136016846,
                    0.879132866859436,
                    2.105360507965088,
                    1.0455372333526611,
                    2.717576265335083,
                    1.9945883750915527,
                    -0.5861904621124268
                ],
                [
                    3.2222740650177,
                    -2.0876846313476562,
                    4.552833557128906,
                    4.71295690536499,
                    -6.8122944831848145,
                    -0.8847464919090271,
                    -0.2833368182182312,
                    3.283787250518799,
                    10.478583335876465,
                    2.5759317874908447,
                    4.147782802581787,
                    2.6418418884277344,
                    6.7062177658081055,
                    6.392365455627441,
                    6.686882019042969,
                    7.871441841125488,
                    3.9173855781555176,
                    -2.155280351638794,
                    5.463559627532959,
                    6.490708351135254,
                    4.062671184539795,
                    0.8611893057823181,
                    -4.2175469398498535,
                    -0.8327866792678833,
                    -0.68313068151474,
