{
    "CNN_input_1": [
        {
            "b": [
                0.23590728640556335,
                0.06353989988565445,
                0.18509875237941742,
                -0.07199686765670776,
                0.1299428939819336,
                -0.40236297249794006,
                -0.17130953073501587,
                0.29115942120552063
            ],
            "w": [
                [
                    [
                        [
                            -0.8796706199645996,
                            -0.38935354351997375
                        ],
                        [
                            -0.2792564630508423,
                            -0.9987637400627136
                        ]
                    ]
                ],
                [
                    [
                        [
                            -0.03971651569008827,
                            -0.7320021390914917
                        ],
                        [
                            0.24357722699642181,
                            -0.4736841320991516
                        ]
                    ]
                ],
                [
                    [
                        [
                            0.002145625650882721,
                            -0.30453628301620483
                        ],
                        [
                            -0.2979370355606079,
                            -0.5130230188369751
                        ]
                    ]
                ],
                [
                    [
                        [
                            0.1346007138490677,
                            0.16037826240062714
                        ],
                        [
                            0.5545865893363953,
                            -0.3873383104801178
                        ]
                    ]
                ],
                [
                    [
                        [
                            0.5806125402450562,
                            0.47823193669319153
                        ],
                        [
                            0.17810097336769104,
                            0.07517293095588684
                        ]
                    ]
                ],
                [
                    [
                        [
                            0.9406540393829346,
                            1.2924280166625977
                        ],
                        [
                            1.1803584098815918,
                            -0.4066162109375
                        ]
                    ]
                ],
                [
                    [
                        [
                            -0.7641992568969727,
                            0.7682580947875977
                        ],
                        [
                            0.6153185367584229,
                            -0.22867247462272644
                        ]
                    ]
                ],
                [
                    [
                        [
                            0.2503924071788788,
                            0.014521194621920586
                        ],
                        [
                            -0.2855628430843353,
                            -0.6085222959518433
                        ]
                    ]
                ]
            ]
        }
    ],
    "CNN_input_2": [
        {
            "b": [
                -0.4162740707397461,
                -0.41695427894592285,
                -0.2097628116607666,
                0.4057658910751343,
                -0.26415422558784485,
                -0.5454943776130676,
                0.28545573353767395,
                0.23266106843948364
            ],
            "w": [
                [
                    [
                        [
                            -0.6163284182548523
                        ]
                    ],
                    [
                        [
                            -0.6538547873497009
                        ]
                    ],
                    [
                        [
                            -0.9282076954841614
                        ]
                    ],
                    [
                        [
                            -1.0164421796798706
                        ]
                    ],
                    [
                        [
                            -0.8747624754905701
                        ]
                    ],
                    [
                        [
                            -0.8252447843551636
                        ]
                    ]
                ],
                [
                    [
                        [
                            -0.9013233184814453
                        ]
                    ],
                    [
                        [
                            -0.9880397915840149
                        ]
                    ],
                    [
                        [
                            -0.7393426895141602
                        ]
                    ],
                    [
                        [
                            -0.8152052760124207
                        ]
                    ],
                    [
                        [
                            -0.8667795658111572
                        ]
                    ],
                    [
                        [
                            -0.7110982537269592
                        ]
                    ]
                ],
                [
                    [
                        [
                            -0.3595166504383087
                        ]
                    ],
                    [
                        [
                            -0.39162495732307434
                        ]
                    ],
                    [
                        [
                            -0.6507318615913391
                        ]
                    ],
                    [
                        [
                            0.1170167475938797
                        ]
                    ],
                    [
                        [
                            0.08054683357477188
                        ]
                    ],
                    [
                        [
                            -0.6624828577041626
                        ]
                    ]
                ],
                [
                    [
                        [
                            -0.8001508712768555
                        ]
                    ],
                    [
                        [
                            -0.8267927169799805
                        ]
                    ],
                    [
                        [
                            0.23192434012889862
                        ]
                    ],
                    [
                        [
                            0.8235671520233154
                        ]
                    ],
                    [
                        [
                            0.8573785424232483
                        ]
                    ],
                    [
                        [
                            0.3866642415523529
                        ]
                    ]
                ],
                [
                    [
                        [
                            -0.21300823986530304
                        ]
                    ],
                    [
                        [
                            -0.1744026243686676
                        ]
                    ],
                    [
                        [
                            -0.33365046977996826
                        ]
                    ],
                    [
                        [
                            0.9180177450180054
                        ]
                    ],
                    [
                        [
                            0.8303250670433044
                        ]
                    ],
                    [
                        [
                            -0.31834229826927185
                        ]
                    ]
                ],
                [
                    [
                        [
                            -0.9753647446632385
                        ]
                    ],
                    [
                        [
                            -1.0368220806121826
                        ]
                    ],
                    [
                        [
                            -0.7965601086616516
                        ]
                    ],
                    [
                        [
                            -0.5671667456626892
                        ]
                    ],
                    [
                        [
                            -0.575316846370697
                        ]
                    ],
                    [
                        [
                            -0.8188011050224304
                        ]
                    ]
                ],
                [
                    [
                        [
                            0.7080293297767639
                        ]
                    ],
                    [
                        [
                            0.7013372182846069
                        ]
                    ],
                    [
                        [
                            0.3524797856807709
                        ]
                    ],
                    [
                        [
                            0.16378194093704224
                        ]
                    ],
                    [
                        [
                            0.2696435749530792
                        ]
                    ],
                    [
                        [
                            0.31876349449157715
                        ]
                    ]
                ],
                [
                    [
                        [
                            -0.46139049530029297
                        ]
                    ],
                    [
                        [
                            -0.4957353174686432
                        ]
                    ],
                    [
                        [
                            0.10741569846868515
                        ]
                    ],
                    [
                        [
                            0.7792671322822571
                        ]
                    ],
                    [
                        [
                            0.8519300818443298
                        ]
                    ],
                    [
                        [
                            0.13780173659324646
                        ]
                    ]
                ]
            ]
        }
    ],
    "CNN_stage_2": [
        {
            "b": [
                -0.07149805128574371,
                0.1220916137099266,
                0.16623349487781525,
                -0.015077021904289722,
                -0.01615755446255207,
                0.06709420680999756,
                -0.5655738115310669,
                0.11258938908576965
            ],
            "w": [
                [
                    [
                        [
                            -0.7665026187896729,
                            -0.3487401306629181
                        ],
                        [
                            0.16064894199371338,
                            -0.8695755004882812
                        ]
                    ],
                    [
                        [
                            -0.5819521546363831,
                            -0.03111298754811287
                        ],
                        [
                            -0.4418613016605377,
                            0.10403623431921005
                        ]
                    ],
                    [
                        [
                            -0.38323691487312317,
                            0.11320550739765167
                        ],
                        [
                            -0.28624972701072693,
                            0.15611638128757477
                        ]
                    ],
                    [
                        [
                            -0.04996753856539726,
                            -0.33574989438056946
                        ],
                        [
                            0.22157984972000122,
                            0.6275789737701416
                        ]
                    ],
                    [
                        [
                            0.6964015960693359,
                            -0.316432923078537
                        ],
                        [
                            -0.36837419867515564,
                            0.19034332036972046
                        ]
                    ],
                    [
                        [
                            0.07543320208787918,
                            0.17731033265590668
                        ],
                        [
                            -0.17047016322612762,
                            -0.44939014315605164
                        ]
                    ],
                    [
                        [
                            0.4655911922454834,
                            0.6584343314170837
                        ],
                        [
                            -0.09603305160999298,
                            0.5912767052650452
                        ]
                    ],
                    [
                        [
                            -0.123341403901577,
                            -0.7516189217567444
                        ],
                        [
                            0.865348219871521,
                            0.40381157398223877
                        ]
                    ]
                ],
                [
                    [
                        [
                            -0.09553883224725723,
                            -0.2960129976272583
                        ],
                        [
                            -0.041633300483226776,
                            -1.3083326816558838
                        ]
                    ],
                    [
                        [
                            -0.46430152654647827,
                            0.3970635235309601
                        ],
                        [
                            -0.554197371006012,
                            -0.4002341628074646
                        ]
                    ],
                    [
                        [
                            0.006108707282692194,
                            0.6121734976768494
                        ],
                        [
                            -0.3180566132068634,
                            0.29659560322761536
                        ]
                    ],
                    [
                        [
                            0.1431262046098709,
                            0.06009969115257263
                        ],
                        [
                            -0.17554230988025665,
                            -0.5911019444465637
                        ]
                    ],
                    [
                        [
                            -0.18236026167869568,
                            0.9963215589523315
                        ],
                        [
                            0.05821658670902252,
                            0.10534626245498657
                        ]
                    ],
                    [
                        [
                            -0.19473101198673248,
                            -0.4249511659145355
                        ],
                        [
                            -0.05841045081615448,
                            0.6713395118713379
                        ]
                    ],
                    [
                        [
                            0.31256088614463806,
                            0.5477029085159302
                        ],
                        [
                            -0.6734253764152527,
                            -0.3384988307952881
                        ]
                    ],
                    [
                        [
                            -0.03445177152752876,
                            0.6256817579269409
                        ],
                        [
                            -0.027599308639764786,
                            -0.17135338485240936
                        ]
                    ]
                ],
                [
                    [
                        [
                            0.0865931361913681,
                            -0.2086835354566574
                        ],
                        [
                            -0.006629614159464836,
                            -0.13428907096385956
                        ]
                    ],
                    [
                        [
                            0.22489719092845917,
                            -0.4012790620326996
                        ],
                        [
                            0.25257807970046997,
                            -0.495956152677536
                        ]
                    ],
                    [
                        [
                            -0.18250766396522522,
                            -0.22490501403808594
                        ],
                        [
                            0.35358190536499023,
                            0.3840225338935852
                        ]
                    ],
                    [
                        [
                            -0.5921356678009033,
                            0.9604093432426453
                        ],
                        [
                            0.25887158513069153,
                            0.22426018118858337
                        ]
                    ],
                    [
                        [
                            0.3026834726333618,
                            -0.08202748745679855
                        ],
                        [
                            0.24767804145812988,
                            0.5207384824752808
                        ]
                    ],
                    [
                        [
                            -0.03410574421286583,
                            -0.23216111958026886
                        ],
                        [
                            -0.02311781421303749,
                            -0.05440974980592728
                        ]
                    ],
                    [
                        [
                            -0.18610705435276031,
                            0.05457516387104988
                        ],
                        [
                            0.258023738861084,
                            0.12839938700199127
                        ]
                    ],
                    [
                        [
                            -0.012856374494731426,
                            -0.44024544954299927
                        ],
                        [
                            0.4245341420173645,
                            0.2702818512916565
                        ]
                    ]
                ],
                [
                    [
                        [
                            0.291150838136673,
                            0.27776357531547546
                        ],
                        [
                            -0.008491565473377705,
                            0.0780714824795723
                        ]
                    ],
                    [
                        [
                            -0.11262121051549911,
                            -0.197739377617836
                        ],
                        [
                            -0.527321994304657,
                            0.5271726250648499
                        ]
                    ],
                    [
                        [
                            0.4010075330734253,
                            0.5137873888015747
                        ],
                        [
                            -0.34642282128334045,
                            0.04853837564587593
                        ]
                    ],
                    [
                        [
                            -0.2548752427101135,
                            -0.39011767506599426
                        ],
                        [
                            0.3253067135810852,
                            0.00747819896787405
                        ]
                    ],
                    [
                        [
                            0.23668816685676575,
                            -0.2560787796974182
                        ],
                        [
                            -0.041061658412218094,
                            -0.26670992374420166
                        ]
                    ],
                    [
                        [
                            0.08548030257225037,
                            0.5867182016372681
                        ],
                        [
                            -0.5261778235435486,
                            0.18292094767093658
                        ]
                    ],
                    [
                        [
                            -0.3823002576828003,
                            0.2239629477262497
                        ],
                        [
                            0.30855780839920044,
                            -0.12584136426448822
                        ]
                    ],
                    [
                        [
                            -0.046532634645700455,
                            -0.33309563994407654
                        ],
                        [
                            0.03454393520951271,
                            0.27314436435699463
                        ]
                    ]
                ],
                [
                    [
                        [
                            -0.07288947701454163,
                            -0.46917492151260376
                        ],
                        [
                            -0.273340106010437,
                            -0.23496800661087036
                        ]
                    ],
                    [
                        [
                            -0.3133680522441864,
                            -0.6840324997901917
                        ],
                        [
                            -0.02633705921471119,
                            -0.17096401751041412
                        ]
                    ],
                    [
                        [
                            0.09262475371360779,
                            -0.01409181859344244
                        ],
                        [
                            -0.16825473308563232,
                            -0.45706814527511597
                        ]
                    ],
                    [
                        [
                            0.21581675112247467,
                            -0.10550114512443542
                        ],
                        [
                            0.3833477795124054,
                            0.36090078949928284
                        ]
                    ],
                    [
                        [
                            0.7333637475967407,
                            0.1282651424407959
                        ],
                        [
                            0.22058755159378052,
                            -0.3742636442184448
                        ]
                    ],
                    [
                        [
                            0.3110753893852234,
                            0.48777851462364197
                        ],
                        [
                            0.1887488216161728,
                            0.42444097995758057
                        ]
                    ],
                    [
                        [
                            0.08340266346931458,
                            0.0016602491959929466
                        ],
                        [
                            0.11174935847520828,
                            -0.08136293292045593
                        ]
                    ],
                    [
                        [
                            -0.2297506183385849,
                            0.2507574260234833
                        ],
                        [
                            0.27275264263153076,
                            -0.1728808879852295
                        ]
                    ]
                ],
                [
                    [
                        [
                            -0.11246978491544724,
                            0.41659605503082275
                        ],
                        [
                            -1.0481271743774414,
                            -0.3379387855529785
                        ]
                    ],
                    [
                        [
                            0.1906125247478485,
                            0.747843325138092
                        ],
                        [
                            -0.295281320810318,
                            0.37075406312942505
                        ]
                    ],
                    [
                        [
                            0.055562566965818405,
                            0.6086185574531555
                        ],
                        [
                            -0.420593798160553,
                            -0.15428924560546875
                        ]
                    ],
                    [
                        [
                            -0.08025600761175156,
                            0.019509803503751755
                        ],
                        [
                            0.45360851287841797,
                            -0.23160265386104584
                        ]
                    ],
                    [
                        [
                            -0.034223783761262894,
                            0.13568580150604248
                        ],
                        [
                            -0.014991897158324718,
                            -0.2106970250606537
                        ]
                    ],
                    [
                        [
                            0.5818217992782593,
                            -0.5331748127937317
                        ],
                        [
                            -0.2767639756202698,
                            -0.04918156936764717
                        ]
                    ],
                    [
                        [
                            -0.05210595205426216,
                            0.683590829372406
                        ],
                        [
                            0.5524402260780334,
                            -0.008671114221215248
                        ]
                    ],
                    [
                        [
                            -0.21316564083099365,
                            -0.7776784300804138
                        ],
                        [
                            -0.054213061928749084,
                            0.2841021418571472
                        ]
                    ]
                ],
                [
                    [
                        [
                            0.3372756540775299,
                            0.7427694797515869
                        ],
                        [
                            -0.05109332874417305,
                            -0.13197846710681915
                        ]
                    ],
                    [
                        [
                            0.14941757917404175,
                            0.4828905761241913
                        ],
                        [
                            -0.15739025175571442,
                            0.6427850127220154
                        ]
                    ],
                    [
                        [
                            0.48814472556114197,
                            -0.011874226853251457
                        ],
                        [
                            0.2049102783203125,
                            0.4511069655418396
                        ]
                    ],
                    [
                        [
                            0.42805516719818115,
                            -0.25858303904533386
                        ],
                        [
                            0.425944060087204,
                            0.2412620335817337
                        ]
                    ],
                    [
                        [
                            -0.4841826260089874,
                            -0.3387332260608673
                        ],
                        [
                            0.27150920033454895,
                            0.14903859794139862
                        ]
                    ],
                    [
                        [
                            -0.6810287833213806,
                            -0.4207003116607666
                        ],
                        [
                            -0.7655389904975891,
                            -0.20017480850219727
                        ]
                    ],
                    [
                        [
                            0.5437635779380798,
                            -0.1286040097475052
                        ],
                        [
                            0.4222002923488617,
                            0.3772761821746826
                        ]
                    ],
                    [
                        [
                            -0.033794283866882324,
                            0.22433851659297943
                        ],
                        [
                            -0.015485526993870735,
                            0.03601502254605293
                        ]
                    ]
                ],
                [
                    [
                        [
                            -0.26386645436286926,
                            -0.44802549481391907
                        ],
                        [
                            0.41053712368011475,
                            -0.11730936914682388
                        ]
                    ],
                    [
                        [
                            -0.24570246040821075,
                            -0.11958715319633484
                        ],
                        [
                            0.2447211593389511,
                            -0.7360467910766602
                        ]
                    ],
                    [
                        [
                            0.5328059792518616,
                            0.19328603148460388
                        ],
                        [
                            0.20259635150432587,
                            0.14846020936965942
                        ]
                    ],
                    [
                        [
                            0.06795176863670349,
                            0.20219315588474274
                        ],
                        [
                            0.21096298098564148,
                            0.12364424020051956
                        ]
                    ],
                    [
                        [
                            0.11809292435646057,
                            -0.7546391487121582
                        ],
                        [
                            -0.3961872458457947,
                            0.08788750320672989
                        ]
                    ],
                    [
                        [
                            -0.5330515503883362,
                            -0.4241984486579895
                        ],
                        [
                            0.08021727949380875,
                            -0.11555200815200806
                        ]
                    ],
                    [
                        [
                            0.6108476519584656,
                            -0.0147000253200531
                        ],
                        [
                            0.10278961062431335,
                            0.5832868218421936
                        ]
                    ],
                    [
                        [
                            0.12745323777198792,
                            -0.23280541598796844
                        ],
                        [
                            -0.03300236538052559,
                            -0.21676531434059143
                        ]
                    ]
                ]
            ]
        }
    ],
    "MLP_stage_3": [
        {
            "b": [
                -0.3131192624568939,
                -0.1619158685207367,
                -0.016626432538032532,
                -0.16788680851459503,
                -0.004657949320971966,
                -0.10902219265699387,
                0.07701782882213593,
                0.05521165579557419,
                -0.3178999125957489,
                -0.0908912718296051,
                -0.22082242369651794,
                -0.16061080992221832,
                -0.18578727543354034,
                -0.19349835813045502,
                -0.29250863194465637,
                -0.040778495371341705,
                -0.5212721824645996,
                0.14626024663448334,
                -0.4933139681816101,
                -0.3856104016304016,
                -0.17211627960205078,
                -0.15516602993011475,
                -0.10876335203647614,
                -0.25905755162239075,
                -0.23161478340625763,
                -0.07534357905387878,
                -0.04394945874810219,
                0.006891525816172361,
                -0.3928891718387604,
                -0.3082684874534607,
                -0.391552597284317,
                0.09083440899848938,
                -0.23396383225917816,
                -0.26514601707458496,
                -0.013286862522363663,
                0.10287992656230927,
                -0.061996690928936005,
                -0.06456626206636429,
                0.22042816877365112,
                -0.3755961060523987,
                -0.2122812718153,
                -0.27064216136932373,
                -0.11014406383037567,
                -0.19690875709056854,
                0.05466679483652115,
                0.04684427008032799,
                0.012379697524011135,
                -0.10547114163637161,
                0.04546889290213585,
                -0.40518271923065186
            ],
            "w": [
                [
                    -0.18629920482635498,
                    -0.11136533319950104,
                    -0.1348963975906372,
                    -0.2581806480884552,
                    -0.3479343056678772,
                    -0.09721393883228302,
                    0.7623618841171265,
                    -0.31422555446624756,
                    -0.1549622267484665,
                    -0.11575581133365631,
                    0.16317647695541382,
                    -0.17385204136371613,
                    -0.21426594257354736,
                    0.5448999404907227,
                    -0.6454474329948425,
                    -0.4069986939430237,
                    -0.966894805431366,
                    0.023572375997900963,
                    -0.3304864168167114,
                    -0.3824436068534851,
                    0.058129556477069855,
                    -0.401943564414978,
                    0.03992282226681709,
                    -0.17366772890090942,
                    -0.1863413006067276,
                    -0.40720701217651367,
                    0.20920614898204803,
                    -0.4505721628665924,
                    -0.4755774736404419,
                    0.04834723100066185,
                    -0.32670414447784424,
                    -0.13493715226650238,
                    0.7321938872337341,
                    -0.004127593711018562,
                    -0.19299714267253876,
                    -0.23901383578777313,
                    0.015737341716885567,
                    0.1903572529554367,
                    -0.3185860216617584,
                    0.17816264927387238,
                    0.7668861150741577,
                    -0.7727913856506348,
                    0.5130207538604736,
                    -0.012350627221167088,
                    0.3818720877170563,
                    0.11293982714414597,
                    0.5203032493591309,
                    0.13283073902130127,
                    -0.31219425797462463,
                    0.19295789301395416
                ],
                [
                    0.46978241205215454,
                    -0.48687711358070374,
                    0.17646697163581848,
                    -0.5699968338012695,
                    0.1322813183069229,
                    0.6292391419410706,
                    0.20772629976272583,
                    -1.9226160049438477,
                    -0.4739450514316559,
                    -0.4880059063434601,
                    -0.1566348373889923,
                    -0.8033392429351807,
                    -0.01907666213810444,
                    0.13643842935562134,
                    0.22368720173835754,
                    0.3590536117553711,
                    -0.163056418299675,
                    0.3639557659626007,
                    0.6268337368965149,
                    -0.8346770405769348,
                    0.19013018906116486,
                    0.1572979837656021,
                    -0.44122380018234253,
                    0.6192045211791992,
                    0.3745919466018677,
                    0.2755665183067322,
                    0.2045464813709259,
                    -0.28985345363616943,
                    -0.5442749857902527,
                    0.20147371292114258,
                    -0.02629849687218666,
                    -0.2794184684753418,
                    0.11792759597301483,
                    0.18458299338817596,
                    -2.046804428100586,
                    -0.0954209491610527,
                    0.2211010456085205,
                    0.4041837453842163,
                    0.7788774967193604,
                    0.563507616519928,
                    -0.41425198316574097,
                    0.35601428151130676,
                    0.5849855542182922,
                    0.05258667469024658,
                    -0.21084357798099518,
                    -1.234603762626648,
                    0.47942641377449036,
                    0.09986130148172379,
                    0.14755620062351227,
                    0.37746021151542664
                ],
                [
                    0.22896027565002441,
                    -0.12305022776126862,
                    -0.03768997639417648,
                    0.9947507381439209,
                    0.19853578507900238,
                    0.5227656364440918,
                    -0.06250704079866409,
                    -0.5372848510742188,
                    -0.388965368270874,
                    -0.11939013004302979,
                    -0.2674281597137451,
                    -0.5329880118370056,
                    0.9967836737632751,
                    0.5017966032028198,
                    0.5914198756217957,
                    -0.26177552342414856,
                    -0.4392951726913452,
                    -0.8360155820846558,
                    -0.4076692759990692,
                    0.14557813107967377,
                    0.4854840636253357,
                    1.2832809686660767,
                    -0.04055114462971687,
                    0.6717605590820312,
                    -0.15562637150287628,
                    -0.02057829685509205,
                    -0.6679188013076782,
                    0.7751283645629883,
                    0.40098997950553894,
                    1.0995233058929443,
                    -0.11399886757135391,
                    0.11462830007076263,
                    -0.4042717516422272,
                    -0.006430496461689472,
                    -0.6412231922149658,
                    0.3091691732406616,
                    0.06545460969209671,
                    0.04660099372267723,
                    0.017993442714214325,
                    0.02853205054998398,
                    0.06199219822883606,
                    -0.41717249155044556,
                    0.2870241403579712,
                    0.2260604202747345,
                    -0.48200228810310364,
                    -0.659327507019043,
                    1.0760899782180786,
                    0.3166874349117279,
                    -0.3561401069164276,
                    1.1167114973068237
                ],
                [
                    0.5765941739082336,
                    -0.6152295470237732,
                    0.2949545085430145,
                    0.18155881762504578,
                    -0.5038589239120483,
                    -0.44904813170433044,
                    -0.017656443640589714,
                    -0.1956724226474762,
                    -0.16650107502937317,
                    -0.06569624692201614,
                    -0.36835503578186035,
                    0.07028049975633621,
                    -0.40551790595054626,
                    -0.1263577938079834,
                    -0.12813325226306915,
                    0.5714837312698364,
                    0.08680663257837296,
                    0.34603604674339294,
                    -0.23361407220363617,
                    0.20481011271476746,
                    -0.3554455041885376,
                    0.11854297667741776,
                    -0.8403626084327698,
                    -0.28507930040359497,
                    -0.1671874225139618,
                    0.07167123258113861,
                    0.20569242537021637,
                    -0.41225019097328186,
                    -0.6304646730422974,
                    0.7200577855110168,
                    0.25929611921310425,
                    0.18542884290218353,
                    0.16712483763694763,
                    -0.13012942671775818,
                    -0.7540228366851807,
                    0.2948642373085022,
                    -0.052323125302791595,
                    -0.07274410873651505,
                    0.09633352607488632,
                    0.07428331673145294,
                    0.3477979004383087,
                    -0.355715274810791,
                    0.10822659730911255,
                    -0.3504697382450104,
                    0.32793542742729187,
                    -0.08304689824581146,
                    0.4204569160938263,
                    0.5938891172409058,
                    0.18570254743099213,
                    0.28047803044319153
                ],
                [
                    -0.007105544675141573,
                    0.1983867734670639,
                    0.34005653858184814,
                    -0.3202718198299408,
                    0.2971559762954712,
                    0.15964016318321228,
                    -0.748573899269104,
                    0.42667871713638306,
                    0.5223727822303772,
                    -0.16548669338226318,
                    -0.07494243234395981,
                    0.40524783730506897,
                    -0.04464839771389961,
                    -0.4198581874370575,
                    0.11187730729579926,
                    -0.3390657305717468,
                    0.752190351486206,
                    0.39068901538848877,
                    -0.335599809885025,
                    0.1062568798661232,
                    0.31370505690574646,
                    -0.05536174401640892,
                    -0.053290124982595444,
                    -0.16148929297924042,
                    -0.001965211471542716,
                    0.6416705846786499,
                    0.13977009057998657,
                    0.24143873155117035,
                    -0.09791738539934158,
                    -0.3115689158439636,
                    0.6869757175445557,
                    0.03768409788608551,
                    0.32929861545562744,
                    -0.13043297827243805,
                    -2.313054084777832,
                    -0.09684273600578308,
                    0.4922894537448883,
                    0.08161593228578568,
                    -0.1430397480726242,
                    -0.06565161794424057,
                    -0.6442967653274536,
                    -0.4168826937675476,
                    0.1356939971446991,
                    0.3698440492153168,
                    -0.05292750149965286,
                    -1.4525761604309082,
                    0.0693308562040329,
                    -0.4418736696243286,
                    0.28708118200302124,
                    -0.6358808279037476
                ],
                [
                    0.16073277592658997,
                    -0.3535674512386322,
                    0.09647732973098755,
                    -0.19304437935352325,
                    -0.642111599445343,
                    0.6645105481147766,
                    -0.25378742814064026,
                    -0.1586739718914032,
                    -0.8414468169212341,
                    0.23633718490600586,
                    -0.32090362906455994,
                    -0.6239792704582214,
                    -0.48273199796676636,
                    0.3176473379135132,
                    -0.7255974411964417,
                    -0.06000300124287605,
                    -1.0621339082717896,
                    -1.0562639236450195,
                    0.5604721903800964,
                    -0.395294725894928,
                    -0.16074803471565247,
                    -0.26214632391929626,
                    0.20628459751605988,
                    0.24001245200634003,
                    0.21212680637836456,
                    0.24032342433929443,
                    -0.521369457244873,
                    -0.32450127601623535,
                    -0.48807182908058167,
                    -0.17386306822299957,
                    -0.3667997121810913,
                    -0.3185124397277832,
                    0.16239693760871887,
                    0.7318356037139893,
                    0.03518717363476753,
                    -0.20704765617847443,
                    0.011266080662608147,
                    0.4886488914489746,
                    0.5070979595184326,
                    0.996505081653595,
                    -0.6448888182640076,
                    0.19396713376045227,
                    0.14632774889469147,
                    0.6892672777175903,
                    -0.1376482993364334,
                    0.038827721029520035,
                    0.381784051656723,
                    -0.25355687737464905,
                    0.22954756021499634,
                    0.2795886993408203
                ],
                [
                    -0.1602579653263092,
                    0.17381568253040314,
                    -1.1511422395706177,
                    0.18107518553733826,
                    -0.7383214831352234,
                    0.7046164274215698,
                    0.3222741484642029,
                    -0.0966942235827446,
                    -0.049713727086782455,
                    0.3122154176235199,
                    0.507886528968811,
                    0.18560439348220825,
                    0.1522343009710312,
                    -0.47393086552619934,
                    0.12351147085428238,
                    -1.3825548887252808,
                    0.032564062625169754,
                    1.1080660820007324,
                    -1.5488495826721191,
                    -0.17271392047405243,
                    0.31016820669174194,
                    0.24551741778850555,
                    0.1008174791932106,
                    -0.054130908101797104,
                    1.2610137462615967,
                    0.11634495109319687,
                    -0.033900387585163116,
                    0.6304006576538086,
                    -0.8974140286445618,
                    -0.19247063994407654,
                    -0.927174985408783,
                    0.8524492383003235,
                    0.3767746090888977,
                    -0.44073110818862915,
                    0.11147143691778183,
                    0.5235608816146851,
                    0.34817591309547424,
                    0.286743700504303,
                    0.24063219130039215,
                    -0.3902086913585663,
                    -0.7259594798088074,
                    -1.2093042135238647,
                    -0.4324242174625397,
                    1.1954028606414795,
                    0.42355644702911377,
                    0.3757045865058899,
                    -0.20586614310741425,
                    0.14948011934757233,
                    -0.2790530323982239,
                    -0.019035691395401955
                ],
                [
                    -0.18324080109596252,
                    0.3368813693523407,
                    0.5759508013725281,
                    -0.3114703595638275,
                    -0.9475281834602356,
                    0.6051903963088989,
                    -0.037067826837301254,
                    -0.42917925119400024,
                    0.4858352541923523,
                    0.977007269859314,
                    0.6147890090942383,
                    0.31889116764068604,
                    0.05212235450744629,
                    -0.8595020771026611,
                    -0.7505776882171631,
                    0.5496925115585327,
                    0.7660452723503113,
                    -1.059924602508545,
                    0.43928855657577515,
                    0.40540724992752075,
                    -0.4618557095527649,
                    0.10754077881574631,
                    -0.811224102973938,
                    0.3003252148628235,
                    0.19681428372859955,
                    0.5097362995147705,
                    0.05776883661746979,
                    0.13687491416931152,
                    -0.6030705571174622,
                    -0.038862649351358414,
                    -0.23836585879325867,
                    -0.012066252529621124,
                    -0.6563377380371094,
                    0.48019927740097046,
                    0.19445128738880157,
                    0.1254538744688034,
                    0.14509615302085876,
                    0.24098925292491913,
                    0.38369885087013245,
                    0.11132147908210754,
                    -1.0557429790496826,
                    0.690001368522644,
                    -0.07531445473432541,
                    0.13388630747795105,
                    -0.6710039973258972,
                    0.30489805340766907,
                    0.3635905385017395,
                    -0.8294848203659058,
                    0.1170293390750885,
                    -0.09316874295473099
                ],
                [
                    -0.10759059339761734,
                    0.09184636175632477,
                    -0.3191625475883484,
                    0.4227152168750763,
                    -0.19093193113803864,
                    0.23695485293865204,
                    -0.11184756457805634,
                    0.04270397499203682,
                    0.2584281861782074,
                    0.2746497392654419,
                    0.16219958662986755,
                    0.020616991445422173,
                    0.2574530839920044,
                    0.3722993731498718,
                    -0.9995588064193726,
                    -0.21819646656513214,
                    0.16122400760650635,
                    0.06943400204181671,
                    0.0815357118844986,
                    0.22482094168663025,
                    0.35621652007102966,
                    0.24909625947475433,
                    -0.08256413042545319,
                    -0.4334793984889984,
                    0.3083653151988983,
                    -0.26886647939682007,
                    0.3586023449897766,
                    0.3854677677154541,
                    0.04685933142900467,
                    0.49928444623947144,
                    -0.5857136845588684,
                    -0.14715826511383057,
                    0.4603477716445923,
                    0.3312202990055084,
                    0.42927488684654236,
                    -0.046444427222013474,
                    -0.29172396659851074,
                    -0.4140395522117615,
                    -0.1858530044555664,
                    -0.14416968822479248,
                    0.2657049596309662,
                    -0.4446026384830475,
                    0.5990504622459412,
                    -0.006425794214010239,
                    -0.14296719431877136,
                    0.10424190759658813,
                    -0.34285250306129456,
                    0.6398409605026245,
                    0.003053089836612344,
                    -0.45348066091537476
                ],
                [
                    0.4820290207862854,
                    0.24161285161972046,
                    0.2390899807214737,
                    -0.4087509512901306,
                    0.3653980791568756,
                    -0.20850685238838196,
                    0.5135849118232727,
                    -0.2751080095767975,
                    0.20201197266578674,
                    -0.8265153765678406,
                    0.5674207806587219,
                    0.6413276195526123,
                    -0.03515229746699333,
                    -0.7594534158706665,
                    0.19675670564174652,
                    0.1463121622800827,
                    -0.15763810276985168,
                    -0.18029820919036865,
                    0.11954457312822342,
                    0.19858859479427338,
                    0.35475388169288635,
                    -0.05333484709262848,
                    -0.18653364479541779,
                    0.060914527624845505,
                    0.5462218523025513,
                    0.7935248613357544,
                    0.2687722444534302,
                    0.3765810430049896,
                    -0.209077849984169,
                    -0.02742641232907772,
                    0.3799501359462738,
                    0.2272314429283142,
                    -0.5133463144302368,
                    -0.3183709979057312,
                    -0.5713291764259338,
                    0.10955237597227097,
                    0.38421693444252014,
                    0.5018643736839294,
                    0.23259833455085754,
                    -0.6089352965354919,
                    -0.7372519373893738,
                    -0.5296324491500854,
                    0.23395341634750366,
                    0.40069764852523804,
                    0.04771721363067627,
                    -0.385238915681839,
                    -0.07970001548528671,
                    0.11207873374223709,
                    0.21062302589416504,
                    0.1054515391588211
                ],
                [
                    0.052771247923374176,
                    -0.5486376881599426,
                    0.3448541462421417,
                    -0.4800693392753601,
                    -1.2258270978927612,
                    -0.4909687042236328,
                    0.16064871847629547,
                    -0.44684895873069763,
                    0.016028443351387978,
                    -0.9730626344680786,
                    -0.8283483386039734,
                    -0.9627286791801453,
                    -0.4336402714252472,
                    0.19728977978229523,
                    -0.3098887801170349,
                    0.7617630362510681,
                    -0.31554728746414185,
                    0.1491169035434723,
                    0.3471004068851471,
                    -0.40470656752586365,
                    -0.5234554409980774,
                    -0.4281577467918396,
                    -0.647101879119873,
                    0.3094313442707062,
                    -0.301225483417511,
                    -0.34484994411468506,
                    0.004681258928030729,
                    -0.19762712717056274,
                    -0.5212085247039795,
                    0.267240047454834,
                    -0.20884928107261658,
                    -0.03437737748026848,
                    -0.2587180435657501,
                    -0.0806795060634613,
                    -0.05921728536486626,
                    -0.04372217506170273,
                    -0.2437146157026291,
                    -0.4369337558746338,
                    -0.8337584137916565,
                    0.03883586823940277,
                    0.07989855110645294,
                    0.7645571827888489,
                    -0.04978941008448601,
                    -0.4690614640712738,
                    0.48623743653297424,
                    0.14540870487689972,
                    -0.3653227984905243,
                    0.033451516181230545,
                    0.1138511523604393,
                    0.6461043953895569
                ],
                [
                    -0.7445763945579529,
                    -0.3365305960178375,
                    0.7365028262138367,
                    -0.14084263145923615,
                    0.295317143201828,
                    -0.5888842344284058,
                    -0.27116870880126953,
                    -0.032083868980407715,
                    -0.16445928812026978,
                    0.04963824525475502,
                    -0.19642162322998047,
                    -0.3393070697784424,
                    0.03663703426718712,
                    -0.4166615307331085,
                    0.044318705797195435,
                    0.17081578075885773,
                    0.015065616928040981,
                    0.27091678977012634,
                    0.5070275068283081,
                    0.02988668903708458,
                    0.19108909368515015,
                    -0.07897812873125076,
                    -0.485138863325119,
                    0.3422142267227173,
                    -0.24246546626091003,
                    -1.1470633745193481,
                    -0.4465411603450775,
                    0.13837987184524536,
                    -0.32454031705856323,
                    0.13669492304325104,
                    -0.1053614541888237,
                    -0.17307722568511963,
                    -0.24919576942920685,
                    0.3477192521095276,
                    0.20336446166038513,
                    -0.2345675826072693,
                    -0.978838324546814,
                    0.30538856983184814,
                    0.43526533246040344,
                    0.5825575590133667,
                    -0.07585888355970383,
                    0.1594257354736328,
                    -0.06958767771720886,
                    -0.3300405740737915,
                    -0.08201013505458832,
                    -0.16145667433738708,
                    -0.279704213142395,
                    -0.037350695580244064,
                    0.2533124089241028,
                    0.03620202839374542
                ],
                [
                    -0.026887992396950722,
                    0.22604858875274658,
                    -0.001686306088231504,
                    0.5434085130691528,
                    0.41507193446159363,
                    -0.09529703855514526,
                    0.580041766166687,
                    -0.5795587301254272,
                    0.22510117292404175,
                    0.17019878327846527,
                    -0.10019390285015106,
                    0.029046515002846718,
                    0.12978708744049072,
                    -0.041790205985307693,
                    -0.5171292424201965,
                    -1.0438092947006226,
                    0.0828482136130333,
                    0.0951860249042511,
                    0.14257268607616425,
                    0.3420911133289337,
                    -0.2737817168235779,
                    -0.05291299894452095,
                    -0.24587006866931915,
                    0.041966669261455536,
                    0.2011474072933197,
                    -0.10848187655210495,
                    0.09591301530599594,
                    -0.39063760638237,
                    -0.1399673968553543,
                    -0.37380877137184143,
                    -0.28267958760261536,
                    0.2264384925365448,
                    -0.1394622027873993,
                    0.2361563891172409,
                    0.38352423906326294,
                    0.2353922724723816,
                    0.09684164822101593,
                    0.4496697187423706,
                    0.2563476860523224,
                    -0.1897508054971695,
                    0.488068163394928,
                    -0.8529584407806396,
                    -0.12522144615650177,
                    0.5266391634941101,
                    0.2692824602127075,
                    0.27102339267730713,
                    -0.4666256010532379,
                    0.12408816069364548,
                    0.35760796070098877,
                    -0.6186293959617615
                ],
                [
                    0.07983222603797913,
                    0.24491724371910095,
                    -0.143731489777565,
                    -0.6624841094017029,
                    -0.7735999226570129,
                    -0.8173402547836304,
                    0.4220316410064697,
                    -0.9708536267280579,
                    0.09614650905132294,
                    -0.4897845387458801,
                    0.13706521689891815,
                    -0.03909885883331299,
                    0.06828700006008148,
                    0.3894250690937042,
                    -0.8343387246131897,
                    0.14077164232730865,
                    -0.06573387235403061,
                    0.09580042958259583,
                    -0.21429724991321564,
                    -0.2704707384109497,
                    -0.661829948425293,
                    -0.01691718026995659,
                    0.09097407758235931,
                    -0.3618238568305969,
                    0.040232103317976,
                    -0.48557159304618835,
                    -0.5185444355010986,
                    -0.2483741194009781,
                    0.018633201718330383,
                    0.0110469413921237,
                    0.375800758600235,
                    0.12849974632263184,
                    0.6276901960372925,
                    -0.8340321183204651,
                    0.3276914060115814,
                    0.647803008556366,
                    -0.6355488300323486,
                    -0.12044280767440796,
                    -0.16503190994262695,
                    -0.2356066256761551,
                    -0.19931022822856903,
                    0.1872285008430481,
                    -0.37760666012763977,
                    0.25460997223854065,
                    0.44017916917800903,
                    0.024685649201273918,
                    -0.4571652412414551,
                    0.8864143490791321,
                    0.38226187229156494,
                    0.006165285594761372
                ],
                [
                    0.6711640357971191,
                    -0.8857412338256836,
                    0.007416746579110622,
                    -0.1087157353758812,
                    0.11719388514757156,
                    -0.27219223976135254,
                    0.32116633653640747,
                    -0.08816330134868622,
                    -0.34490808844566345,
                    -0.8442538380622864,
                    -0.2586151361465454,
                    -0.5003038644790649,
                    0.043183647096157074,
                    -0.11977501958608627,
                    -0.062279243022203445,
                    0.34571579098701477,
                    -0.11654007434844971,
                    0.9126707315444946,
                    -0.7669789791107178,
                    -0.14602093398571014,
                    -0.02344103343784809,
                    -0.25756198167800903,
                    0.2529662251472473,
                    -0.2835649847984314,
                    -0.9366230368614197,
                    -0.5906301140785217,
                    0.3371747136116028,
                    -0.31336599588394165,
                    0.6353973746299744,
                    0.21471190452575684,
                    -0.09993451833724976,
                    -0.2784942388534546,
                    -0.6405698657035828,
                    -0.09014709293842316,
                    -1.3532921075820923,
                    0.47288620471954346,
                    0.16119730472564697,
                    -0.04905204102396965,
                    0.5035730004310608,
                    -0.20321278274059296,
                    -0.477544367313385,
                    0.28239673376083374,
                    0.10245402157306671,
                    -1.1424249410629272,
                    -0.2476247400045395,
                    -1.2177910804748535,
                    -0.5064701437950134,
                    -0.29137545824050903,
                    0.0037366922479122877,
                    0.28819507360458374
                ],
                [
                    -0.1097283810377121,
                    0.07866749912500381,
                    -0.5278990864753723,
                    0.2729611396789551,
                    -0.12229026854038239,
                    -0.03741786256432533,
                    -0.13343282043933868,
                    0.2527444064617157,
                    -0.06574927270412445,
                    0.3953174650669098,
                    -0.9953047037124634,
                    -0.14021870493888855,
                    -0.08289342373609543,
                    0.10204736888408661,
                    -0.4109601080417633,
                    -0.23684166371822357,
                    -0.0663517490029335,
                    -0.45925095677375793,
                    -0.07932080328464508,
                    -0.35783299803733826,
                    0.18801122903823853,
                    0.11375070363283157,
                    0.4354378283023834,
                    0.24029169976711273,
                    -0.5197208523750305,
                    -0.17197635769844055,
                    -0.34389808773994446,
                    0.2908889055252075,
                    0.14817696809768677,
                    0.2624991834163666,
                    -0.16151906549930573,
                    -0.4939923584461212,
                    -0.14780005812644958,
                    0.8147057890892029,
                    -0.1200559139251709,
                    0.2519022822380066,
                    -0.3034474849700928,
                    0.07843729108572006,
                    0.4640747010707855,
                    0.04403413087129593,
                    -0.23588818311691284,
                    0.40779492259025574,
                    0.34788191318511963,
                    -1.1086338758468628,
                    0.024484021589159966,
                    -0.11874770373106003,
                    -0.5230404734611511,
                    0.18979738652706146,
                    0.03722235560417175,
                    0.29692038893699646
                ],
                [
                    0.857898473739624,
                    0.6235665678977966,
                    0.4856438636779785,
                    0.6671520471572876,
                    0.23132187128067017,
                    0.23801052570343018,
                    0.9549710154533386,
                    -1.332599401473999,
                    -0.06811954081058502,
                    0.2310679405927658,
                    0.3702555298805237,
                    0.5323041081428528,
                    0.5058846473693848,
                    0.35439860820770264,
                    -0.12046761065721512,
                    -0.4789009392261505,
                    0.28275033831596375,
                    0.6522359251976013,
                    0.046160027384757996,
                    0.30246618390083313,
                    0.4678274989128113,
                    -0.13190343976020813,
                    -0.14693252742290497,
                    -1.8996503353118896,
                    0.04181966558098793,
                    0.5981935262680054,
                    1.2710341215133667,
                    0.8005304336547852,
                    -0.6891600489616394,
                    0.34211766719818115,
                    -0.0449230819940567,
                    1.4220993518829346,
                    0.48854658007621765,
                    -0.5843217372894287,
                    0.07142024487257004,
                    0.22789011895656586,
                    0.3550470471382141,
                    -0.36556893587112427,
                    -1.1554152965545654,
                    -2.2102699279785156,
                    0.4626002609729767,
                    -0.6225032806396484,
                    -0.7175794243812561,
                    0.5427157282829285,
                    0.35540369153022766,
                    2.3448688983917236,
                    -1.4635307788848877,
                    0.2883938252925873,
                    0.2039184868335724,
                    1.2906904220581055
                ],
                [
                    0.4208988845348358,
                    0.0013797424035146832,
                    0.07907548546791077,
                    0.18188153207302094,
                    0.34627610445022583,
                    0.30689504742622375,
                    0.320785790681839,
                    -0.012212328612804413,
                    0.1903919130563736,
                    0.007921482436358929,
                    0.07666437327861786,
                    -0.7087363004684448,
                    0.27807119488716125,
                    0.3494033217430115,
                    0.08402280509471893,
                    0.5435840487480164,
                    -0.43712642788887024,
                    -0.4077349305152893,
                    -0.038381434977054596,
                    -0.16265465319156647,
                    -0.42117440700531006,
                    -0.2027650624513626,
                    -0.4736044108867645,
                    -1.3433258533477783,
                    0.1743403822183609,
                    -0.4713222086429596,
                    -0.13822588324546814,
                    -0.03923395276069641,
                    -2.3767294883728027,
                    0.15251725912094116,
                    -0.2684004008769989,
                    -0.0953148752450943,
                    0.07892684638500214,
                    -0.042634397745132446,
                    -2.09330153465271,
                    0.22973662614822388,
                    -0.0754496306180954,
                    -0.6151435375213623,
                    -0.6414477229118347,
                    -0.49758008122444153,
                    -0.07885000854730606,
                    -0.29302331805229187,
                    0.041228774935007095,
                    -0.12831343710422516,
                    -0.5376956462860107,
                    0.07118836790323257,
                    -0.2877401113510132,
                    -0.11898964643478394,
                    0.19767196476459503,
                    0.6025557518005371
                ],
                [
                    0.6761635541915894,
                    0.13548880815505981,
                    -0.936103880405426,
                    0.1634252667427063,
                    -0.510330319404602,
                    -0.12464600801467896,
                    -0.10918018966913223,
                    -0.24435356259346008,
                    0.13770367205142975,
                    0.614063560962677,
                    0.29171428084373474,
                    0.18407610058784485,
                    0.5702489018440247,
                    0.17831897735595703,
                    -0.24273733794689178,
                    -0.23383399844169617,
                    0.1683192253112793,
                    -0.13831382989883423,
                    -1.2370679378509521,
                    -0.3113116919994354,
                    -0.1148546040058136,
                    0.29852545261383057,
                    -0.06263668090105057,
                    0.7715440988540649,
                    0.69954913854599,
                    0.026154641062021255,
                    0.6184374690055847,
                    0.22896982729434967,
                    -0.694513201713562,
                    0.5979824662208557,
                    -0.7769155502319336,
                    0.049393583089113235,
                    -0.1693972796201706,
                    0.6937642097473145,
                    -0.4324205815792084,
                    0.1569882035255432,
                    0.461465984582901,
                    0.023131130263209343,
                    0.6408904194831848,
                    0.8199241757392883,
                    -0.14725777506828308,
                    -1.0792577266693115,
                    0.7206461429595947,
                    0.1482575237751007,
                    0.14791712164878845,
                    0.01626318134367466,
                    0.5518098473548889,
                    -0.32299891114234924,
                    -0.09874802082777023,
                    0.9692437052726746
                ],
                [
                    0.31506872177124023,
                    0.5983439087867737,
                    -0.5915815234184265,
                    1.1042593717575073,
                    -0.5532936453819275,
                    0.29937660694122314,
                    0.44954800605773926,
                    -0.26871252059936523,
                    0.474012166261673,
                    0.9037468433380127,
                    0.22537750005722046,
                    0.7607565522193909,
                    0.16668613255023956,
                    0.31216275691986084,
                    -0.5415898561477661,
                    0.03833354637026787,
                    0.259896457195282,
                    0.6669057011604309,
                    -0.4470794200897217,
                    1.0021928548812866,
                    0.4299054741859436,
                    0.3442351222038269,
                    -0.22213059663772583,
                    -0.17780064046382904,
                    0.38103407621383667,
                    0.42856913805007935,
                    0.11984644830226898,
                    0.11675625294446945,
                    -0.5029792189598083,
                    0.29750770330429077,
                    0.36686405539512634,
                    0.2106942981481552,
                    -0.20389603078365326,
                    -0.10731810331344604,
                    -0.36360952258110046,
                    0.023775674402713776,
                    0.7234497666358948,
                    -0.5353459715843201,
                    0.22057533264160156,
                    -0.09701534360647202,
                    0.6291040778160095,
                    0.9069957733154297,
                    -0.002983885584399104,
                    0.7088829874992371,
                    -0.6390221118927002,
                    0.2724728286266327,
                    -0.08085136860609055,
                    -0.7037167549133301,
                    0.1218341737985611,
                    -0.07763072848320007
                ],
                [
                    0.10560084879398346,
                    -0.04203030467033386,
                    -1.2321932315826416,
                    -1.8529229164123535,
                    0.601954996585846,
                    -0.08353016525506973,
                    -0.2853128910064697,
                    0.5419703722000122,
                    -0.18675822019577026,
                    -0.03618384897708893,
                    0.4672453999519348,
                    -0.28908106684684753,
                    -1.6342686414718628,
                    -0.17991715669631958,
                    0.6130104660987854,
                    -0.5553499460220337,
                    -0.16286762058734894,
                    -0.25347432494163513,
                    -0.6466578841209412,
                    -0.7362039685249329,
                    -1.8130760192871094,
                    -1.733550786972046,
                    -0.03705562651157379,
                    0.13979794085025787,
                    0.4778621792793274,
                    -0.7287396192550659,
                    -0.376620888710022,
                    -1.941105842590332,
                    -0.319060742855072,
                    -1.5333459377288818,
                    -0.4616662859916687,
                    -0.8351314067840576,
                    0.2539205253124237,
                    0.06354421377182007,
                    0.9244481325149536,
                    -1.6500403881072998,
                    -0.41998228430747986,
                    0.48864105343818665,
                    0.006152044050395489,
                    0.06374985724687576,
                    -0.7890046834945679,
                    -0.8527466058731079,
                    0.5667151808738708,
                    0.27969926595687866,
                    -0.19512967765331268,
                    0.7524466514587402,
                    0.30157455801963806,
                    0.3839316666126251,
                    -0.2212231606245041,
                    -0.1384924352169037
                ],
                [
                    1.2000914812088013,
                    0.2024567872285843,
                    0.2573877274990082,
                    0.39636287093162537,
                    0.07140535861253738,
                    0.3635864555835724,
                    -0.13160930573940277,
                    -0.31528225541114807,
                    -0.032446008175611496,
                    1.4178695678710938,
                    0.21891234815120697,
                    0.3858794867992401,
                    0.6385757923126221,
                    -0.22817640006542206,
                    -0.87259840965271,
                    0.15515094995498657,
                    -0.2059108465909958,
                    -0.3181498348712921,
                    0.04761292412877083,
                    0.08508067578077316,
                    0.6477741599082947,
                    0.9575271010398865,
                    0.38005343079566956,
                    0.1618606597185135,
                    0.1938171684741974,
                    0.6424356698989868,
                    -0.2188938707113266,
                    0.7557120323181152,
                    -0.23855654895305634,
                    0.619938850402832,
                    0.3133329153060913,
                    -0.20770592987537384,
                    -0.23938606679439545,
                    -0.34604761004447937,
                    -0.006253520958125591,
                    -0.03357340022921562,
                    1.0507546663284302,
                    -0.2629256248474121,
                    -0.015365824103355408,
                    -0.8213427662849426,
                    -0.11932804435491562,
                    0.5966334342956543,
                    0.16182756423950195,
                    0.3912201225757599,
                    -0.19763268530368805,
                    -0.04265328869223595,
                    -0.4112105071544647,
                    -0.542739748954773,
                    0.1033296287059784,
                    0.06781725585460663
                ],
                [
                    0.30952849984169006,
                    -0.22638335824012756,
                    0.09116525202989578,
                    -0.11999130249023438,
                    0.4667331874370575,
                    -1.1663358211517334,
                    0.35988134145736694,
                    -0.6375526785850525,
                    0.32394173741340637,
                    -1.0221437215805054,
                    0.1425488144159317,
                    -0.5518414378166199,
                    0.13759809732437134,
                    -0.1878916472196579,
                    0.643066942691803,
                    -0.27705880999565125,
                    0.40294167399406433,
                    0.232375830411911,
                    -0.46648335456848145,
                    -0.29478228092193604,
                    -0.228575199842453,
                    0.30261242389678955,
                    0.3200891613960266,
                    -0.7110216617584229,
                    0.07806580513715744,
                    -0.5274831056594849,
                    0.49242138862609863,
                    0.13971708714962006,
                    0.5173397064208984,
                    0.22684301435947418,
                    -0.01822727359831333,
                    0.7658452987670898,
                    -0.6115117073059082,
                    0.1330927312374115,
                    0.07715269178152084,
                    -0.21806712448596954,
                    -0.41679146885871887,
                    -0.6640646457672119,
                    -0.5954276323318481,
                    0.037822362035512924,
                    -0.32758885622024536,
                    -0.058627836406230927,
                    -0.029143327847123146,
                    0.6300796866416931,
                    -0.23958295583724976,
                    -0.03069363161921501,
                    0.25945910811424255,
                    -0.13859042525291443,
                    -1.0728189945220947,
                    0.3710828423500061
                ],
                [
                    0.09902571886777878,
                    0.26750287413597107,
                    0.4240024983882904,
                    -0.00958583876490593,
                    0.12634606659412384,
                    -0.8770102262496948,
                    -0.1928674429655075,
                    0.48970717191696167,
                    0.03354605287313461,
                    0.5988572239875793,
                    0.10135002434253693,
                    0.638123631477356,
                    0.26550737023353577,
                    -0.545097827911377,
                    0.3812839388847351,
                    -0.5198817253112793,
                    -0.2021660953760147,
                    -1.2230960130691528,
                    -0.16438421607017517,
                    0.14929893612861633,
                    0.039672039449214935,
                    0.2914140522480011,
                    -0.060928940773010254,
                    -0.6344822645187378,
                    -0.40577468276023865,
                    0.07861603051424026,
                    -0.1900945007801056,
                    0.15207549929618835,
                    0.13665282726287842,
                    -0.16809815168380737,
                    0.1865413635969162,
                    0.2132125347852707,
                    0.35018524527549744,
                    -0.1049504280090332,
                    -0.24719248712062836,
                    0.5154250860214233,
                    -0.3538573682308197,
                    0.7352734208106995,
                    0.6915147304534912,
                    -0.06184733286499977,
                    0.13981421291828156,
                    -0.5237608551979065,
                    0.11889470368623734,
                    -0.9824873805046082,
                    -0.3941628336906433,
                    0.27700817584991455,
                    0.3788808286190033,
                    -0.1171204149723053,
                    0.5078641772270203,
                    -0.19104145467281342
                ],
                [
                    0.5164199471473694,
                    0.312614381313324,
                    0.28705456852912903,
                    0.5280988216400146,
                    0.10535779595375061,
                    0.18559658527374268,
                    0.5537781715393066,
                    -0.4179133176803589,
                    0.2740141749382019,
                    -0.00906425155699253,
                    -0.01006008218973875,
                    0.2505855858325958,
                    0.346731036901474,
                    -0.33632975816726685,
                    -0.17712822556495667,
                    -0.5101345181465149,
                    -0.08913112431764603,
                    -0.1866089552640915,
                    0.028327083215117455,
                    0.5817636847496033,
                    0.2656099498271942,
                    0.3575645089149475,
                    0.6113500595092773,
                    0.16649742424488068,
                    0.29889485239982605,
                    0.6027904152870178,
                    0.008080843836069107,
                    -0.01165502518415451,
                    -0.3033559322357178,
                    -0.32872274518013,
                    0.6764837503433228,
                    0.5217229127883911,
                    -0.5603036880493164,
                    0.08057228475809097,
                    -0.17218434810638428,
                    0.6163011193275452,
                    0.3015303909778595,
                    -0.5091050863265991,
                    -1.5180059671401978,
                    -0.6826497912406921,
                    0.31011930108070374,
                    -0.10309000313282013,
                    0.11374746263027191,
                    0.4357263743877411,
                    -0.6091951131820679,
                    0.0352562814950943,
                    0.07499109953641891,
                    -0.09682468324899673,
                    -0.2320769727230072,
                    -0.665485143661499
                ],
                [
                    -0.9746503233909607,
                    -0.5768652558326721,
                    0.15137970447540283,
                    -0.7536357045173645,
                    0.47079065442085266,
                    -0.24198037385940552,
                    -0.7153213620185852,
                    0.6471500396728516,
                    -0.26557832956314087,
                    -0.18526533246040344,
                    -0.03099900856614113,
                    -0.6006973385810852,
                    -0.5519967079162598,
                    0.22402241826057434,
                    0.26346921920776367,
                    -0.4096686840057373,
                    -0.18599727749824524,
                    0.14198175072669983,
                    0.3070470690727234,
                    -0.7547997236251831,
                    -0.7653228044509888,
                    -0.09020562469959259,
                    0.11155778914690018,
                    0.3509694039821625,
                    -0.20590825378894806,
                    -0.6580165028572083,
                    0.012655213475227356,
                    -0.34651443362236023,
                    0.2487315535545349,
                    -0.28029143810272217,
                    0.47500094771385193,
                    -0.46931228041648865,
                    -0.06743167340755463,
                    0.2839263379573822,
                    -0.004560556262731552,
                    -0.4380374848842621,
                    -0.07008343935012817,
                    -0.7271771430969238,
                    -0.48477500677108765,
                    -0.8258809447288513,
                    -0.4456859827041626,
                    -0.18019463121891022,
                    0.6656452417373657,
                    -0.05083107203245163,
                    -0.19473779201507568,
                    0.10922751575708389,
                    0.25772470235824585,
                    -0.410435289144516,
                    -0.4439285099506378,
                    -1.415014624595642
                ],
                [
                    -0.004495577421039343,
                    -0.079606793820858,
                    -0.4878409206867218,
                    0.04437209293246269,
                    -0.11549453437328339,
                    0.009045292623341084,
                    0.1507931798696518,
                    -0.48114511370658875,
                    0.2410111129283905,
                    0.14498595893383026,
                    0.03103814460337162,
                    0.05420314520597458,
                    0.06882581114768982,
                    -0.02710147574543953,
                    -0.3912715017795563,
                    -0.2541359066963196,
                    0.08141918480396271,
                    0.1854681819677353,
                    -0.2765337824821472,
                    0.09580112248659134,
                    0.41831716895103455,
                    0.02351018413901329,
                    0.029472198337316513,
                    0.05504884570837021,
                    -0.19224315881729126,
                    0.026347875595092773,
                    0.222294881939888,
                    0.3948776423931122,
                    0.02640412002801895,
                    -0.41779911518096924,
                    -0.2693406045436859,
                    0.13834308087825775,
                    0.005260063800960779,
                    -0.089975506067276,
                    -0.1080712080001831,
                    -0.006672174669802189,
                    0.422446072101593,
                    -0.5524869561195374,
                    0.08719896525144577,
                    -0.14449968934059143,
                    -0.19156061112880707,
                    -0.13140863180160522,
                    0.21510718762874603,
                    -0.3219427764415741,
                    -0.05158128961920738,
                    -0.02858092449605465,
                    -0.2799140214920044,
                    -0.4740815758705139,
                    0.3465557396411896,
                    0.049351561814546585
                ],
                [
                    -0.8406593203544617,
                    0.23462799191474915,
                    -1.247228980064392,
                    -0.14666146039962769,
                    -1.4108039140701294,
                    -1.061989665031433,
                    0.2642466723918915,
                    -0.5509932637214661,
                    -0.12524181604385376,
                    0.33089521527290344,
                    0.015013991855084896,
                    0.31674668192863464,
                    -0.1636127531528473,
                    0.14783726632595062,
                    0.029560083523392677,
                    -0.49374282360076904,
                    -0.25720658898353577,
                    -0.3937232196331024,
                    0.11106716096401215,
                    0.18957304954528809,
                    -0.3318871259689331,
                    -0.33086371421813965,
                    0.13594499230384827,
                    0.3177068531513214,
                    -0.3141801655292511,
                    -0.5428438186645508,
                    -0.27622246742248535,
                    -0.5528616905212402,
                    0.35107359290122986,
                    0.05083606392145157,
                    -0.04801996424794197,
                    0.4302678406238556,
                    0.6068715453147888,
                    -0.005395051091909409,
                    -0.19391579926013947,
                    -0.8740472793579102,
                    0.009117413312196732,
                    0.3848683834075928,
                    -0.28563106060028076,
                    0.05124501883983612,
                    0.31667444109916687,
                    0.66934734582901,
                    0.4824163019657135,
                    -0.19726194441318512,
                    0.12778998911380768,
                    0.22349660098552704,
                    -0.27195456624031067,
                    0.4793784022331238,
                    0.4020525813102722,
                    0.12450888007879257
                ],
                [
                    -0.2594902813434601,
                    -0.6241804361343384,
                    0.11616678535938263,
                    0.09208621084690094,
                    -0.3242407441139221,
                    0.24138982594013214,
                    -0.24497123062610626,
                    0.28085774183273315,
                    -0.6596665382385254,
                    -0.9092090129852295,
                    0.20652349293231964,
                    -0.43917134404182434,
                    0.27318912744522095,
                    0.6201140880584717,
                    0.08367796242237091,
                    -0.22771207988262177,
                    -0.01440751925110817,
                    -0.07968994975090027,
                    -0.22505280375480652,
                    -0.33104199171066284,
                    0.028379255905747414,
                    -0.04097942262887955,
                    0.18933525681495667,
                    0.20044881105422974,
                    -0.13575899600982666,
                    -0.2098924070596695,
                    -0.38255733251571655,
                    0.564698338508606,
                    -0.07625425606966019,
                    0.05056658759713173,
                    -0.17259632050991058,
                    -0.142818421125412,
                    0.10232991725206375,
                    0.3258955180644989,
                    -0.7015165686607361,
                    0.5270992517471313,
                    -0.3742683529853821,
                    -0.7112396955490112,
                    -0.2766555845737457,
                    -0.721382737159729,
                    0.3362610936164856,
                    -0.5418218970298767,
                    -0.0038031127769500017,
                    -0.28811967372894287,
                    -0.1228702962398529,
                    -1.1895347833633423,
                    0.30768588185310364,
                    0.22903086245059967,
                    -0.8786994218826294,
                    0.339138388633728
                ],
                [
                    0.006740064825862646,
                    0.2179710566997528,
                    -0.11648885905742645,
                    0.06699837744235992,
                    0.48776644468307495,
                    -0.12565003335475922,
                    -0.06847046315670013,
                    0.39254945516586304,
                    -0.07368489354848862,
                    0.39391082525253296,
                    -0.6064580082893372,
                    0.1493409276008606,
                    0.28942951560020447,
                    -0.8485857248306274,
                    -0.09096915274858475,
                    -0.17118889093399048,
                    -0.06893447041511536,
                    0.3687933087348938,
                    0.26001688838005066,
                    0.21171802282333374,
                    0.03509628772735596,
                    0.37210753560066223,
                    0.05989177152514458,
                    0.03882457688450813,
                    -0.22839221358299255,
                    -0.4320312738418579,
                    0.3554241359233856,
                    -0.01933319866657257,
                    -0.32618483901023865,
                    0.324744313955307,
                    -0.1490444839000702,
                    -0.06642483174800873,
                    -0.3235776722431183,
                    -0.6013627648353577,
                    0.09077660739421844,
                    -0.06273014843463898,
                    0.14854462444782257,
                    -0.082956463098526,
                    -0.12414649873971939,
                    -0.03393743932247162,
                    0.4340340495109558,
                    0.02301555499434471,
                    0.26293036341667175,
                    -0.4853990375995636,
                    0.041735339909791946,
                    0.08038505166769028,
                    -0.04810982942581177,
                    -0.2850225865840912,
                    -0.13615372776985168,
                    -0.05816548317670822
                ],
                [
                    0.043779585510492325,
                    -0.9607216715812683,
                    -0.6168479919433594,
                    -0.17114217579364777,
                    -0.314849853515625,
                    0.29687273502349854,
                    0.06399472057819366,
                    0.2979254722595215,
                    -0.8925908207893372,
                    -0.22491928935050964,
                    -0.00820346549153328,
                    -0.527180552482605,
                    -0.44689929485321045,
                    -0.10057687014341354,
                    -0.5626626014709473,
                    -0.24865306913852692,
                    0.5775022506713867,
                    -0.27764180302619934,
                    -0.10583150386810303,
                    -0.5254676342010498,
                    -1.0456876754760742,
                    -0.03415262699127197,
                    -0.3969593346118927,
                    0.07667626440525055,
                    0.12627051770687103,
                    0.2049853801727295,
                    -0.2746371328830719,
                    -0.474903404712677,
                    -0.37193191051483154,
                    -0.593058705329895,
                    -0.6347923278808594,
                    -0.23525013029575348,
                    -0.24655061960220337,
                    0.29015421867370605,
                    0.39983582496643066,
                    -0.011213677003979683,
                    0.22920234501361847,
                    0.27000755071640015,
