{
    "CNN_input_1": [
        {
            "b": [
                0.014979157596826553,
                0.011220674961805344,
                -0.011897078715264797,
                0.007509902119636536,
                -0.0318770669400692,
                -0.12273220717906952,
                0.05518382415175438,
                0.17502187192440033,
                0.017730023711919785,
                -0.01236915122717619,
                -0.026371920481324196,
                0.28482377529144287,
                -0.017509495839476585,
                -0.0005145350587554276,
                -0.025955256074666977,
                -0.01202422846108675,
                0.023526335135102272,
                -0.03944677487015724,
                0.006871531251817942,
                0.059925634413957596,
                -0.02160739339888096,
                -0.05236491933465004,
                0.032039299607276917,
                -0.01639939658343792
            ],
            "w": [
                [
                    [
                        [
                            -0.05049245059490204,
                            0.04728642851114273
                        ],
                        [
                            0.01675572618842125,
                            -0.01738615892827511
                        ]
                    ]
                ],
                [
                    [
                        [
                            0.014876732602715492,
                            -0.0919501930475235
                        ],
                        [
                            0.04766431450843811,
                            -0.052967943251132965
                        ]
                    ]
                ],
                [
                    [
                        [
                            0.03147302195429802,
                            0.015696698799729347
                        ],
                        [
                            0.0319281630218029,
                            0.06910312920808792
                        ]
                    ]
                ],
                [
                    [
                        [
                            -0.10470740497112274,
                            -0.05418054759502411
                        ],
                        [
                            0.009175681509077549,
                            0.026641638949513435
                        ]
                    ]
                ],
                [
                    [
                        [
                            0.12674498558044434,
                            0.14527204632759094
                        ],
                        [
                            -0.15782521665096283,
                            0.033413998782634735
                        ]
                    ]
                ],
                [
                    [
                        [
                            0.3248841166496277,
                            0.7937033176422119
                        ],
                        [
                            0.6735185384750366,
                            0.6071730256080627
                        ]
                    ]
                ],
                [
                    [
                        [
                            -0.08803646266460419,
                            0.28418615460395813
                        ],
                        [
                            0.41297075152397156,
                            0.18965740501880646
                        ]
                    ]
                ],
                [
                    [
                        [
                            -0.09780362993478775,
                            0.14269448816776276
                        ],
                        [
                            0.14869466423988342,
                            0.20920315384864807
                        ]
                    ]
                ],
                [
                    [
                        [
                            -0.1532619297504425,
                            0.10553456842899323
                        ],
                        [
                            -0.019580913707613945,
                            -0.0629446879029274
                        ]
                    ]
                ],
                [
                    [
                        [
                            -0.002587895607575774,
                            -0.00656752847135067
                        ],
                        [
                            -0.01813308335840702,
                            0.00878633838146925
                        ]
                    ]
                ],
                [
                    [
                        [
                            0.15976935625076294,
                            -0.0979953333735466
                        ],
                        [
                            0.18909209966659546,
                            0.10102929919958115
                        ]
                    ]
                ],
                [
                    [
                        [
                            0.4007684886455536,
                            -0.42013445496559143
                        ],
                        [
                            0.36051633954048157,
                            -0.31348732113838196
                        ]
                    ]
                ],
                [
                    [
                        [
                            0.054496485739946365,
                            -0.045844051986932755
                        ],
                        [
                            0.05400281026959419,
                            -0.05681799352169037
                        ]
                    ]
                ],
                [
                    [
                        [
                            0.03409527614712715,
                            0.011876183561980724
                        ],
                        [
                            0.004834756255149841,
                            -0.03661501780152321
                        ]
                    ]
                ],
                [
                    [
                        [
                            -0.010426641441881657,
                            -0.030966103076934814
                        ],
                        [
                            -0.00976664200425148,
                            0.025534549728035927
                        ]
                    ]
                ],
                [
                    [
                        [
                            0.001448568538762629,
                            -0.00894517544656992
                        ],
                        [
                            0.006065940018743277,
                            0.01804468035697937
                        ]
                    ]
                ],
                [
                    [
                        [
                            0.0029766166117042303,
                            -0.022723136469721794
                        ],
                        [
                            0.05457928776741028,
                            0.035563550889492035
                        ]
                    ]
                ],
                [
                    [
                        [
                            0.014158498495817184,
                            -0.011109715327620506
                        ],
                        [
                            0.01910906285047531,
                            -0.017165344208478928
                        ]
                    ]
                ],
                [
                    [
                        [
                            0.08541236817836761,
                            0.06423673778772354
                        ],
                        [
                            0.10115531086921692,
                            0.08945705741643906
                        ]
                    ]
                ],
                [
                    [
                        [
                            -0.06040627509355545,
                            -0.07711400091648102
                        ],
                        [
                            -0.15465258061885834,
                            -0.19988486170768738
                        ]
                    ]
                ],
                [
                    [
                        [
                            0.03962339088320732,
                            -0.00376055552624166
                        ],
                        [
                            -0.0011291084811091423,
                            0.09406852722167969
                        ]
                    ]
                ],
                [
                    [
                        [
                            0.22209405899047852,
                            -0.0003693694598041475
                        ],
                        [
                            0.08067025244235992,
                            0.19179798662662506
                        ]
                    ]
                ],
                [
                    [
                        [
                            -0.09307660907506943,
                            0.15428023040294647
                        ],
                        [
                            0.1419822722673416,
                            -0.03741434961557388
                        ]
                    ]
                ],
                [
                    [
                        [
                            0.0014478974044322968,
                            -0.02148294635117054
                        ],
                        [
                            -0.023363985121250153,
                            -0.07543155550956726
                        ]
                    ]
                ]
            ]
        }
    ],
    "CNN_input_2": [
        {
            "b": [
                0.0729096308350563,
                -0.16703149676322937,
                0.1394013911485672,
                -0.10027149319648743,
                0.17658141255378723,
                0.17986635863780975,
                0.15311722457408905,
                0.012106231413781643,
                0.04978806897997856,
                0.15237024426460266,
                0.48967090249061584,
                -0.2175300419330597,
                0.06522169709205627,
                -0.06357017904520035,
                -0.2869134545326233,
                -0.01198991946876049,
                0.14502845704555511,
                0.041929010301828384,
                0.13776278495788574,
                -0.45249056816101074,
                -0.1383242905139923,
                -0.12515605986118317,
                0.1356203258037567,
                0.28422966599464417
            ],
            "w": [
                [
                    [
                        [
                            -1.2333216667175293
                        ]
                    ],
                    [
                        [
                            0.5689793229103088
                        ]
                    ],
                    [
                        [
                            -0.13215598464012146
                        ]
                    ],
                    [
                        [
                            -1.08896803855896
                        ]
                    ],
                    [
                        [
                            -0.5783367156982422
                        ]
                    ],
                    [
                        [
                            -0.1324964165687561
                        ]
                    ]
                ],
                [
                    [
                        [
                            -0.8814168572425842
                        ]
                    ],
                    [
                        [
                            -0.18593361973762512
                        ]
                    ],
                    [
                        [
                            0.20201821625232697
                        ]
                    ],
                    [
                        [
                            -0.19833403825759888
                        ]
                    ],
                    [
                        [
                            -1.2806291580200195
                        ]
                    ],
                    [
                        [
                            -0.6812795400619507
                        ]
                    ]
                ],
                [
                    [
                        [
                            -0.6356144547462463
                        ]
                    ],
                    [
                        [
                            0.7495042085647583
                        ]
                    ],
                    [
                        [
                            0.02879057079553604
                        ]
                    ],
                    [
                        [
                            0.6344296932220459
                        ]
                    ],
                    [
                        [
                            -0.6401609182357788
                        ]
                    ],
                    [
                        [
                            -0.8364660143852234
                        ]
                    ]
                ],
                [
                    [
                        [
                            -0.7434431314468384
                        ]
                    ],
                    [
                        [
                            -1.3274178504943848
                        ]
                    ],
                    [
                        [
                            0.24835029244422913
                        ]
                    ],
                    [
                        [
                            0.1402912437915802
                        ]
                    ],
                    [
                        [
                            1.302126169204712
                        ]
                    ],
                    [
                        [
                            -0.3764478862285614
                        ]
                    ]
                ],
                [
                    [
                        [
                            -0.30076631903648376
                        ]
                    ],
                    [
                        [
                            -0.33115798234939575
                        ]
                    ],
                    [
                        [
                            -0.25415781140327454
                        ]
                    ],
                    [
                        [
                            0.8875043988227844
                        ]
                    ],
                    [
                        [
                            0.9659534096717834
                        ]
                    ],
                    [
                        [
                            -0.32298776507377625
                        ]
                    ]
                ],
                [
                    [
                        [
                            -1.163248062133789
                        ]
                    ],
                    [
                        [
                            -0.2594663202762604
                        ]
                    ],
                    [
                        [
                            -0.21341456472873688
                        ]
                    ],
                    [
                        [
                            -0.07890486717224121
                        ]
                    ],
                    [
                        [
                            0.42717230319976807
                        ]
                    ],
                    [
                        [
                            -1.0921913385391235
                        ]
                    ]
                ],
                [
                    [
                        [
                            0.20232072472572327
                        ]
                    ],
                    [
                        [
                            0.5812631845474243
                        ]
                    ],
                    [
                        [
                            -0.22368170320987701
                        ]
                    ],
                    [
                        [
                            -0.4391981363296509
                        ]
                    ],
                    [
                        [
                            0.5748758316040039
                        ]
                    ],
                    [
                        [
                            0.4521998465061188
                        ]
                    ]
                ],
                [
                    [
                        [
                            -1.7525267601013184
                        ]
                    ],
                    [
                        [
                            0.07795652747154236
                        ]
                    ],
                    [
                        [
                            -0.18150068819522858
                        ]
                    ],
                    [
                        [
                            1.1232199668884277
                        ]
                    ],
                    [
                        [
                            0.463077187538147
                        ]
                    ],
                    [
                        [
                            -0.03451327979564667
                        ]
                    ]
                ],
                [
                    [
                        [
                            -0.4121165871620178
                        ]
                    ],
                    [
                        [
                            -0.037170205265283585
                        ]
                    ],
                    [
                        [
                            -0.06539047509431839
                        ]
                    ],
                    [
                        [
                            -0.9106022119522095
                        ]
                    ],
                    [
                        [
                            -0.13013362884521484
                        ]
                    ],
                    [
                        [
                            0.7147462368011475
                        ]
                    ]
                ],
                [
                    [
                        [
                            0.06313078105449677
                        ]
                    ],
                    [
                        [
                            -0.23135650157928467
                        ]
                    ],
                    [
                        [
                            -0.12306360900402069
                        ]
                    ],
                    [
                        [
                            -0.3091094195842743
                        ]
                    ],
                    [
                        [
                            -0.5825557112693787
                        ]
                    ],
                    [
                        [
                            0.45361799001693726
                        ]
                    ]
                ],
                [
                    [
                        [
                            -0.6980897784233093
                        ]
                    ],
                    [
                        [
                            0.568853497505188
                        ]
                    ],
                    [
                        [
                            -0.5232670307159424
                        ]
                    ],
                    [
                        [
                            0.9816998839378357
                        ]
                    ],
                    [
                        [
                            0.24059328436851501
                        ]
                    ],
                    [
                        [
                            0.3888132572174072
                        ]
                    ]
                ],
                [
                    [
                        [
                            0.3609480857849121
                        ]
                    ],
                    [
                        [
                            0.6432448625564575
                        ]
                    ],
                    [
                        [
                            0.24818041920661926
                        ]
                    ],
                    [
                        [
                            0.4508953392505646
                        ]
                    ],
                    [
                        [
                            -0.39402925968170166
                        ]
                    ],
                    [
                        [
                            0.4683728814125061
                        ]
                    ]
                ],
                [
                    [
                        [
                            -0.7058289051055908
                        ]
                    ],
                    [
                        [
                            0.23354719579219818
                        ]
                    ],
                    [
                        [
                            -0.012311235070228577
                        ]
                    ],
                    [
                        [
                            0.3675040304660797
                        ]
                    ],
                    [
                        [
                            0.0016936741303652525
                        ]
                    ],
                    [
                        [
                            0.3748880624771118
                        ]
                    ]
                ],
                [
                    [
                        [
                            -0.7214171886444092
                        ]
                    ],
                    [
                        [
                            -0.19968460500240326
                        ]
                    ],
                    [
                        [
                            0.02598821558058262
                        ]
                    ],
                    [
                        [
                            0.003106797579675913
                        ]
                    ],
                    [
                        [
                            -0.5305464863777161
                        ]
                    ],
                    [
                        [
                            0.753064751625061
                        ]
                    ]
                ],
                [
                    [
                        [
                            0.12430237978696823
                        ]
                    ],
                    [
                        [
                            -0.023778894916176796
                        ]
                    ],
                    [
                        [
                            0.24120505154132843
                        ]
                    ],
                    [
                        [
                            -0.23655547201633453
                        ]
                    ],
                    [
                        [
                            -0.3890380561351776
                        ]
                    ],
                    [
                        [
                            0.38344132900238037
                        ]
                    ]
                ],
                [
                    [
                        [
                            -0.31675830483436584
                        ]
                    ],
                    [
                        [
                            0.0861557126045227
                        ]
                    ],
                    [
                        [
                            0.03589741513133049
                        ]
                    ],
                    [
                        [
                            0.1660691201686859
                        ]
                    ],
                    [
                        [
                            0.647459089756012
                        ]
                    ],
                    [
                        [
                            0.4534779489040375
                        ]
                    ]
                ],
                [
                    [
                        [
                            0.01598968356847763
                        ]
                    ],
                    [
                        [
                            -0.5840282440185547
                        ]
                    ],
                    [
                        [
                            -0.1653151959180832
                        ]
                    ],
                    [
                        [
                            -0.14859779179096222
                        ]
                    ],
                    [
                        [
                            0.025518184527754784
                        ]
                    ],
                    [
                        [
                            -0.1389068067073822
                        ]
                    ]
                ],
                [
                    [
                        [
                            -0.5180583596229553
                        ]
                    ],
                    [
                        [
                            -0.6244142055511475
                        ]
                    ],
                    [
                        [
                            -0.14376068115234375
                        ]
                    ],
                    [
                        [
                            -0.3009602129459381
                        ]
                    ],
                    [
                        [
                            0.026826022192835808
                        ]
                    ],
                    [
                        [
                            -0.022575804963707924
                        ]
                    ]
                ],
                [
                    [
                        [
                            -0.29445338249206543
                        ]
                    ],
                    [
                        [
                            0.9123830795288086
                        ]
                    ],
                    [
                        [
                            0.11216583847999573
                        ]
                    ],
                    [
                        [
                            0.15301182866096497
                        ]
                    ],
                    [
                        [
                            -0.01168898306787014
                        ]
                    ],
                    [
                        [
                            -0.6915347576141357
                        ]
                    ]
                ],
                [
                    [
                        [
                            0.7064498662948608
                        ]
                    ],
                    [
                        [
                            0.48152199387550354
                        ]
                    ],
                    [
                        [
                            0.43498775362968445
                        ]
                    ],
                    [
                        [
                            0.6671751141548157
                        ]
                    ],
                    [
                        [
                            -1.069475531578064
                        ]
                    ],
                    [
                        [
                            0.15681244432926178
                        ]
                    ]
                ],
                [
                    [
                        [
                            -0.5353457927703857
                        ]
                    ],
                    [
                        [
                            -1.013489842414856
                        ]
                    ],
                    [
                        [
                            0.2694977819919586
                        ]
                    ],
                    [
                        [
                            0.7068362236022949
                        ]
                    ],
                    [
                        [
                            -0.5574894547462463
                        ]
                    ],
                    [
                        [
                            0.5802856683731079
                        ]
                    ]
                ],
                [
                    [
                        [
                            0.5591495037078857
                        ]
                    ],
                    [
                        [
                            0.13335268199443817
                        ]
                    ],
                    [
                        [
                            0.09623999148607254
                        ]
                    ],
                    [
                        [
                            0.01710427738726139
                        ]
                    ],
                    [
                        [
                            0.03827366605401039
                        ]
                    ],
                    [
                        [
                            0.38517284393310547
                        ]
                    ]
                ],
                [
                    [
                        [
                            0.8484799861907959
                        ]
                    ],
                    [
                        [
                            0.6854918599128723
                        ]
                    ],
                    [
                        [
                            -0.18338550627231598
                        ]
                    ],
                    [
                        [
                            0.41102126240730286
                        ]
                    ],
                    [
                        [
                            0.532768726348877
                        ]
                    ],
                    [
                        [
                            -0.8638507723808289
                        ]
                    ]
                ],
                [
                    [
                        [
                            -0.27041783928871155
                        ]
                    ],
                    [
                        [
                            -0.1018114760518074
                        ]
                    ],
                    [
                        [
                            -0.35359200835227966
                        ]
                    ],
                    [
                        [
                            0.38126668334007263
                        ]
                    ],
                    [
                        [
                            0.5649306774139404
                        ]
                    ],
                    [
                        [
                            0.27802127599716187
                        ]
                    ]
                ]
            ]
        }
    ],
    "CNN_stage_2": [
        {
            "b": [
                0.0028920830227434635,
                -0.08174441009759903,
                -0.20258364081382751,
                -0.7047255635261536,
                -0.0036314912140369415,
                0.028879178687930107,
                -0.005629468243569136,
                -0.19968006014823914,
                -0.22325368225574493,
                0.18633036315441132,
                -0.05133591219782829,
                -0.2988184094429016,
                -0.3349735736846924,
                -0.31992173194885254,
                -0.2146786004304886,
                0.0008925104630179703,
                -0.6564173698425293,
                -0.05885285511612892,
                -0.34103095531463623,
                -0.03379879146814346,
                -0.4965064227581024,
                0.008501495234668255,
                -0.2101937085390091,
                -0.009421028196811676
            ],
            "w": [
                [
                    [
                        [
                            0.09929611533880234,
                            0.02338673174381256
                        ],
                        [
                            -0.16104860603809357,
                            -0.28794369101524353
                        ]
                    ],
                    [
                        [
                            0.1074826568365097,
                            0.20964093506336212
                        ],
                        [
                            -0.40533357858657837,
                            0.12714238464832306
                        ]
                    ],
                    [
                        [
                            0.15907008945941925,
                            0.012019660323858261
                        ],
                        [
                            -0.08343692868947983,
                            -0.2775557041168213
                        ]
                    ],
                    [
                        [
                            -0.17761266231536865,
                            -0.07125350087881088
                        ],
                        [
                            0.21947933733463287,
                            -0.060785192996263504
                        ]
                    ],
                    [
                        [
                            -0.14718009531497955,
                            0.2158517837524414
                        ],
                        [
                            0.0693364143371582,
                            0.34197762608528137
                        ]
                    ],
                    [
                        [
                            0.19231581687927246,
                            -0.03279893100261688
                        ],
                        [
                            -0.10292752832174301,
                            -0.3637177348136902
                        ]
                    ],
                    [
                        [
                            -0.430042564868927,
                            0.49030032753944397
                        ],
                        [
                            -0.13812144100666046,
                            -0.025368735194206238
                        ]
                    ],
                    [
                        [
                            -0.06463446468114853,
                            -0.17064520716667175
                        ],
                        [
                            0.3760400712490082,
                            0.02308930829167366
                        ]
                    ],
                    [
                        [
                            -0.03600436449050903,
                            -0.04690989479422569
                        ],
                        [
                            0.1304415762424469,
                            0.42850205302238464
                        ]
                    ],
                    [
                        [
                            -0.06970922648906708,
                            0.07262851297855377
                        ],
                        [
                            -0.09339788556098938,
                            0.13172051310539246
                        ]
                    ],
                    [
                        [
                            -0.5972278714179993,
                            0.04267848655581474
                        ],
                        [
                            0.7618300914764404,
                            0.8607684373855591
                        ]
                    ],
                    [
                        [
                            -1.154207706451416,
                            0.14269722998142242
                        ],
                        [
                            -0.10692522674798965,
                            0.03454528748989105
                        ]
                    ],
                    [
                        [
                            -0.06718982756137848,
                            0.029241053387522697
                        ],
                        [
                            0.09750746935606003,
                            0.32905739545822144
                        ]
                    ],
                    [
                        [
                            0.11990844458341599,
                            0.10939707607030869
                        ],
                        [
                            -0.08529864996671677,
                            -0.1843879520893097
                        ]
                    ],
                    [
                        [
                            0.13288551568984985,
                            0.3926590085029602
                        ],
                        [
                            -0.11262571811676025,
                            -0.5001881718635559
                        ]
                    ],
                    [
                        [
                            -0.12317430227994919,
                            -0.08529214560985565
                        ],
                        [
                            0.192116841673851,
                            -0.3933539390563965
                        ]
                    ],
                    [
                        [
                            -0.16921564936637878,
                            0.03477279469370842
                        ],
                        [
                            0.03835568204522133,
                            0.24665430188179016
                        ]
                    ],
                    [
                        [
                            -0.003733925288543105,
                            0.08376598358154297
                        ],
                        [
                            -0.034548319876194,
                            -0.03195725753903389
                        ]
                    ],
                    [
                        [
                            -0.017470303922891617,
                            -0.1879556030035019
                        ],
                        [
                            0.013531860895454884,
                            0.05583351105451584
                        ]
                    ],
                    [
                        [
                            -0.7108923196792603,
                            0.3263334631919861
                        ],
                        [
                            0.2918044924736023,
                            0.9444447159767151
                        ]
                    ],
                    [
                        [
                            -0.016614632681012154,
                            -0.06757432967424393
                        ],
                        [
                            -0.15877774357795715,
                            0.06595568358898163
                        ]
                    ],
                    [
                        [
                            -0.2423819750547409,
                            -0.062108397483825684
                        ],
                        [
                            0.07046982645988464,
                            0.24573315680027008
                        ]
                    ],
                    [
                        [
                            -0.303299218416214,
                            0.4947599768638611
                        ],
                        [
                            -0.036782968789339066,
                            -0.015603712759912014
                        ]
                    ],
                    [
                        [
                            0.020888088271021843,
                            -0.0024366984143853188
                        ],
                        [
                            0.20653505623340607,
                            -0.11749417334794998
                        ]
                    ]
                ],
                [
                    [
                        [
                            -0.6589251160621643,
                            0.2844732403755188
                        ],
                        [
                            0.23508258163928986,
                            0.000681967765558511
                        ]
                    ],
                    [
                        [
                            0.2549859285354614,
                            -0.2540551722049713
                        ],
                        [
                            0.04728914052248001,
                            -0.15364624559879303
                        ]
                    ],
                    [
                        [
                            0.10587769746780396,
                            -0.11715512722730637
                        ],
                        [
                            -0.3386774957180023,
                            0.26782992482185364
                        ]
                    ],
                    [
                        [
                            0.19885988533496857,
                            0.1032661497592926
                        ],
                        [
                            -0.3096013367176056,
                            0.17717258632183075
                        ]
                    ],
                    [
                        [
                            0.0244591161608696,
                            -0.4709649085998535
                        ],
                        [
                            0.20948253571987152,
                            0.02024516649544239
                        ]
                    ],
                    [
                        [
                            0.22784291207790375,
                            -0.038604117929935455
                        ],
                        [
                            0.1531105786561966,
                            -0.27877649664878845
                        ]
                    ],
                    [
                        [
                            -0.812710165977478,
                            0.19398802518844604
                        ],
                        [
                            0.15733276307582855,
                            -0.8454464673995972
                        ]
                    ],
                    [
                        [
                            0.18628597259521484,
                            -0.12455333769321442
                        ],
                        [
                            -0.14674703776836395,
                            0.010351274162530899
                        ]
                    ],
                    [
                        [
                            -0.10822908580303192,
                            -0.20288875699043274
                        ],
                        [
                            0.11696694046258926,
                            -0.09650670737028122
                        ]
                    ],
                    [
                        [
                            0.059010814875364304,
                            0.01986785978078842
                        ],
                        [
                            0.0606878288090229,
                            -0.0935325101017952
                        ]
                    ],
                    [
                        [
                            -0.2782612144947052,
                            0.8619174361228943
                        ],
                        [
                            -0.5913850665092468,
                            -1.446435570716858
                        ]
                    ],
                    [
                        [
                            -1.3744457960128784,
                            0.5198007822036743
                        ],
                        [
                            -0.10746868699789047,
                            0.7540929913520813
                        ]
                    ],
                    [
                        [
                            0.11706122010946274,
                            0.0074029481038451195
                        ],
                        [
                            -0.05576792359352112,
                            -0.27812275290489197
                        ]
                    ],
                    [
                        [
                            0.15407229959964752,
                            -0.12038538604974747
                        ],
                        [
                            0.04566263034939766,
                            0.2841625213623047
                        ]
                    ],
                    [
                        [
                            -0.3496916592121124,
                            -0.31030720472335815
                        ],
                        [
                            0.6976943016052246,
                            0.38476869463920593
                        ]
                    ],
                    [
                        [
                            -0.4182714819908142,
                            0.535821795463562
                        ],
                        [
                            0.2588578760623932,
                            0.5370011925697327
                        ]
                    ],
                    [
                        [
                            -0.25983282923698425,
                            -0.25383344292640686
                        ],
                        [
                            0.06389018893241882,
                            -0.1559625267982483
                        ]
                    ],
                    [
                        [
                            0.2488836944103241,
                            -0.0002113148511853069
                        ],
                        [
                            -0.4175183176994324,
                            0.21966905891895294
                        ]
                    ],
                    [
                        [
                            0.09760240465402603,
                            0.3263911306858063
                        ],
                        [
                            -0.32608258724212646,
                            -0.30100899934768677
                        ]
                    ],
                    [
                        [
                            -0.20656898617744446,
                            -0.05841546505689621
                        ],
                        [
                            0.13435685634613037,
                            -1.3647302389144897
                        ]
                    ],
                    [
                        [
                            0.015245559625327587,
                            -0.07862809300422668
                        ],
                        [
                            0.24221596121788025,
                            0.08267022669315338
                        ]
                    ],
                    [
                        [
                            -0.02450437843799591,
                            0.341406911611557
                        ],
                        [
                            -0.018855096772313118,
                            -0.45381003618240356
                        ]
                    ],
                    [
                        [
                            -0.39416754245758057,
                            0.4653337299823761
                        ],
                        [
                            -0.15904571115970612,
                            0.04817160218954086
                        ]
                    ],
                    [
                        [
                            0.05999957397580147,
                            -0.6257070899009705
                        ],
                        [
                            0.05790138989686966,
                            0.5137465000152588
                        ]
                    ]
                ],
                [
                    [
                        [
                            -0.0617435947060585,
                            0.03795007988810539
                        ],
                        [
                            -0.277848482131958,
                            -0.5164601802825928
                        ]
                    ],
                    [
                        [
                            -0.030488591641187668,
                            -0.07000616937875748
                        ],
                        [
                            0.07144805043935776,
                            0.3506065905094147
                        ]
                    ],
                    [
                        [
                            -0.04839807376265526,
                            -0.1837478131055832
                        ],
                        [
                            -0.5747750401496887,
                            0.1210276409983635
                        ]
                    ],
                    [
                        [
                            0.2579875886440277,
                            0.443351149559021
                        ],
                        [
                            0.08277778327465057,
                            -0.011353068985044956
                        ]
                    ],
                    [
                        [
                            0.38285011053085327,
                            -0.07853426039218903
                        ],
                        [
                            0.1293637901544571,
                            0.31505343317985535
                        ]
                    ],
                    [
                        [
                            0.021334165707230568,
                            0.697485625743866
                        ],
                        [
                            0.46267423033714294,
                            -0.02444334141910076
                        ]
                    ],
                    [
                        [
                            0.3399212062358856,
                            0.27047839760780334
                        ],
                        [
                            0.29505425691604614,
                            -0.11273741722106934
                        ]
                    ],
                    [
                        [
                            -0.5577853918075562,
                            0.1302150934934616
                        ],
                        [
                            0.2086826115846634,
                            -0.1260148286819458
                        ]
                    ],
                    [
                        [
                            -0.11193949729204178,
                            -0.22515098750591278
                        ],
                        [
                            0.1984935849905014,
                            0.42322802543640137
                        ]
                    ],
                    [
                        [
                            -0.0832904651761055,
                            -0.27061763405799866
                        ],
                        [
                            0.12268687039613724,
                            0.1290237456560135
                        ]
                    ],
                    [
                        [
                            0.3988930881023407,
                            -0.5557552576065063
                        ],
                        [
                            0.2030438631772995,
                            0.1061396449804306
                        ]
                    ],
                    [
                        [
                            0.11366963386535645,
                            -0.039547618478536606
                        ],
                        [
                            -0.09473805129528046,
                            -0.12081652879714966
                        ]
                    ],
                    [
                        [
                            0.14806820452213287,
                            -0.3669155240058899
                        ],
                        [
                            0.015162653289735317,
                            0.3355620801448822
                        ]
                    ],
                    [
                        [
                            0.02378467097878456,
                            -0.09772422164678574
                        ],
                        [
                            -0.1863453984260559,
                            0.1933303028345108
                        ]
                    ],
                    [
                        [
                            0.22734934091567993,
                            0.5736470222473145
                        ],
                        [
                            0.45030689239501953,
                            -0.1708308905363083
                        ]
                    ],
                    [
                        [
                            -0.13949371874332428,
                            -0.06796921044588089
                        ],
                        [
                            -0.07801128923892975,
                            -0.30265915393829346
                        ]
                    ],
                    [
                        [
                            0.13781273365020752,
                            -0.22818975150585175
                        ],
                        [
                            -0.2568301856517792,
                            -0.3383665084838867
                        ]
                    ],
                    [
                        [
                            -0.06058670952916145,
                            -0.02522270753979683
                        ],
                        [
                            -0.10552005469799042,
                            -0.11475174129009247
                        ]
                    ],
                    [
                        [
                            0.06740985810756683,
                            0.1661805659532547
                        ],
                        [
                            0.34301358461380005,
                            -0.3376672863960266
                        ]
                    ],
                    [
                        [
                            -0.130641907453537,
                            -0.045750390738248825
                        ],
                        [
                            -0.31466394662857056,
                            -0.049807239323854446
                        ]
                    ],
                    [
                        [
                            0.15256324410438538,
                            -0.5990217924118042
                        ],
                        [
                            0.2957565486431122,
                            0.45307230949401855
                        ]
                    ],
                    [
                        [
                            -0.3363867402076721,
                            0.07956890016794205
                        ],
                        [
                            -0.04475546255707741,
                            0.28424081206321716
                        ]
                    ],
                    [
                        [
                            -0.11609700322151184,
                            -0.7125350832939148
                        ],
                        [
                            -0.3117291033267975,
                            0.21779973804950714
                        ]
                    ],
                    [
                        [
                            0.02079644799232483,
                            0.46303778886795044
                        ],
                        [
                            0.35584449768066406,
                            -0.01808740384876728
                        ]
                    ]
                ],
                [
                    [
                        [
                            0.03219720721244812,
                            0.03725222125649452
                        ],
                        [
                            0.04383005574345589,
                            -0.03895249590277672
                        ]
                    ],
                    [
                        [
                            0.17155148088932037,
                            0.2160794734954834
                        ],
                        [
                            0.2973809838294983,
                            -0.0355067178606987
                        ]
                    ],
                    [
                        [
                            0.13253144919872284,
                            0.17071253061294556
                        ],
                        [
                            -0.22311456501483917,
                            0.01989177241921425
                        ]
                    ],
                    [
                        [
                            -0.7603573799133301,
                            -0.3186976909637451
                        ],
                        [
                            -0.04635338857769966,
                            -0.23425842821598053
                        ]
                    ],
                    [
                        [
                            0.13707780838012695,
                            0.21644657850265503
                        ],
                        [
                            -0.1520901322364807,
                            0.2572387158870697
                        ]
                    ],
                    [
                        [
                            -0.21952679753303528,
                            -0.23183584213256836
                        ],
                        [
                            -0.13521941006183624,
                            0.11309584230184555
                        ]
                    ],
                    [
                        [
                            0.6298700571060181,
                            -0.5018921494483948
                        ],
                        [
                            0.3223053216934204,
                            -0.22822478413581848
                        ]
                    ],
                    [
                        [
                            0.6602587699890137,
                            -0.04446985572576523
                        ],
                        [
                            -0.023674219846725464,
                            -0.022588884457945824
                        ]
                    ],
                    [
                        [
                            -0.36476993560791016,
                            -0.23648618161678314
                        ],
                        [
                            -0.31443753838539124,
                            -0.2062685638666153
                        ]
                    ],
                    [
                        [
                            -0.19574885070323944,
                            -0.5661097168922424
                        ],
                        [
                            -0.39065682888031006,
                            -0.04336285963654518
                        ]
                    ],
                    [
                        [
                            0.4216521978378296,
                            -0.12940362095832825
                        ],
                        [
                            -0.03979615494608879,
                            -0.29132840037345886
                        ]
                    ],
                    [
                        [
                            0.3443889915943146,
                            -0.728316068649292
                        ],
                        [
                            -0.4230613708496094,
                            0.6700212955474854
                        ]
                    ],
                    [
                        [
                            -0.508175790309906,
                            0.3359159231185913
                        ],
                        [
                            -0.2876734137535095,
                            0.4232535660266876
                        ]
                    ],
                    [
                        [
                            -0.15760254859924316,
                            -0.1417703777551651
                        ],
                        [
                            0.0733436644077301,
                            0.8018919825553894
                        ]
                    ],
                    [
                        [
                            0.10886358469724655,
                            -0.16374868154525757
                        ],
                        [
                            0.7326005101203918,
                            -0.32829150557518005
                        ]
                    ],
                    [
                        [
                            -0.09583532810211182,
                            0.1340257227420807
                        ],
                        [
                            0.14670009911060333,
                            -0.8974658250808716
                        ]
                    ],
                    [
                        [
                            -0.09862533956766129,
                            -0.16799038648605347
                        ],
                        [
                            -0.11555927246809006,
                            0.20751620829105377
                        ]
                    ],
                    [
                        [
                            -0.15274359285831451,
                            0.015885815024375916
                        ],
                        [
                            0.33934393525123596,
                            0.18734534084796906
                        ]
                    ],
                    [
                        [
                            -0.1615656167268753,
                            -0.1205599308013916
                        ],
                        [
                            -0.3501783311367035,
                            0.1784190535545349
                        ]
                    ],
                    [
                        [
                            0.10459526628255844,
                            -0.2872413992881775
                        ],
                        [
                            -0.1858590692281723,
                            0.4961962103843689
                        ]
                    ],
                    [
                        [
                            -0.5145564675331116,
                            0.07408049702644348
                        ],
                        [
                            0.1773582249879837,
                            -0.10231078416109085
                        ]
                    ],
                    [
                        [
                            -0.6838333010673523,
                            0.3186207115650177
                        ],
                        [
                            0.2998446524143219,
                            0.15959979593753815
                        ]
                    ],
                    [
                        [
                            -0.620262086391449,
                            0.34407708048820496
                        ],
                        [
                            -0.3109225332736969,
                            0.4036268889904022
                        ]
                    ],
                    [
                        [
                            -0.5632615089416504,
                            -0.6915726065635681
                        ],
                        [
                            -0.6789992451667786,
                            -0.033616337925195694
                        ]
                    ]
                ],
                [
                    [
                        [
                            -0.10394333302974701,
                            0.3437460660934448
                        ],
                        [
                            -0.005837838631123304,
                            0.09276574850082397
                        ]
                    ],
                    [
                        [
                            0.12407738715410233,
                            0.19316120445728302
                        ],
                        [
                            -0.1902562975883484,
                            -0.1617734581232071
                        ]
                    ],
                    [
                        [
                            -0.02914675697684288,
                            -0.06364799290895462
                        ],
                        [
                            -0.06297238171100616,
                            -0.04680424556136131
                        ]
                    ],
                    [
                        [
                            -0.13927000761032104,
                            0.08713075518608093
                        ],
                        [
                            0.07643084228038788,
                            -0.019994718953967094
                        ]
                    ],
                    [
                        [
                            -0.29745563864707947,
                            0.49416232109069824
                        ],
                        [
                            -0.148903951048851,
                            0.12024479359388351
                        ]
                    ],
                    [
                        [
                            -0.281745046377182,
                            -0.21321864426136017
                        ],
                        [
                            -0.04832075908780098,
                            0.08726243674755096
                        ]
                    ],
                    [
                        [
                            0.6486353874206543,
                            0.3131519854068756
                        ],
                        [
                            -0.39979466795921326,
                            0.7678831219673157
                        ]
                    ],
                    [
                        [
                            0.1177031472325325,
                            -0.07756059616804123
                        ],
                        [
                            0.14686501026153564,
                            -0.2530871331691742
                        ]
                    ],
                    [
                        [
                            0.44675707817077637,
                            0.23957563936710358
                        ],
                        [
                            -0.031857434660196304,
                            0.2950595021247864
                        ]
                    ],
                    [
                        [
                            0.06127849593758583,
                            -0.20630620419979095
                        ],
                        [
                            0.043756283819675446,
                            0.1299738734960556
                        ]
                    ],
                    [
                        [
                            1.2574554681777954,
                            -0.8068719506263733
                        ],
                        [
                            -0.5319811701774597,
                            0.9045728445053101
                        ]
                    ],
                    [
                        [
                            0.4412769377231598,
                            0.3515433967113495
                        ],
                        [
                            -0.012040543369948864,
                            -0.10208634287118912
                        ]
                    ],
                    [
                        [
                            0.19055239856243134,
                            0.013466409407556057
                        ],
                        [
                            0.18920601904392242,
                            -0.04750606417655945
                        ]
                    ],
                    [
                        [
                            -0.055194344371557236,
                            -0.005825413390994072
                        ],
                        [
                            -0.13152243196964264,
                            0.2247251719236374
                        ]
                    ],
                    [
                        [
                            -0.05570263788104057,
                            0.2679946720600128
                        ],
                        [
                            0.02115662954747677,
                            0.005915280897170305
                        ]
                    ],
                    [
                        [
                            0.13912679255008698,
                            0.12725821137428284
                        ],
                        [
                            0.0657152533531189,
                            -0.0914311483502388
                        ]
                    ],
                    [
                        [
                            -0.03229014575481415,
                            -0.16600769758224487
                        ],
                        [
                            -0.14436249434947968,
                            0.25501617789268494
                        ]
                    ],
                    [
                        [
                            -0.03013697639107704,
                            0.03702561929821968
                        ],
                        [
                            0.06105368956923485,
                            -0.049203209578990936
                        ]
                    ],
                    [
                        [
                            0.04359203204512596,
                            -0.04494323953986168
                        ],
                        [
                            -0.06492871791124344,
                            -0.3094935119152069
                        ]
                    ],
                    [
                        [
                            0.6537731289863586,
                            -0.018692461773753166
                        ],
                        [
                            -0.011956377886235714,
                            -0.9732634425163269
                        ]
                    ],
                    [
                        [
                            0.13040730357170105,
                            -0.15491820871829987
                        ],
                        [
                            -0.05297677963972092,
                            0.09077130258083344
                        ]
                    ],
                    [
                        [
                            -0.12000390887260437,
                            -0.17565497756004333
                        ],
                        [
                            0.3263888955116272,
                            0.1314467191696167
                        ]
                    ],
                    [
                        [
                            0.37015610933303833,
                            -0.3313828706741333
                        ],
                        [
                            0.030112307518720627,
                            0.12487256526947021
                        ]
                    ],
                    [
                        [
                            -0.035303931683301926,
                            0.0770091861486435
                        ],
                        [
                            -0.018001636490225792,
                            0.21839576959609985
                        ]
                    ]
                ],
                [
                    [
                        [
                            -0.20446226000785828,
                            0.15740445256233215
                        ],
                        [
                            0.1369224339723587,
                            -0.12581586837768555
                        ]
                    ],
                    [
                        [
                            -0.07105584442615509,
                            -0.2262209802865982
                        ],
                        [
                            0.26759594678878784,
                            -0.2795601785182953
                        ]
                    ],
                    [
                        [
                            -0.2796875238418579,
                            0.18618330359458923
                        ],
                        [
                            -0.13717538118362427,
                            0.11608453840017319
                        ]
                    ],
                    [
                        [
                            0.03294580057263374,
                            0.24039418995380402
                        ],
                        [
                            -0.16003981232643127,
                            0.08167746663093567
                        ]
                    ],
                    [
                        [
                            0.3494482636451721,
                            0.007074601482599974
                        ],
                        [
                            -0.16692934930324554,
                            0.16207820177078247
                        ]
                    ],
                    [
                        [
                            1.2761921882629395,
                            0.3834480941295624
                        ],
                        [
                            -0.20905394852161407,
                            -0.26501718163490295
                        ]
                    ],
                    [
                        [
                            0.2060905247926712,
                            0.8005152344703674
                        ],
                        [
                            0.4117867648601532,
                            0.10927342623472214
                        ]
                    ],
                    [
                        [
                            -0.04279100149869919,
                            -0.026658382266759872
                        ],
                        [
                            0.09598144143819809,
                            -0.25583651661872864
                        ]
                    ],
                    [
                        [
                            0.7710327506065369,
                            -0.3058183491230011
                        ],
                        [
                            0.10766775161027908,
                            -0.3668197989463806
                        ]
                    ],
                    [
                        [
                            -0.004524805583059788,
                            -0.10811398178339005
                        ],
                        [
                            -0.04120674356818199,
                            0.08990614116191864
                        ]
                    ],
                    [
                        [
                            0.015076586976647377,
                            -0.46726009249687195
                        ],
                        [
                            0.10948453843593597,
                            0.277444452047348
                        ]
                    ],
                    [
                        [
                            -1.1288557052612305,
                            -0.5926516056060791
                        ],
                        [
                            -0.6269453763961792,
                            0.8948125839233398
                        ]
                    ],
                    [
                        [
                            0.09117588400840759,
                            -0.39385807514190674
                        ],
                        [
                            0.11884311586618423,
                            -0.11955028027296066
                        ]
                    ],
                    [
                        [
                            -0.3244870901107788,
                            0.4393494427204132
                        ],
                        [
                            -0.045870885252952576,
                            0.14115163683891296
                        ]
                    ],
                    [
                        [
                            0.23389938473701477,
                            0.24598349630832672
                        ],
                        [
                            0.2413286417722702,
                            -0.11805318295955658
                        ]
                    ],
                    [
                        [
                            -0.11939959973096848,
                            0.4114347994327545
                        ],
                        [
                            0.16706836223602295,
                            -0.4128884971141815
                        ]
                    ],
                    [
                        [
                            -0.4949524998664856,
                            -0.029826123267412186
                        ],
                        [
                            -0.010655296966433525,
                            0.07475478202104568
                        ]
                    ],
                    [
                        [
                            0.023438138887286186,
                            0.054064005613327026
                        ],
                        [
                            0.10441644489765167,
                            -0.10942143946886063
                        ]
                    ],
                    [
                        [
                            0.00996839627623558,
                            -0.3444274663925171
                        ],
                        [
                            0.20297697186470032,
                            -0.23482418060302734
                        ]
                    ],
                    [
                        [
                            -0.1945086568593979,
                            -1.0446094274520874
                        ],
                        [
                            -0.4697507619857788,
                            0.4673674702644348
                        ]
                    ],
                    [
                        [
                            -0.016697512939572334,
                            0.008849523030221462
                        ],
                        [
                            0.03355751186609268,
                            -0.12101239711046219
                        ]
                    ],
                    [
                        [
                            0.39176806807518005,
                            -0.13679587841033936
                        ],
                        [
                            0.14084500074386597,
                            0.1539735645055771
                        ]
                    ],
                    [
                        [
                            0.10214487463235855,
                            0.008836211636662483
                        ],
                        [
                            -0.11580084264278412,
                            -0.08721035718917847
                        ]
                    ],
                    [
                        [
                            0.17211824655532837,
                            0.08045242726802826
                        ],
                        [
                            -0.22160257399082184,
                            0.055514752864837646
                        ]
                    ]
                ],
                [
                    [
                        [
                            -0.23018641769886017,
                            -0.5310701131820679
                        ],
                        [
                            -0.001299456343986094,
                            0.4090459942817688
                        ]
                    ],
                    [
                        [
                            0.012732724659144878,
                            -0.2034028321504593
                        ],
                        [
                            0.08685420453548431,
                            -0.23759420216083527
                        ]
                    ],
                    [
                        [
                            0.055004674941301346,
                            0.06784703582525253
                        ],
                        [
                            0.077227883040905,
                            0.06511420011520386
                        ]
                    ],
                    [
                        [
                            0.05081387609243393,
                            -0.007193434983491898
                        ],
                        [
                            -0.03773557022213936,
                            0.017618712037801743
                        ]
                    ],
                    [
                        [
                            0.13760825991630554,
                            0.20726992189884186
                        ],
                        [
                            -0.2588902413845062,
                            -0.04591760411858559
                        ]
                    ],
                    [
                        [
                            0.4962312579154968,
                            -0.3911576271057129
                        ],
                        [
                            -0.18344655632972717,
                            0.07210255414247513
                        ]
                    ],
                    [
                        [
                            -0.1408870667219162,
                            -0.49369969964027405
                        ],
                        [
                            1.3064091205596924,
                            0.13913126289844513
                        ]
                    ],
                    [
                        [
                            -0.11597710847854614,
                            0.29437264800071716
                        ],
                        [
                            0.1959351748228073,
                            -0.2955510914325714
                        ]
                    ],
                    [
                        [
                            -0.19147147238254547,
                            -0.5257214307785034
                        ],
                        [
                            -0.1913878470659256,
                            -0.6317894458770752
                        ]
                    ],
                    [
                        [
                            -0.03151422366499901,
                            0.13760022819042206
                        ],
                        [
                            -0.0744185745716095,
                            -0.07992751896381378
                        ]
                    ],
                    [
                        [
                            -0.6935433745384216,
                            -0.6039833426475525
                        ],
                        [
                            0.8990952372550964,
                            0.27219605445861816
                        ]
                    ],
                    [
                        [
                            -0.10650058090686798,
                            0.05732564255595207
                        ],
                        [
                            0.08139994740486145,
                            0.6172759532928467
                        ]
                    ],
                    [
                        [
                            -0.13946270942687988,
                            -0.2117064893245697
                        ],
                        [
                            0.08305774629116058,
                            -0.2277037650346756
                        ]
                    ],
                    [
                        [
                            0.036702241748571396,
                            0.12104262411594391
                        ],
                        [
                            -0.07758259773254395,
                            -0.008507966995239258
                        ]
                    ],
                    [
                        [
                            0.03682280704379082,
                            -0.4671369194984436
                        ],
                        [
                            -0.04923143610358238,
                            0.2411818504333496
                        ]
                    ],
                    [
                        [
                            -1.2383369207382202,
                            0.09887510538101196
                        ],
                        [
                            -0.1786215603351593,
                            0.37960582971572876
                        ]
                    ],
                    [
                        [
                            0.00683225505053997,
                            -0.033604223281145096
                        ],
                        [
                            0.1016688346862793,
                            0.07513868063688278
                        ]
                    ],
                    [
                        [
                            -0.0018198915058746934,
                            -0.12021142989397049
                        ],
                        [
                            0.01409950852394104,
                            0.3663633167743683
                        ]
                    ],
                    [
                        [
                            -0.20280618965625763,
                            -0.46371227502822876
                        ],
                        [
                            0.12162948399782181,
                            0.1778886765241623
                        ]
                    ],
                    [
                        [
                            0.05838589370250702,
                            -0.6653051972389221
                        ],
                        [
                            0.8322799801826477,
                            -1.1223161220550537
                        ]
                    ],
                    [
                        [
                            0.03663244843482971,
                            0.3890020549297333
                        ],
                        [
                            0.06055355444550514,
                            -0.46094438433647156
                        ]
                    ],
                    [
                        [
                            -0.10225891321897507,
                            0.09638756513595581
                        ],
                        [
                            -0.14659562706947327,
                            0.3258458971977234
                        ]
                    ],
                    [
                        [
                            -0.2993876338005066,
                            0.14479157328605652
                        ],
                        [
                            -0.19396373629570007,
                            -0.34689775109291077
                        ]
                    ],
                    [
                        [
                            0.051901206374168396,
                            -0.029677076265215874
                        ],
                        [
                            -0.05331958457827568,
                            0.013626865111291409
                        ]
                    ]
                ],
                [
                    [
                        [
                            -0.12488675117492676,
                            -0.6016218662261963
                        ],
                        [
                            -0.09758682548999786,
                            0.1373569220304489
                        ]
                    ],
                    [
                        [
                            -0.10503248870372772,
                            0.058226101100444794
                        ],
                        [
                            -0.15159142017364502,
                            -0.09133422374725342
                        ]
                    ],
                    [
                        [
                            0.28943026065826416,
                            -0.6197245717048645
                        ],
                        [
                            -0.06727483868598938,
                            -0.04058597981929779
                        ]
                    ],
                    [
                        [
                            0.21192824840545654,
                            -0.11863905191421509
                        ],
                        [
                            -0.15847058594226837,
                            0.187240332365036
                        ]
                    ],
                    [
                        [
                            0.2760709226131439,
                            0.6360810995101929
                        ],
                        [
                            0.5491470694541931,
                            -0.09862715005874634
                        ]
                    ],
                    [
                        [
                            -0.15115492045879364,
                            0.31677505373954773
                        ],
                        [
                            0.3029294013977051,
                            0.02582521177828312
                        ]
                    ],
                    [
                        [
                            0.3961332142353058,
                            0.05998314172029495
                        ],
                        [
                            0.08022917062044144,
                            0.05077806115150452
                        ]
                    ],
                    [
                        [
                            -0.11435001343488693,
                            -0.21183615922927856
                        ],
                        [
                            0.11188604682683945,
                            0.025683732703328133
                        ]
                    ],
                    [
                        [
                            0.40105873346328735,
                            0.2306850254535675
                        ],
                        [
                            -0.08053688704967499,
                            0.26776957511901855
                        ]
                    ],
                    [
                        [
                            0.5346253514289856,
                            -0.044672150164842606
                        ],
                        [
                            -0.26542526483535767,
                            -0.01771223545074463
                        ]
                    ],
                    [
                        [
                            0.34268826246261597,
                            -0.51546311378479
                        ],
                        [
                            0.521893322467804,
                            -0.3059898912906647
                        ]
                    ],
                    [
                        [
                            0.38807347416877747,
                            0.07529960572719574
                        ],
                        [
                            -0.3200765550136566,
                            -0.1029156744480133
                        ]
                    ],
                    [
                        [
                            0.0987807884812355,
                            0.035455234348773956
                        ],
                        [
                            0.2353452444076538,
                            0.056813761591911316
                        ]
                    ],
                    [
                        [
                            -0.1515258103609085,
                            -0.02226746454834938
                        ],
                        [
                            0.17506705224514008,
                            0.0665801391005516
                        ]
                    ],
                    [
                        [
                            0.16603082418441772,
                            -0.14806631207466125
                        ],
                        [
                            0.3322804868221283,
                            0.5508777499198914
                        ]
                    ],
                    [
                        [
                            -0.16449588537216187,
                            -0.34905168414115906
                        ],
                        [
                            -0.0050865826196968555,
                            -0.2602331340312958
                        ]
                    ],
                    [
                        [
                            -0.05297635495662689,
                            -0.435131698846817
                        ],
                        [
                            0.04698994755744934,
                            0.42277440428733826
                        ]
                    ],
                    [
                        [
                            -0.1844688057899475,
                            -0.18420591950416565
                        ],
                        [
                            -0.15595822036266327,
                            -0.06031645089387894
                        ]
                    ],
                    [
                        [
                            -0.23058496415615082,
                            -0.25505441427230835
                        ],
                        [
                            -0.028981870040297508,
                            -0.006407907698303461
                        ]
                    ],
                    [
                        [
                            0.16909630596637726,
                            0.36411958932876587
                        ],
                        [
                            -0.16734255850315094,
                            -0.12535294890403748
                        ]
                    ],
                    [
                        [
                            -0.021934427320957184,
                            -0.16903695464134216
                        ],
                        [
                            0.08928696811199188,
                            -0.031619779765605927
                        ]
                    ],
                    [
                        [
                            -0.1284143179655075,
                            0.15150043368339539
                        ],
                        [
                            -0.32253211736679077,
                            0.13240446150302887
                        ]
                    ],
                    [
                        [
                            -0.4474479556083679,
                            -0.21783600747585297
                        ],
                        [
