{
    "CNN_input_1": [
        {
            "b": [
                0.01650550588965416,
                -0.10635492950677872,
                -0.0016507377149537206,
                0.05488228797912598,
                -0.06328434497117996,
                -0.2877529263496399,
                -0.2665051519870758,
                -0.17216989398002625
            ],
            "w": [
                [
                    [
                        [
                            -0.04852164536714554,
                            -0.2864014208316803
                        ],
                        [
                            0.1437404304742813,
                            0.10362718254327774
                        ]
                    ]
                ],
                [
                    [
                        [
                            0.438998818397522,
                            -0.2653106451034546
                        ],
                        [
                            0.4310912787914276,
                            -0.4654415547847748
                        ]
                    ]
                ],
                [
                    [
                        [
                            -0.01991332322359085,
                            0.03248850256204605
                        ],
                        [
                            -0.005892082117497921,
                            0.030372392386198044
                        ]
                    ]
                ],
                [
                    [
                        [
                            -0.02606884390115738,
                            -0.05100636929273605
                        ],
                        [
                            -0.05622333660721779,
                            -0.04001931473612785
                        ]
                    ]
                ],
                [
                    [
                        [
                            0.4963550269603729,
                            1.0197021961212158
                        ],
                        [
                            0.9050827026367188,
                            0.6146320104598999
                        ]
                    ]
                ],
                [
                    [
                        [
                            0.5353549122810364,
                            1.7207156419754028
                        ],
                        [
                            0.6943249702453613,
                            -0.6321302056312561
                        ]
                    ]
                ],
                [
                    [
                        [
                            -0.5254182815551758,
                            0.44616037607192993
                        ],
                        [
                            0.8883422613143921,
                            -0.0965682864189148
                        ]
                    ]
                ],
                [
                    [
                        [
                            0.3050859570503235,
                            0.7152703404426575
                        ],
                        [
                            -1.090868353843689,
                            -0.6725927591323853
                        ]
                    ]
                ]
            ]
        }
    ],
    "CNN_input_2": [
        {
            "b": [
                0.14383240044116974,
                -0.12202668935060501,
                0.05901334062218666,
                -0.1762300729751587,
                0.1614578366279602,
                0.1698940247297287,
                0.13498586416244507,
                0.07916909456253052
            ],
            "w": [
                [
                    [
                        [
                            -1.2333216667175293
                        ]
                    ],
                    [
                        [
                            0.5689793229103088
                        ]
                    ],
                    [
                        [
                            -0.06263331323862076
                        ]
                    ],
                    [
                        [
                            -1.08896803855896
                        ]
                    ],
                    [
                        [
                            -0.5783367156982422
                        ]
                    ],
                    [
                        [
                            -0.1324964165687561
                        ]
                    ]
                ],
                [
                    [
                        [
                            -0.8814168572425842
                        ]
                    ],
                    [
                        [
                            -0.18593361973762512
                        ]
                    ],
                    [
                        [
                            0.24701948463916779
                        ]
                    ],
                    [
                        [
                            -0.19833403825759888
                        ]
                    ],
                    [
                        [
                            -1.2806291580200195
                        ]
                    ],
                    [
                        [
                            -0.6812795400619507
                        ]
                    ]
                ],
                [
                    [
                        [
                            -0.6356144547462463
                        ]
                    ],
                    [
                        [
                            0.7495042085647583
                        ]
                    ],
                    [
                        [
                            -0.05386735126376152
                        ]
                    ],
                    [
                        [
                            0.6344296932220459
                        ]
                    ],
                    [
                        [
                            -0.6401609182357788
                        ]
                    ],
                    [
                        [
                            -0.8364660143852234
                        ]
                    ]
                ],
                [
                    [
                        [
                            -0.7434431314468384
                        ]
                    ],
                    [
                        [
                            -1.3274178504943848
                        ]
                    ],
                    [
                        [
                            0.1741904467344284
                        ]
                    ],
                    [
                        [
                            0.1402912437915802
                        ]
                    ],
                    [
                        [
                            1.302126169204712
                        ]
                    ],
                    [
                        [
                            -0.3764478862285614
                        ]
                    ]
                ],
                [
                    [
                        [
                            -0.30076631903648376
                        ]
                    ],
                    [
                        [
                            -0.33115798234939575
                        ]
                    ],
                    [
                        [
                            -0.2729305326938629
                        ]
                    ],
                    [
                        [
                            0.8875043988227844
                        ]
                    ],
                    [
                        [
                            0.9659534096717834
                        ]
                    ],
                    [
                        [
                            -0.32298776507377625
                        ]
                    ]
                ],
                [
                    [
                        [
                            -1.163248062133789
                        ]
                    ],
                    [
                        [
                            -0.2594663202762604
                        ]
                    ],
                    [
                        [
                            -0.22340932488441467
                        ]
                    ],
                    [
                        [
                            -0.07890486717224121
                        ]
                    ],
                    [
                        [
                            0.42717230319976807
                        ]
                    ],
                    [
                        [
                            -1.0921913385391235
                        ]
                    ]
                ],
                [
                    [
                        [
                            0.20232072472572327
                        ]
                    ],
                    [
                        [
                            0.5812631845474243
                        ]
                    ],
                    [
                        [
                            -0.24181970953941345
                        ]
                    ],
                    [
                        [
                            -0.4391981363296509
                        ]
                    ],
                    [
                        [
                            0.5748758316040039
                        ]
                    ],
                    [
                        [
                            0.4521998465061188
                        ]
                    ]
                ],
                [
                    [
                        [
                            -1.7525267601013184
                        ]
                    ],
                    [
                        [
                            0.07795652747154236
                        ]
                    ],
                    [
                        [
                            -0.11703498661518097
                        ]
                    ],
                    [
                        [
                            1.1232199668884277
                        ]
                    ],
                    [
                        [
                            0.463077187538147
                        ]
                    ],
                    [
                        [
                            -0.03451327979564667
                        ]
                    ]
                ]
            ]
        }
    ],
    "CNN_stage_2": [
        {
            "b": [
                0.023609044030308723,
                -0.19082574546337128,
                -0.006829938851296902,
                -0.2358180731534958,
                -0.11986737698316574,
                0.027374686673283577,
                -0.18641968071460724,
                -0.3352595567703247
            ],
            "w": [
                [
                    [
                        [
                            -0.7635405659675598,
                            0.008033585734665394
                        ],
                        [
                            0.36850863695144653,
                            0.2721334993839264
                        ]
                    ],
                    [
                        [
                            -0.023545144125819206,
                            -0.4401566982269287
                        ],
                        [
                            0.1828414797782898,
                            0.04190545156598091
                        ]
                    ],
                    [
                        [
                            -0.04509909451007843,
                            0.08215776830911636
                        ],
                        [
                            -0.022519461810588837,
                            -0.09700849652290344
                        ]
                    ],
                    [
                        [
                            -0.2783375680446625,
                            -0.1729629784822464
                        ],
                        [
                            -0.6497246623039246,
                            0.5848355293273926
                        ]
                    ],
                    [
                        [
                            0.7808287143707275,
                            -0.25934332609176636
                        ],
                        [
                            -0.2354070246219635,
                            1.062854528427124
                        ]
                    ],
                    [
                        [
                            0.8656086921691895,
                            -0.37290114164352417
                        ],
                        [
                            0.5199698209762573,
                            -0.2160991132259369
                        ]
                    ],
                    [
                        [
                            -0.8466463088989258,
                            0.05455099418759346
                        ],
                        [
                            0.22532561421394348,
                            0.3795376121997833
                        ]
                    ],
                    [
                        [
                            -0.6620557904243469,
                            -0.9845872521400452
                        ],
                        [
                            0.5797217488288879,
                            0.3168371319770813
                        ]
                    ]
                ],
                [
                    [
                        [
                            -0.08950479328632355,
                            -0.268800288438797
                        ],
                        [
                            0.3229753077030182,
                            -0.37321752309799194
                        ]
                    ],
                    [
                        [
                            -0.5731034874916077,
                            0.7447587847709656
                        ],
                        [
                            -1.3391400575637817,
                            0.9760804176330566
                        ]
                    ],
                    [
                        [
                            0.2711195647716522,
                            0.14763467013835907
                        ],
                        [
                            -0.2711591422557831,
                            0.09531350433826447
                        ]
                    ],
                    [
                        [
                            0.11234474182128906,
                            -0.07676409184932709
                        ],
                        [
                            -0.3422408699989319,
                            -0.03409647196531296
                        ]
                    ],
                    [
                        [
                            -0.5306415557861328,
                            -0.6663364171981812
                        ],
                        [
                            0.5827932953834534,
                            -0.12231431156396866
                        ]
                    ],
                    [
                        [
                            -0.460375040769577,
                            -1.1163740158081055
                        ],
                        [
                            0.5580281019210815,
                            -0.9268789887428284
                        ]
                    ],
                    [
                        [
                            -0.9820130467414856,
                            0.04730897769331932
                        ],
                        [
                            0.20554804801940918,
                            -0.42417415976524353
                        ]
                    ],
                    [
                        [
                            -0.047289445996284485,
                            0.17227406799793243
                        ],
                        [
                            -1.2384700775146484,
                            -0.04493602365255356
                        ]
                    ]
                ],
                [
                    [
                        [
                            0.07359838485717773,
                            -0.39554330706596375
                        ],
                        [
                            0.22507837414741516,
                            -0.42232322692871094
                        ]
                    ],
                    [
                        [
                            0.4698179066181183,
                            -0.24832363426685333
                        ],
                        [
                            -0.27209511399269104,
                            0.728371262550354
                        ]
                    ],
                    [
                        [
                            0.09592888504266739,
                            0.06668122857809067
                        ],
                        [
                            -0.13716228306293488,
                            0.11559881269931793
                        ]
                    ],
                    [
                        [
                            0.11289680004119873,
                            0.44065240025520325
                        ],
                        [
                            -0.21718411147594452,
                            -0.133099764585495
                        ]
                    ],
                    [
                        [
                            -0.34836068749427795,
                            0.1429344266653061
                        ],
                        [
                            -0.3348105549812317,
                            0.40268775820732117
                        ]
                    ],
                    [
                        [
                            -0.5832767486572266,
                            -0.6298258304595947
                        ],
                        [
                            -0.32818901538848877,
                            0.4137057363986969
                        ]
                    ],
                    [
                        [
                            -0.5807715654373169,
                            -0.29757067561149597
                        ],
                        [
                            0.44660356640815735,
                            0.5709925293922424
                        ]
                    ],
                    [
                        [
                            0.37519770860671997,
                            -0.9372267127037048
                        ],
                        [
                            0.139909565448761,
                            0.4566035270690918
                        ]
                    ]
                ],
                [
                    [
                        [
                            0.41541996598243713,
                            -0.013072903268039227
                        ],
                        [
                            -0.652214527130127,
                            0.4930350184440613
                        ]
                    ],
                    [
                        [
                            0.7424325942993164,
                            -1.1770325899124146
                        ],
                        [
                            1.2342135906219482,
                            0.828202486038208
                        ]
                    ],
                    [
                        [
                            0.05692680925130844,
                            0.3474617004394531
                        ],
                        [
                            -0.08650363236665726,
                            0.09413545578718185
                        ]
                    ],
                    [
                        [
                            -0.008135272189974785,
                            0.31072139739990234
                        ],
                        [
                            -0.14106200635433197,
                            -0.38964855670928955
                        ]
                    ],
                    [
                        [
                            -0.19859695434570312,
                            1.2848998308181763
                        ],
                        [
                            -0.2683488726615906,
                            -0.48127201199531555
                        ]
                    ],
                    [
                        [
                            0.22474367916584015,
                            0.6380683779716492
                        ],
                        [
                            -1.0031553506851196,
                            1.3736556768417358
                        ]
                    ],
                    [
                        [
                            -0.3297470211982727,
                            -1.087266206741333
                        ],
                        [
                            1.7300688028335571,
                            -0.7264675498008728
                        ]
                    ],
                    [
                        [
                            0.1797715276479721,
                            -1.9198455810546875
                        ],
                        [
                            -0.3810524046421051,
                            1.179284691810608
                        ]
                    ]
                ],
                [
                    [
                        [
                            -0.20095863938331604,
                            0.07362259924411774
                        ],
                        [
                            0.5210926532745361,
                            0.2234395444393158
                        ]
                    ],
                    [
                        [
                            1.0121285915374756,
                            -0.5004326701164246
                        ],
                        [
                            1.3432955741882324,
                            -0.8267413377761841
                        ]
                    ],
                    [
                        [
                            -0.2703549563884735,
                            -0.07898172736167908
                        ],
                        [
                            0.41847291588783264,
                            -0.3290749490261078
                        ]
                    ],
                    [
                        [
                            -0.27826187014579773,
                            -0.025862494483590126
                        ],
                        [
                            0.09823738783597946,
                            0.35959070920944214
                        ]
                    ],
                    [
                        [
                            0.06696707755327225,
                            0.5526600480079651
                        ],
                        [
                            0.1026591956615448,
                            -0.7051509618759155
                        ]
                    ],
                    [
                        [
                            -0.15077745914459229,
                            1.406106948852539
                        ],
                        [
                            -1.0992201566696167,
                            0.9326790571212769
                        ]
                    ],
                    [
                        [
                            -0.16301536560058594,
                            -0.3159184455871582
                        ],
                        [
                            -0.8826902508735657,
                            -0.05874992161989212
                        ]
                    ],
                    [
                        [
                            -0.1348164975643158,
                            0.6318509578704834
                        ],
                        [
                            0.5150362849235535,
                            0.6352236866950989
                        ]
                    ]
                ],
                [
                    [
                        [
                            -0.11580432951450348,
                            -0.5690011382102966
                        ],
                        [
                            -0.08271121978759766,
                            0.12226833403110504
                        ]
                    ],
                    [
                        [
                            -0.14497750997543335,
                            -0.8980206251144409
                        ],
                        [
                            -0.5028505325317383,
                            0.7886978387832642
                        ]
                    ],
                    [
                        [
                            0.04433672875165939,
                            0.03392475098371506
                        ],
                        [
                            0.07183137536048889,
                            -0.08859855681657791
                        ]
                    ],
                    [
                        [
                            -0.2227317839860916,
                            0.4395595192909241
                        ],
                        [
                            -0.10765162855386734,
                            -0.2817884385585785
                        ]
                    ],
                    [
                        [
                            0.30747535824775696,
                            -0.6305933594703674
                        ],
                        [
                            -0.2563060522079468,
                            -0.060118455439805984
                        ]
                    ],
                    [
                        [
                            -0.4444323182106018,
                            -1.6307880878448486
                        ],
                        [
                            0.7137109041213989,
                            -0.2552155554294586
                        ]
                    ],
                    [
                        [
                            1.040731430053711,
                            -0.953709602355957
                        ],
                        [
                            -0.7188624739646912,
                            -1.2904715538024902
                        ]
                    ],
                    [
                        [
                            -1.202667236328125,
                            -1.2020899057388306
                        ],
                        [
                            1.0188169479370117,
                            1.46695077419281
                        ]
                    ]
                ],
                [
                    [
                        [
                            0.15316452085971832,
                            -0.49219077825546265
                        ],
                        [
                            -0.39718708395957947,
                            0.0604577474296093
                        ]
                    ],
                    [
                        [
                            0.2463776022195816,
                            0.3406025767326355
                        ],
                        [
                            0.9558212757110596,
                            -0.048974405974149704
                        ]
                    ],
                    [
                        [
                            0.2602091431617737,
                            0.0654199868440628
                        ],
                        [
                            -0.38275736570358276,
                            0.6491761207580566
                        ]
                    ],
                    [
                        [
                            0.21553930640220642,
                            -0.28076326847076416
                        ],
                        [
                            -0.14060179889202118,
                            -0.11215760558843613
                        ]
                    ],
                    [
                        [
                            -1.1880102157592773,
                            -0.7489153146743774
                        ],
                        [
                            -0.7160567045211792,
                            -0.16350813210010529
                        ]
                    ],
                    [
                        [
                            -1.0215808153152466,
                            -1.420472502708435
                        ],
                        [
                            -0.8572508096694946,
                            0.9440267086029053
                        ]
                    ],
                    [
                        [
                            -1.2563340663909912,
                            -0.7546894550323486
                        ],
                        [
                            0.7165589332580566,
                            0.30284833908081055
                        ]
                    ],
                    [
                        [
                            0.44223952293395996,
                            -0.8161493539810181
                        ],
                        [
                            -0.3403095602989197,
                            1.0988103151321411
                        ]
                    ]
                ],
                [
                    [
                        [
                            -0.079994797706604,
                            -0.15124180912971497
                        ],
                        [
                            -0.3040042817592621,
                            -0.05435848608613014
                        ]
                    ],
                    [
                        [
                            1.1202442646026611,
                            -0.996670126914978
                        ],
                        [
                            1.6825451850891113,
                            -1.0272430181503296
                        ]
                    ],
                    [
                        [
                            0.4509475827217102,
                            -0.5788049697875977
                        ],
                        [
                            0.38810738921165466,
                            0.060546647757291794
                        ]
                    ],
                    [
                        [
                            -0.1337002068758011,
                            0.00764401163905859
                        ],
                        [
                            -0.06511694192886353,
                            0.1433834433555603
                        ]
                    ],
                    [
                        [
                            0.06108589097857475,
                            -0.8504738807678223
                        ],
                        [
                            -0.06741347908973694,
                            -0.04176310449838638
                        ]
                    ],
                    [
                        [
                            -0.6513411402702332,
                            -0.6807235479354858
                        ],
                        [
                            -0.1269393265247345,
                            -0.3633202612400055
                        ]
                    ],
                    [
                        [
                            0.16089120507240295,
                            0.819956362247467
                        ],
                        [
                            2.2051830291748047,
                            -0.546115517616272
                        ]
                    ],
                    [
                        [
                            0.0598655566573143,
                            -0.46663469076156616
                        ],
                        [
                            -0.7647857069969177,
                            -0.703214704990387
                        ]
                    ]
                ]
            ]
        }
    ],
    "MLP_stage_3": [
        {
            "b": [
                -0.10322415083646774,
                0.06179679557681084,
                -0.35243669152259827,
                -0.44953835010528564,
                0.19935102760791779,
                -0.011445567943155766,
                -0.5342983603477478,
                -0.1320694535970688,
                -0.016422010958194733,
                -0.9684511423110962,
                -0.14719805121421814,
                -0.7517476677894592,
                -0.5493382215499878,
                0.3398670554161072,
                -0.3274230659008026,
                -0.12048337608575821,
                -0.21732720732688904,
                -0.4070054888725281,
                -0.07707757502794266,
                -0.535519540309906,
                -0.16332793235778809,
                -0.0814417228102684,
                -0.1694989949464798,
                -0.6827065348625183,
                -0.23008206486701965,
                0.19805975258350372,
                0.04203745722770691,
                -0.25862953066825867,
                -0.3332273066043854,
                -0.20456784963607788,
                -0.5321732759475708,
                -0.9880895614624023,
                -0.5556378960609436,
                -0.012998802587389946,
                -1.6342060565948486,
                -0.776990532875061,
                -0.34447115659713745,
                -0.3253785967826843,
                -0.07769393175840378,
                0.06492232531309128,
                -0.44737860560417175,
                0.02935914136469364,
                -0.2829359471797943,
                -0.73028165102005,
                -0.8105499744415283,
                -0.5205525755882263,
                0.07222327589988708,
                -0.212896466255188,
                -0.926830530166626,
                -0.39595848321914673
            ],
            "w": [
                [
                    2.358458995819092,
                    0.33148103952407837,
                    1.1399931907653809,
                    -3.236759901046753,
                    2.782305955886841,
                    -2.635024070739746,
                    1.016640305519104,
                    2.3493926525115967,
                    2.3351643085479736,
                    5.240462779998779,
                    -0.2256689965724945,
                    4.086751937866211,
                    2.983060836791992,
                    -0.6310170888900757,
                    1.9039539098739624,
                    2.2606608867645264,
                    4.0373358726501465,
                    -3.109326124191284,
                    2.8001022338867188,
                    3.092118978500366,
                    2.209806442260742,
                    3.4190516471862793,
                    3.2009217739105225,
                    -1.6938077211380005,
                    1.9361224174499512,
                    3.163722276687622,
                    0.1444741040468216,
                    4.752343654632568,
                    -5.644586086273193,
                    -1.7916452884674072,
                    2.0804390907287598,
                    6.305755138397217,
                    3.2741198539733887,
                    0.8185417056083679,
                    2.471618175506592,
                    0.420371949672699,
                    1.7552093267440796,
                    3.7237956523895264,
                    4.073073387145996,
                    2.320835828781128,
                    5.075747489929199,
                    2.8490231037139893,
                    2.3126981258392334,
                    3.2758429050445557,
                    -1.2041159868240356,
                    0.484546959400177,
                    -0.05468025803565979,
                    -0.42996135354042053,
                    0.4319863021373749,
                    1.6155004501342773
                ],
                [
                    0.6413840651512146,
                    -0.46386948227882385,
                    6.284820556640625,
                    0.24909467995166779,
                    -4.027179718017578,
                    0.7593240737915039,
                    0.37829723954200745,
                    3.518239974975586,
                    -1.2323898077011108,
                    12.014115333557129,
                    2.8944544792175293,
                    3.392833948135376,
                    -0.7126376628875732,
                    -0.08632226288318634,
                    3.4807310104370117,
                    1.4768730401992798,
                    3.9184558391571045,
                    0.574627161026001,
                    2.0535237789154053,
                    5.452366828918457,
                    -0.45691683888435364,
                    -0.2165541797876358,
                    1.99526047706604,
                    -0.9126659631729126,
                    3.356127977371216,
                    0.49224206805229187,
                    3.0903704166412354,
                    -0.03008117899298668,
                    -0.8259888291358948,
                    1.7659534215927124,
                    4.49799919128418,
                    12.887152671813965,
                    3.2410717010498047,
                    2.0881617069244385,
                    5.4484405517578125,
                    5.869073390960693,
                    11.817220687866211,
                    0.7323244214057922,
                    -1.1794373989105225,
                    -1.5275565385818481,
                    7.047161102294922,
                    3.104034900665283,
                    -2.458591938018799,
                    3.0679538249969482,
                    3.544206142425537,
                    0.038261596113443375,
                    1.4929734468460083,
                    5.668030261993408,
                    2.5199501514434814,
                    2.375802993774414
                ],
                [
                    3.275982618331909,
                    -1.0057882070541382,
                    2.1026434898376465,
                    1.0779696702957153,
                    2.452979803085327,
                    2.5368082523345947,
                    0.8505563139915466,
                    -4.819827556610107,
                    1.832889199256897,
                    7.1783270835876465,
                    1.5217567682266235,
                    3.034855604171753,
                    1.715141773223877,
                    -1.2101516723632812,
                    -0.9594818949699402,
                    4.136995315551758,
                    -0.09952980279922485,
                    1.6450268030166626,
                    -2.180159568786621,
                    3.795335531234741,
                    3.177224636077881,
                    6.295410633087158,
                    -0.011129764840006828,
                    2.43760347366333,
                    1.2724159955978394,
                    3.8405375480651855,
                    1.2903993129730225,
                    -5.3466949462890625,
                    -1.7946966886520386,
                    0.2925087511539459,
                    -1.5458158254623413,
                    6.353494167327881,
                    4.798158168792725,
                    -4.524463653564453,
                    6.352209568023682,
                    -1.2017755508422852,
                    4.544525623321533,
                    0.9680018424987793,
                    -0.7100928425788879,
                    1.6530240774154663,
                    2.4536328315734863,
                    3.5977351665496826,
                    -0.33219724893569946,
                    4.323601245880127,
                    3.0514779090881348,
                    1.7159228324890137,
                    -2.0724151134490967,
                    3.9176888465881348,
                    -1.1189908981323242,
                    3.2445082664489746
                ],
                [
                    -1.7149690389633179,
                    3.1356544494628906,
                    5.855621814727783,
                    0.1371760070323944,
                    -6.7161478996276855,
                    -2.169559955596924,
                    0.4069473445415497,
                    -0.25255727767944336,
                    -5.234169006347656,
                    6.143832206726074,
                    5.247371673583984,
                    5.9720139503479,
                    -1.7299449443817139,
                    -0.0594397597014904,
                    -0.11536366492509842,
                    -5.685347557067871,
                    -1.7202420234680176,
                    -0.21969620883464813,
                    -0.49941861629486084,
                    5.267783164978027,
                    -2.0287415981292725,
                    -1.6866137981414795,
                    -2.652336835861206,
                    -0.13323327898979187,
                    4.24174690246582,
                    -0.7108525633811951,
                    6.320148944854736,
                    -2.6375133991241455,
                    -1.0028764009475708,
                    3.2433066368103027,
                    -2.1211278438568115,
                    11.36232852935791,
                    4.8028459548950195,
                    1.8017702102661133,
                    10.740314483642578,
                    -1.344938039779663,
                    13.39841079711914,
                    -0.4733268916606903,
                    -0.2598685324192047,
                    -3.0786097049713135,
                    7.983239650726318,
                    0.6061768531799316,
                    -0.70379638671875,
                    4.602901935577393,
                    -1.5584301948547363,
                    1.0131430625915527,
                    2.6709001064300537,
                    5.280792236328125,
                    2.1323041915893555,
                    1.3155187368392944
                ],
                [
                    -0.6498162746429443,
                    -0.22283858060836792,
                    0.8603867888450623,
                    -2.0013248920440674,
                    0.2727010250091553,
                    -0.5386737585067749,
                    -0.6806997656822205,
                    0.5674583911895752,
                    0.2543914318084717,
                    -0.29909127950668335,
                    -1.732346534729004,
                    0.7255123257637024,
                    -0.8027294874191284,
                    -4.602710723876953,
                    0.004281874280422926,
                    0.4211968779563904,
                    0.10014843195676804,
                    0.1290913224220276,
                    0.8634429574012756,
                    -0.05808467045426369,
                    -1.0857527256011963,
                    -0.9800508618354797,
                    -0.3922448456287384,
                    -0.44369274377822876,
                    -1.331290602684021,
                    -2.0233945846557617,
                    0.5370360016822815,
                    -0.3708074390888214,
                    1.8195658922195435,
                    0.5994551777839661,
                    1.4073160886764526,
                    0.15028983354568481,
                    0.07031729072332382,
                    0.7217738032341003,
                    -0.5266976356506348,
                    -0.9822801947593689,
                    -0.6296421885490417,
                    -0.31994521617889404,
                    0.16860070824623108,
                    -0.13067269325256348,
                    -0.5309983491897583,
                    -1.7103018760681152,
                    0.21250317990779877,
                    0.12503871321678162,
                    0.10342291742563248,
                    1.441372036933899,
                    0.31228432059288025,
                    -3.6619932651519775,
                    -2.1086578369140625,
                    -0.24121975898742676
                ],
                [
                    -3.0666720867156982,
                    -2.3157458305358887,
                    -1.1207590103149414,
                    1.403300166130066,
                    4.248142719268799,
                    -1.922285795211792,
                    3.186474323272705,
                    1.5831305980682373,
                    -3.4962313175201416,
                    -1.1139153242111206,
                    -1.8031065464019775,
                    0.4223767817020416,
                    1.978485345840454,
                    -2.332411050796509,
                    2.4871366024017334,
                    -1.1904491186141968,
                    2.5968172550201416,
                    -1.7144205570220947,
                    2.1548290252685547,
                    -0.3728678822517395,
                    1.633335828781128,
                    1.5037996768951416,
                    2.179830551147461,
                    -0.9793983101844788,
                    -0.5917466282844543,
                    1.1457213163375854,
                    -0.27824029326438904,
                    3.428967237472534,
                    1.6981737613677979,
                    -0.3172461688518524,
                    2.6360414028167725,
                    -1.1923528909683228,
                    -0.44038450717926025,
                    1.993016004562378,
                    -2.997408390045166,
                    3.8633079528808594,
                    -3.799589157104492,
                    1.911296010017395,
                    0.29970699548721313,
                    2.4210026264190674,
                    -0.978675365447998,
                    -7.3876566886901855,
                    0.5921445488929749,
                    -0.4299928545951843,
                    -2.919999361038208,
                    -0.4578620195388794,
                    -0.08459612727165222,
                    -4.325356483459473,
                    -8.260927200317383,
                    -2.1665115356445312
                ],
                [
                    0.5957218408584595,
                    -0.35438552498817444,
                    -0.2703583836555481,
                    -0.10026044398546219,
                    0.5993377566337585,
                    0.5312288403511047,
                    0.2029740959405899,
                    -0.6127618551254272,
                    0.8104972839355469,
                    -0.07914143800735474,
                    1.1496691703796387,
                    -0.22736680507659912,
                    -0.729800820350647,
                    0.06410196423530579,
                    0.5235795974731445,
                    0.27032727003097534,
                    0.3706483244895935,
                    1.3127691745758057,
                    -1.2325762510299683,
                    -0.03975680470466614,
                    0.6892973184585571,
                    -0.26800429821014404,
                    0.07673349231481552,
                    0.6009314656257629,
                    1.2297148704528809,
                    -1.266867995262146,
                    -0.1361507624387741,
                    0.33959972858428955,
                    -0.8053200244903564,
                    0.9631486535072327,
                    -0.9623085856437683,
                    0.5205703377723694,
                    0.45993301272392273,
                    -0.856358528137207,
                    0.7945828437805176,
                    0.45709091424942017,
                    0.5816551446914673,
                    0.9469069242477417,
                    0.3952239155769348,
                    0.26530200242996216,
                    0.4082217514514923,
                    -0.04123486205935478,
                    -0.38261619210243225,
                    0.14066478610038757,
                    0.501939058303833,
                    0.8883625268936157,
                    0.14229321479797363,
                    1.7239835262298584,
                    0.05723510682582855,
                    0.8254120945930481
                ],
                [
                    2.065718650817871,
                    -2.1164066791534424,
                    -0.8743111491203308,
                    1.141892910003662,
                    1.1722378730773926,
                    1.9392571449279785,
                    1.8818926811218262,
                    0.08602485060691833,
                    -0.2651749551296234,
                    1.5051366090774536,
                    1.4005650281906128,
                    0.03948119655251503,
                    2.778393030166626,
                    0.5358694195747375,
                    0.7247253656387329,
                    1.52999746799469,
                    0.9718424677848816,
                    -0.989950954914093,
                    1.2498756647109985,
                    0.6832892298698425,
                    0.8771880865097046,
                    2.06832218170166,
                    0.10546033829450607,
                    -0.38801175355911255,
                    -0.10809624940156937,
                    3.544926643371582,
                    0.175301656126976,
                    1.3359184265136719,
                    -4.0105791091918945,
                    -1.0828826427459717,
                    0.23205170035362244,
                    0.4172593355178833,
                    -2.754415512084961,
                    0.7824112176895142,
                    1.181137204170227,
                    1.6092108488082886,
                    4.046092987060547,
                    1.4128003120422363,
                    1.52719247341156,
                    0.2872122824192047,
                    -0.3409508466720581,
                    0.9477929472923279,
                    -0.2111135572195053,
                    -1.587738037109375,
                    1.1511791944503784,
                    -0.4566039443016052,
                    0.7950846552848816,
                    0.04443025588989258,
                    -5.958507061004639,
                    1.602131724357605
                ],
                [
                    0.528414249420166,
                    0.37044137716293335,
                    -1.8380869626998901,
                    0.7640681862831116,
                    0.7119833827018738,
                    -0.2086094468832016,
                    0.7376567721366882,
                    0.2959587275981903,
                    -0.5411163568496704,
                    -0.5204529166221619,
                    0.5265390872955322,
                    -0.01571875438094139,
                    1.2774790525436401,
                    1.0688673257827759,
                    0.3312649130821228,
                    0.7493820786476135,
                    0.9808780550956726,
                    0.11392410099506378,
                    1.2929575443267822,
                    -1.002343773841858,
                    1.0999418497085571,
                    0.10453245788812637,
                    0.5572658777236938,
                    0.13719962537288666,
                    -0.1180054172873497,
                    -0.8611160516738892,
                    -2.730269193649292,
                    0.28881189227104187,
                    -1.414669156074524,
                    0.6365962028503418,
                    0.2692384421825409,
                    -3.3066115379333496,
                    0.346034437417984,
                    0.8541626930236816,
                    -1.9121242761611938,
                    0.6484102606773376,
                    -2.9241225719451904,
                    1.0641125440597534,
                    0.359745591878891,
                    0.5893293023109436,
                    -1.510019302368164,
                    -0.6251024007797241,
                    0.5585501790046692,
                    -0.12559974193572998,
                    -0.7795454859733582,
                    -1.0571203231811523,
                    -0.00105901132337749,
                    1.302451252937317,
                    1.3317927122116089,
                    0.11772391200065613
                ],
                [
                    0.3413589298725128,
                    1.547888159751892,
                    0.7209375500679016,
                    1.0427809953689575,
                    0.12256848812103271,
                    -0.006901107728481293,
                    0.7058053612709045,
                    -0.6086683869361877,
                    0.3351520299911499,
                    -1.074974775314331,
                    -0.20121340453624725,
                    -0.1015261635184288,
                    -0.3801029622554779,
                    -0.8653966188430786,
                    0.44005459547042847,
                    0.4840531349182129,
                    0.34939271211624146,
                    -0.07476251572370529,
                    0.03735589236021042,
                    0.09342142194509506,
                    0.5110237002372742,
                    -0.45386645197868347,
                    -0.16413354873657227,
                    -0.0654960572719574,
                    0.3658771216869354,
                    0.45832809805870056,
                    0.4362710118293762,
                    -0.4501921236515045,
                    1.2025682926177979,
                    -0.018554793670773506,
                    0.475909948348999,
                    -0.8475549817085266,
                    0.5410075783729553,
                    -0.2825448513031006,
                    0.2345576286315918,
                    -0.32889795303344727,
                    -0.7007017731666565,
                    0.5161939263343811,
                    0.51153564453125,
                    0.11856512725353241,
                    0.7579154372215271,
                    -0.5003171563148499,
                    0.2716984748840332,
                    0.38251301646232605,
                    0.32040032744407654,
                    0.38814666867256165,
                    -0.3310782313346863,
                    1.0475865602493286,
                    -0.7560146450996399,
                    0.3284676969051361
                ],
                [
                    1.198868989944458,
                    2.276024103164673,
                    0.9263081550598145,
                    1.8105618953704834,
                    -2.977219343185425,
                    0.06160006672143936,
                    1.3566713333129883,
                    1.779081106185913,
                    -0.5289693474769592,
                    1.84894597530365,
                    0.5020391941070557,
                    1.5567072629928589,
                    0.37194758653640747,
                    0.7669770121574402,
                    0.9990164041519165,
                    2.034176826477051,
                    0.616002082824707,
                    0.14123670756816864,
                    1.145614743232727,
                    1.0185831785202026,
                    0.745597779750824,
                    0.7314310669898987,
                    1.1828930377960205,
                    0.8542300462722778,
                    0.4141055643558502,
                    -0.20770835876464844,
                    0.378309965133667,
                    2.2489397525787354,
                    0.5884571671485901,
                    0.16568902134895325,
                    1.6472463607788086,
                    1.9840114116668701,
                    0.4183744490146637,
                    1.084956407546997,
                    1.6663492918014526,
                    2.116405487060547,
                    1.880421757698059,
                    0.8097521066665649,
                    -1.2958263158798218,
                    0.32639458775520325,
                    2.2206835746765137,
                    1.5508438348770142,
                    0.1952447146177292,
                    0.9110770225524902,
                    2.1357131004333496,
                    -0.03186272457242012,
                    -0.42412668466567993,
                    2.218830108642578,
                    -0.029516806825995445,
                    1.3688639402389526
                ],
                [
                    0.9617829322814941,
                    2.842219591140747,
                    1.8872873783111572,
                    1.2487293481826782,
                    -2.4470672607421875,
                    -0.8258923888206482,
                    0.8073540925979614,
                    -0.536946713924408,
                    1.0775985717773438,
                    1.5526647567749023,
                    -4.214062213897705,
                    1.3227791786193848,
                    0.6805303692817688,
                    -6.295830249786377,
                    1.0057262182235718,
                    1.09442937374115,
                    1.654991626739502,
                    0.5525023937225342,
                    -0.1150163784623146,
                    1.2588249444961548,
                    0.8725770115852356,
                    0.9973559975624084,
                    0.32767266035079956,
                    0.0877533033490181,
                    1.1758272647857666,
                    0.3287181556224823,
                    0.44952067732810974,
                    -1.6410260200500488,
                    -2.2770466804504395,
                    -1.0805811882019043,
                    -1.6415789127349854,
                    1.536391019821167,
                    2.10406756401062,
                    0.3917692303657532,
                    1.205945372581482,
                    -1.1067335605621338,
                    -1.6451371908187866,
                    -0.9565305113792419,
                    -0.18410606682300568,
                    1.2600116729736328,
                    1.1127583980560303,
                    0.8952638506889343,
                    -2.1256730556488037,
                    1.906793475151062,
                    1.172586441040039,
                    -0.326787531375885,
                    -0.6201282143592834,
                    -5.16217565536499,
                    -2.4554991722106934,
                    0.5761619806289673
                ],
                [
                    2.0401339530944824,
                    0.9929144978523254,
                    -0.821326732635498,
                    2.7081782817840576,
                    -2.121035575866699,
                    1.239487648010254,
                    2.903421640396118,
                    0.622873842716217,
                    -3.7530369758605957,
                    -2.0951457023620605,
                    1.2480909824371338,
                    1.4456552267074585,
                    2.082740545272827,
                    -0.43710994720458984,
                    0.48873791098594666,
                    2.0796689987182617,
                    -0.19462041556835175,
                    3.7242438793182373,
                    1.0895953178405762,
                    0.7927170395851135,
                    0.8019581437110901,
                    0.6363527178764343,
                    0.5302392840385437,
                    4.051617622375488,
                    1.0643324851989746,
                    -1.506290316581726,
                    2.84067702293396,
                    0.598168134689331,
                    2.9842655658721924,
                    0.7236433029174805,
                    1.554044246673584,
                    -0.5663862228393555,
                    0.7395114898681641,
                    1.1510694026947021,
                    -0.07985517382621765,
                    1.413589596748352,
                    -1.30683434009552,
                    3.236297130584717,
                    3.925767183303833,
                    -1.6496129035949707,
                    0.5561374425888062,
                    3.4850077629089355,
                    0.6273750066757202,
                    1.4927223920822144,
                    3.66499924659729,
                    2.2291438579559326,
                    1.1999322175979614,
                    2.92732834815979,
                    2.959374189376831,
                    4.3545074462890625
                ],
                [
                    2.562810182571411,
                    2.6492977142333984,
                    0.7027816772460938,
                    2.218081474304199,
                    2.291381359100342,
                    0.45830926299095154,
                    2.7662839889526367,
                    -2.952038526535034,
                    1.4867936372756958,
                    4.35367488861084,
                    2.061136484146118,
                    1.3574306964874268,
                    3.093294382095337,
                    1.7391304969787598,
                    0.06331347674131393,
                    2.5988731384277344,
                    -1.0354472398757935,
                    2.420637845993042,
                    -3.728048801422119,
                    -0.7528608441352844,
                    2.363117218017578,
                    1.412824273109436,
                    -0.2923193871974945,
                    3.633113145828247,
                    1.9246182441711426,
                    1.7718791961669922,
                    -12.872076988220215,
                    1.470670223236084,
                    -8.490476608276367,
                    1.714774489402771,
                    -3.272360324859619,
                    1.7638126611709595,
                    1.6119369268417358,
                    -2.340742349624634,
                    7.557486534118652,
                    3.2090325355529785,
                    -0.5642432570457458,
                    2.651867389678955,
                    2.9867758750915527,
                    0.510586142539978,
                    2.9885408878326416,
                    2.3200125694274902,
                    0.7581321597099304,
                    3.212052345275879,
                    3.8592190742492676,
                    -1.0386340618133545,
                    0.7615463137626648,
                    4.260141849517822,
                    1.9816340208053589,
                    2.5585484504699707
                ],
                [
                    0.9797969460487366,
                    -0.15204723179340363,
                    -0.5333288311958313,
                    0.08677977323532104,
                    -0.019132403656840324,
                    2.8094141483306885,
                    0.9205846786499023,
                    -0.2000456601381302,
                    2.6167781352996826,
                    0.0009527267538942397,
                    1.7017889022827148,
                    1.825843334197998,
                    0.3303160071372986,
                    -1.1136645078659058,
                    -0.28806090354919434,
                    0.5012043714523315,
                    0.12373736500740051,
                    2.2315852642059326,
                    -0.20490674674510956,
                    0.5444459319114685,
                    0.2054947018623352,
                    0.18049617111682892,
                    -0.23554272949695587,
                    1.8382487297058105,
                    1.3734736442565918,
                    -0.9506711363792419,
                    -1.537421703338623,
                    -0.1709563285112381,
                    -0.4715697169303894,
                    2.5988845825195312,
                    0.0796356350183487,
                    -0.394448846578598,
                    0.028551163151860237,
                    0.2141435295343399,
                    0.595751166343689,
                    0.25972220301628113,
                    1.334535002708435,
                    1.5079371929168701,
                    -0.002418945077806711,
                    1.8694348335266113,
                    1.1839512586593628,
                    -1.8310328722000122,
                    2.180607318878174,
                    -0.47382214665412903,
                    2.3193652629852295,
                    -0.630771279335022,
                    1.4271939992904663,
                    2.4497172832489014,
                    1.316706895828247,
                    0.2305341362953186
                ],
                [
                    4.124464511871338,
                    -13.907697677612305,
                    -0.9169741868972778,
                    1.3470999002456665,
                    -0.9540700912475586,
                    -0.8391722440719604,
                    5.129498481750488,
                    6.487673282623291,
                    4.257884502410889,
                    -0.3724347949028015,
                    -1.3962502479553223,
                    -2.2251758575439453,
                    11.946531295776367,
                    -3.5844531059265137,
                    7.231973171234131,
                    5.25160026550293,
                    8.99593734741211,
                    -4.369283199310303,
                    4.2800774574279785,
                    -3.9641096591949463,
                    8.266979217529297,
                    9.626788139343262,
                    8.959277153015137,
                    -0.5851420760154724,
                    -6.992794990539551,
                    1.2357290983200073,
                    2.144664764404297,
                    9.70810604095459,
                    -0.02132209949195385,
                    -1.4574922323226929,
                    10.644396781921387,
                    -0.2760356068611145,
                    -9.029695510864258,
                    4.0938591957092285,
                    -0.2976536154747009,
                    11.7138032913208,
                    0.2399599850177765,
                    -0.010377286933362484,
                    -0.7142173051834106,
                    2.580963373184204,
                    -2.6424241065979004,
                    7.694304943084717,
                    1.0250756740570068,
                    -6.1233625411987305,
                    -2.377917528152466,
                    -0.5374689102172852,
                    -1.9122607707977295,
                    -0.8465010523796082,
                    -6.49296760559082,
                    6.927288055419922
                ],
                [
                    -0.003970433957874775,
                    -1.5377490520477295,
                    0.9354366064071655,
                    1.9825507402420044,
                    -1.4624128341674805,
                    2.68747615814209,
                    3.349147319793701,
                    -3.43468976020813,
                    0.163829505443573,
                    2.0730738639831543,
                    3.308586597442627,
                    3.7362351417541504,
                    -1.468995213508606,
                    0.8309561610221863,
                    -2.5257914066314697,
                    0.003064262680709362,
                    -3.8876917362213135,
                    1.433073878288269,
                    -0.6927252411842346,
                    3.140425205230713,
                    -1.2381144762039185,
                    -0.6830657720565796,
                    -2.5067572593688965,
                    1.5236378908157349,
                    1.9561549425125122,
                    0.22776862978935242,
                    1.4194142818450928,
                    -2.4097414016723633,
                    -8.008487701416016,
                    2.1143572330474854,
                    -0.8718758821487427,
                    3.248199939727783,
                    1.7417327165603638,
                    -0.6433530449867249,
                    2.419233560562134,
                    -1.2532984018325806,
                    2.7744362354278564,
                    3.0667290687561035,
                    1.0299631357192993,
                    -1.6837694644927979,
                    2.2096643447875977,
                    -0.5106343030929565,
                    -1.2755918502807617,
                    1.4496724605560303,
                    4.994973182678223,
                    -1.452413558959961,
                    0.8243666887283325,
                    4.126738548278809,
                    4.852701663970947,
                    -0.2569189667701721
                ],
                [
                    1.5294398069381714,
                    -0.6393625736236572,
                    -2.905355215072632,
                    1.5067230463027954,
                    1.533581256866455,
                    -1.1322875022888184,
                    2.8334126472473145,
                    -0.11627332866191864,
                    2.474518060684204,
                    -2.351719379425049,
                    0.48801174759864807,
                    -2.941405773162842,
                    2.0651614665985107,
                    2.6565542221069336,
                    1.7570366859436035,
                    1.4214367866516113,
                    1.6163126230239868,
                    0.9178813099861145,
                    -1.1201345920562744,
                    -1.9614163637161255,
                    1.3053745031356812,
                    1.462530255317688,
                    1.2432259321212769,
                    1.016883373260498,
                    -1.444128155708313,
                    -2.6172308921813965,
                    1.4360343217849731,
                    0.39385825395584106,
                    -1.178096055984497,
                    0.7580616474151611,
                    0.8288487792015076,
                    -1.6113791465759277,
                    -1.0127103328704834,
                    -0.36739012598991394,
                    2.292961835861206,
                    1.5950877666473389,
                    -1.3295328617095947,
                    -1.3180251121520996,
                    -4.578659534454346,
                    1.1229358911514282,
                    -2.009082794189453,
                    1.684887170791626,
                    0.7600818872451782,
                    -1.0521432161331177,
                    -2.982640266418457,
                    1.7216674089431763,
                    -1.3532391786575317,
                    1.4949873685836792,
                    4.057953357696533,
                    2.60835337638855
                ],
                [
                    -0.13928170502185822,
                    -1.8378124237060547,
                    -5.464983940124512,
                    1.1320843696594238,
                    0.7035303711891174,
                    0.6458368897438049,
                    1.8798813819885254,
                    3.6489877700805664,
                    1.0137273073196411,
                    1.5143367052078247,
                    1.2625162601470947,
                    2.565385341644287,
                    1.7934062480926514,
                    1.3922754526138306,
                    4.391726970672607,
                    -0.6231489181518555,
                    6.688950061798096,
                    -0.696876585483551,
                    1.22353196144104,
                    0.03465418517589569,
                    0.23141343891620636,
                    2.3942794799804688,
                    5.450979232788086,
                    1.7358096837997437,
                    0.28288763761520386,
                    1.1353535652160645,
                    0.5738368034362793,
                    4.265341281890869,
                    -13.689924240112305,
                    1.0037068128585815,
                    3.6443698406219482,
                    3.250270128250122,
                    1.1731419563293457,
                    0.7246187925338745,
                    1.8491324186325073,
                    -4.090198516845703,
                    1.0881291627883911,
                    2.1404926776885986,
                    4.255207061767578,
                    3.051701784133911,
                    1.510182499885559,
                    -0.01239806693047285,
                    2.4756832122802734,
                    0.6342246532440186,
                    -0.31408965587615967,
                    -0.19174186885356903,
                    1.4298455715179443,
                    -0.34208816289901733,
                    -0.7332655191421509,
                    0.9099537134170532
                ],
                [
                    -2.056241989135742,
                    0.4314045011997223,
                    -3.408118724822998,
                    -0.9996320009231567,
                    3.2901852130889893,
                    2.018187999725342,
                    -3.2206473350524902,
                    -0.577446460723877,
                    1.7310081720352173,
                    -1.5983022451400757,
                    1.1816166639328003,
                    -0.5083279609680176,
                    -2.0029590129852295,
                    0.5924329161643982,
                    0.5133435726165771,
                    -3.387563705444336,
                    0.1791107952594757,
                    2.1593644618988037,
                    -0.27472853660583496,
                    0.11411487311124802,
                    -1.8161643743515015,
                    -2.094850540161133,
                    0.49944883584976196,
                    2.5848591327667236,
                    2.851675510406494,
                    -0.01928221620619297,
                    -0.32949504256248474,
                    -7.023074150085449,
                    0.010015211999416351,
                    1.0096124410629272,
                    0.5266519784927368,
                    0.47132328152656555,
                    -0.6844801902770996,
                    0.3187728226184845,
                    -1.2169426679611206,
                    -5.686699867248535,
                    -0.6230579614639282,
                    2.6346631050109863,
                    2.943108081817627,
                    0.18947668373584747,
                    3.551353931427002,
                    -0.04033815860748291,
                    0.8197052478790283,
                    0.10932841151952744,
                    5.63065767288208,
                    -0.5634661912918091,
                    0.9740912318229675,
                    1.1160109043121338,
                    2.602489471435547,
                    -0.7704815864562988
                ],
                [
                    -0.32393503189086914,
                    0.7812660932540894,
                    0.8317709565162659,
                    0.19332462549209595,
                    0.8819973468780518,
                    -0.8842282295227051,
                    -1.1202220916748047,
                    -0.32310253381729126,
                    0.3725762367248535,
                    -1.2636796236038208,
                    -0.9338916540145874,
                    -0.6729779839515686,
                    -1.8313626050949097,
                    -1.4909310340881348,
                    -0.14519822597503662,
                    0.33848443627357483,
                    -0.592697024345398,
                    -0.899986207485199,
                    -0.25487232208251953,
                    0.19862207770347595,
                    -1.0047200918197632,
                    -2.2765767574310303,
                    -0.4407346844673157,
                    -0.38299208879470825,
                    0.2759244441986084,
                    -4.092263698577881,
                    -0.7362017035484314,
                    0.5785466432571411,
                    1.5816552639007568,
                    -3.800042152404785,
                    0.5392197370529175,
                    -1.0080400705337524,
                    1.326237440109253,
                    -0.011607402935624123,
                    1.562783122062683,
                    -0.17503036558628082,
                    -0.6176563501358032,
                    0.1758793741464615,
                    1.4647183418273926,
                    -0.15207549929618835,
                    -0.39300957322120667,
                    0.748187243938446,
                    0.7203404903411865,
                    0.9575760960578918,
                    -0.8557277321815491,
                    1.0586295127868652,
                    1.0977354049682617,
                    -1.2438448667526245,
                    -0.5169287323951721,
                    0.08844944834709167
                ],
                [
                    -0.0692487508058548,
                    -1.1355804204940796,
                    1.0567783117294312,
                    1.1123828887939453,
                    -0.6928580403327942,
                    1.2016456127166748,
                    0.4369804263114929,
                    0.270579993724823,
                    -0.9845828413963318,
                    -0.33404117822647095,
                    1.3927654027938843,
                    -0.11780832707881927,
                    0.3792334198951721,
                    1.756446123123169,
                    0.4399092197418213,
                    -0.18764348328113556,
                    0.22615256905555725,
                    1.0418639183044434,
                    0.17620521783828735,
                    0.7450987696647644,
                    0.22855433821678162,
                    0.5878665447235107,
                    0.6237024664878845,
                    1.18557608127594,
                    -0.3024422228336334,
                    2.046844005584717,
                    1.1093711853027344,
                    0.7463550567626953,
                    0.37460047006607056,
                    -0.7786120176315308,
                    0.948599100112915,
                    -0.49219223856925964,
                    -0.9413621425628662,
                    -0.013472306542098522,
                    1.8669514656066895,
                    0.7718729972839355,
                    1.2364897727966309,
                    0.5837805271148682,
                    0.8577842712402344,
                    -0.49828529357910156,
                    -0.01755978725850582,
                    1.719193935394287,
                    0.25272923707962036,
                    -0.0769987627863884,
                    0.10855858772993088,
                    -0.13985449075698853,
                    0.21661962568759918,
                    0.628423273563385,
                    1.3039315938949585,
                    0.5779718160629272
                ],
                [
                    -0.9581301212310791,
                    -1.519982099533081,
                    0.6203964948654175,
                    -1.273751974105835,
                    -1.110296368598938,
                    0.5680519938468933,
                    -1.3040059804916382,
                    -0.4360048770904541,
                    1.0265204906463623,
                    -0.9622240662574768,
                    1.0639848709106445,
                    -0.19784009456634521,
                    -1.0719574689865112,
                    -0.1184476837515831,
                    -0.06490311026573181,
                    -1.2574946880340576,
                    0.6178939342498779,
                    0.7272418737411499,
                    -0.2757095992565155,
                    -0.2796880304813385,
                    -0.596691906452179,
                    -0.9555943608283997,
                    0.025343511253595352,
                    0.9590915441513062,
                    0.4207315444946289,
                    -0.8383519649505615,
                    0.278958261013031,
                    -0.6557433605194092,
                    0.5914895534515381,
                    1.0888768434524536,
                    -0.20290645956993103,
                    -0.17374230921268463,
                    -2.165515661239624,
                    -0.13044306635856628,
                    -1.547440528869629,
                    -1.316794991493225,
                    -1.014553189277649,
                    0.2609251141548157,
                    -0.3506147265434265,
                    0.43028712272644043,
                    -0.3371421992778778,
                    -0.3267398476600647,
                    0.314959853887558,
                    -1.606124997138977,
                    -0.15320101380348206,
                    0.38545525074005127,
                    0.21482223272323608,
                    1.3524826765060425,
                    0.1989734023809433,
                    -0.24750882387161255
                ],
                [
                    -1.5862274169921875,
                    3.203615188598633,
                    2.1833548545837402,
                    0.46786341071128845,
                    0.5495271682739258,
                    0.8136762380599976,
                    1.1843761205673218,
                    0.3171965479850769,
                    1.6227240562438965,
                    1.9619927406311035,
                    1.524012804031372,
                    1.307887315750122,
                    0.3763069212436676,
                    -0.10028155148029327,
                    -0.7675926685333252,
                    -1.4345606565475464,
                    -0.10749830305576324,
                    2.270846128463745,
                    -0.4630323052406311,
                    -0.527271568775177,
                    -1.41551673412323,
                    0.2789003551006317,
                    -0.4118059277534485,
                    2.029092788696289,
                    2.7111237049102783,
                    0.2884811758995056,
                    2.736849069595337,
                    -0.2241237610578537,
                    1.815566062927246,
                    2.3112611770629883,
                    2.6966521739959717,
                    0.8412086367607117,
                    -0.7171441316604614,
                    -0.06167316809296608,
                    -1.0461896657943726,
                    1.0293569564819336,
                    0.06753923743963242,
                    1.2694917917251587,
                    0.18613240122795105,
                    0.01657271757721901,
                    4.202785491943359,
                    -0.738480806350708,
                    0.7714179754257202,
                    0.7943352460861206,
                    4.166177272796631,
                    -0.10541407018899918,
                    0.3667237162590027,
                    2.515265703201294,
                    3.295470714569092,
                    -0.967313289642334
                ],
                [
                    -0.833011269569397,
                    -0.254343718290329,
                    -0.251237154006958,
                    -0.8693515062332153,
                    -2.836839199066162,
                    -0.43897679448127747,
                    0.1652752310037613,
                    0.3637147545814514,
                    -0.7324972152709961,
                    0.9939325451850891,
                    -0.5309003591537476,
                    0.09861224889755249,
                    0.9586308598518372,
                    0.9526459574699402,
                    0.21565084159374237,
                    -1.4737350940704346,
                    -0.36180850863456726,
                    0.16587655246257782,
                    0.2713199555873871,
                    0.5571048259735107,
                    -0.3022927939891815,
                    0.5297102332115173,
                    0.5024804472923279,
                    0.08807201683521271,
                    -1.222052812576294,
                    1.2185555696487427,
                    -0.22550559043884277,
                    -0.1337389051914215,
                    -1.075068473815918,
                    0.009534433484077454,
                    0.5850662589073181,
                    0.3716571033000946,
                    0.5394255518913269,
                    0.22319673001766205,
                    -0.5281544327735901,
                    0.3764011561870575,
                    -5.80050802230835,
                    -1.016165852546692,
                    -0.7942572832107544,
                    -0.19786003232002258,
                    -0.8230186700820923,
                    -2.6717476844787598,
                    -0.4475514590740204,
                    0.40468236804008484,
                    -0.49803489446640015,
                    -0.47228163480758667,
                    -0.41279271245002747,
                    -0.16097275912761688,
                    0.6227597594261169,
                    -2.1985795497894287
                ],
                [
                    -0.7025859951972961,
                    -0.8035550117492676,
                    0.4199126362800598,
                    -1.0515484809875488,
                    0.0952463299036026,
                    -0.09579184651374817,
                    -1.0447500944137573,
                    0.37660548090934753,
                    -0.5950735211372375,
                    0.25646451115608215,
                    -0.5686414837837219,
                    -0.38314470648765564,
                    -0.7581601142883301,
                    -1.1281061172485352,
                    -0.5224218964576721,
                    0.020341727882623672,
                    -0.7110863924026489,
                    0.0999733954668045,
                    0.14006826281547546,
                    -0.21266597509384155,
                    -0.7587006688117981,
                    -0.42528051137924194,
                    -0.5728432536125183,
                    -0.22189302742481232,
                    -0.5102032423019409,
                    -1.1702638864517212,
                    0.45353299379348755,
                    -0.5142751932144165,
                    0.9718595147132874,
                    0.49522703886032104,
                    0.6716685891151428,
                    -0.5760279297828674,
                    -0.2862217128276825,
                    -0.1259637326002121,
                    -0.6422410607337952,
                    -0.654856264591217,
                    0.9511672854423523,
                    -0.6512382626533508,
                    -0.0785185694694519,
                    -0.34881725907325745,
                    -0.3470437526702881,
                    -0.4028227925300598,
                    0.4836525321006775,
                    -0.26400402188301086,
                    0.3407672047615051,
                    1.3649647235870361,
                    -0.1768440157175064,
                    -0.7126381397247314,
                    -1.1047072410583496,
                    -0.3910822570323944
                ],
                [
                    0.49139145016670227,
                    -0.6240790486335754,
                    -0.28734931349754333,
                    0.8183854818344116,
                    -0.09630239754915237,
                    0.19689738750457764,
                    0.5544513463973999,
                    -0.3748016059398651,
                    0.31838980317115784,
                    0.3500264585018158,
                    0.09884636104106903,
                    0.5582176446914673,
                    0.2753170430660248,
                    2.3753232955932617,
                    -0.20338056981563568,
                    0.3314463794231415,
                    0.7365781664848328,
                    -0.4638013243675232,
                    -0.9048323631286621,
                    -0.03428836539387703,
                    0.43224284052848816,
                    0.3945949673652649,
                    0.030419107526540756,
                    0.1785924732685089,
                    -0.0074674575589597225,
                    0.3640940189361572,
                    -0.3643287420272827,
                    1.1163853406906128,
                    -3.4380455017089844,
                    0.43947601318359375,
                    -0.48400211334228516,
                    0.6549065709114075,
                    -0.10307838767766953,
                    -0.3350704312324524,
                    0.8182469606399536,
                    0.918855607509613,
                    0.45987147092819214,
                    0.03941638022661209,
                    -0.09138566255569458,
                    -0.17492015659809113,
                    0.36051276326179504,
                    0.9985957741737366,
                    -0.24232077598571777,
                    -0.1523909717798233,
                    0.2008422315120697,
                    -0.018498482182621956,
                    -0.7334931492805481,
                    -0.21672140061855316,
                    1.0285577774047852,
                    0.6386681795120239
                ],
                [
                    0.47218161821365356,
                    0.33687829971313477,
                    0.6178836226463318,
                    0.5351532697677612,
                    -0.4832167625427246,
                    0.29278501868247986,
                    0.7612835168838501,
                    0.024901557713747025,
                    0.6997743248939514,
                    0.5863579511642456,
                    -0.8705883622169495,
                    0.792351245880127,
                    -0.42477649450302124,
                    -2.7393221855163574,
                    0.06352058053016663,
                    0.4256258010864258,
                    -0.03946106135845184,
                    0.4342511296272278,
                    0.02157166227698326,
                    0.4306838810443878,
                    0.3762342631816864,
                    0.24347223341464996,
                    0.33254528045654297,
                    1.042620062828064,
                    0.024133911356329918,
                    -0.339326411485672,
                    -0.04859839379787445,
                    0.29098495841026306,
                    0.5222474336624146,
                    0.3158663213253021,
                    -0.7269428968429565,
                    0.9508020281791687,
                    0.3864132761955261,
                    -0.3276115357875824,
                    1.4151209592819214,
                    0.5027281045913696,
                    -0.41463035345077515,
                    -0.1888365000486374,
                    0.28788819909095764,
                    -0.04996880888938904,
                    0.7558627724647522,
                    0.7786059379577637,
                    0.3100261390209198,
                    0.42914626002311707,
                    0.3093530535697937,
                    0.6158042550086975,
                    -0.33109357953071594,
                    -1.2933987379074097,
                    -0.08151135593652725,
                    1.3679449558258057
                ],
                [
                    -1.5704354047775269,
                    1.6894209384918213,
                    0.6358325481414795,
                    0.9696718454360962,
                    -2.113988161087036,
                    0.7098388075828552,
                    1.3062289953231812,
                    1.541763186454773,
                    -1.636697769165039,
                    0.8189581632614136,
                    -0.42951592803001404,
                    2.536456346511841,
                    1.3847724199295044,
                    -0.7467383146286011,
                    0.2812228202819824,
                    0.19585053622722626,
                    -0.49124041199684143,
                    0.8601977825164795,
                    -0.33872559666633606,
                    2.526535749435425,
                    0.28752806782722473,
                    0.2597522735595703,
                    0.22907599806785583,
                    0.5296119451522827,
                    1.6514655351638794,
                    1.003093957901001,
                    -0.4472276270389557,
                    3.119688034057617,
                    0.32325565814971924,
                    0.9214916825294495,
                    0.7402868270874023,
                    1.9272129535675049,
                    1.6938484907150269,
                    0.3737276494503021,
                    0.6179435849189758,
                    2.948584794998169,
                    -5.422613620758057,
                    -1.4307703971862793,
                    -1.3662270307540894,
                    -1.301464557647705,
                    1.344283103942871,
                    -0.07299381494522095,
                    -0.029708698391914368,
                    1.8052544593811035,
                    3.175483226776123,
                    -3.898301839828491,
                    1.3843085765838623,
                    -1.1771876811981201,
                    -0.9900425672531128,
                    -0.05726858600974083
                ],
                [
                    1.9244611263275146,
                    -0.36010968685150146,
                    3.7924304008483887,
                    2.3009891510009766,
                    -3.462197780609131,
                    -0.03554260730743408,
                    0.4388784170150757,
                    3.1769115924835205,
                    -0.5585822463035583,
                    -0.39475178718566895,
                    0.30935731530189514,
                    2.3467283248901367,
                    -4.102708339691162,
                    -2.359297513961792,
                    2.6715102195739746,
                    4.102110862731934,
                    4.735070705413818,
                    2.5546867847442627,
                    2.5707812309265137,
                    0.6867623329162598,
                    0.25929808616638184,
                    -2.8333640098571777,
                    3.3883683681488037,
                    2.8287336826324463,
                    -0.8156915903091431,
                    -4.224279403686523,
                    7.576521396636963,
                    -1.1863905191421509,
                    5.4336676597595215,
                    3.878002643585205,
                    4.691958904266357,
                    -2.0802009105682373,
                    -0.8230313062667847,
                    2.239654302597046,
                    -1.8300387859344482,
                    -0.20748735964298248,
                    -0.03685859590768814,
                    -1.7603073120117188,
                    -4.805544853210449,
                    -0.4357187747955322,
                    0.9372789263725281,
                    0.4692210853099823,
                    1.4200706481933594,
                    -1.22079598903656,
                    0.839719831943512,
                    -0.14113184809684753,
                    -4.475732803344727,
                    1.0281022787094116,
                    -2.023019790649414,
                    1.532972812652588
                ],
                [
                    0.7720596194267273,
                    4.134216785430908,
                    -2.1725354194641113,
                    3.4930524826049805,
                    3.7179272174835205,
                    1.8526690006256104,
                    3.6728951930999756,
                    0.2106335461139679,
                    -1.869910478591919,
                    4.0550360679626465,
                    3.0254528522491455,
                    3.920262575149536,
                    3.1271538734436035,
                    1.1073211431503296,
                    -0.3087717890739441,
                    0.29943013191223145,
                    -0.44695961475372314,
                    -0.41547921299934387,
                    0.4608893394470215,
                    3.591090679168701,
                    0.4730146825313568,
                    3.271977424621582,
                    -1.2714030742645264,
                    -2.8349525928497314,
                    3.6900634765625,
                    3.599419116973877,
                    0.20138221979141235,
                    1.1008380651474,
                    -3.234951972961426,
                    -1.0074642896652222,
                    1.512261986732483,
                    4.6012091636657715,
                    1.7156327962875366,
                    0.35779306292533875,
                    2.9697177410125732,
                    1.3887360095977783,
                    0.8411312699317932,
                    1.8914345502853394,
                    0.6068657636642456,
                    -1.2673351764678955,
                    3.9134554862976074,
                    -2.0054984092712402,
                    1.2935107946395874,
                    3.9302995204925537,
                    5.088505268096924,
                    -0.7270511388778687,
                    0.4596409499645233,
                    4.077476978302002,
                    1.2188770771026611,
                    -2.339240074157715
                ],
                [
                    0.9516183137893677,
                    3.6965134143829346,
                    0.19841572642326355,
                    2.726696014404297,
                    -4.55345344543457,
                    -1.2867491245269775,
                    3.6294305324554443,
                    1.9943162202835083,
                    0.15752869844436646,
                    1.4554749727249146,
                    0.32852789759635925,
                    0.7812612652778625,
                    4.970529556274414,
                    2.0709099769592285,
                    -3.3635878562927246,
