{
    "CNN_input_1": [
        {
            "b": [
                0.2509956359863281,
                0.12609867751598358,
                0.12946784496307373,
                0.13508543372154236,
                -0.13727246224880219,
                0.03081192821264267,
                -0.18989065289497375,
                0.0934341549873352
            ],
            "w": [
                [
                    [
                        [
                            -1.2357280254364014,
                            -0.47552037239074707
                        ],
                        [
                            0.012613740749657154,
                            -0.949268639087677
                        ]
                    ]
                ],
                [
                    [
                        [
                            0.4120754599571228,
                            -0.5377569794654846
                        ],
                        [
                            0.26841333508491516,
                            -0.06645075231790543
                        ]
                    ]
                ],
                [
                    [
                        [
                            -0.16534580290317535,
                            -0.5731091499328613
                        ],
                        [
                            -0.6309562921524048,
                            -0.4824223816394806
                        ]
                    ]
                ],
                [
                    [
                        [
                            -0.2873976230621338,
                            0.13703173398971558
                        ],
                        [
                            0.8011459708213806,
                            -0.28344520926475525
                        ]
                    ]
                ],
                [
                    [
                        [
                            0.29503172636032104,
                            0.6527733206748962
                        ],
                        [
                            0.6962728500366211,
                            0.9778791666030884
                        ]
                    ]
                ],
                [
                    [
                        [
                            1.5208954811096191,
                            1.0329172611236572
                        ],
                        [
                            1.1180421113967896,
                            -0.4240040183067322
                        ]
                    ]
                ],
                [
                    [
                        [
                            -0.539352536201477,
                            0.9543320536613464
                        ],
                        [
                            0.7578834295272827,
                            0.2518657445907593
                        ]
                    ]
                ],
                [
                    [
                        [
                            -0.16585074365139008,
                            0.45601993799209595
                        ],
                        [
                            -1.138486385345459,
                            -1.0317875146865845
                        ]
                    ]
                ]
            ]
        }
    ],
    "CNN_input_2": [
        {
            "b": [
                -0.3936665654182434,
                -0.26861560344696045,
                -0.023188114166259766,
                0.3422013819217682,
                -0.3191181719303131,
                -0.28709420561790466,
                -0.28216078877449036,
                -0.18685835599899292
            ],
            "w": [
                [
                    [
                        [
                            -1.5565611124038696
                        ]
                    ],
                    [
                        [
                            0.5689793229103088
                        ]
                    ],
                    [
                        [
                            -0.3613852858543396
                        ]
                    ],
                    [
                        [
                            -1.4738657474517822
                        ]
                    ],
                    [
                        [
                            -0.5783367156982422
                        ]
                    ],
                    [
                        [
                            -0.1324964165687561
                        ]
                    ]
                ],
                [
                    [
                        [
                            -1.178621530532837
                        ]
                    ],
                    [
                        [
                            -0.18593361973762512
                        ]
                    ],
                    [
                        [
                            0.09460218995809555
                        ]
                    ],
                    [
                        [
                            -0.34268367290496826
                        ]
                    ],
                    [
                        [
                            -1.2806291580200195
                        ]
                    ],
                    [
                        [
                            -0.6812795400619507
                        ]
                    ]
                ],
                [
                    [
                        [
                            -0.8999894261360168
                        ]
                    ],
                    [
                        [
                            0.7495042085647583
                        ]
                    ],
                    [
                        [
                            0.043417733162641525
                        ]
                    ],
                    [
                        [
                            0.7683572173118591
                        ]
                    ],
                    [
                        [
                            -0.6401609182357788
                        ]
                    ],
                    [
                        [
                            -0.8364660143852234
                        ]
                    ]
                ],
                [
                    [
                        [
                            -0.6998768448829651
                        ]
                    ],
                    [
                        [
                            -1.3274178504943848
                        ]
                    ],
                    [
                        [
                            0.5885195136070251
                        ]
                    ],
                    [
                        [
                            0.45346149802207947
                        ]
                    ],
                    [
                        [
                            1.302126169204712
                        ]
                    ],
                    [
                        [
                            -0.3764478862285614
                        ]
                    ]
                ],
                [
                    [
                        [
                            -0.5578017830848694
                        ]
                    ],
                    [
                        [
                            -0.33115798234939575
                        ]
                    ],
                    [
                        [
                            -0.7399818897247314
                        ]
                    ],
                    [
                        [
                            0.7604308128356934
                        ]
                    ],
                    [
                        [
                            0.9659534096717834
                        ]
                    ],
                    [
                        [
                            -0.32298776507377625
                        ]
                    ]
                ],
                [
                    [
                        [
                            -1.2968655824661255
                        ]
                    ],
                    [
                        [
                            -0.2594663202762604
                        ]
                    ],
                    [
                        [
                            -0.7019808888435364
                        ]
                    ],
                    [
                        [
                            -0.26153022050857544
                        ]
                    ],
                    [
                        [
                            0.42717230319976807
                        ]
                    ],
                    [
                        [
                            -1.0921913385391235
                        ]
                    ]
                ],
                [
                    [
                        [
                            -0.016622472554445267
                        ]
                    ],
                    [
                        [
                            0.5812630653381348
                        ]
                    ],
                    [
                        [
                            -0.6629155278205872
                        ]
                    ],
                    [
                        [
                            -0.6039535999298096
                        ]
                    ],
                    [
                        [
                            0.5748758316040039
                        ]
                    ],
                    [
                        [
                            0.4521998465061188
                        ]
                    ]
                ],
                [
                    [
                        [
                            -1.8923932313919067
                        ]
                    ],
                    [
                        [
                            0.07795652747154236
                        ]
                    ],
                    [
                        [
                            -0.46296361088752747
                        ]
                    ],
                    [
                        [
                            1.2205294370651245
                        ]
                    ],
                    [
                        [
                            0.463077187538147
                        ]
                    ],
                    [
                        [
                            -0.03451327979564667
                        ]
                    ]
                ]
            ]
        }
    ],
    "CNN_stage_2": [
        {
            "b": [
                0.09875063598155975,
                -0.009182981215417385,
                0.01886897161602974,
                0.03061879426240921,
                0.13532066345214844,
                0.00048755473108030856,
                0.09869655966758728,
                0.08427280932664871
            ],
            "w": [
                [
                    [
                        [
                            -0.6505115032196045,
                            -0.30627837777137756
                        ],
                        [
                            0.25982511043548584,
                            -0.6395999193191528
                        ]
                    ],
                    [
                        [
                            0.09684054553508759,
                            -0.5239934325218201
                        ],
                        [
                            -0.40471088886260986,
                            -0.03132835775613785
                        ]
                    ],
                    [
                        [
                            -0.5168434977531433,
                            -0.44693154096603394
                        ],
                        [
                            0.01695546880364418,
                            0.03633708506822586
                        ]
                    ],
                    [
                        [
                            0.25444477796554565,
                            -0.2762356698513031
                        ],
                        [
                            -0.1786351501941681,
                            0.566735565662384
                        ]
                    ],
                    [
                        [
                            0.6642326712608337,
                            0.4153464138507843
                        ],
                        [
                            0.034216493368148804,
                            0.8934149146080017
                        ]
                    ],
                    [
                        [
                            0.04119964689016342,
                            -0.4687786400318146
                        ],
                        [
                            -0.30521926283836365,
                            -0.33211466670036316
                        ]
                    ],
                    [
                        [
                            0.09108016639947891,
                            0.542895495891571
                        ],
                        [
                            0.38925424218177795,
                            0.47442469000816345
                        ]
                    ],
                    [
                        [
                            -0.19233278930187225,
                            -0.6001169085502625
                        ],
                        [
                            0.4733124077320099,
                            0.12335672974586487
                        ]
                    ]
                ],
                [
                    [
                        [
                            0.6525014638900757,
                            -0.0035385421942919493
                        ],
                        [
                            0.2655513882637024,
                            -0.8834030032157898
                        ]
                    ],
                    [
                        [
                            -0.0846998542547226,
                            -0.06498212367296219
                        ],
                        [
                            -0.21190950274467468,
                            -0.2571052014827728
                        ]
                    ],
                    [
                        [
                            0.00916871428489685,
                            0.4393952190876007
                        ],
                        [
                            0.16151176393032074,
                            -0.04733450338244438
                        ]
                    ],
                    [
                        [
                            -0.34192386269569397,
                            -0.5219513177871704
                        ],
                        [
                            -0.2629423439502716,
                            -0.11345620453357697
                        ]
                    ],
                    [
                        [
                            -0.4164823889732361,
                            -0.17199702560901642
                        ],
                        [
                            0.478010356426239,
                            0.0735713392496109
                        ]
                    ],
                    [
                        [
                            -0.3522391617298126,
                            -0.4545260965824127
                        ],
                        [
                            0.0415104441344738,
                            0.15244506299495697
                        ]
                    ],
                    [
                        [
                            0.032605577260255814,
                            0.03238988295197487
                        ],
                        [
                            -0.4223040044307709,
                            -0.21719908714294434
                        ]
                    ],
                    [
                        [
                            0.06977451592683792,
                            -0.025542553514242172
                        ],
                        [
                            0.08413954824209213,
                            -0.1951829493045807
                        ]
                    ]
                ],
                [
                    [
                        [
                            0.26801520586013794,
                            -0.12425117939710617
                        ],
                        [
                            0.3448222279548645,
                            -0.1745612621307373
                        ]
                    ],
                    [
                        [
                            0.03495653346180916,
                            0.3702942728996277
                        ],
                        [
                            -0.17298156023025513,
                            -0.1599479615688324
                        ]
                    ],
                    [
                        [
                            -0.11728831380605698,
                            -0.15484648942947388
                        ],
                        [
                            0.15615499019622803,
                            0.07237707078456879
                        ]
                    ],
                    [
                        [
                            0.09853149205446243,
                            0.6892856955528259
                        ],
                        [
                            -0.1281490921974182,
                            -0.041301824152469635
                        ]
                    ],
                    [
                        [
                            0.035324256867170334,
                            0.25234588980674744
                        ],
                        [
                            0.21135099232196808,
                            0.13110199570655823
                        ]
                    ],
                    [
                        [
                            -0.3317091166973114,
                            -0.418836772441864
                        ],
                        [
                            -0.24565379321575165,
                            0.09810904413461685
                        ]
                    ],
                    [
                        [
                            -0.2931634187698364,
                            0.3233066201210022
                        ],
                        [
                            -0.031497035175561905,
                            0.18039491772651672
                        ]
                    ],
                    [
                        [
                            0.05915045365691185,
                            -0.8765535950660706
                        ],
                        [
                            0.036930035799741745,
                            0.4630158245563507
                        ]
                    ]
                ],
                [
                    [
                        [
                            -0.3002138137817383,
                            0.3098980188369751
                        ],
                        [
                            0.3435775339603424,
                            -0.5574690699577332
                        ]
                    ],
                    [
                        [
                            -0.14656700193881989,
                            0.19575102627277374
                        ],
                        [
                            -0.4885846674442291,
                            0.17803053557872772
                        ]
                    ],
                    [
                        [
                            0.3200186491012573,
                            0.5220943689346313
                        ],
                        [
                            -0.1867886483669281,
                            0.4893478453159332
                        ]
                    ],
                    [
                        [
                            0.1290939897298813,
                            0.13269737362861633
                        ],
                        [
                            -0.3288344442844391,
                            0.14440327882766724
                        ]
                    ],
                    [
                        [
                            -0.10495204478502274,
                            0.17352725565433502
                        ],
                        [
                            -0.13539645075798035,
                            -0.2993159294128418
                        ]
                    ],
                    [
                        [
                            0.23398150503635406,
                            0.7166775465011597
                        ],
                        [
                            -0.15909631550312042,
                            0.1992517113685608
                        ]
                    ],
                    [
                        [
                            -0.23210975527763367,
                            0.3503081798553467
                        ],
                        [
                            0.35333165526390076,
                            -0.19931332767009735
                        ]
                    ],
                    [
                        [
                            0.09521140903234482,
                            0.3827362060546875
                        ],
                        [
                            0.039514217525720596,
                            0.16466155648231506
                        ]
                    ]
                ],
                [
                    [
                        [
                            -0.29280978441238403,
                            -0.4176906645298004
                        ],
                        [
                            -0.11011423170566559,
                            -0.31725794076919556
                        ]
                    ],
                    [
                        [
                            -0.5280629396438599,
                            -0.706977367401123
                        ],
                        [
                            -0.2426782250404358,
                            -0.42055514454841614
                        ]
                    ],
                    [
                        [
                            -0.3210163414478302,
                            -0.060847897082567215
                        ],
                        [
                            0.08423438668251038,
                            0.029025210067629814
                        ]
                    ],
                    [
                        [
                            -0.12368819862604141,
                            0.12919244170188904
                        ],
                        [
                            -0.06396294385194778,
                            0.9490629434585571
                        ]
                    ],
                    [
                        [
                            0.5052111744880676,
                            0.29662957787513733
                        ],
                        [
                            0.5203287601470947,
                            -0.31685933470726013
                        ]
                    ],
                    [
                        [
                            -0.035834286361932755,
                            0.2771648168563843
                        ],
                        [
                            -0.06655503064393997,
                            -0.003087446326389909
                        ]
                    ],
                    [
                        [
                            0.38276249170303345,
                            0.3943973183631897
                        ],
                        [
                            0.651549220085144,
                            0.34473928809165955
                        ]
                    ],
                    [
                        [
                            -0.5348661541938782,
                            0.5066441893577576
                        ],
                        [
                            0.042309511452913284,
                            0.0430748425424099
                        ]
                    ]
                ],
                [
                    [
                        [
                            -0.15896326303482056,
                            0.015973370522260666
                        ],
                        [
                            -0.6473528146743774,
                            -0.09541071951389313
                        ]
                    ],
                    [
                        [
                            0.051831409335136414,
                            0.37665072083473206
                        ],
                        [
                            -0.3301945924758911,
                            0.35804852843284607
                        ]
                    ],
                    [
                        [
                            -0.1884094774723053,
                            0.5375831127166748
                        ],
                        [
                            0.36157354712486267,
                            -0.06710728257894516
                        ]
                    ],
                    [
                        [
                            0.21016547083854675,
                            0.0044994233176112175
                        ],
                        [
                            0.15021668374538422,
                            -0.2285635620355606
                        ]
                    ],
                    [
                        [
                            0.0850752592086792,
                            -0.30079329013824463
                        ],
                        [
                            -0.42546653747558594,
                            -0.4651823937892914
                        ]
                    ],
                    [
                        [
                            0.3230770230293274,
                            0.003451333846896887
                        ],
                        [
                            -0.21143695712089539,
                            0.3459632098674774
                        ]
                    ],
                    [
                        [
                            0.24341236054897308,
                            0.08200545608997345
                        ],
                        [
                            0.21072034537792206,
                            -0.29048457741737366
                        ]
                    ],
                    [
                        [
                            -0.47697094082832336,
                            -0.5231931209564209
                        ],
                        [
                            0.3772873282432556,
                            0.3078761398792267
                        ]
                    ]
                ],
                [
                    [
                        [
                            0.1736496239900589,
                            -0.09858371317386627
                        ],
                        [
                            -0.5341994762420654,
                            -0.3013414144515991
                        ]
                    ],
                    [
                        [
                            0.033972036093473434,
                            -0.2539609968662262
                        ],
                        [
                            -0.08987007290124893,
                            0.4974667727947235
                        ]
                    ],
                    [
                        [
                            0.7907993197441101,
                            -0.3480987548828125
                        ],
                        [
                            -0.4167617857456207,
                            0.014446928165853024
                        ]
                    ],
                    [
                        [
                            0.3442398011684418,
                            -0.16521507501602173
                        ],
                        [
                            -0.17293639481067657,
                            0.2920624315738678
                        ]
                    ],
                    [
                        [
                            0.14277283847332,
                            -0.2969234883785248
                        ],
                        [
                            0.07391560077667236,
                            0.4872027635574341
                        ]
                    ],
                    [
                        [
                            -0.418991357088089,
                            -0.17110325396060944
                        ],
                        [
                            -0.15150581300258636,
                            -0.28237417340278625
                        ]
                    ],
                    [
                        [
                            0.38035136461257935,
                            -0.1394883543252945
                        ],
                        [
                            0.48460525274276733,
                            0.00950365886092186
                        ]
                    ],
                    [
                        [
                            -0.23009587824344635,
                            0.17672595381736755
                        ],
                        [
                            0.3886798620223999,
                            -0.3037322461605072
                        ]
                    ]
                ],
                [
                    [
                        [
                            -0.35325509309768677,
                            -0.36659863591194153
                        ],
                        [
                            0.11444510519504547,
                            -0.18651804327964783
                        ]
                    ],
                    [
                        [
                            -0.2402540147304535,
                            -0.23863816261291504
                        ],
                        [
                            0.21456675231456757,
                            -0.40652844309806824
                        ]
                    ],
                    [
                        [
                            0.9202573299407959,
                            -0.037504371255636215
                        ],
                        [
                            0.09141296148300171,
                            0.13748909533023834
                        ]
                    ],
                    [
                        [
                            0.13911905884742737,
                            0.2544037103652954
                        ],
                        [
                            0.1822064369916916,
                            0.16646705567836761
                        ]
                    ],
                    [
                        [
                            -0.12899550795555115,
                            -0.00769999111071229
                        ],
                        [
                            -0.2829897403717041,
                            0.726412832736969
                        ]
                    ],
                    [
                        [
                            -0.4994317591190338,
                            -0.2553163170814514
                        ],
                        [
                            -0.28572896122932434,
                            0.08383511006832123
                        ]
                    ],
                    [
                        [
                            0.4742041826248169,
                            -0.006569284945726395
                        ],
                        [
                            0.4279826581478119,
                            0.5624694228172302
                        ]
                    ],
                    [
                        [
                            0.16113221645355225,
                            -0.09897003322839737
                        ],
                        [
                            -0.5160596966743469,
                            -0.33793479204177856
                        ]
                    ]
                ]
            ]
        }
    ],
    "MLP_stage_3": [
        {
            "b": [
                0.11302384734153748,
                -0.049111392349004745,
                0.06549174338579178,
                0.052109263837337494,
                0.11589334905147552,
                0.09165670722723007,
                0.056281425058841705,
                0.04343999922275543,
                -0.030507808551192284,
                -0.03097730502486229,
                0.048474691808223724,
                0.0514904223382473,
                -0.013010921888053417,
                0.04745792970061302,
                -0.023418258875608444,
                0.10081600397825241,
                0.013466157019138336,
                0.00018655986059457064,
                0.010514161549508572,
                0.03006761707365513,
                0.04227146878838539,
                0.04069279879331589,
                -0.046517036855220795,
                0.08047220855951309,
                0.04912545531988144,
                -0.02033419907093048,
                0.04007374867796898,
                0.19257783889770508,
                0.08258721232414246,
                -0.03400673717260361,
                0.034313999116420746,
                -0.04472656920552254,
                0.03130822256207466,
                0.07163181155920029,
                -0.006175742018967867,
                -0.022717101499438286,
                0.055258721113204956,
                -0.03967280685901642,
                0.11905088275671005,
                0.06338208168745041,
                0.035304151475429535,
                -0.014399152249097824,
                -0.029038729146122932,
                0.031002450734376907,
                -0.0019832435064017773,
                -0.01419650949537754,
                0.008857441134750843,
                0.00368580617941916,
                0.05517970398068428,
                0.0784938633441925
            ],
            "w": [
                [
                    0.21386770904064178,
                    -0.11268293112516403,
                    0.37971189618110657,
                    -0.059064317494630814,
                    0.0960502028465271,
                    0.09128624200820923,
                    0.8198291063308716,
                    0.024730399250984192,
                    0.3603585660457611,
                    -0.4290502965450287,
                    0.4040775001049042,
                    0.11883123964071274,
                    0.19309136271476746,
                    0.5052269101142883,
                    -0.4333782494068146,
                    0.3160240650177002,
                    -0.2577228546142578,
                    -0.7946679592132568,
                    0.2792647182941437,
                    0.10775814950466156,
                    0.6093888878822327,
                    0.2089410275220871,
                    0.25667694211006165,
                    -0.24975737929344177,
                    0.24687130749225616,
                    0.08719728142023087,
                    0.5519862771034241,
                    0.06870685517787933,
                    0.38383838534355164,
                    -0.041094258427619934,
                    0.021860189735889435,
                    0.21505454182624817,
                    0.6261333227157593,
                    0.019163114950060844,
                    -0.29231056571006775,
                    0.21879899501800537,
                    0.36369195580482483,
                    0.16430868208408356,
                    0.014340336434543133,
                    0.25071287155151367,
                    0.5648523569107056,
                    -0.03318750113248825,
                    0.24855761229991913,
                    0.04118410125374794,
                    0.23718172311782837,
                    0.23291674256324768,
                    0.1565992385149002,
                    -0.32637280225753784,
                    -0.16333132982254028,
                    0.6626050472259521
                ],
                [
                    0.6627117991447449,
                    -0.14689414203166962,
                    -0.11398620903491974,
                    -0.14641748368740082,
                    -0.04759699106216431,
                    0.35030126571655273,
                    0.20423053205013275,
                    -0.5307638049125671,
                    -0.41845083236694336,
                    -0.1855054497718811,
                    -0.056743450462818146,
                    0.05295035243034363,
                    0.15049055218696594,
                    0.3114444315433502,
                    -0.02048240415751934,
                    0.240590438246727,
                    0.4086444675922394,
                    0.03841099888086319,
                    0.56517094373703,
                    -0.041644077748060226,
                    0.12825758755207062,
                    0.39103734493255615,
                    -0.06728062033653259,
                    0.3425009250640869,
                    -0.021286463364958763,
                    0.13441002368927002,
                    -0.0814071074128151,
                    -0.10394546389579773,
                    0.029954474419355392,
                    0.15591073036193848,
                    0.5508384108543396,
                    -0.05777529627084732,
                    0.36851170659065247,
                    0.2425905019044876,
                    -0.011468537151813507,
                    0.3710304796695709,
                    -0.06349008530378342,
                    -0.03160242736339569,
                    0.23686708509922028,
                    0.22584286332130432,
                    -0.15017540752887726,
                    0.2043159157037735,
                    0.2166990488767624,
                    -0.10515313595533371,
                    0.23997943103313446,
                    -0.08693630993366241,
                    -0.033936694264411926,
                    0.021357053890824318,
                    -0.303580105304718,
                    0.22613652050495148
                ],
                [
                    0.3633716404438019,
                    -0.22298574447631836,
                    -0.36283332109451294,
                    0.4968746602535248,
                    -0.45084649324417114,
                    0.9006091356277466,
                    0.15800344944000244,
                    -0.839698314666748,
                    -1.0327562093734741,
                    0.42281004786491394,
                    0.48424550890922546,
                    -0.37957528233528137,
                    0.1704072803258896,
                    0.5111932158470154,
                    0.47819027304649353,
                    0.44487494230270386,
                    -0.5721988081932068,
                    1.358439326286316,
                    -0.48790258169174194,
                    0.649776041507721,
                    0.11048530787229538,
                    -0.11261564493179321,
                    -0.14643588662147522,
                    0.8625360727310181,
                    0.3482077717781067,
                    -0.08961023390293121,
                    -0.028087371960282326,
                    -1.2900540828704834,
                    -0.0753924623131752,
                    0.787118136882782,
                    -0.3592064082622528,
                    -0.30832958221435547,
                    0.3205263316631317,
                    -0.7088187336921692,
                    0.12179695814847946,
                    -0.2512654960155487,
                    0.69209885597229,
                    0.4988822042942047,
                    -0.23169468343257904,
                    0.44371509552001953,
                    0.13170936703681946,
                    0.0383712463080883,
                    0.1401098668575287,
                    0.5533825159072876,
                    0.7267418503761292,
                    0.00640122452750802,
                    0.882891058921814,
                    0.20080971717834473,
                    0.47069084644317627,
                    -0.12833993136882782
                ],
                [
                    0.4017549455165863,
                    -0.47391825914382935,
                    -0.048897579312324524,
                    0.25063154101371765,
                    -0.32990336418151855,
                    -0.30403631925582886,
                    0.12410685420036316,
                    -0.22476273775100708,
                    -0.05112351104617119,
                    0.22056472301483154,
                    0.12922590970993042,
                    0.2810232937335968,
                    -0.31099265813827515,
                    -0.1940799504518509,
                    0.013729654252529144,
                    0.12082424014806747,
                    -0.27591168880462646,
                    -0.013381588272750378,
                    -0.2975464463233948,
                    0.4454560875892639,
                    -0.12434167414903641,
                    0.32878416776657104,
                    -0.15694861114025116,
                    0.18637920916080475,
                    0.033976804465055466,
                    0.12056437134742737,
                    0.07495462894439697,
                    -0.2733881175518036,
                    -0.09989624470472336,
                    0.5998665690422058,
                    0.006349090952426195,
                    -0.00344137498177588,
                    0.08218516409397125,
                    -0.1181868240237236,
                    -0.24893414974212646,
                    0.06971216946840286,
                    0.18208956718444824,
                    0.18914258480072021,
                    0.08915410190820694,
                    0.21288219094276428,
                    0.25920286774635315,
                    0.15267449617385864,
                    0.1277579814195633,
                    0.1366654932498932,
                    0.12561741471290588,
                    0.00032571403426118195,
                    0.16181136667728424,
                    0.22861912846565247,
                    0.22512467205524445,
                    0.2002648264169693
                ],
                [
                    -0.5856761932373047,
                    0.12759196758270264,
                    0.445866197347641,
                    -0.3655308187007904,
                    0.12762980163097382,
                    -0.3638607859611511,
                    -0.3854251205921173,
                    0.25203245878219604,
                    0.2715417146682739,
                    -0.1968093365430832,
                    -0.09614188969135284,
                    0.21989837288856506,
                    -0.17490512132644653,
                    -0.4249851405620575,
                    0.2877879738807678,
                    -0.1880938559770584,
                    0.2562386393547058,
                    0.0985998809337616,
                    -0.08974011242389679,
                    0.24619902670383453,
                    0.10779193043708801,
                    -0.20396944880485535,
                    -0.15848593413829803,
                    0.02209308370947838,
                    -0.2810831367969513,
                    0.35040491819381714,
                    -0.12413422763347626,
                    0.3099593222141266,
                    0.10306300967931747,
                    -0.31443166732788086,
                    -0.136007159948349,
                    0.03723689541220665,
                    0.3975140452384949,
                    -0.16697029769420624,
                    -0.1836904138326645,
                    -0.3045206069946289,
                    0.33729124069213867,
                    0.27604255080223083,
                    -0.7998393177986145,
                    0.06221568211913109,
                    -0.1533997505903244,
                    -0.10489965975284576,
                    0.09988735616207123,
                    0.1801067590713501,
                    -0.49503400921821594,
                    -0.0851389542222023,
                    0.13660061359405518,
                    -0.5202597379684448,
                    0.3583691120147705,
                    0.04200039803981781
                ],
                [
                    -0.35667166113853455,
                    0.10448161512613297,
                    0.16561013460159302,
                    -0.32868343591690063,
                    0.21270811557769775,
                    0.14648935198783875,
                    -0.18631942570209503,
                    0.28869199752807617,
                    -0.7120527029037476,
                    0.013098489493131638,
                    -0.4979090094566345,
                    0.1330048143863678,
                    -0.6265486478805542,
                    0.00986651610583067,
                    -0.1365339756011963,
                    -0.5633254647254944,
                    -0.24428163468837738,
                    -0.5010286569595337,
                    0.38655585050582886,
                    0.044304341077804565,
                    -0.09825290739536285,
                    -0.18764884769916534,
                    0.3792923390865326,
                    -0.22888553142547607,
                    -0.3991742730140686,
                    0.15225796401500702,
                    -0.4545731246471405,
                    0.00964883342385292,
                    0.0751885175704956,
                    -0.1297328919172287,
                    -0.14151088893413544,
                    0.2244551181793213,
                    -0.09047362208366394,
                    0.6098042726516724,
                    -0.1994580179452896,
                    -0.16907820105552673,
                    -0.18899527192115784,
                    -0.08081091940402985,
                    -0.395457923412323,
                    0.3764341473579407,
                    -0.34886500239372253,
                    -0.0716167762875557,
                    -0.021029215306043625,
                    0.3123505711555481,
                    -0.1392485499382019,
                    -0.4610278010368347,
                    0.19337649643421173,
                    -0.004760290961712599,
                    -0.10890407860279083,
                    -0.04546238109469414
                ],
                [
                    -0.048304349184036255,
                    -0.23485419154167175,
                    -0.615993320941925,
                    -0.2799619436264038,
                    -0.4745061695575714,
                    0.3795452117919922,
                    0.03510133922100067,
                    0.26597967743873596,
                    -0.12018096446990967,
                    0.3537035286426544,
                    0.15409746766090393,
                    0.022023459896445274,
                    0.18344749510288239,
                    -0.12359928339719772,
                    0.5788804292678833,
                    -0.07270734757184982,
                    0.04883406311273575,
                    0.7192736864089966,
                    -0.31875160336494446,
                    0.21529985964298248,
                    0.2927038371562958,
                    0.15643297135829926,
                    0.08108467608690262,
                    0.01982591301202774,
                    0.4631047248840332,
                    -0.015139714814722538,
                    0.15463097393512726,
                    0.29520952701568604,
                    -0.38019242882728577,
                    -0.353426992893219,
                    -0.9084321856498718,
                    0.36972588300704956,
                    0.3990699052810669,
                    -0.14600785076618195,
                    0.0013099476927891374,
                    0.2802656590938568,
                    0.5113495588302612,
                    0.17280177772045135,
                    0.001490338589064777,
                    -0.08191529661417007,
                    0.08978129923343658,
                    0.04272167757153511,
                    -0.3503879904747009,
                    0.2722536623477936,
                    0.1138375997543335,
                    0.6534201502799988,
                    -0.3234456777572632,
                    0.28044503927230835,
                    0.2264842987060547,
                    0.490092009305954
                ],
                [
                    -0.012074311263859272,
                    -0.037185993045568466,
                    0.05137680098414421,
                    -0.13027241826057434,
                    0.29144757986068726,
                    0.36701446771621704,
                    -0.0726698487997055,
                    -0.2128431349992752,
                    0.4610747992992401,
                    0.3362167179584503,
                    0.22003322839736938,
                    -0.11355426907539368,
                    0.2979736328125,
                    -0.20163680613040924,
                    0.4164016842842102,
                    -0.11038481444120407,
                    0.5584766268730164,
                    -0.2083098590373993,
                    0.3350811004638672,
                    0.17036430537700653,
                    -0.22108043730258942,
                    0.18531128764152527,
                    -0.20962129533290863,
                    0.26516780257225037,
                    -0.13826210796833038,
                    0.5382446050643921,
                    0.04660303145647049,
                    0.35916441679000854,
                    0.1427309811115265,
                    0.19311456382274628,
                    -0.19236090779304504,
                    0.0325034037232399,
                    -0.30951181054115295,
                    0.43722033500671387,
                    -0.06925028562545776,
                    0.12339147180318832,
                    -0.10395834594964981,
                    0.4676735997200012,
                    -0.06631504744291306,
                    0.04867522418498993,
                    -0.6805920004844666,
                    -0.150599405169487,
                    -0.013624136336147785,
                    -0.34120288491249084,
                    -0.12458667904138565,
                    -0.05074828863143921,
                    0.45076775550842285,
                    -0.5937682390213013,
                    0.21624290943145752,
                    -0.2059294432401657
                ],
                [
                    -0.14091503620147705,
                    0.20964032411575317,
                    -0.8545013070106506,
                    0.10728097707033157,
                    0.14749456942081451,
                    0.05865589529275894,
                    -0.2985903024673462,
                    0.03193697705864906,
                    0.15190903842449188,
                    0.48056483268737793,
                    -0.07140746712684631,
                    0.021069360896945,
                    -0.23238733410835266,
                    0.027801254764199257,
                    -0.03417840227484703,
                    -0.4348205029964447,
                    -0.11871039122343063,
                    0.1472744643688202,
                    0.281553715467453,
                    0.26686909794807434,
                    0.22958514094352722,
                    0.023582855239510536,
                    0.1467243731021881,
                    0.09313756227493286,
                    0.028025653213262558,
                    -0.23661793768405914,
                    -0.2205352783203125,
                    -0.043413713574409485,
                    -0.21074262261390686,
                    0.8514071106910706,
                    -0.520016610622406,
                    -0.3003431558609009,
                    0.26293498277664185,
                    0.5796728134155273,
                    0.32983747124671936,
                    -0.54334956407547,
                    -0.28602877259254456,
                    -0.0004331480013206601,
                    0.134255513548851,
                    0.38904911279678345,
                    -0.007940620183944702,
                    -0.24594071507453918,
                    0.9393451809883118,
                    0.186452716588974,
                    -0.31394991278648376,
                    -0.1415582150220871,
                    0.2990678548812866,
                    0.33725622296333313,
                    -0.1908755600452423,
                    -0.3712659478187561
                ],
                [
                    0.07418889552354813,
                    0.013844253495335579,
                    0.27923014760017395,
                    -0.1587137132883072,
                    -0.020975517109036446,
                    0.31778684258461,
                    0.39743950963020325,
                    -0.19015799462795258,
                    0.2791134715080261,
                    -0.3847888112068176,
                    0.2024257928133011,
                    0.310639351606369,
                    -0.4453147053718567,
                    -0.49521926045417786,
                    0.4317112863063812,
                    -0.10541313886642456,
                    0.08983807265758514,
                    -0.24804092943668365,
                    0.30118823051452637,
                    0.10940034687519073,
                    0.44123756885528564,
                    -0.25246259570121765,
                    0.25207334756851196,
                    0.07198155671358109,
                    0.12362408638000488,
                    0.2262202799320221,
                    -0.018099797889590263,
                    0.16672541201114655,
                    0.49095427989959717,
                    0.044243257492780685,
                    0.443696528673172,
                    0.01628962531685829,
                    -0.24258296191692352,
                    -0.09271223098039627,
                    -0.20438840985298157,
                    -0.30048689246177673,
                    -0.2409466803073883,
                    0.29836347699165344,
                    0.4789341390132904,
                    0.08488950878381729,
                    -0.6836090683937073,
                    -0.32612231373786926,
                    0.2886430025100708,
                    -0.1133321076631546,
                    0.09540752321481705,
                    -0.2272995561361313,
                    0.14808978140354156,
                    -0.1455746442079544,
                    0.25845009088516235,
                    -0.15227006375789642
                ],
                [
                    0.18207019567489624,
                    -0.12334690988063812,
                    0.1257871389389038,
                    -0.05436792969703674,
                    -0.4036942720413208,
                    -0.34672707319259644,
                    -0.11555523425340652,
                    0.10399790853261948,
                    0.308727890253067,
                    -0.5622314214706421,
                    -0.5544317960739136,
                    -0.8707656860351562,
                    -0.2929403483867645,
                    -0.07481086999177933,
                    0.32581204175949097,
                    0.35780221223831177,
                    -0.17579713463783264,
                    0.04151158407330513,
                    0.5311047434806824,
                    -0.6167901754379272,
                    -0.311501145362854,
                    -0.41094541549682617,
                    -0.05288049206137657,
                    0.7725996375083923,
                    0.04640296474099159,
                    -0.034450650215148926,
                    -0.012612555176019669,
                    0.32780903577804565,
                    -0.27158641815185547,
                    0.41155168414115906,
                    -0.2980414628982544,
                    -0.22027473151683807,
                    -0.3705213665962219,
                    0.20822931826114655,
                    -0.11456463485956192,
                    -0.08076025545597076,
                    -0.3862845301628113,
                    -0.04137295484542847,
                    -0.25678712129592896,
                    0.6953835487365723,
                    -0.1163361445069313,
                    0.37907570600509644,
                    0.3659204840660095,
                    -0.3747577965259552,
                    0.6221033334732056,
                    0.23334123194217682,
                    0.18922142684459686,
                    0.010577277280390263,
                    0.521407425403595,
                    -0.040661685168743134
                ],
                [
                    -0.36155965924263,
                    -0.12111315876245499,
                    0.5313084721565247,
                    -0.11098747700452805,
                    0.02494005300104618,
                    -0.6626379489898682,
                    0.016240358352661133,
                    -0.06238275021314621,
                    0.22383804619312286,
                    0.17572246491909027,
                    -0.16222114861011505,
                    -0.1896059662103653,
                    -0.04829760268330574,
                    -0.4720490872859955,
                    -0.19166475534439087,
                    0.037555113434791565,
                    0.36891645193099976,
                    0.33463624119758606,
                    0.1917622685432434,
                    0.3542795777320862,
                    0.17659983038902283,
                    -0.10641787946224213,
                    -0.3535909056663513,
                    0.15547727048397064,
                    -0.17528459429740906,
                    -0.8256945013999939,
                    -0.3689238131046295,
                    0.13550159335136414,
                    0.02985038049519062,
                    0.26321569085121155,
                    0.2435619980096817,
                    0.1311882734298706,
                    0.01954595558345318,
                    0.4154631197452545,
                    0.22769151628017426,
                    -0.3984083831310272,
                    -0.32811054587364197,
                    0.0574779249727726,
                    0.29020166397094727,
                    0.570780873298645,
                    0.07535015046596527,
                    -0.07389058917760849,
                    -0.4342781901359558,
                    0.2265956550836563,
                    -0.13119666278362274,
                    0.18695230782032013,
                    -0.36297279596328735,
                    -0.017136741429567337,
                    -0.17185981571674347,
                    -0.2772522568702698
                ],
                [
                    0.3224334418773651,
                    0.015989694744348526,
                    -0.08642812073230743,
                    0.4311889111995697,
                    0.15062478184700012,
                    -0.27111396193504333,
                    0.5462080240249634,
                    -0.5922847390174866,
                    0.15666507184505463,
                    0.1525902897119522,
                    -0.33325842022895813,
                    0.0967993214726448,
                    0.20383320748806,
                    -0.008936671540141106,
                    -0.4717283248901367,
                    0.24873806536197662,
                    0.2108333855867386,
                    0.29930463433265686,
                    0.08834341913461685,
                    0.05616609752178192,
                    -0.28907907009124756,
                    -0.020438289269804955,
                    -0.5124696493148804,
                    0.2698788344860077,
                    -0.1982700228691101,
                    -0.18412652611732483,
                    -0.0027278605848550797,
                    -0.6963357925415039,
                    0.15308120846748352,
                    -0.1774650365114212,
                    -0.061996858566999435,
                    -0.10079024732112885,
                    -0.08235441148281097,
                    0.4920717477798462,
                    0.1204945296049118,
                    0.33267590403556824,
                    -0.03764232248067856,
                    0.2933567464351654,
                    0.4724093973636627,
                    -0.05265571549534798,
                    0.16827735304832458,
                    -0.005576856900006533,
                    0.17218495905399323,
                    0.6857591867446899,
                    0.2525887191295624,
                    -0.03854690119624138,
                    -0.20631316304206848,
                    -0.2797037959098816,
                    0.06939417123794556,
                    -0.49741145968437195
                ],
                [
                    -0.13688616454601288,
                    0.24265441298484802,
                    -0.35615384578704834,
                    -0.26935651898384094,
                    0.8153098225593567,
                    1.043397068977356,
                    -0.213454470038414,
                    -0.520089864730835,
                    0.1886303871870041,
                    -0.26627087593078613,
                    1.0189471244812012,
                    -0.6167271137237549,
                    -0.07632400095462799,
                    1.6888222694396973,
                    0.4343872666358948,
                    -0.35375967621803284,
                    -0.3384647071361542,
                    -0.029740918427705765,
                    0.23523500561714172,
                    -0.5008137822151184,
                    -0.3027596175670624,
                    -0.6049420833587646,
                    -0.44129931926727295,
                    0.591841459274292,
                    1.0946595668792725,
                    0.14645715057849884,
                    -0.4744925796985626,
                    -0.41254210472106934,
                    -0.6119902729988098,
                    0.564971387386322,
                    0.054918073117733,
                    -0.6630396246910095,
                    0.11883135885000229,
                    -0.15087980031967163,
                    0.15623609721660614,
                    0.22003543376922607,
                    -0.7678569555282593,
                    0.6347111463546753,
                    0.4671301543712616,
                    0.7819623351097107,
                    -0.6276707053184509,
                    0.07236719131469727,
                    0.5869355201721191,
                    -0.41061851382255554,
                    0.46519598364830017,
                    -0.22316962480545044,
                    0.9205926060676575,
                    0.6135026216506958,
                    0.7473543286323547,
                    -0.28351062536239624
                ],
                [
                    0.7923146486282349,
                    0.04165590554475784,
                    -0.07538443803787231,
                    0.2869146764278412,
                    0.09537149220705032,
                    0.49816349148750305,
                    0.453941285610199,
                    -0.7288999557495117,
                    0.1915258765220642,
                    -0.30141130089759827,
                    0.10462399572134018,
                    0.20384718477725983,
                    0.2512378990650177,
                    0.10709742456674576,
                    -0.3703623116016388,
                    0.17084990441799164,
                    0.2917107939720154,
                    -0.13912346959114075,
                    -0.09668101370334625,
                    0.4592149257659912,
                    0.18881335854530334,
                    -0.144551083445549,
                    -0.15589237213134766,
                    0.16389305889606476,
                    -0.28698641061782837,
                    -0.39860841631889343,
                    0.4978128969669342,
                    -0.13969014585018158,
                    0.3550376892089844,
                    0.23591184616088867,
                    0.043153248727321625,
                    -0.010025660507380962,
                    -0.11932315677404404,
                    0.03810024634003639,
                    0.171528622508049,
                    0.4482714831829071,
                    -0.29152682423591614,
                    -0.03160173073410988,
                    0.20733284950256348,
                    0.11183863133192062,
                    -0.40496736764907837,
                    -0.002605035435408354,
                    0.15410588681697845,
                    -0.1883898377418518,
                    -0.6844608783721924,
                    -0.07528524100780487,
                    -0.2652615010738373,
                    -0.12695705890655518,
                    0.3552809953689575,
                    -0.029060037806630135
                ],
                [
                    0.1876174807548523,
                    0.1535344421863556,
                    0.22916194796562195,
                    0.20014837384223938,
                    0.009423449635505676,
                    0.14699354767799377,
                    0.31512320041656494,
                    -0.034881383180618286,
                    0.728498637676239,
                    -0.04188201203942299,
                    -0.44846683740615845,
                    -0.3490437865257263,
                    0.20152245461940765,
                    -0.13382290303707123,
                    -0.14553213119506836,
                    0.3681773543357849,
                    0.7588422298431396,
                    -0.49016696214675903,
                    -0.05718768760561943,
                    -0.49074605107307434,
                    0.054139796644449234,
                    -0.0423479862511158,
                    0.5423778295516968,
                    -0.06443094462156296,
                    -0.3048178255558014,
                    -0.1890128254890442,
                    0.39288991689682007,
                    0.7289348840713501,
                    0.5577086210250854,
                    0.25372639298439026,
                    0.34870636463165283,
                    0.1916293501853943,
                    -0.42008915543556213,
                    0.8818660378456116,
                    -0.15869902074337006,
                    0.5151468515396118,
                    -0.11174185574054718,
                    -0.30440303683280945,
                    0.2843743562698364,
                    -0.1434474140405655,
                    -0.4170861542224884,
                    0.21423585712909698,
                    -0.04496898129582405,
                    -0.7719228267669678,
                    -0.13363125920295715,
                    0.2214224487543106,
                    -0.21795624494552612,
                    0.2063789963722229,
                    -0.37487921118736267,
                    0.454256534576416
                ],
                [
                    0.7252934575080872,
                    0.3909815549850464,
                    0.6753326058387756,
                    0.15382717549800873,
                    0.2088823914527893,
                    0.31318676471710205,
                    0.8587103486061096,
                    -0.4229232966899872,
                    0.08514377474784851,
                    -0.024532563984394073,
                    0.384848952293396,
                    0.550722062587738,
                    0.37536680698394775,
                    0.1436816304922104,
                    -0.14709381759166718,
                    0.49408426880836487,
                    0.5945149660110474,
                    0.025626879185438156,
                    0.4314558804035187,
                    0.4031791687011719,
                    0.27165448665618896,
                    -0.20372274518013,
                    -0.05748213455080986,
                    -0.2898852527141571,
                    -0.16716033220291138,
                    0.14422942698001862,
                    0.872734785079956,
                    0.6672776341438293,
                    0.3104168772697449,
                    -0.10914816707372665,
                    0.3350825011730194,
                    0.6130573153495789,
                    0.1856803148984909,
                    0.2755950391292572,
                    -0.28416213393211365,
                    0.5200932025909424,
                    0.20964974164962769,
                    -0.4801701009273529,
                    -0.3431954085826874,
                    -0.8607609272003174,
                    0.09501197189092636,
                    0.01973750814795494,
                    -0.3357529640197754,
                    -0.07407746464014053,
                    0.06846015155315399,
                    0.30425119400024414,
                    -0.8140721917152405,
                    0.06287702172994614,
                    0.04227958619594574,
                    0.3317805528640747
                ],
                [
                    0.4870913624763489,
                    0.19661371409893036,
                    1.1933865547180176,
                    0.2650241553783417,
                    1.3915761709213257,
                    0.5958486199378967,
                    0.14513708651065826,
                    -0.38125908374786377,
                    0.7325426340103149,
                    -0.28708475828170776,
                    0.6892960071563721,
                    -0.057980336248874664,
                    0.5409060716629028,
                    0.4428420066833496,
                    -0.4787008464336395,
                    0.9121409058570862,
                    0.5712780356407166,
                    -1.002874493598938,
                    0.13908858597278595,
                    0.3355531096458435,
                    -0.003312226152047515,
                    0.1511690318584442,
                    -0.0670551210641861,
                    -1.2979382276535034,
                    0.4342706799507141,
                    -0.31861618161201477,
                    0.28703615069389343,
                    1.1915371417999268,
                    0.5608437061309814,
                    -0.15863090753555298,
                    0.5261109471321106,
                    1.2627582550048828,
                    0.20860882103443146,
                    0.24035389721393585,
                    -0.3461519181728363,
                    0.6967114806175232,
                    0.18036237359046936,
                    -0.510216236114502,
                    -0.6772732734680176,
                    -0.6859682202339172,
                    0.09289974719285965,
                    -0.11013047397136688,
                    -0.18165910243988037,
                    -0.039752986282110214,
                    0.2722824215888977,
                    0.6166467070579529,
                    -0.5455969572067261,
                    -0.04736170917749405,
                    0.32300710678100586,
                    0.8922991752624512
                ],
                [
                    0.5662352442741394,
                    -0.0464191734790802,
                    -0.5573986172676086,
                    0.3996134102344513,
                    -0.16784895956516266,
                    0.1770838499069214,
                    0.2616501748561859,
                    0.12514042854309082,
                    -0.6961216330528259,
                    1.4834409952163696,
                    0.5005131363868713,
                    0.29959413409233093,
                    0.7457365393638611,
                    0.5663226842880249,
                    -0.27919191122055054,
                    0.20343714952468872,
                    0.0506681352853775,
                    -0.9135729074478149,
                    -0.6851373910903931,
                    -0.09426558017730713,
                    0.3397769331932068,
                    0.3478616178035736,
                    -0.03272029757499695,
                    -0.4772531986236572,
                    0.7772002220153809,
                    -0.22718267142772675,
                    0.9032135605812073,
                    0.04074506834149361,
                    -0.04307488724589348,
                    0.1102958619594574,
                    -0.8725369572639465,
                    0.5073776841163635,
                    0.12124331295490265,
                    -0.045783206820487976,
                    -0.08480153977870941,
                    0.3231562376022339,
                    0.7308746576309204,
                    -0.15833884477615356,
                    -0.009235160425305367,
                    0.1666228324174881,
                    0.11696359515190125,
                    -0.11534830182790756,
                    0.07296208292245865,
                    -0.015016044490039349,
                    0.35975536704063416,
                    0.32885268330574036,
                    -0.2045227289199829,
                    -0.2890220880508423,
                    0.03264281526207924,
                    1.0878877639770508
                ],
                [
                    -0.020389340817928314,
                    -0.19068679213523865,
                    -0.5254420638084412,
                    0.9275407195091248,
                    -0.5043767094612122,
                    0.11629354953765869,
                    0.2990454137325287,
                    -0.7097376585006714,
                    -0.14418523013591766,
                    1.3513509035110474,
                    0.3242689073085785,
                    0.27211466431617737,
                    0.16905231773853302,
                    0.2999640703201294,
                    -0.5241649150848389,
                    0.20143850147724152,
                    -0.6284093260765076,
                    0.9816587567329407,
                    -0.22088365256786346,
                    0.6287203431129456,
                    0.4130118787288666,
                    0.23263826966285706,
                    -0.678166389465332,
                    0.08092154562473297,
                    0.3257785141468048,
                    -0.13131719827651978,
                    -0.10057079792022705,
                    -0.7244980931282043,
                    -0.7125987410545349,
                    0.006595884449779987,
                    -0.35011252760887146,
                    -0.1751992404460907,
                    -0.1315687596797943,
                    -0.19384627044200897,
                    -0.38801318407058716,
                    0.12430944293737411,
                    0.540378749370575,
                    -0.2684360444545746,
                    -0.09635365754365921,
                    0.15002965927124023,
                    0.30971094965934753,
                    0.09714855253696442,
                    0.14637431502342224,
                    0.45279356837272644,
                    0.4085289239883423,
                    -0.18279214203357697,
                    0.06637972593307495,
                    -0.08101016283035278,
                    0.7028033137321472,
                    -0.0883626639842987
                ],
                [
                    0.3240618407726288,
                    0.009621581062674522,
                    0.22945398092269897,
                    -0.34152090549468994,
                    0.6149532794952393,
                    -0.00936479214578867,
                    -0.0746559426188469,
                    -0.24299679696559906,
                    0.3108484148979187,
                    -0.7387596964836121,
                    0.07979077100753784,
                    -0.44955581426620483,
                    -0.09709328413009644,
                    0.011057035066187382,
                    -0.0028376926202327013,
                    0.5780035257339478,
                    0.23474150896072388,
                    -0.8071308135986328,
                    0.46016234159469604,
                    -0.4510034918785095,
                    -0.2647033631801605,
                    -0.9270980954170227,
                    0.3373492956161499,
                    0.5179346799850464,
                    0.1604163497686386,
                    0.29908865690231323,
                    -0.10642591118812561,
                    0.23733603954315186,
                    -0.05709044635295868,
                    -0.2553327679634094,
                    0.5339112281799316,
                    -0.26123401522636414,
                    -0.21051466464996338,
                    0.5973984003067017,
                    0.398481547832489,
                    0.43898478150367737,
                    -0.2375539243221283,
                    0.8313536643981934,
                    0.44247961044311523,
                    0.30721595883369446,
                    -0.3924661874771118,
                    0.44696322083473206,
                    0.9227311015129089,
                    -0.47523418068885803,
                    0.20615778863430023,
                    0.2663979232311249,
                    0.7852838635444641,
                    -0.019224131479859352,
                    -0.48803648352622986,
                    0.3684435188770294
                ],
                [
                    0.18758545815944672,
                    -0.1323338896036148,
                    0.4446569085121155,
                    0.453731507062912,
                    -2.564082384109497,
                    0.3099340796470642,
                    0.13658255338668823,
                    -1.713014841079712,
                    0.23448243737220764,
                    0.1413176953792572,
                    -0.06813817471265793,
                    -0.3083146810531616,
                    0.4157913327217102,
                    0.0029711234383285046,
                    -0.6765695214271545,
                    0.6541427969932556,
                    -0.014486770145595074,
                    0.35324445366859436,
                    0.31229862570762634,
                    0.07804496586322784,
                    0.3037624657154083,
                    0.11765032261610031,
                    0.39386770129203796,
                    -0.4304046630859375,
                    -0.15791553258895874,
                    -0.11515789479017258,
                    0.6844505667686462,
                    0.21138696372509003,
                    0.08956124633550644,
                    -0.44601115584373474,
                    0.14228160679340363,
                    -0.16390414535999298,
                    -0.4351564645767212,
                    0.02009650319814682,
                    -0.04672105610370636,
                    0.05581168457865715,
                    -0.30697715282440186,
                    -1.0369309186935425,
                    -0.12448304891586304,
                    -0.8715030550956726,
                    -0.13013355433940887,
                    0.5520502924919128,
                    -0.5784955620765686,
                    -0.09791411459445953,
                    0.776682436466217,
                    2.097954511642456,
                    -0.18272922933101654,
                    -0.6072056293487549,
                    0.45600107312202454,
                    0.02716517634689808
                ],
                [
                    0.45539793372154236,
                    -0.08012697100639343,
                    -0.09147317707538605,
                    0.6250938177108765,
                    -0.7125660181045532,
                    0.590167760848999,
                    1.4526957273483276,
                    -0.24022361636161804,
                    -0.21548514068126678,
                    -0.2837023138999939,
                    0.3863098919391632,
                    0.2415432184934616,
                    0.4293659031391144,
                    -0.2651303708553314,
                    0.07716584950685501,
                    -0.06811517477035522,
                    0.3791850805282593,
                    2.502310276031494,
                    -0.0863310918211937,
                    0.3723694384098053,
                    -0.060290832072496414,
                    0.2912504971027374,
                    -0.16439586877822876,
                    -0.14013680815696716,
                    -0.39973077178001404,
                    -0.2647210955619812,
                    0.5565634369850159,
                    0.14428170025348663,
                    0.25896963477134705,
                    -0.008115065284073353,
                    -0.3619484603404999,
                    0.4050941467285156,
                    -0.12327150255441666,
                    0.013168299570679665,
                    0.14757101237773895,
                    -0.022390909492969513,
                    -0.28839346766471863,
                    -0.3125036954879761,
                    -0.22179999947547913,
                    0.3018818199634552,
                    0.10561429709196091,
                    -0.050758764147758484,
                    0.08004587143659592,
                    0.5262980461120605,
                    1.5672825574874878,
                    0.28406596183776855,
                    0.06988271325826645,
                    0.028005016967654228,
                    -0.5709283351898193,
                    -0.08066688477993011
                ],
                [
                    -0.21860583126544952,
                    0.2500714361667633,
                    0.028610121458768845,
                    -0.3967343270778656,
                    0.00025277610984630883,
                    0.40667155385017395,
                    -0.1767314076423645,
                    0.17116959393024445,
                    -1.0932292938232422,
                    0.19182129204273224,
                    0.3630695044994354,
                    0.5412536859512329,
                    -0.14395272731781006,
                    0.031635675579309464,
                    -0.14656196534633636,
                    -0.3893720209598541,
                    -0.3252190947532654,
                    0.06973720341920853,
                    -0.5113682746887207,
                    0.5041699409484863,
                    -0.21994079649448395,
                    -0.35862940549850464,
                    -0.11106336861848831,
                    -0.030487483367323875,
                    0.03954663127660751,
                    0.2889394462108612,
                    -0.09054049104452133,
                    -0.36791691184043884,
                    -0.07180408388376236,
                    0.27011528611183167,
                    -0.26548638939857483,
                    0.08682612329721451,
                    0.5363867878913879,
                    -0.0470116101205349,
                    -0.15282118320465088,
                    0.10967124998569489,
                    -0.055359769612550735,
                    0.6032167673110962,
                    0.5135663151741028,
                    0.21381868422031403,
                    0.06802316755056381,
                    -0.475866436958313,
                    0.14978639781475067,
                    -0.12248783558607101,
                    0.7504569292068481,
                    0.022173671051859856,
                    0.1146126538515091,
                    -0.13579268753528595,
                    0.19275438785552979,
                    0.054483238607645035
                ],
                [
                    0.4410199522972107,
                    0.01640569604933262,
                    0.0756821259856224,
                    0.2980789244174957,
                    -0.09128337353467941,
                    0.4637865424156189,
                    0.3012343943119049,
                    0.005672427359968424,
                    0.04040497541427612,
                    0.1335674375295639,
                    0.16519498825073242,
                    0.09325911104679108,
                    0.0329495370388031,
                    0.325443834066391,
                    0.17318682372570038,
                    0.13621801137924194,
                    -0.24954110383987427,
                    -0.16714809834957123,
                    -0.13529056310653687,
                    0.2834736704826355,
                    -0.007265928201377392,
                    0.23200860619544983,
                    0.43587177991867065,
                    0.2382340431213379,
                    0.013433009386062622,
                    0.3610328137874603,
                    0.09656311571598053,
                    -0.5997684001922607,
                    -0.4941032826900482,
                    -0.15040381252765656,
                    0.27908599376678467,
                    -0.21656827628612518,
                    0.19851641356945038,
                    -0.08004524558782578,
                    -0.061255328357219696,
                    0.17314811050891876,
                    -0.08620952814817429,
                    -0.11022049933671951,
                    -0.7269080281257629,
                    0.2644079029560089,
                    0.13720841705799103,
                    -0.2548816502094269,
                    0.23983393609523773,
                    0.6964672207832336,
                    -0.21651600301265717,
                    -0.04769759997725487,
                    0.3642503619194031,
                    -0.0033543899189680815,
                    0.3154820501804352,
                    -0.04004848003387451
                ],
                [
                    -0.8041576743125916,
                    -0.09395841509103775,
                    -0.11716242134571075,
                    -0.8197639584541321,
                    0.39548400044441223,
                    -0.3598366677761078,
                    -0.4909776449203491,
                    0.6415461897850037,
                    -0.2640339732170105,
                    0.2520705461502075,
                    -0.06175600737333298,
                    0.053866442292928696,
                    -0.1941235363483429,
                    -0.26263755559921265,
                    0.035216689109802246,
                    -0.677860677242279,
                    -0.2221287041902542,
                    0.16214801371097565,
                    0.3505489230155945,
                    -0.07157676666975021,
                    -0.21564705669879913,
                    0.23336447775363922,
                    0.4192103147506714,
                    0.2829347252845764,
                    -0.5435411334037781,
                    -0.29496127367019653,
                    0.14102882146835327,
                    -0.03063972294330597,
                    0.41056695580482483,
                    -0.15283693373203278,
                    0.41753315925598145,
                    -0.15055419504642487,
                    0.22373993694782257,
                    0.15677592158317566,
                    -0.3768059015274048,
                    -0.44691669940948486,
                    0.16413411498069763,
                    -0.25421246886253357,
                    0.0020060434471815825,
                    -0.4421853721141815,
                    -0.19637955725193024,
                    -0.27408596873283386,
                    0.4782758951187134,
                    0.014267138205468655,
                    -0.20304875075817108,
                    -0.16622936725616455,
                    0.18408982455730438,
                    -0.35487762093544006,
                    -0.11128394305706024,
                    -0.6325344443321228
                ],
                [
                    0.15474072098731995,
                    -0.27933186292648315,
                    -0.33435967564582825,
                    -0.09863384813070297,
                    -0.1601281315088272,
                    -0.3911813497543335,
                    -0.024709805846214294,
                    -0.24166558682918549,
                    0.057890381664037704,
                    0.28280821442604065,
                    -0.010572454892098904,
                    0.006943658925592899,
                    0.2130497246980667,
                    -0.2598870098590851,
                    -0.5105756521224976,
                    0.1452084332704544,
                    0.47545531392097473,
                    0.20504868030548096,
                    -0.31122925877571106,
                    -0.08664358407258987,
                    0.11910947412252426,
                    0.29675915837287903,
                    0.12275541573762894,
                    -0.09508300572633743,
                    -0.6344053745269775,
                    -0.3973863124847412,
                    0.41012635827064514,
                    0.5406279563903809,
                    -0.04098150506615639,
                    -0.17958399653434753,
                    0.21658873558044434,
                    0.3297688066959381,
                    0.012007447890937328,
                    0.15944847464561462,
                    -0.4955838620662689,
                    0.26453009247779846,
                    0.03254586085677147,
                    -0.747151792049408,
                    0.1936860829591751,
                    -0.19700640439987183,
                    -0.28139206767082214,
                    -0.5454309582710266,
                    0.14562681317329407,
                    -0.24032500386238098,
                    -0.12573277950286865,
                    -0.12333737313747406,
                    0.05274108052253723,
                    -0.594042956829071,
                    -0.22143952548503876,
                    0.29775023460388184
                ],
                [
                    -0.57383793592453,
                    0.1402955800294876,
                    -0.08340701460838318,
                    0.12513983249664307,
                    -0.19843047857284546,
                    0.1989661455154419,
                    0.2554774284362793,
                    0.10511913150548935,
                    -0.026193544268608093,
                    -0.08455304801464081,
                    0.2830151319503784,
                    0.1618422418832779,
                    -0.1258206069469452,
                    0.2057100385427475,
                    0.4240294396877289,
                    -0.6353701949119568,
                    0.07961082458496094,
                    -0.36705583333969116,
                    0.13222543895244598,
                    -0.06832469254732132,
                    -0.023187806829810143,
                    -0.24270933866500854,
                    0.3379967510700226,
                    0.5104449391365051,
                    -0.058177217841148376,
                    -0.4398387372493744,
                    -0.1377236247062683,
                    -0.08895018696784973,
                    0.1678754687309265,
                    0.4691500663757324,
                    -0.08680615574121475,
                    0.25057661533355713,
                    0.3906487226486206,
                    -0.11831819266080856,
                    -0.20073628425598145,
                    -0.4297303557395935,
                    0.19107148051261902,
                    0.4059399366378784,
                    -0.16693319380283356,
                    0.5140014290809631,
                    0.1738787293434143,
                    0.21756908297538757,
                    0.6022300124168396,
                    -0.11001723259687424,
                    0.5914669632911682,
                    0.16030988097190857,
                    -0.02432781457901001,
                    0.18176260590553284,
                    0.4027046263217926,
                    0.14327818155288696
                ],
                [
                    -0.5128917098045349,
                    -0.2770809829235077,
                    -0.08766104280948639,
                    0.12575691938400269,
                    0.016962064430117607,
                    0.24368593096733093,
                    -0.2939266562461853,
                    0.6787293553352356,
                    -0.06568769365549088,
                    -0.5973526835441589,
                    0.3861940801143646,
                    0.08978220820426941,
                    0.2869238555431366,
                    0.5065088272094727,
                    0.512878954410553,
                    0.06652051955461502,
                    0.3443487584590912,
                    -0.7120819091796875,
                    0.17129293084144592,
                    -0.05977834388613701,
                    -0.023902414366602898,
                    -0.011212386190891266,
                    0.25705429911613464,
                    -0.08104538917541504,
                    0.10146000981330872,
                    0.05085480585694313,
                    -0.053880732506513596,
                    0.6799144744873047,
                    0.07133269309997559,
                    0.2498982548713684,
                    -0.15316078066825867,
                    0.06479983776807785,
                    0.01699674502015114,
                    0.24156144261360168,
                    -0.10522940009832382,
                    0.31662049889564514,
                    -0.35235363245010376,
                    -0.2957949936389923,
                    0.11392678320407867,
                    -0.3166794776916504,
                    -0.026652537286281586,
                    -0.30206650495529175,
                    -0.3335726857185364,
                    -0.07747161388397217,
                    -0.5575549006462097,
                    -0.3775022625923157,
                    -0.23167723417282104,
                    0.016598712652921677,
                    -0.6238763332366943,
                    0.7033754587173462
                ],
                [
                    -0.09707245975732803,
                    -0.05792525038123131,
                    -0.08824716508388519,
                    -0.05166832357645035,
                    0.40735766291618347,
                    -0.11472593992948532,
                    -0.36347270011901855,
                    0.12985262274742126,
                    -0.12641510367393494,
                    0.39693909883499146,
                    -0.16507145762443542,
                    0.1990153044462204,
                    0.22674492001533508,
                    -0.7408446669578552,
                    0.10074806213378906,
                    -0.1631983369588852,
                    0.10765497386455536,
                    0.09194386005401611,
                    0.18889681994915009,
                    0.04427390173077583,
                    -0.41871172189712524,
                    0.263938307762146,
                    0.1778191477060318,
                    0.02877650409936905,
                    -0.12651334702968597,
                    -0.2488471269607544,
                    0.10937091708183289,
                    0.1137157455086708,
                    0.1301768273115158,
                    0.5744011998176575,
                    0.17610138654708862,
                    0.025353359058499336,
                    0.1773424595594406,
                    -0.377130925655365,
                    -0.5095974206924438,
                    0.017085567116737366,
                    0.4038556218147278,
                    0.2921428978443146,
                    -0.1528448611497879,
                    0.08593130111694336,
                    0.36931338906288147,
                    -0.24102430045604706,
                    0.26244792342185974,
                    -0.16817933320999146,
                    -0.043498966842889786,
                    -0.07740645110607147,
                    0.14622730016708374,
                    -0.36703503131866455,
                    -0.1084519475698471,
                    -0.17502668499946594
                ],
                [
                    0.3446809947490692,
                    -0.5089179873466492,
                    0.08714652061462402,
                    0.5623337626457214,
                    0.051975034177303314,
                    0.656427800655365,
                    0.09107989817857742,
                    -0.0770769789814949,
                    -0.6419966816902161,
                    0.4552564024925232,
                    0.49547621607780457,
                    0.47746554017066956,
                    0.6270542144775391,
                    0.3050990700721741,
                    -0.3429889380931854,
                    0.26902294158935547,
                    0.5747486352920532,
                    0.48143115639686584,
                    -0.671567976474762,
                    0.12522757053375244,
                    -0.15515470504760742,
                    0.9496021270751953,
                    -0.23783236742019653,
                    -0.20452551543712616,
                    0.3310023844242096,
                    0.022308409214019775,
                    0.10461477190256119,
                    0.016446610912680626,
                    -0.11617082357406616,
                    -0.0949438065290451,
                    -0.7692072987556458,
                    -0.1663772612810135,
                    0.2870364189147949,
                    -0.20714937150478363,
                    0.07346456497907639,
                    0.23624059557914734,
