{
    "CNN_input_1": [
        {
            "b": [
                0.1134900227189064,
                0.03945346549153328,
                0.09158015251159668,
                -0.14011725783348083,
                -0.0027484700549393892,
                -0.1792302131652832,
                -0.11512669920921326,
                0.06252993643283844
            ],
            "w": [
                [
                    [
                        [
                            -0.2090214192867279,
                            -0.07806642353534698
                        ],
                        [
                            0.37563762068748474,
                            -0.6868032813072205
                        ]
                    ]
                ],
                [
                    [
                        [
                            0.11427489668130875,
                            -0.3655952215194702
                        ],
                        [
                            0.4457830786705017,
                            -0.176874041557312
                        ]
                    ]
                ],
                [
                    [
                        [
                            0.04382319748401642,
                            -0.11570590734481812
                        ],
                        [
                            -0.04300505667924881,
                            -0.047587208449840546
                        ]
                    ]
                ],
                [
                    [
                        [
                            0.2752205431461334,
                            0.040926337242126465
                        ],
                        [
                            0.2976234555244446,
                            -0.07657749950885773
                        ]
                    ]
                ],
                [
                    [
                        [
                            0.053377944976091385,
                            0.06006719544529915
                        ],
                        [
                            0.04049447551369667,
                            -0.005649756174534559
                        ]
                    ]
                ],
                [
                    [
                        [
                            0.29972052574157715,
                            0.622785747051239
                        ],
                        [
                            0.6519306898117065,
                            -0.1279882788658142
                        ]
                    ]
                ],
                [
                    [
                        [
                            -0.09254176169633865,
                            0.19545188546180725
                        ],
                        [
                            0.0529889240860939,
                            0.035531021654605865
                        ]
                    ]
                ],
                [
                    [
                        [
                            0.015541787259280682,
                            -0.0117631321772933
                        ],
                        [
                            -0.018115825951099396,
                            -0.10032059997320175
                        ]
                    ]
                ]
            ]
        }
    ],
    "CNN_input_2": [
        {
            "b": [
                0.7891610860824585,
                1.2197091579437256,
                0.5619183778762817,
                0.283751904964447,
                -0.32626068592071533,
                1.57478928565979,
                -1.5239540338516235,
                -1.101197600364685
            ],
            "w": [
                [
                    [
                        [
                            -1.1004860401153564
                        ]
                    ],
                    [
                        [
                            -1.1007113456726074
                        ]
                    ],
                    [
                        [
                            -1.1529457569122314
                        ]
                    ],
                    [
                        [
                            -1.1372311115264893
                        ]
                    ],
                    [
                        [
                            -1.1374132633209229
                        ]
                    ],
                    [
                        [
                            -1.15304696559906
                        ]
                    ]
                ],
                [
                    [
                        [
                            -1.6763646602630615
                        ]
                    ],
                    [
                        [
                            -1.677701711654663
                        ]
                    ],
                    [
                        [
                            -1.6350489854812622
                        ]
                    ],
                    [
                        [
                            -1.713753342628479
                        ]
                    ],
                    [
                        [
                            -1.714017629623413
                        ]
                    ],
                    [
                        [
                            -1.6348965167999268
                        ]
                    ]
                ],
                [
                    [
                        [
                            -1.4439291954040527
                        ]
                    ],
                    [
                        [
                            -1.446581244468689
                        ]
                    ],
                    [
                        [
                            -1.2952121496200562
                        ]
                    ],
                    [
                        [
                            -0.6691611409187317
                        ]
                    ],
                    [
                        [
                            -0.6740027070045471
                        ]
                    ],
                    [
                        [
                            -1.2881522178649902
                        ]
                    ]
                ],
                [
                    [
                        [
                            -0.2894875109195709
                        ]
                    ],
                    [
                        [
                            -0.2890417277812958
                        ]
                    ],
                    [
                        [
                            0.2589976191520691
                        ]
                    ],
                    [
                        [
                            0.17074112594127655
                        ]
                    ],
                    [
                        [
                            0.1701795607805252
                        ]
                    ],
                    [
                        [
                            0.26052623987197876
                        ]
                    ]
                ],
                [
                    [
                        [
                            -0.26996728777885437
                        ]
                    ],
                    [
                        [
                            -0.2678505778312683
                        ]
                    ],
                    [
                        [
                            -0.8708111643791199
                        ]
                    ],
                    [
                        [
                            1.4258149862289429
                        ]
                    ],
                    [
                        [
                            1.4234026670455933
                        ]
                    ],
                    [
                        [
                            -0.8626551628112793
                        ]
                    ]
                ],
                [
                    [
                        [
                            -2.072326898574829
                        ]
                    ],
                    [
                        [
                            -2.073005437850952
                        ]
                    ],
                    [
                        [
                            -2.020153045654297
                        ]
                    ],
                    [
                        [
                            -2.0506978034973145
                        ]
                    ],
                    [
                        [
                            -2.049985885620117
                        ]
                    ],
                    [
                        [
                            -2.0202155113220215
                        ]
                    ]
                ],
                [
                    [
                        [
                            1.8469408750534058
                        ]
                    ],
                    [
                        [
                            1.847350835800171
                        ]
                    ],
                    [
                        [
                            1.2339318990707397
                        ]
                    ],
                    [
                        [
                            1.772883653640747
                        ]
                    ],
                    [
                        [
                            1.7709072828292847
                        ]
                    ],
                    [
                        [
                            1.2370997667312622
                        ]
                    ]
                ],
                [
                    [
                        [
                            1.0574089288711548
                        ]
                    ],
                    [
                        [
                            1.0505506992340088
                        ]
                    ],
                    [
                        [
                            1.8480074405670166
                        ]
                    ],
                    [
                        [
                            1.9316434860229492
                        ]
                    ],
                    [
                        [
                            1.9353084564208984
                        ]
                    ],
                    [
                        [
                            1.852537751197815
                        ]
                    ]
                ]
            ]
        }
    ],
    "CNN_stage_2": [
        {
            "b": [
                -0.18842825293540955,
                -0.11254093050956726,
                -0.05863479524850845,
                0.22161069512367249,
                -0.4030645489692688,
                -0.18387727439403534,
                -0.3430173993110657,
                -0.29815229773521423
            ],
            "w": [
                [
                    [
                        [
                            -0.2204609215259552,
                            -0.2004028558731079
                        ],
                        [
                            0.21002480387687683,
                            -1.0001777410507202
                        ]
                    ],
                    [
                        [
                            -0.9710267186164856,
                            -0.06281687319278717
                        ],
                        [
                            -0.03669506683945656,
                            0.49852508306503296
                        ]
                    ],
                    [
                        [
                            -0.07722034305334091,
                            -0.3818376660346985
                        ],
                        [
                            0.2833079695701599,
                            0.6562685370445251
                        ]
                    ],
                    [
                        [
                            -0.3643646538257599,
                            -0.5145880579948425
                        ],
                        [
                            0.08346002548933029,
                            0.3697240948677063
                        ]
                    ],
                    [
                        [
                            0.6626015901565552,
                            -0.05388638377189636
                        ],
                        [
                            -0.2974529266357422,
                            -0.24762752652168274
                        ]
                    ],
                    [
                        [
                            0.9163687229156494,
                            0.4522094428539276
                        ],
                        [
                            -0.2525443732738495,
                            -0.12271621078252792
                        ]
                    ],
                    [
                        [
                            0.078721784055233,
                            -0.3893395662307739
                        ],
                        [
                            0.17399795353412628,
                            0.7605711817741394
                        ]
                    ],
                    [
                        [
                            0.003691247897222638,
                            -0.1108463779091835
                        ],
                        [
                            0.37430810928344727,
                            1.1968802213668823
                        ]
                    ]
                ],
                [
                    [
                        [
                            0.13792911171913147,
                            0.29156455397605896
                        ],
                        [
                            0.295955628156662,
                            -0.5525733828544617
                        ]
                    ],
                    [
                        [
                            -0.007983259856700897,
                            0.7689801454544067
                        ],
                        [
                            0.07228800654411316,
                            -0.45760998129844666
                        ]
                    ],
                    [
                        [
                            -0.04052568972110748,
                            -0.3602319061756134
                        ],
                        [
                            -0.36022529006004333,
                            0.06426235288381577
                        ]
                    ],
                    [
                        [
                            -0.1309823840856552,
                            0.14398758113384247
                        ],
                        [
                            0.3810378611087799,
                            -0.25998350977897644
                        ]
                    ],
                    [
                        [
                            -0.20734068751335144,
                            0.8836608529090881
                        ],
                        [
                            -0.14358092844486237,
                            -0.8744857907295227
                        ]
                    ],
                    [
                        [
                            -0.01951189525425434,
                            -0.10988732427358627
                        ],
                        [
                            -0.31180018186569214,
                            0.9587944746017456
                        ]
                    ],
                    [
                        [
                            -0.03536301478743553,
                            -0.35326912999153137
                        ],
                        [
                            -0.2561797797679901,
                            -0.13679228723049164
                        ]
                    ],
                    [
                        [
                            0.1120290458202362,
                            0.7990422248840332
                        ],
                        [
                            0.43225541710853577,
                            0.1049509346485138
                        ]
                    ]
                ],
                [
                    [
                        [
                            0.09583552926778793,
                            0.05343204736709595
                        ],
                        [
                            0.06837864965200424,
                            -0.7102120518684387
                        ]
                    ],
                    [
                        [
                            0.06703923642635345,
                            0.004539721645414829
                        ],
                        [
                            -0.18773730099201202,
                            -0.9716891050338745
                        ]
                    ],
                    [
                        [
                            0.682181715965271,
                            -0.2418779581785202
                        ],
                        [
                            0.6596925258636475,
                            -0.2724985182285309
                        ]
                    ],
                    [
                        [
                            -1.6095322370529175,
                            0.6876404881477356
                        ],
                        [
                            0.15314881503582,
                            -1.1966007947921753
                        ]
                    ],
                    [
                        [
                            1.195029377937317,
                            0.21608930826187134
                        ],
                        [
                            -0.09571193903684616,
                            0.021121209487318993
                        ]
                    ],
                    [
                        [
                            0.2769277095794678,
                            0.24970005452632904
                        ],
                        [
                            -0.7483508586883545,
                            -0.5349693298339844
                        ]
                    ],
                    [
                        [
                            -0.5966222882270813,
                            0.3052143454551697
                        ],
                        [
                            0.43694332242012024,
                            -0.21883533895015717
                        ]
                    ],
                    [
                        [
                            -0.0354141965508461,
                            0.29885128140449524
                        ],
                        [
                            1.1598048210144043,
                            2.205061912536621
                        ]
                    ]
                ],
                [
                    [
                        [
                            0.43001946806907654,
                            0.4185422360897064
                        ],
                        [
                            -0.3985274136066437,
                            0.6559334993362427
                        ]
                    ],
                    [
                        [
                            -1.1720050573349,
                            -0.14026126265525818
                        ],
                        [
                            -0.41065093874931335,
                            2.2048323154449463
                        ]
                    ],
                    [
                        [
                            -0.08822891116142273,
                            -1.0950595140457153
                        ],
                        [
                            0.8465599417686462,
                            -1.437066674232483
                        ]
                    ],
                    [
                        [
                            -0.09841619431972504,
                            -0.2722102701663971
                        ],
                        [
                            0.7347553372383118,
                            0.8768285512924194
                        ]
                    ],
                    [
                        [
                            0.35307207703590393,
                            0.12530693411827087
                        ],
                        [
                            -0.0838153213262558,
                            -0.3228960931301117
                        ]
                    ],
                    [
                        [
                            -0.16626949608325958,
                            1.6864491701126099
                        ],
                        [
                            -2.1238269805908203,
                            -0.5586414337158203
                        ]
                    ],
                    [
                        [
                            -0.46216684579849243,
                            0.09783893823623657
                        ],
                        [
                            -0.07753431797027588,
                            -0.1681949645280838
                        ]
                    ],
                    [
                        [
                            0.5041677355766296,
                            -0.1014196127653122
                        ],
                        [
                            -0.045413922518491745,
                            -0.16209106147289276
                        ]
                    ]
                ],
                [
                    [
                        [
                            0.12695521116256714,
                            -0.13225200772285461
                        ],
                        [
                            0.3369884788990021,
                            0.34297457337379456
                        ]
                    ],
                    [
                        [
                            -1.2836722135543823,
                            0.06441984325647354
                        ],
                        [
                            -0.6934659481048584,
                            -0.23879976570606232
                        ]
                    ],
                    [
                        [
                            -0.4512544870376587,
                            -0.5598759651184082
                        ],
                        [
                            -0.7971925735473633,
                            -0.9959571957588196
                        ]
                    ],
                    [
                        [
                            -0.5671824812889099,
                            -0.5237830281257629
                        ],
                        [
                            0.029293062165379524,
                            -0.2610439956188202
                        ]
                    ],
                    [
                        [
                            1.6986171007156372,
                            0.2798837721347809
                        ],
                        [
                            -0.27913519740104675,
                            -0.09950672090053558
                        ]
                    ],
                    [
                        [
                            1.0419397354125977,
                            0.24094146490097046
                        ],
                        [
                            0.4223203957080841,
                            0.09570947289466858
                        ]
                    ],
                    [
                        [
                            -0.5628889799118042,
                            -0.6603943705558777
                        ],
                        [
                            -0.4620715379714966,
                            -0.8109760880470276
                        ]
                    ],
                    [
                        [
                            0.2075018286705017,
                            0.4034084677696228
                        ],
                        [
                            0.8592012524604797,
                            0.8732072114944458
                        ]
                    ]
                ],
                [
                    [
                        [
                            0.1836317926645279,
                            0.8434528112411499
                        ],
                        [
                            -1.7769784927368164,
                            0.373842716217041
                        ]
                    ],
                    [
                        [
                            -0.07491446286439896,
                            0.5827195048332214
                        ],
                        [
                            -0.05020267143845558,
                            0.7750528454780579
                        ]
                    ],
                    [
                        [
                            -0.10068465769290924,
                            -0.0794256255030632
                        ],
                        [
                            -0.8659518361091614,
                            0.4714480936527252
                        ]
                    ],
                    [
                        [
                            0.23850582540035248,
                            0.5001934170722961
                        ],
                        [
                            -0.13632944226264954,
                            -0.4510551691055298
                        ]
                    ],
                    [
                        [
                            0.02359510213136673,
                            -0.12577754259109497
                        ],
                        [
                            0.03408033773303032,
                            -0.1773013174533844
                        ]
                    ],
                    [
                        [
                            1.0071848630905151,
                            -0.8991617560386658
                        ],
                        [
                            -0.32863330841064453,
                            -0.29891932010650635
                        ]
                    ],
                    [
                        [
                            0.19228912889957428,
                            0.10809683054685593
                        ],
                        [
                            -0.5227402448654175,
                            0.2631017565727234
                        ]
                    ],
                    [
                        [
                            0.16859880089759827,
                            -0.6986584663391113
                        ],
                        [
                            -0.16604968905448914,
                            1.3819963932037354
                        ]
                    ]
                ],
                [
                    [
                        [
                            0.10103462636470795,
                            1.5398575067520142
                        ],
                        [
                            0.18080441653728485,
                            0.04979199543595314
                        ]
                    ],
                    [
                        [
                            0.4976511299610138,
                            -0.635947585105896
                        ],
                        [
                            -0.7008969783782959,
                            0.20393545925617218
                        ]
                    ],
                    [
                        [
                            0.363981693983078,
                            -1.452147126197815
                        ],
                        [
                            -0.282978892326355,
                            0.991748034954071
                        ]
                    ],
                    [
                        [
                            -0.05985226854681969,
                            -0.00040915803401730955
                        ],
                        [
                            0.24414034187793732,
                            0.5207966566085815
                        ]
                    ],
                    [
                        [
                            -0.33812063932418823,
                            -0.479376882314682
                        ],
                        [
                            -0.12508004903793335,
                            -0.10668299347162247
                        ]
                    ],
                    [
                        [
                            -1.1484521627426147,
                            -0.2954476475715637
                        ],
                        [
                            -1.6669045686721802,
                            -0.4543781280517578
                        ]
                    ],
                    [
                        [
                            -0.028739340603351593,
                            1.2048132419586182
                        ],
                        [
                            -0.028916066512465477,
                            -0.3960258960723877
                        ]
                    ],
                    [
                        [
                            0.1108563020825386,
                            0.8871042728424072
                        ],
                        [
                            0.36152639985084534,
                            -0.19016019999980927
                        ]
                    ]
                ],
                [
                    [
                        [
                            -0.2900559902191162,
                            -0.3251279592514038
                        ],
                        [
                            0.515563428401947,
                            0.23256485164165497
                        ]
                    ],
                    [
                        [
                            0.2947089672088623,
                            1.0079549551010132
                        ],
                        [
                            0.08086022734642029,
                            -0.6743223071098328
                        ]
                    ],
                    [
                        [
                            0.6123875975608826,
                            -0.2599906623363495
                        ],
                        [
                            -0.5361668467521667,
                            -1.2390978336334229
                        ]
                    ],
                    [
                        [
                            -0.5227556228637695,
                            -0.9932479858398438
                        ],
                        [
                            -0.06154925376176834,
                            0.07373296469449997
                        ]
                    ],
                    [
                        [
                            -0.07543063163757324,
                            -1.8547779321670532
                        ],
                        [
                            -0.4278930723667145,
                            -0.4194936752319336
                        ]
                    ],
                    [
                        [
                            -0.35192111134529114,
                            -0.9154053330421448
                        ],
                        [
                            0.593849241733551,
                            -0.29392552375793457
                        ]
                    ],
                    [
                        [
                            0.6589370965957642,
                            -0.5929065346717834
                        ],
                        [
                            -0.2895285189151764,
                            -0.28793594241142273
                        ]
                    ],
                    [
                        [
                            0.6036616563796997,
                            1.6232870817184448
                        ],
                        [
                            0.14467979967594147,
                            0.10795380175113678
                        ]
                    ]
                ]
            ]
        }
    ],
    "MLP_stage_3": [
        {
            "b": [
                -0.8859362006187439,
                -0.8601146936416626,
                -0.4201067090034485,
                -0.8802915811538696,
                0.15016737580299377,
                -0.12916919589042664,
                -0.24603910744190216,
                -0.22825820744037628,
                -0.27529287338256836,
                0.15224862098693848,
                -0.7386913895606995,
                -1.3770390748977661,
                -0.9134030342102051,
                -0.42244577407836914,
                -1.690414309501648,
                -0.8280619382858276,
                -2.448716163635254,
                -0.7729620337486267,
                -0.14476527273654938,
                -3.1610090732574463,
                -1.3049280643463135,
                -0.9878278970718384,
                -0.5932977795600891,
                -0.18708308041095734,
                -0.7242292761802673,
                -2.146592617034912,
                0.32078805565834045,
                -0.6850818395614624,
                -1.2143126726150513,
                -0.5805593132972717,
                -1.141823172569275,
                0.09925676137208939,
                -1.6925195455551147,
                0.04871705546975136,
                -1.2428300380706787,
                -0.35040032863616943,
                -1.1267691850662231,
                -0.5201788544654846,
                -0.6109737753868103,
                -1.2873417139053345,
                -2.0634398460388184,
                0.1073865070939064,
                -0.06686900556087494,
                -0.4130711853504181,
                -0.8578771352767944,
                0.04153631627559662,
                0.3601726293563843,
                -0.9870132803916931,
                0.022256912663578987,
                -1.425606369972229
            ],
            "w": [
                [
                    1.0079294443130493,
                    0.749920666217804,
                    0.22649706900119781,
                    -0.4542195498943329,
                    -5.9174957275390625,
                    0.10745025426149368,
                    2.780444383621216,
                    4.499536991119385,
                    0.7457126975059509,
                    1.5024304389953613,
                    2.5369396209716797,
                    0.36913058161735535,
                    0.5970260500907898,
                    1.6890904903411865,
                    -2.0219638347625732,
                    -1.13265860080719,
                    -0.8258358240127563,
                    0.4743806719779968,
                    -1.5135031938552856,
                    -1.7128180265426636,
                    1.9170905351638794,
                    0.09439384937286377,
                    -1.7892564535140991,
                    0.2513209879398346,
                    0.45222681760787964,
                    0.5438281297683716,
                    1.832148790359497,
                    -0.12171764671802521,
                    -3.342587947845459,
                    2.0692386627197266,
                    -0.4310581088066101,
                    1.4000003337860107,
                    2.3875999450683594,
                    -1.637352466583252,
                    2.987173318862915,
                    0.917527437210083,
                    1.2509448528289795,
                    -2.533249616622925,
                    -10.466801643371582,
                    -0.6031156182289124,
                    2.1220321655273438,
                    -1.5386797189712524,
                    -0.9375515580177307,
                    0.7444621324539185,
                    1.7327125072479248,
                    1.6088204383850098,
                    -0.5008812546730042,
                    1.2082210779190063,
                    -0.4952021837234497,
                    2.547945261001587
                ],
                [
                    2.152221441268921,
                    -1.7008029222488403,
                    0.2820700407028198,
                    0.1619754433631897,
                    1.7991784811019897,
                    2.7581799030303955,
                    1.8392750024795532,
                    -3.0847864151000977,
                    -1.0720250606536865,
                    0.1281731277704239,
                    -3.168124198913574,
                    -1.402216911315918,
                    2.009000778198242,
                    -1.5848947763442993,
                    3.5682804584503174,
                    0.1835908591747284,
                    -1.7443567514419556,
                    1.3295305967330933,
                    2.7087562084198,
                    -1.8255289793014526,
                    1.1171787977218628,
                    1.1011896133422852,
                    0.29102012515068054,
                    1.1839896440505981,
                    -1.4101585149765015,
                    2.1638431549072266,
                    3.304689407348633,
                    0.2622443735599518,
                    1.4146475791931152,
                    2.7148704528808594,
                    1.8698688745498657,
                    -0.12796643376350403,
                    -0.17487338185310364,
                    -2.5825483798980713,
                    -3.2336885929107666,
                    -0.5855468511581421,
                    1.7468632459640503,
                    -0.904590368270874,
                    2.6298205852508545,
                    2.791931629180908,
                    1.2532563209533691,
                    2.1769282817840576,
                    1.9026809930801392,
                    0.5674757957458496,
                    0.08526796102523804,
                    -2.36377215385437,
                    1.4551831483840942,
                    -2.4167466163635254,
                    0.011084694415330887,
                    1.9719771146774292
                ],
                [
                    -1.0860830545425415,
                    2.2813186645507812,
                    1.5648096799850464,
                    1.9015101194381714,
                    1.491494059562683,
                    1.8182952404022217,
                    0.6327742338180542,
                    -2.9895033836364746,
                    2.571568727493286,
                    -0.1328411102294922,
                    0.04486323520541191,
                    3.1674368381500244,
                    1.1846364736557007,
                    1.6355055570602417,
                    3.0370354652404785,
                    -1.6122971773147583,
                    -3.478146553039551,
                    -3.3362014293670654,
                    -2.8160905838012695,
                    4.038818359375,
                    0.7091012597084045,
                    0.3830764889717102,
                    0.3626162111759186,
                    3.301462411880493,
                    -0.4428730607032776,
                    1.9093449115753174,
                    -3.0163021087646484,
                    2.684669017791748,
                    2.108020782470703,
                    2.9891252517700195,
                    -3.1059300899505615,
                    2.3198816776275635,
                    2.6012582778930664,
                    -0.8982847332954407,
                    1.5547351837158203,
                    2.2889351844787598,
                    1.062987208366394,
                    -0.2053985446691513,
                    0.6484765410423279,
                    -0.5156956315040588,
                    2.4356703758239746,
                    -7.707508563995361,
                    -1.31403648853302,
                    4.309845447540283,
                    1.9287960529327393,
                    0.9840636253356934,
                    2.509140968322754,
                    3.2888007164001465,
                    -2.266002655029297,
                    1.590193510055542
                ],
                [
                    -2.6087253093719482,
                    0.28475475311279297,
                    1.7937853336334229,
                    0.7208743691444397,
                    -12.327848434448242,
                    -0.6104782819747925,
                    1.2939971685409546,
                    -0.7267709374427795,
                    1.5115700960159302,
                    -0.4605454206466675,
                    1.0636087656021118,
                    0.9962955117225647,
                    1.132546067237854,
                    -0.5522162914276123,
                    2.8069052696228027,
                    -0.10545571148395538,
                    2.1254749298095703,
                    1.5858564376831055,
                    -0.3440156579017639,
                    3.510591745376587,
                    3.9099607467651367,
                    1.7341245412826538,
                    -3.4637482166290283,
                    -0.06818574666976929,
                    1.4224499464035034,
                    1.8511698246002197,
                    1.140870451927185,
                    -1.8255250453948975,
                    -0.5095265507698059,
                    -0.7515074610710144,
                    1.5221331119537354,
                    2.076261281967163,
                    1.1753604412078857,
                    0.284231036901474,
                    -1.8064240217208862,
                    0.8542419672012329,
                    2.141333818435669,
                    0.3002855181694031,
                    0.08506306260824203,
                    1.7004841566085815,
                    3.449594736099243,
                    -3.2387146949768066,
                    2.501460552215576,
                    -0.1351572573184967,
                    3.413302183151245,
                    -2.84421968460083,
                    2.3014180660247803,
                    0.6202580332756042,
                    -0.6208827495574951,
                    1.7335721254348755
                ],
                [
                    -0.25126928091049194,
                    2.445697069168091,
                    1.6680246591567993,
                    0.08087575435638428,
                    1.4439475536346436,
                    4.20170259475708,
                    -0.6655835509300232,
                    1.577775239944458,
                    2.960280179977417,
                    0.8995943665504456,
                    -0.46107178926467896,
                    4.473567485809326,
                    -0.19203995168209076,
                    0.28300410509109497,
                    2.899123191833496,
                    0.6428865790367126,
                    4.831617832183838,
                    2.2449021339416504,
                    -1.528714656829834,
                    -0.5409582257270813,
                    2.365166425704956,
                    0.8793238997459412,
                    0.49964776635169983,
                    -0.7180054783821106,
                    -0.32318785786628723,
                    5.520612716674805,
                    -0.06458203494548798,
                    2.3438494205474854,
                    2.387951612472534,
                    0.11730114370584488,
                    2.8818371295928955,
                    1.210101842880249,
                    2.1802210807800293,
                    -0.2633077800273895,
                    -2.424504041671753,
                    -0.8206772208213806,
                    2.463315010070801,
                    0.5813942551612854,
                    0.3871086537837982,
                    0.9076883792877197,
                    0.24066121876239777,
                    -2.443577289581299,
                    -0.2629164159297943,
                    2.124816656112671,
                    2.4298312664031982,
                    -2.2758266925811768,
                    0.153848335146904,
                    -1.6897430419921875,
                    -0.2584038972854614,
                    -0.3196781575679779
                ],
                [
                    0.9241659045219421,
                    -1.445581078529358,
                    -0.27803295850753784,
                    -0.042516425251960754,
                    -5.498964309692383,
                    3.6856327056884766,
                    -1.3282464742660522,
                    0.055920179933309555,
                    -2.9982378482818604,
                    2.545431613922119,
                    -2.1826934814453125,
                    -0.3146272599697113,
                    0.5840299129486084,
                    2.4207255840301514,
                    2.5122504234313965,
                    1.198874592781067,
                    -1.0823795795440674,
                    -2.7233142852783203,
                    1.9257410764694214,
                    6.857782363891602,
                    0.4961177110671997,
                    0.7603256702423096,
                    -0.7779054641723633,
                    2.2078049182891846,
                    1.9551849365234375,
                    2.3503637313842773,
                    -0.30680614709854126,
                    0.6040592193603516,
                    1.9990836381912231,
                    -1.2344225645065308,
                    -2.9282498359680176,
                    -1.8216187953948975,
                    2.1810522079467773,
                    0.3886208236217499,
                    5.585232257843018,
                    -2.111659049987793,
                    0.061926331371068954,
                    2.1824839115142822,
                    1.478437066078186,
                    2.8511643409729004,
                    3.285169839859009,
                    2.4468281269073486,
                    1.7873058319091797,
                    3.724797487258911,
                    -3.553088903427124,
                    -0.8528337478637695,
                    1.5163201093673706,
                    1.706530213356018,
                    0.8852255344390869,
                    -2.7122962474823
                ],
                [
                    0.23949751257896423,
                    3.018646478652954,
                    -2.7689802646636963,
                    2.6782360076904297,
                    -5.0805559158325195,
                    4.412204742431641,
                    0.1721416413784027,
                    2.3123528957366943,
                    0.8116421699523926,
                    2.1666290760040283,
                    2.5349836349487305,
                    4.454333305358887,
                    1.538631796836853,
                    0.07712358981370926,
                    3.19291090965271,
                    1.8816438913345337,
                    3.620948314666748,
                    4.873533725738525,
                    -0.4857000708580017,
                    6.643565654754639,
                    2.43493390083313,
                    2.466611862182617,
                    -1.5907176733016968,
                    -3.465125322341919,
                    3.2259464263916016,
                    4.837791919708252,
                    0.9556070566177368,
                    3.084851026535034,
                    3.5277059078216553,
                    -0.0962272360920906,
                    4.137889385223389,
                    0.9298575520515442,
                    -0.32432764768600464,
                    0.22549715638160706,
                    2.2090115547180176,
                    -0.6699471473693848,
                    4.62111234664917,
                    -0.17881332337856293,
                    4.596898078918457,
                    1.1792726516723633,
                    4.828320503234863,
                    1.2263933420181274,
                    1.3815357685089111,
                    4.150405406951904,
                    1.3427608013153076,
                    0.1397787183523178,
                    0.9982721209526062,
                    0.9089962244033813,
                    -2.2288858890533447,
                    6.5672760009765625
                ],
                [
                    1.5351510047912598,
                    2.0469367504119873,
                    1.2547531127929688,
                    -1.6247754096984863,
                    -7.886751651763916,
                    0.8833489418029785,
                    1.0934548377990723,
                    -0.6395912170410156,
                    0.5553212761878967,
                    -0.41223233938217163,
                    0.6653748154640198,
                    1.6556512117385864,
                    -1.2000151872634888,
                    -5.234897613525391,
                    0.199097141623497,
                    2.7710189819335938,
                    2.9989748001098633,
                    -5.731258869171143,
                    1.3501529693603516,
                    1.577602744102478,
                    -0.42614516615867615,
                    -0.9642148017883301,
                    -2.2827248573303223,
                    1.6839500665664673,
                    -0.05392468720674515,
                    1.4747812747955322,
                    0.29365411400794983,
                    -0.6989071369171143,
                    0.6792706251144409,
                    -1.250719666481018,
                    1.1149041652679443,
                    0.5548056364059448,
                    -2.734503984451294,
                    2.571638822555542,
                    1.2899969816207886,
                    -1.7045990228652954,
                    3.043262481689453,
                    1.198783040046692,
                    1.1064780950546265,
                    -0.4061449468135834,
                    0.24553857743740082,
                    3.860909938812256,
                    -1.4118653535842896,
                    -0.5114882588386536,
                    -0.21094530820846558,
                    1.7640035152435303,
                    1.8464632034301758,
                    -3.716376543045044,
                    1.255573034286499,
                    6.37436056137085
                ],
                [
                    0.4875425696372986,
                    -0.4528641700744629,
                    -0.058859147131443024,
                    0.17873312532901764,
                    0.37847113609313965,
                    0.7222620248794556,
                    0.2170940488576889,
                    1.4044318199157715,
                    -0.06403770297765732,
                    0.20023174583911896,
                    1.830573320388794,
                    -1.1018438339233398,
                    0.8443548679351807,
                    0.6653046607971191,
                    -0.5911552309989929,
                    -1.6556940078735352,
                    1.3635947704315186,
                    -0.26726314425468445,
                    0.14415253698825836,
                    1.982045292854309,
                    1.2944467067718506,
                    0.6454416513442993,
                    -0.39305299520492554,
                    -0.5461521744728088,
                    0.8250575065612793,
                    0.061892446130514145,
                    1.0215492248535156,
                    0.6515172719955444,
                    -0.21291343867778778,
                    1.0403327941894531,
                    -0.8278647065162659,
                    -0.4664856493473053,
                    0.2163102775812149,
                    1.6729990243911743,
                    0.14221946895122528,
                    -0.29038307070732117,
                    0.4525955617427826,
                    0.4193137586116791,
                    0.24119636416435242,
                    0.43274420499801636,
                    1.5990554094314575,
                    -1.4906673431396484,
                    -0.8442063927650452,
                    0.9840055704116821,
                    0.09111358225345612,
                    0.09951374679803848,
                    0.3480825126171112,
                    1.9065687656402588,
                    0.189091756939888,
                    -0.28274890780448914
                ],
                [
                    -0.13709589838981628,
                    0.2283521294593811,
                    0.3159206509590149,
                    -0.41713547706604004,
                    1.3184256553649902,
                    0.14620690047740936,
                    1.194003701210022,
                    -0.389166921377182,
                    -0.5949108004570007,
                    -1.94700026512146,
                    0.8682227730751038,
                    0.5693210363388062,
                    -0.17444345355033875,
                    -0.32389435172080994,
                    0.8380644917488098,
                    -0.013445037417113781,
                    -0.04213571548461914,
                    0.3163514733314514,
                    -1.111227035522461,
                    1.2769092321395874,
                    0.41255366802215576,
                    0.11892807483673096,
                    -0.3618446886539459,
                    -0.814497709274292,
                    0.7700368762016296,
                    0.22426755726337433,
                    0.774664580821991,
                    0.43302789330482483,
                    -1.341437816619873,
                    0.40255704522132874,
                    -0.46083584427833557,
                    -0.011980937793850899,
                    -0.883804440498352,
                    -0.2781066596508026,
                    0.3342534601688385,
                    -0.17849470674991608,
                    -1.2356270551681519,
                    0.44632628560066223,
                    0.9333714246749878,
                    -1.7134711742401123,
                    0.5375048518180847,
                    -0.2724781036376953,
                    0.34417200088500977,
                    0.1303817331790924,
                    -0.0091426195576787,
                    0.8982628583908081,
                    -1.032438039779663,
                    -0.0543055385351181,
                    0.21212457120418549,
                    -0.1434541642665863
                ],
                [
                    -0.5257381200790405,
                    -0.48187464475631714,
                    1.561079740524292,
                    -0.20071326196193695,
                    0.5991603136062622,
                    0.4786497950553894,
                    -0.3440161943435669,
                    -0.3479258418083191,
                    1.1145039796829224,
                    -0.6352249979972839,
                    -1.9223428964614868,
                    0.7273312211036682,
                    -0.18066851794719696,
                    0.09551964700222015,
                    0.6266950964927673,
                    1.5529452562332153,
                    1.2466838359832764,
                    0.9809446334838867,
                    0.947100043296814,
                    0.12457365542650223,
                    -0.1350869983434677,
                    -0.8716309070587158,
                    -1.2623565196990967,
                    0.9172707796096802,
                    0.39561930298805237,
                    1.2078450918197632,
                    -0.5662292242050171,
                    -0.0278062392026186,
                    -1.211562156677246,
                    1.436078667640686,
                    1.584389328956604,
                    -0.6388651132583618,
                    -1.187967300415039,
                    -0.2997543513774872,
                    0.09568364173173904,
                    1.1182681322097778,
                    1.1852715015411377,
                    0.8830944895744324,
                    -0.6371380686759949,
                    -0.2221953421831131,
                    0.3838651478290558,
                    1.0120971202850342,
                    -0.4113108217716217,
                    0.3149181306362152,
                    1.5939794778823853,
                    0.0032411108259111643,
                    -1.012272596359253,
                    -0.11627407371997833,
                    -0.4744429588317871,
                    1.0071070194244385
                ],
                [
                    -1.7782319784164429,
                    -0.6774938702583313,
                    1.669184923171997,
                    0.6021566390991211,
                    1.3160418272018433,
                    -0.006286397576332092,
                    -1.2625041007995605,
                    -0.006998843513429165,
                    -0.3276866376399994,
                    0.30514785647392273,
                    -0.6726818084716797,
                    0.2984369695186615,
                    0.5219380855560303,
                    0.03313354402780533,
                    -0.21683144569396973,
                    0.6179816722869873,
                    0.5887382626533508,
                    0.5430642366409302,
                    2.5550334453582764,
                    1.4410300254821777,
                    0.33124005794525146,
                    -0.18026219308376312,
                    0.5097002387046814,
                    -0.5708438158035278,
                    -0.35459786653518677,
                    -1.1781874895095825,
                    0.11843075603246689,
                    1.2678160667419434,
                    0.8925906419754028,
                    0.6196751594543457,
                    -0.08282718807458878,
                    -0.33687910437583923,
                    0.31785157322883606,
                    -0.23530280590057373,
                    0.44857335090637207,
                    0.3265823423862457,
                    -2.404555082321167,
                    1.1805304288864136,
                    -0.11467278003692627,
                    1.255178689956665,
                    0.08562689274549484,
                    -0.9201160073280334,
                    -0.7627683877944946,
                    0.17150753736495972,
                    -0.3250308632850647,
                    -0.5667356252670288,
                    0.16558313369750977,
                    0.8472766280174255,
                    1.8267093896865845,
                    0.0568152479827404
                ],
                [
                    0.10307321697473526,
                    0.35789552330970764,
                    0.7471176385879517,
                    0.6615954041481018,
                    0.6338200569152832,
                    0.48047852516174316,
                    0.7780717611312866,
                    0.1598859578371048,
                    0.26451367139816284,
                    0.46223169565200806,
                    -0.21407219767570496,
                    -0.1472097486257553,
                    -0.7748028635978699,
                    0.44161325693130493,
                    -1.4773340225219727,
                    -0.046200502663850784,
                    0.08844774961471558,
                    -0.5144436955451965,
                    0.7817865610122681,
                    0.9336313009262085,
                    0.3962663412094116,
                    -0.15186020731925964,
                    -0.0551031120121479,
                    -0.08823714405298233,
                    0.11565929651260376,
                    -0.43173083662986755,
                    0.31533968448638916,
                    -0.6056339144706726,
                    -0.024429503828287125,
                    0.38580745458602905,
                    -0.3415472209453583,
                    0.4570174813270569,
                    -0.28677594661712646,
                    0.6577353477478027,
                    0.25883644819259644,
                    0.9557972550392151,
                    -0.13177061080932617,
                    0.9550099968910217,
                    -0.5582724213600159,
                    0.046028412878513336,
                    0.2500583827495575,
                    -1.2456532716751099,
                    -1.0738389492034912,
                    0.8395140171051025,
                    0.20471546053886414,
                    0.6254729628562927,
                    -0.6125889420509338,
                    -0.23084737360477448,
                    0.05372440442442894,
                    -1.3143256902694702
                ],
                [
                    0.1368773877620697,
                    -0.048491429537534714,
                    0.9813768863677979,
                    0.026933228597044945,
                    -2.3194069862365723,
                    -0.8821775317192078,
                    -0.2084171026945114,
                    -1.552282691001892,
                    0.4127484858036041,
                    0.20113086700439453,
                    0.8605018258094788,
                    -0.16752038896083832,
                    0.8155664205551147,
                    0.6957120895385742,
                    -0.7045236825942993,
                    0.9570642113685608,
                    0.9984915256500244,
                    0.062464967370033264,
                    0.49768027663230896,
                    -0.41390910744667053,
                    -0.6706264019012451,
                    0.20844393968582153,
                    -0.47492897510528564,
                    -0.23253120481967926,
                    0.17999133467674255,
                    -0.1837787926197052,
                    -0.7028641104698181,
                    -0.36409708857536316,
                    0.20079420506954193,
                    0.2388380616903305,
                    0.3065589368343353,
                    0.20731259882450104,
                    0.8998057842254639,
                    -0.9137884378433228,
                    -0.6954827308654785,
                    0.9953099489212036,
                    -1.05545973777771,
                    0.7445645928382874,
                    0.6337718367576599,
                    0.6342876553535461,
                    -0.3677756190299988,
                    0.3655582070350647,
                    -0.22907160222530365,
                    0.012806749902665615,
                    0.44577839970588684,
                    -0.916703462600708,
                    -0.4168570637702942,
                    1.0035109519958496,
                    0.4960540235042572,
                    0.3631896376609802
                ],
                [
                    0.6115683317184448,
                    0.06644749641418457,
                    -0.37018632888793945,
                    0.6101438999176025,
                    1.011547565460205,
                    -0.16533221304416656,
                    1.2798283100128174,
                    0.02397911064326763,
                    0.27510198950767517,
                    0.4213965833187103,
                    0.9427949786186218,
                    0.32612571120262146,
                    0.7519846558570862,
                    -0.006900693755596876,
                    0.4491753578186035,
                    0.7127498984336853,
                    0.741207480430603,
                    0.3147681653499603,
                    -3.0843067169189453,
                    0.6240404844284058,
                    -0.07894273102283478,
                    0.12499544769525528,
                    1.3012981414794922,
                    0.026990287005901337,
                    1.0192564725875854,
                    0.7888665795326233,
                    1.6388843059539795,
                    -0.5844454169273376,
                    0.9219687581062317,
                    -0.0019331843359395862,
                    0.968075692653656,
                    0.33004236221313477,
                    -0.5667291283607483,
                    -2.3238015174865723,
                    0.31188398599624634,
                    0.4221632778644562,
                    1.5666630268096924,
                    0.24242587387561798,
                    0.3928564190864563,
                    0.8274134397506714,
                    0.6020155549049377,
                    0.776260256767273,
                    0.9950946569442749,
                    -1.937317132949829,
                    0.42109671235084534,
                    -1.2520201206207275,
                    -0.26753532886505127,
                    -0.22501057386398315,
                    -0.15349778532981873,
                    1.6546683311462402
                ],
                [
                    0.07829856872558594,
                    0.2826252281665802,
                    -0.6943050026893616,
                    0.21141549944877625,
                    -1.7489739656448364,
                    0.20857968926429749,
                    -0.5610054731369019,
                    0.3960365951061249,
                    -0.43327757716178894,
                    -0.06509754061698914,
                    -0.4805769622325897,
                    -0.32942283153533936,
                    -0.24205540120601654,
                    -0.05538037046790123,
                    0.17559795081615448,
                    -0.10273048281669617,
                    -0.722609281539917,
                    -0.13819417357444763,
                    -1.11891508102417,
                    -0.09654881060123444,
                    0.14286643266677856,
                    0.45271289348602295,
                    0.3013385236263275,
                    0.29917940497398376,
                    -0.40702375769615173,
                    0.38349470496177673,
                    -0.37754279375076294,
                    0.2617174983024597,
                    -0.17227573692798615,
                    0.24046145379543304,
                    -0.27203941345214844,
                    -1.1544479131698608,
                    -0.20560964941978455,
                    0.5363726615905762,
                    0.5309568643569946,
                    0.31794676184654236,
                    0.025215528905391693,
                    -0.7475475072860718,
                    -0.32884135842323303,
                    -0.11604845523834229,
                    -0.23282910883426666,
                    0.02507716231048107,
                    0.11617593467235565,
                    -1.2562193870544434,
                    -0.5036755800247192,
                    0.24897263944149017,
                    0.2209445685148239,
                    -0.19483886659145355,
                    -0.20127886533737183,
                    0.3283745050430298
                ],
                [
                    5.101363182067871,
                    2.5953900814056396,
                    1.8917559385299683,
                    4.378692150115967,
                    2.5733301639556885,
                    3.705411911010742,
                    3.1278748512268066,
                    -5.517360210418701,
                    1.1406522989273071,
                    0.9826046228408813,
                    1.1238422393798828,
                    3.3777241706848145,
                    -0.3766525387763977,
                    2.06009840965271,
                    3.791919708251953,
                    -1.7992743253707886,
                    6.426367282867432,
                    3.266556739807129,
                    -8.790374755859375,
                    3.321021556854248,
                    0.18887901306152344,
                    0.6298553943634033,
                    1.2042967081069946,
                    -10.089873313903809,
                    0.9116529226303101,
                    3.100280523300171,
                    1.773563027381897,
                    3.4173495769500732,
                    0.7593256235122681,
                    3.286263942718506,
                    -9.642380714416504,
                    3.8558499813079834,
                    6.493202209472656,
                    -5.172610759735107,
                    6.1959428787231445,
                    3.024395704269409,
                    2.502061367034912,
                    0.30681267380714417,
                    -3.0507760047912598,
                    0.7036832571029663,
                    2.5647056102752686,
                    -1.5249906778335571,
                    -1.17939293384552,
                    4.131237983703613,
                    5.408675670623779,
                    5.100855827331543,
                    -5.803608417510986,
                    1.3968801498413086,
                    -0.8609690070152283,
                    9.307487487792969
                ],
                [
                    0.09704305231571198,
                    0.8166242837905884,
                    0.08250980079174042,
                    2.4503095149993896,
                    5.671102523803711,
                    3.6632943153381348,
                    2.023347854614258,
                    2.9724020957946777,
                    0.5801771879196167,
                    1.3775960206985474,
                    0.9776202440261841,
                    2.517653226852417,
                    1.5075510740280151,
                    0.8335733413696289,
                    -0.3411468267440796,
                    0.2653599977493286,
                    8.354837417602539,
                    1.7448031902313232,
                    1.492814064025879,
                    3.6264796257019043,
                    0.4366629719734192,
                    1.3101670742034912,
                    -2.046180248260498,
                    -3.3497087955474854,
                    1.0620096921920776,
                    2.7085678577423096,
                    0.9476601481437683,
                    1.992808222770691,
                    -9.030667304992676,
                    2.1951825618743896,
                    -0.25017017126083374,
                    2.3394620418548584,
                    3.913679599761963,
                    -3.1243627071380615,
                    -0.1737065613269806,
                    1.1359809637069702,
                    2.2824034690856934,
                    -1.3161300420761108,
                    1.0006130933761597,
                    1.2931822538375854,
                    1.0264225006103516,
                    -0.21298809349536896,
                    0.7640787363052368,
                    3.2871973514556885,
                    2.388218879699707,
                    1.0542082786560059,
                    1.756022572517395,
                    -0.555275022983551,
                    -0.5578328967094421,
                    7.638238430023193
                ],
                [
                    3.78791880607605,
                    2.0301177501678467,
                    -4.090926647186279,
                    4.980385780334473,
                    -6.026473522186279,
                    2.8430044651031494,
                    3.3195669651031494,
                    -3.604247570037842,
                    2.237215757369995,
                    1.736641764640808,
                    4.329878330230713,
                    0.08795573562383652,
                    8.841965675354004,
                    1.8839921951293945,
                    5.073997497558594,
                    -0.11971317231655121,
                    1.31130850315094,
                    3.7928307056427,
                    -9.871513366699219,
                    8.095237731933594,
                    5.8381757736206055,
                    4.02931547164917,
                    -0.4030779004096985,
                    6.9731855392456055,
                    3.4429931640625,
                    1.8174448013305664,
                    1.5039554834365845,
                    5.0635809898376465,
                    0.16820846498012543,
                    6.450496196746826,
                    2.662966728210449,
                    3.5247597694396973,
                    4.668936729431152,
                    1.720125436782837,
                    4.7002973556518555,
                    5.739355564117432,
                    2.8142740726470947,
                    -14.05955696105957,
                    2.977962017059326,
                    5.05617618560791,
                    8.602304458618164,
                    -11.771172523498535,
                    2.4792592525482178,
                    5.129525184631348,
                    4.624647617340088,
                    2.663884162902832,
                    0.3512733578681946,
                    3.4773852825164795,
                    -5.974696636199951,
                    6.688019752502441
                ],
                [
                    3.61749529838562,
                    3.5125210285186768,
                    -1.5336872339248657,
                    1.8399275541305542,
                    -15.709861755371094,
                    7.206819534301758,
                    1.6181247234344482,
                    -0.9701210260391235,
                    1.8024088144302368,
                    4.180688858032227,
                    -2.1821227073669434,
                    3.648479700088501,
                    1.094834327697754,
                    2.5592894554138184,
                    3.1932320594787598,
                    2.813873529434204,
                    4.113198757171631,
                    4.850073337554932,
                    -0.8394299745559692,
                    8.219980239868164,
                    -2.9631264209747314,
                    1.3404626846313477,
                    -4.352260589599609,
                    1.12295401096344,
                    1.1589229106903076,
                    5.923503398895264,
                    1.461097240447998,
                    2.76157808303833,
                    2.759392023086548,
                    1.381916880607605,
                    2.7553372383117676,
                    0.6176121830940247,
                    4.923489093780518,
                    1.1669416427612305,
                    2.6032485961914062,
                    0.5155521035194397,
                    4.739872455596924,
                    -0.9310365319252014,
                    1.4408655166625977,
                    2.7587194442749023,
                    6.995426654815674,
                    7.580196857452393,
                    0.03677617758512497,
                    4.241825103759766,
                    2.7920970916748047,
                    3.6558079719543457,
                    2.38388991355896,
                    -3.4058570861816406,
                    -5.958994388580322,
                    5.816232681274414
                ],
                [
                    0.4823963940143585,
                    0.8868857026100159,
                    -0.8373665809631348,
                    -5.086574077606201,
                    2.0366194248199463,
                    1.39784574508667,
                    -0.09104032814502716,
                    0.8845354914665222,
                    0.674682080745697,
                    0.6368389129638672,
                    2.462125539779663,
                    -1.112740397453308,
                    -3.28937029838562,
                    1.8791627883911133,
                    2.2042055130004883,
                    0.843742847442627,
                    0.13885854184627533,
                    -0.7582495212554932,
                    0.2644648253917694,
                    -0.21641887724399567,
                    -3.089186668395996,
                    -7.082607746124268,
                    0.3121529817581177,
                    -0.15256449580192566,
                    2.2060153484344482,
                    -4.265044212341309,
                    -4.261302947998047,
                    -13.61999797821045,
                    0.05662289634346962,
                    -13.001036643981934,
                    0.2034282088279724,
                    -0.3062310814857483,
                    0.9049311876296997,
                    -0.851919949054718,
                    1.6737864017486572,
                    -8.360532760620117,
                    -0.19615313410758972,
                    -1.1159380674362183,
                    0.451975554227829,
                    1.2189921140670776,
                    -1.5460784435272217,
                    -10.495834350585938,
                    -1.0653587579727173,
                    1.2570738792419434,
                    -0.09205155074596405,
                    1.484782099723816,
                    -0.7213982343673706,
                    1.310568928718567,
                    -1.9226480722427368,
                    -1.631101369857788
                ],
                [
                    1.9775950908660889,
                    1.767077922821045,
                    1.5127394199371338,
                    3.71779203414917,
                    -5.003481864929199,
                    -8.124473571777344,
                    0.32218778133392334,
                    2.596917152404785,
                    0.3950822353363037,
                    3.11627197265625,
                    1.4553630352020264,
                    4.56794548034668,
                    2.9436168670654297,
                    0.7493187785148621,
                    -0.8622686266899109,
                    0.9303790926933289,
                    0.748422384262085,
                    1.8984062671661377,
                    -2.6433236598968506,
                    5.117231845855713,
                    1.2706774473190308,
                    0.7186958193778992,
                    -2.948636531829834,
                    0.9581888318061829,
                    -0.43897905945777893,
                    0.37318864464759827,
                    0.8780570030212402,
                    2.557199239730835,
                    0.28185969591140747,
                    0.5021703243255615,
                    2.2043352127075195,
                    2.03232741355896,
                    2.4666264057159424,
                    -3.730851411819458,
                    2.817760467529297,
                    -1.4692906141281128,
                    4.398519992828369,
                    -4.690003395080566,
                    -11.185035705566406,
                    -0.13020576536655426,
                    2.2549526691436768,
                    1.004629135131836,
                    -2.266974449157715,
                    0.3348301649093628,
                    0.28059548139572144,
                    1.8914059400558472,
                    -3.3559083938598633,
                    0.5767890810966492,
                    -0.969778835773468,
                    5.7501959800720215
                ],
                [
                    0.7114210724830627,
                    -0.8997743725776672,
                    0.5883485674858093,
                    -0.11645077913999557,
                    -0.7928846478462219,
                    -8.285848617553711,
                    0.5238932371139526,
                    -3.739668607711792,
                    0.06920753419399261,
                    -0.5304139256477356,
                    -0.14204205572605133,
                    0.205610990524292,
                    0.7621028423309326,
                    -0.7302544116973877,
                    1.384206771850586,
                    -0.6138529777526855,
                    1.6880390644073486,
                    0.7205206155776978,
                    -6.721426010131836,
                    0.02298620343208313,
                    1.4938303232192993,
                    1.095422625541687,
                    0.1300700604915619,
                    -1.2305511236190796,
                    -0.17827275395393372,
                    2.1854135990142822,
                    2.3601646423339844,
                    0.8997167944908142,
                    1.449913740158081,
                    0.3417600989341736,
                    0.3175339698791504,
                    1.452603816986084,
                    -0.4450753927230835,
                    -7.7882561683654785,
                    -0.6015217900276184,
                    -0.8498603105545044,
                    0.013919050805270672,
                    -1.6026848554611206,
                    1.285479187965393,
                    -1.9894353151321411,
                    1.202508807182312,
                    -0.6195065975189209,
                    -0.41441816091537476,
                    0.21962478756904602,
                    0.06152195483446121,
                    0.39461803436279297,
                    0.6332423090934753,
                    -0.03863276541233063,
                    -3.4182779788970947,
                    1.9251704216003418
                ],
                [
                    0.01696215383708477,
                    0.9099162817001343,
                    1.208877444267273,
                    0.4529804587364197,
                    -0.4434615969657898,
                    -2.189920663833618,
                    -0.9606337547302246,
                    1.6423120498657227,
                    -0.22451190650463104,
                    0.592549741268158,
                    1.9085419178009033,
                    1.5087695121765137,
                    -1.3108519315719604,
                    0.5018767714500427,
                    0.8053610324859619,
                    -0.19926999509334564,
                    0.10813417285680771,
                    0.11833228170871735,
                    0.17643408477306366,
                    1.3888052701950073,
                    0.6512935757637024,
                    0.6880673170089722,
                    -1.2427175045013428,
                    0.04359943047165871,
                    1.4823652505874634,
                    1.6489447355270386,
                    -0.7596999406814575,
                    0.8160994052886963,
                    -0.7160289287567139,
                    -0.6839220523834229,
                    0.277509480714798,
                    0.958095908164978,
                    0.7734634280204773,
                    1.4005672931671143,
                    0.03336380049586296,
                    0.5914484858512878,
                    1.1891642808914185,
                    1.9876669645309448,
                    1.820831537246704,
                    1.4072227478027344,
                    1.5301953554153442,
                    -4.531059265136719,
                    0.3390614986419678,
                    -0.8210470080375671,
                    -0.9159204959869385,
                    0.7027773857116699,
                    1.850441575050354,
                    0.9919923543930054,
                    1.4262619018554688,
                    -0.017011525109410286
                ],
                [
                    0.9461805820465088,
                    0.3914555311203003,
                    0.3008529543876648,
                    2.7063465118408203,
                    0.47319719195365906,
                    1.2576335668563843,
                    1.0387754440307617,
                    -3.6146793365478516,
                    0.1609821319580078,
                    0.7712868452072144,
                    -0.2902546226978302,
                    0.9835822582244873,
                    2.7284719944000244,
                    -1.3612897396087646,
                    0.29711654782295227,
                    1.025814175605774,
                    0.3686025142669678,
                    0.25063252449035645,
                    -0.7373797297477722,
                    0.9513216614723206,
                    1.609549641609192,
                    1.4836945533752441,
                    1.3658281564712524,
                    1.181498646736145,
                    1.0587708950042725,
                    2.065854549407959,
                    -0.3524243235588074,
                    2.455641031265259,
                    -0.3180139660835266,
                    1.1095081567764282,
                    1.7839807271957397,
                    1.2608944177627563,
                    -0.2925358712673187,
                    0.2337673455476761,
                    -0.6612243056297302,
                    2.1209566593170166,
                    1.1444135904312134,
                    -0.4136302173137665,
                    -10.344825744628906,
                    -0.8247910141944885,
                    0.869888961315155,
                    0.2948147654533386,
                    0.8259037137031555,
                    0.5696712732315063,
                    0.5397813320159912,
                    -0.44082966446876526,
                    -0.5738726854324341,
                    -0.45153456926345825,
                    -0.35605984926223755,
                    1.4569830894470215
                ],
                [
                    -1.0713120698928833,
                    -1.2766131162643433,
                    0.3062545359134674,
                    -2.2165791988372803,
                    0.8515081405639648,
                    -1.1127283573150635,
                    -0.7621150612831116,
                    1.134573221206665,
                    -0.8485972881317139,
                    -0.4299754500389099,
                    -1.4383596181869507,
                    -2.4245986938476562,
                    -3.0444278717041016,
                    -0.42652207612991333,
                    0.9218215346336365,
                    -0.8493553400039673,
                    -0.13581617176532745,
                    0.4232557713985443,
                    -0.8322342038154602,
                    -1.2092769145965576,
                    -0.6229722499847412,
                    0.2942969799041748,
                    0.3614130914211273,
                    -0.06881505250930786,
                    -1.4139574766159058,
                    -1.049742579460144,
                    -0.0012563189957290888,
                    -1.8668720722198486,
                    0.051736947149038315,
                    -0.3638201355934143,
                    -0.24582648277282715,
                    -0.7370777130126953,
                    -0.04803301393985748,
                    0.4311622083187103,
                    0.5946003794670105,
                    -1.704827070236206,
                    -0.3355325162410736,
                    -1.2585450410842896,
                    -1.5160378217697144,
                    -1.0369256734848022,
                    -0.8614901304244995,
                    -0.07244104146957397,
                    0.9873875379562378,
                    0.23548442125320435,
                    0.4051399827003479,
                    0.23673418164253235,
                    0.03482895344495773,
                    -0.774426281452179,
                    0.49269571900367737,
                    -3.688491106033325
                ],
                [
                    0.00610962463542819,
                    0.38890448212623596,
                    1.206904411315918,
                    0.052228204905986786,
                    0.7971774339675903,
                    0.31407472491264343,
                    -1.549644112586975,
                    -0.26315832138061523,
                    0.9646477699279785,
                    0.47846952080726624,
                    -0.3909492492675781,
                    2.1270592212677,
                    0.4003911316394806,
                    0.17162545025348663,
                    -1.504715919494629,
                    -0.22750362753868103,
                    0.3409283459186554,
                    0.8850758671760559,
                    0.31250491738319397,
                    1.4133068323135376,
                    0.5387516021728516,
                    -0.8906787633895874,
                    -0.34027963876724243,
                    0.3057040274143219,
                    -0.8125976324081421,
                    0.31516748666763306,
                    0.7353136539459229,
                    0.7279561161994934,
                    0.134962260723114,
                    -0.9662987589836121,
                    -1.036086916923523,
                    0.07970993965864182,
                    0.7736700773239136,
                    0.266702800989151,
                    0.782729983329773,
                    -0.17618632316589355,
                    1.505163550376892,
                    -1.1941113471984863,
                    0.7339282631874084,
                    1.095236897468567,
                    1.3690916299819946,
                    0.04875623434782028,
                    0.46668821573257446,
                    -1.0822349786758423,
                    0.4641796350479126,
                    0.0025776843540370464,
                    -1.0961904525756836,
                    -0.1644521951675415,
                    1.0260751247406006,
                    1.6293010711669922
                ],
                [
                    -0.15772731602191925,
                    0.6463655829429626,
                    -3.3685219287872314,
                    -0.38789743185043335,
                    -1.2227723598480225,
                    -3.028247833251953,
                    0.38201090693473816,
                    -1.7182883024215698,
                    -0.12888815999031067,
                    0.04415278881788254,
                    -0.2540045976638794,
                    0.3774794936180115,
                    -0.13750073313713074,
                    0.17806775867938995,
                    0.4947538673877716,
                    -1.389098048210144,
                    0.22334343194961548,
                    -0.9675936698913574,
                    -0.15801681578159332,
                    0.7364100217819214,
                    0.08390051126480103,
                    -0.663753092288971,
                    0.05332738906145096,
                    -0.48795509338378906,
                    -0.08844809234142303,
                    -0.1925116628408432,
                    -1.2060085535049438,
                    -0.038290835916996,
                    1.3235397338867188,
                    -0.6010499000549316,
                    0.4141632616519928,
                    0.3929963707923889,
                    0.8260205984115601,
                    -0.4189555048942566,
                    -0.615714430809021,
                    -1.6491748094558716,
                    0.08549437671899796,
                    -0.11863746494054794,
                    -1.9673168659210205,
                    0.5906264781951904,
                    0.3755311965942383,
                    1.4023385047912598,
                    -0.3472185432910919,
                    -0.311576247215271,
                    0.1545131802558899,
                    0.5316617488861084,
                    -0.14861726760864258,
                    0.5744187831878662,
                    -0.4228709042072296,
                    0.460326611995697
                ],
                [
                    -1.746248722076416,
                    0.06106613576412201,
                    0.8921781778335571,
                    2.015733480453491,
                    -0.6126735806465149,
                    -0.521043062210083,
                    0.629730761051178,
                    0.9214769005775452,
                    -1.1382224559783936,
                    -1.9568736553192139,
                    0.7856783270835876,
                    0.5259657502174377,
                    1.002738356590271,
                    1.0500789880752563,
                    -0.30567747354507446,
                    0.24855247139930725,
                    2.286827325820923,
                    1.5166157484054565,
                    -4.5849690437316895,
                    -0.7440640926361084,
                    -1.6886526346206665,
                    -1.076837420463562,
                    1.5191375017166138,
                    0.9067162871360779,
                    0.9598777294158936,
                    0.49031585454940796,
                    -0.7652959823608398,
                    2.0802054405212402,
                    0.750546932220459,
                    1.0132925510406494,
                    1.061804175376892,
                    -0.13658061623573303,
                    2.5540859699249268,
                    2.014108419418335,
                    -1.6661181449890137,
                    0.8586058020591736,
                    -1.6087466478347778,
                    -3.8831307888031006,
                    -1.1221085786819458,
                    0.9161510467529297,
                    -0.857968270778656,
                    -1.1924995183944702,
                    0.07435499131679535,
                    0.3956063389778137,
                    0.10040967911481857,
                    -1.509046196937561,
                    0.7709484100341797,
                    2.7964096069335938,
                    -2.4758548736572266,
                    1.3070054054260254
                ],
                [
                    -0.12222364544868469,
                    0.49998506903648376,
                    -1.57523775100708,
                    0.5939658284187317,
                    0.7845603227615356,
                    -0.8353623151779175,
                    -0.8640641570091248,
                    2.0228323936462402,
                    0.5275179743766785,
                    1.6284757852554321,
                    -2.0365583896636963,
                    0.6227485537528992,
                    2.387714385986328,
                    -0.12445094436407089,
                    0.06254108995199203,
                    2.243196487426758,
                    1.6196132898330688,
                    -0.9176520109176636,
                    1.260169506072998,
                    1.6113617420196533,
                    2.582019805908203,
                    2.250568389892578,
                    -0.13072513043880463,
                    0.7485491037368774,
                    -2.411632537841797,
                    1.1064950227737427,
                    1.640069842338562,
                    2.469259738922119,
                    0.20702451467514038,
                    2.111506700515747,
                    1.3278168439865112,
                    -0.7938799858093262,
                    0.43782374262809753,
                    -2.4746646881103516,
                    0.5061084032058716,
                    0.23938970267772675,
                    0.7152619957923889,
                    1.7796545028686523,
                    1.7534040212631226,
                    0.003095346037298441,
                    2.647629976272583,
                    -0.9986146688461304,
                    1.9603053331375122,
                    -0.7572727799415588,
                    0.005078359041363001,
                    0.8462949395179749,
                    -0.20900790393352509,
                    0.010608041658997536,
                    1.7125126123428345,
                    -0.19600094854831696
                ],
                [
                    2.239532947540283,
                    -0.5194517970085144,
                    -2.006136655807495,
                    0.6452531218528748,
                    -0.4960399866104126,
                    1.9884519577026367,
                    0.7293319702148438,
                    0.6021966934204102,
                    0.27344104647636414,
                    -0.7405863404273987,
                    0.7977166175842285,
                    -1.529296875,
                    -1.7661516666412354,
                    -0.2640417218208313,
                    1.0295569896697998,
                    -1.3669087886810303,
                    1.642168641090393,
                    0.21897099912166595,
                    0.9349188804626465,
                    -0.18466301262378693,
                    0.2935761511325836,
                    0.871145486831665,
                    -0.2662124037742615,
                    -0.6615814566612244,
                    1.0044844150543213,
                    2.2341325283050537,
                    0.13672848045825958,
                    0.048541851341724396,
                    0.1613267958164215,
                    -2.6021697521209717,
                    0.2942843735218048,
                    0.16552354395389557,
                    -0.6341565251350403,
                    1.9043304920196533,
                    0.5276174545288086,
                    -1.7995082139968872,
                    1.2964075803756714,
                    0.32283368706703186,
                    2.5469560623168945,
                    0.07771656662225723,
                    -0.16667798161506653,
                    0.5113638043403625,
                    -0.5820661187171936,
                    1.1619236469268799,
                    0.37942561507225037,
                    1.39429771900177,
                    -0.3670673072338104,
                    -0.3063180148601532,
                    1.1607497930526733,
                    -0.4699520766735077
                ],
                [
                    2.815227746963501,
                    0.46558451652526855,
                    4.135617256164551,
                    4.237090110778809,
                    0.06498014181852341,
                    -2.6940784454345703,
                    2.926997661590576,
                    3.305121421813965,
                    1.2675483226776123,
                    -4.720056056976318,
                    0.5848141312599182,
                    1.717175841331482,
                    -1.0078785419464111,
                    0.037846632301807404,
                    2.539461851119995,
