{
    "params": {
        "decoder": {
            "fc": {
                "bias": [
                    0.12890955805778503,
                    0.07988517731428146,
                    -0.09873029589653015,
                    -0.07752557098865509
                ],
                "kernel": [
                    [
                        0.010427146218717098,
                        0.08244841545820236,
                        0.15983609855175018,
                        0.11919654905796051
                    ],
                    [
                        -0.09566802531480789,
                        -0.2696993947029114,
                        -0.01747283712029457,
                        0.17721112072467804
                    ],
                    [
                        0.20270906388759613,
                        0.08412047475576401,
                        0.08716950565576553,
                        0.22914224863052368
                    ],
                    [
                        -0.015256943181157112,
                        -0.12259529531002045,
                        -0.03987428545951843,
                        0.037712544202804565
                    ],
                    [
                        -0.1518360823392868,
                        -0.08687256276607513,
                        -0.032558415085077286,
                        -0.0984126552939415
                    ],
                    [
                        -0.16447968780994415,
                        -0.15698181092739105,
                        -0.14106868207454681,
                        -0.12443381547927856
                    ],
                    [
                        0.01643167994916439,
                        0.04074873775243759,
                        0.07008565962314606,
                        0.027343736961483955
                    ],
                    [
                        -0.023538341745734215,
                        0.1089363545179367,
                        0.15362347662448883,
                        0.034729283303022385
                    ],
                    [
                        -0.059290431439876556,
                        -0.053612351417541504,
                        -0.07171722501516342,
                        -0.09888042509555817
                    ],
                    [
                        -0.10253109782934189,
                        -0.07104358822107315,
                        -0.005169971846044064,
                        -0.0378410629928112
                    ],
                    [
                        -0.2220933735370636,
                        -0.13656893372535706,
                        -0.14306020736694336,
                        -0.23281441628932953
                    ],
                    [
                        0.15143710374832153,
                        0.16582758724689484,
                        0.02591034211218357,
                        0.03745873272418976
                    ],
                    [
                        0.12819026410579681,
                        -0.0018935109255835414,
                        -0.08578468859195709,
                        0.02057882398366928
                    ],
                    [
                        -0.02171323262155056,
                        0.22909647226333618,
                        0.307547003030777,
                        0.07965665310621262
                    ],
                    [
                        -0.06659431010484695,
                        -0.11611106246709824,
                        -0.07155686616897583,
                        -0.03749370202422142
                    ],
                    [
                        0.016134224832057953,
                        0.15546594560146332,
                        -0.031648628413677216,
                        -0.1558697521686554
                    ],
                    [
                        0.2606210708618164,
                        0.16832897067070007,
                        0.0027056997641921043,
                        0.08612529933452606
                    ],
                    [
                        0.039557818323373795,
                        0.020316967740654945,
                        0.028798384591937065,
                        0.019655702635645866
                    ],
                    [
                        -0.07132671028375626,
                        -0.03063316084444523,
                        0.12198092043399811,
                        0.10123004019260406
                    ],
                    [
                        -0.14897558093070984,
                        -0.06590911000967026,
                        -0.14205551147460938,
                        -0.22858548164367676
                    ],
                    [
                        -0.018799275159835815,
                        -0.028983131051063538,
                        -0.08254583925008774,
                        -0.06394083052873611
                    ],
                    [
                        -0.026969699189066887,
                        -0.0578065887093544,
                        -0.023324275389313698,
                        0.020744390785694122
                    ],
                    [
                        -0.11092301458120346,
                        0.00873628444969654,
                        -0.014120063744485378,
                        -0.15035444498062134
                    ],
                    [
                        0.005101438146084547,
                        -0.0009172423160634935,
                        -0.002581431530416012,
                        0.001936789252795279
                    ],
                    [
                        -0.01793908141553402,
                        0.0607624314725399,
                        0.06171511858701706,
                        -0.014585894532501698
                    ],
                    [
                        0.08770193159580231,
                        0.024966783821582794,
                        -0.1391739845275879,
                        -0.08661463856697083
                    ],
                    [
                        0.004861137364059687,
                        -0.23321419954299927,
                        -0.268250048160553,
                        -0.014038005843758583
                    ],
                    [
                        0.07113448530435562,
                        0.16341139376163483,
                        0.20559611916542053,
                        0.09518095850944519
                    ],
                    [
                        0.040267422795295715,
                        -0.20086616277694702,
                        -0.008714310824871063,
                        0.21718157827854156
                    ],
                    [
                        -0.06770975887775421,
                        -0.08848042041063309,
                        -0.0784841775894165,
                        -0.05932440236210823
                    ],
                    [
                        0.17005357146263123,
                        0.03919124975800514,
                        -0.23057426512241364,
                        -0.07561194151639938
                    ],
                    [
                        0.1174057126045227,
                        0.18309348821640015,
                        0.215790256857872,
                        0.1484379768371582
                    ]
                ]
            }
        },
        "embedder": {
            "embedder": {
                "embedding": [
                    [
                        0.6421188116073608,
                        -0.29532578587532043,
                        1.0969040393829346,
                        0.03023603744804859,
                        3.465162992477417,
                        1.4946271181106567,
                        -0.597642183303833,
                        -1.2957041263580322,
                        0.3005862534046173,
                        -0.23424942791461945,
                        -1.352995753288269,
                        0.48965170979499817,
                        -2.3407297134399414,
                        2.1852269172668457,
                        0.5840708017349243,
                        -0.030427606776356697,
                        0.36942675709724426,
                        -0.6016396284103394,
                        0.13159023225307465,
                        0.5704488754272461,
                        1.458789348602295,
                        -0.19879844784736633,
                        1.0211198329925537,
                        2.7533280849456787,
                        -2.7782349586486816,
                        0.05474408343434334,
                        0.12219064682722092,
                        -1.8636237382888794,
                        -0.8499128222465515,
                        -1.7974090576171875,
                        -0.6664001941680908,
                        0.8915228247642517
                    ],
                    [
                        0.6361749172210693,
                        0.7264329195022583,
                        -2.4098315238952637,
                        1.0600528717041016,
                        -1.582085132598877,
                        1.5067510604858398,
                        1.06169593334198,
                        0.18049165606498718,
                        -1.18898344039917,
                        0.5610653758049011,
                        2.4720582962036133,
                        -2.5087053775787354,
                        0.49163714051246643,
                        -1.2325124740600586,
                        0.4628294110298157,
                        1.4481568336486816,
                        0.5555669665336609,
                        0.9068067073822021,
                        -0.03468812629580498,
                        1.66947340965271,
                        -2.1959660053253174,
                        0.6957244873046875,
                        1.3310343027114868,
                        0.1157771572470665,
                        0.4582884609699249,
                        0.9944126009941101,
                        0.16826513409614563,
                        3.9804766178131104,
                        0.14645807445049286,
                        2.4985063076019287,
                        2.079785108566284,
                        0.7208409905433655
                    ],
                    [
                        -1.4371774196624756,
                        1.1955355405807495,
                        -0.8243981003761292,
                        -2.856600522994995,
                        0.055332593619823456,
                        -1.284698247909546,
                        0.5970024466514587,
                        0.3637833595275879,
                        0.007833048701286316,
                        1.072266936302185,
                        -0.9681975245475769,
                        -2.1230006217956543,
                        0.743752121925354,
                        -0.1818905770778656,
                        -0.4132761061191559,
                        0.09538686275482178,
                        0.20731200277805328,
                        -0.5943326354026794,
                        0.25398677587509155,
                        -0.4471888542175293,
                        -0.1471434235572815,
                        1.3215765953063965,
                        -0.7371893525123596,
                        0.8265065550804138,
                        2.025693655014038,
                        -0.12238763272762299,
                        -0.8404117226600647,
                        -0.9829955101013184,
                        1.1391249895095825,
                        1.6156065464019775,
                        -1.979437232017517,
                        -0.8213450312614441
                    ],
                    [
                        1.3365377187728882,
                        0.4864482283592224,
                        0.7263132929801941,
                        -0.23213805258274078,
                        -1.1018229722976685,
                        0.5913881063461304,
                        0.4756031036376953,
                        -0.3767356276512146,
                        1.201466679573059,
                        0.6672595143318176,
                        -0.524381697177887,
                        -0.24556347727775574,
                        0.46302953362464905,
                        0.08492708951234818,
                        0.7576260566711426,
                        -1.016983151435852,
                        0.9809476137161255,
                        0.12640053033828735,
                        -0.6800603866577148,
                        -0.003215647302567959,
                        0.9304518699645996,
                        2.7011184692382812,
                        1.1372278928756714,
                        -1.8165321350097656,
                        0.9309624433517456,
                        -1.0785629749298096,
                        -0.2273140549659729,
                        -0.4554227888584137,
                        -0.33190247416496277,
                        -0.6434431076049805,
                        0.8817691802978516,
                        0.24876917898654938
                    ],
                    [
                        0.5436166524887085,
                        -0.40983471274375916,
                        0.15939880907535553,
                        0.7610191702842712,
                        -0.24179930984973907,
                        -0.9600485563278198,
                        -0.4466191530227661,
                        -0.4837450683116913,
                        2.5043599605560303,
                        0.8977304697036743,
                        -1.674199104309082,
                        -0.22849403321743011,
                        -0.21525640785694122,
                        -0.33987441658973694,
                        0.43942776322364807,
                        0.9990472793579102,
                        0.06488949805498123,
                        0.03289952874183655,
                        -0.6887704730033875,
                        0.43880364298820496,
                        -0.3374687135219574,
                        -0.49649548530578613,
                        1.0191564559936523,
                        0.2818154990673065,
                        -0.7222342491149902,
                        -0.7725583910942078,
                        -1.2736632823944092,
                        -1.7859392166137695,
                        -0.6835228800773621,
                        0.43499118089675903,
                        -1.9219353199005127,
                        -0.7679693698883057
                    ],
                    [
                        -0.38816019892692566,
                        -0.4986549913883209,
                        0.14469954371452332,
                        -1.0343888998031616,
                        -0.2668144702911377,
                        -0.4722006022930145,
                        0.2591067850589752,
                        0.7768925428390503,
                        -0.3598199486732483,
                        3.10205340385437,
                        0.2695690095424652,
                        0.5122537016868591,
                        -0.5969861745834351,
                        -0.8984304666519165,
                        -0.2886557877063751,
                        -0.0803050622344017,
                        1.7624553442001343,
                        0.5455535054206848,
                        0.177734375,
                        -2.5390498638153076,
                        -0.6721882224082947,
                        -0.06615297496318817,
                        0.5145308375358582,
                        0.3116038739681244,
                        1.766374111175537,
                        0.037251949310302734,
                        0.19133909046649933,
                        0.9588497877120972,
                        -0.20293526351451874,
                        -0.4626101553440094,
                        -0.3718963861465454,
                        2.0079824924468994
                    ],
                    [
                        -0.5288793444633484,
                        -1.351556658744812,
                        0.863574743270874,
                        -0.7852379083633423,
                        0.8619312644004822,
                        1.3649131059646606,
                        1.083815097808838,
                        3.214078426361084,
                        2.2566444873809814,
                        0.08194868266582489,
                        -1.1756359338760376,
                        0.9986283183097839,
                        1.4907225370407104,
                        -0.35706275701522827,
                        -0.47292014956474304,
                        0.27216145396232605,
                        -1.3737953901290894,
                        -1.457718849182129,
                        -0.129912331700325,
                        0.7952680587768555,
                        0.1550280600786209,
                        -0.1971893161535263,
                        -0.1328403502702713,
                        -0.024276630952954292,
                        -2.6596546173095703,
                        -0.5334780216217041,
                        0.0829993486404419,
                        1.2871994972229004,
                        -0.8869129419326782,
                        -0.5590416193008423,
                        -1.0539371967315674,
                        0.8682447671890259
                    ],
                    [
                        -0.5988132953643799,
                        -0.5685227513313293,
                        0.9389514923095703,
                        -1.7128057479858398,
                        -0.6929234266281128,
                        -0.4498344659805298,
                        0.4312571585178375,
                        0.10410608351230621,
                        -0.5151410102844238,
                        1.701651692390442,
                        -1.3020033836364746,
                        1.2144736051559448,
                        1.1707932949066162,
                        0.20318298041820526,
                        0.4332081973552704,
                        -0.253084659576416,
                        0.914435863494873,
                        0.058405667543411255,
                        0.061618413776159286,
                        -0.9421866536140442,
                        -0.8081403970718384,
                        -0.5496300458908081,
                        0.006799733266234398,
                        -2.472055435180664,
                        -0.4219779074192047,
                        0.17976129055023193,
                        0.7707587480545044,
                        0.5582330226898193,
                        0.6386685967445374,
                        1.6076363325119019,
                        -0.2636971175670624,
                        1.6338062286376953
                    ]
                ]
            }
        },
        "transformer_first_round": {
            "encoder_layers_0": {
                "attention": {
                    "key": {
                        "bias": [
                            [
                                -0.08848132938146591,
                                0.21429842710494995,
                                0.033923543989658356,
                                -0.034938324242830276,
                                0.19515107572078705,
                                0.15608249604701996,
                                0.10356853902339935,
                                -0.15404890477657318
                            ],
                            [
                                0.1266299933195114,
                                0.18529994785785675,
                                -0.1866285502910614,
                                -0.28123587369918823,
                                -0.06593699753284454,
                                0.32020750641822815,
                                -0.38707292079925537,
                                -0.3014802932739258
                            ],
                            [
                                0.027665451169013977,
                                -0.010533105581998825,
                                0.781261682510376,
                                0.06068263202905655,
                                -0.0532129667699337,
                                -0.0065330034121870995,
                                -0.22531983256340027,
                                0.6668725609779358
                            ],
                            [
                                0.4209848940372467,
                                0.3366296887397766,
                                0.12919022142887115,
                                0.09346651285886765,
                                -0.035997334867715836,
                                -0.06815870106220245,
                                -0.18159060180187225,
                                -0.12473497539758682
                            ]
                        ],
                        "kernel": [
                            [
                                [
                                    -0.12256985902786255,
                                    -0.05374724417924881,
                                    0.11169712990522385,
                                    0.1011834368109703,
                                    -0.06153120473027229,
                                    -0.17266985774040222,
                                    -0.2780897915363312,
                                    -0.16833525896072388
                                ],
                                [
                                    0.047811731696128845,
                                    -0.22257108986377716,
                                    -0.03908531367778778,
                                    -0.23575715720653534,
                                    0.10665632784366608,
                                    -0.06637965142726898,
                                    -0.18015767633914948,
                                    -0.11719668656587601
                                ],
                                [
                                    -0.2834712564945221,
                                    -0.08634936064481735,
                                    -0.3854437470436096,
                                    0.07963189482688904,
                                    -0.0071312300860881805,
                                    0.5582543611526489,
                                    0.34405508637428284,
                                    -0.5020639896392822
                                ],
                                [
                                    0.023485323414206505,
                                    -0.03614818677306175,
                                    0.18305464088916779,
                                    0.33902204036712646,
                                    -0.2682434022426605,
                                    0.014203260652720928,
                                    0.12726712226867676,
                                    -0.18470530211925507
                                ]
                            ],
                            [
                                [
                                    0.27420756220817566,
                                    -0.008615143597126007,
                                    0.262757807970047,
                                    0.12204806506633759,
                                    -0.15138640999794006,
                                    -0.07102803885936737,
                                    0.310818076133728,
                                    0.0008474462665617466
                                ],
                                [
                                    0.269092857837677,
                                    -0.16000844538211823,
                                    -0.05441613867878914,
                                    0.20533259212970734,
                                    0.4860418438911438,
                                    -0.5413320660591125,
                                    0.4089386761188507,
                                    0.34356996417045593
                                ],
                                [
                                    -1.0299053192138672,
                                    -0.6615657806396484,
                                    0.5251055359840393,
                                    -0.037717901170253754,
                                    -0.3125093877315521,
                                    0.01676817424595356,
                                    -0.6887293457984924,
                                    0.4688015878200531
                                ],
                                [
                                    0.06550958007574081,
                                    -0.03524690493941307,
                                    0.1380177140235901,
                                    0.19663196802139282,
                                    -0.021010151132941246,
                                    -0.027384528890252113,
                                    0.301042377948761,
                                    -0.016110612079501152
                                ]
                            ],
                            [
                                [
                                    -0.27398452162742615,
                                    -0.1125292107462883,
                                    0.1589948534965515,
                                    0.22430846095085144,
                                    0.05749526247382164,
                                    -0.17104403674602509,
                                    -0.08760546892881393,
                                    0.2237081527709961
                                ],
                                [
                                    0.26348596811294556,
                                    -0.48253560066223145,
                                    -0.03986438736319542,
                                    -0.16320942342281342,
                                    0.2651382386684418,
                                    0.2897280156612396,
                                    0.1905382126569748,
                                    0.2001330554485321
                                ],
                                [
                                    0.24506589770317078,
                                    0.12852059304714203,
                                    -0.061219215393066406,
                                    -0.050449226051568985,
                                    -0.0150015689432621,
                                    -0.08598421514034271,
                                    0.10249078273773193,
                                    -0.1791752278804779
                                ],
                                [
                                    0.32359060645103455,
                                    -0.02497006580233574,
                                    -0.3920761048793793,
                                    0.05054173991084099,
                                    0.06283797323703766,
                                    0.1803663969039917,
                                    -0.33152735233306885,
                                    -0.12374375015497208
                                ]
                            ],
                            [
                                [
                                    -0.4130915105342865,
                                    0.36350831389427185,
                                    -0.18921321630477905,
                                    0.07060068845748901,
                                    0.014488792978227139,
                                    0.051297109574079514,
                                    0.2839728891849518,
                                    -0.08001657575368881
                                ],
                                [
                                    -0.3870220482349396,
                                    0.13264447450637817,
                                    0.5611588954925537,
                                    -0.3000880479812622,
                                    0.20905788242816925,
                                    -0.21305419504642487,
                                    0.15894563496112823,
                                    0.07612034678459167
                                ],
                                [
                                    -0.4164593815803528,
                                    -0.16655531525611877,
                                    0.21478146314620972,
                                    -0.25167620182037354,
                                    0.010964351706206799,
                                    -0.11595135182142258,
                                    -0.3645114004611969,
                                    -0.13248594105243683
                                ],
                                [
                                    -0.06393909454345703,
                                    0.16187560558319092,
                                    -0.2586843967437744,
                                    -0.011408775113523006,
                                    0.44820675253868103,
                                    0.038948848843574524,
                                    0.06641215831041336,
                                    -0.1835344135761261
                                ]
                            ],
                            [
                                [
                                    0.076413594186306,
                                    0.0394592322409153,
                                    -0.3523881733417511,
                                    -0.303105890750885,
                                    -0.058101337403059006,
                                    0.09756658971309662,
                                    0.07854951173067093,
                                    0.00019732207874767482
                                ],
                                [
                                    -0.2788026034832001,
                                    0.1921590268611908,
                                    0.3888399600982666,
                                    -0.1459677815437317,
                                    0.35870662331581116,
                                    0.22237682342529297,
                                    -0.2978825569152832,
                                    -0.2428208291530609
                                ],
                                [
                                    0.3407195210456848,
                                    0.7189483642578125,
                                    -0.4776061773300171,
                                    0.369072824716568,
                                    -0.050609614700078964,
                                    0.7458252906799316,
                                    0.9027870297431946,
                                    0.08654576539993286
                                ],
                                [
                                    0.19906359910964966,
                                    -0.0712755024433136,
                                    -0.04325193911790848,
                                    0.4021306335926056,
                                    0.07079091668128967,
                                    -0.17950224876403809,
                                    -0.005252579692751169,
                                    0.05340638756752014
                                ]
                            ],
                            [
                                [
                                    -0.08785516023635864,
                                    0.12427213788032532,
                                    0.00031062259222380817,
                                    -0.062205735594034195,
                                    0.04417821019887924,
                                    0.17175453901290894,
                                    0.045707669109106064,
                                    -0.15548305213451385
                                ],
                                [
                                    -0.05861388519406319,
                                    -0.08147261291742325,
                                    0.06816717982292175,
                                    0.013442300260066986,
                                    0.10701711475849152,
                                    -0.1869228631258011,
                                    0.10375136882066727,
                                    0.037128791213035583
                                ],
                                [
                                    -0.18500591814517975,
                                    -0.2958788275718689,
                                    0.38866156339645386,
                                    -0.2536306083202362,
                                    -0.1113320142030716,
                                    -0.3403332829475403,
                                    -0.48043540120124817,
                                    0.2950443923473358
                                ],
                                [
                                    0.12881624698638916,
                                    -0.13141576945781708,
                                    0.10459267348051071,
                                    0.02758348174393177,
                                    0.5203146934509277,
                                    0.3548981249332428,
                                    0.1713898628950119,
                                    0.2244604378938675
                                ]
                            ],
                            [
                                [
                                    -0.1851276457309723,
                                    -0.19808326661586761,
                                    0.01380174420773983,
                                    0.047387462109327316,
                                    0.3510238528251648,
                                    -0.12931157648563385,
                                    -0.22789491713047028,
                                    0.22896535694599152
                                ],
                                [
                                    -0.22279612720012665,
                                    0.10341288894414902,
                                    0.27875903248786926,
                                    -0.7332883477210999,
                                    0.2526247501373291,
                                    0.35541266202926636,
                                    -0.3673296868801117,
                                    0.12923353910446167
                                ],
                                [
                                    -0.3657335638999939,
                                    -0.4500449597835541,
                                    -0.5972774028778076,
                                    0.1886913925409317,
                                    -0.29135143756866455,
                                    0.705985963344574,
                                    -0.014793640933930874,
                                    -0.03483640402555466
                                ],
                                [
                                    0.38220664858818054,
                                    0.09234907478094101,
                                    0.26338499784469604,
                                    0.4714491367340088,
                                    -0.13110269606113434,
                                    -0.05508093163371086,
                                    0.39831769466400146,
                                    0.14295494556427002
                                ]
                            ],
                            [
                                [
                                    -0.05074426904320717,
                                    -0.08752677589654922,
                                    -0.17424505949020386,
                                    0.10518520325422287,
                                    0.11464715749025345,
                                    0.08057454228401184,
                                    -0.32768481969833374,
                                    0.1943248063325882
                                ],
                                [
                                    -0.014502804726362228,
                                    -0.19161923229694366,
                                    -0.31126606464385986,
                                    0.22265127301216125,
                                    -0.350322425365448,
                                    -0.43278148770332336,
                                    0.5073657631874084,
                                    0.527457058429718
                                ],
                                [
                                    -0.06828486174345016,
                                    -0.6859098076820374,
                                    0.3175138235092163,
                                    0.05240560695528984,
                                    -0.5283932089805603,
                                    -0.4272834062576294,
                                    -0.38772594928741455,
                                    0.5593851804733276
                                ],
                                [
                                    -0.4780822992324829,
                                    0.13086554408073425,
                                    -0.05861944332718849,
                                    -0.4600907862186432,
                                    0.08815676718950272,
                                    -0.155167818069458,
                                    0.01739048957824707,
                                    0.06935250759124756
                                ]
                            ],
                            [
                                [
                                    0.06045019254088402,
                                    0.08217360079288483,
                                    0.13162484765052795,
                                    -0.001130643649958074,
                                    0.21411435306072235,
                                    0.07638776302337646,
                                    -0.3691716492176056,
                                    -0.07853661477565765
                                ],
                                [
                                    0.06308639049530029,
                                    0.1936437338590622,
                                    0.10085949301719666,
                                    -0.05241033807396889,
                                    -0.22890904545783997,
                                    0.14910449087619781,
                                    0.1661675125360489,
                                    -0.1780979186296463
                                ],
                                [
                                    0.24434280395507812,
                                    -0.11150119453668594,
                                    -0.12075720727443695,
                                    -0.1820726841688156,
                                    -0.011931130662560463,
                                    -0.23132091760635376,
                                    -0.017030704766511917,
                                    -0.055996302515268326
                                ],
                                [
                                    -0.29110318422317505,
                                    0.02196529135107994,
                                    -0.06234150752425194,
                                    0.0308179073035717,
                                    -0.1391248106956482,
                                    -0.23947803676128387,
                                    0.2135462462902069,
                                    0.0008684408385306597
                                ]
                            ],
                            [
                                [
                                    0.07769551873207092,
                                    0.018796736374497414,
                                    0.21793325245380402,
                                    -0.22143927216529846,
                                    0.29422396421432495,
                                    0.14459291100502014,
                                    -0.08920297771692276,
                                    0.16978873312473297
                                ],
                                [
                                    0.08406363427639008,
                                    -0.06471147388219833,
                                    -0.4030357599258423,
                                    0.3653720021247864,
                                    -0.04728136956691742,
                                    -0.4687165319919586,
                                    0.4674738943576813,
                                    0.051790524274110794
                                ],
                                [
                                    -0.6078898310661316,
                                    -0.5172500014305115,
                                    0.5672683119773865,
                                    -0.3312588930130005,
                                    -0.3778252601623535,
                                    -0.476453572511673,
                                    -0.920481264591217,
                                    0.26789286732673645
                                ],
                                [
                                    -0.05987656116485596,
                                    0.0172380693256855,
                                    -0.3057526648044586,
                                    -0.116545669734478,
                                    0.06654490530490875,
                                    0.2918819487094879,
                                    -0.031759217381477356,
                                    -0.10843747109174728
                                ]
                            ],
                            [
                                [
                                    0.057644348591566086,
                                    -0.02029336802661419,
                                    -0.07779591530561447,
                                    -0.19295109808444977,
                                    0.41634055972099304,
                                    -0.09333133697509766,
                                    0.2073410004377365,
                                    0.12393055856227875
                                ],
                                [
                                    -0.6985655426979065,
                                    0.40932154655456543,
                                    0.4525417387485504,
                                    -0.9314137697219849,
                                    0.8054927587509155,
                                    0.35822924971580505,
                                    -0.4330292046070099,
                                    -0.36725914478302
                                ],
                                [
                                    -0.24952082335948944,
                                    -0.014899805188179016,
                                    -0.35874539613723755,
                                    0.12379404157400131,
                                    0.1016804575920105,
                                    0.3815805912017822,
                                    -0.24755428731441498,
                                    -0.07477501779794693
                                ],
                                [
                                    0.46283823251724243,
                                    -0.048970747739076614,
                                    0.29520854353904724,
                                    1.0104944705963135,
                                    -0.6458961367607117,
                                    0.26988574862480164,
                                    0.19299787282943726,
                                    0.2841927707195282
                                ]
                            ],
                            [
                                [
                                    0.4411170482635498,
                                    0.34220656752586365,
                                    0.013757194392383099,
                                    0.27943307161331177,
                                    0.18894487619400024,
                                    0.12849318981170654,
                                    0.1373392641544342,
                                    0.06363143771886826
                                ],
                                [
                                    -0.21748802065849304,
                                    -0.3081296980381012,
                                    0.06890096515417099,
                                    0.3769872486591339,
                                    0.38645583391189575,
                                    -0.400163859128952,
                                    0.7797929644584656,
                                    0.1828279197216034
                                ],
                                [
                                    0.3614669740200043,
                                    -0.22558905184268951,
                                    0.19591496884822845,
                                    -0.1502932906150818,
                                    -0.29517272114753723,
                                    -0.507168710231781,
                                    -0.0574556402862072,
                                    0.44281575083732605
                                ],
                                [
                                    0.07762168347835541,
                                    0.07052438706159592,
                                    -0.30875518918037415,
                                    -0.16625995934009552,
                                    0.05375600606203079,
                                    0.45922067761421204,
                                    -0.24981415271759033,
                                    -0.3731505870819092
                                ]
                            ],
                            [
                                [
                                    -0.15682628750801086,
                                    -0.1848493367433548,
                                    -0.028787611052393913,
                                    -0.27700331807136536,
                                    0.16787737607955933,
                                    -0.14673388004302979,
                                    0.05817882716655731,
                                    0.07755959033966064
                                ],
                                [
                                    -0.020497426390647888,
                                    -0.337009996175766,
                                    0.07757951319217682,
                                    -0.27926239371299744,
                                    -0.027953898534178734,
                                    0.32249316573143005,
                                    0.18821671605110168,
                                    -0.15804655849933624
                                ],
                                [
                                    -0.3880998194217682,
                                    -0.3432166576385498,
                                    -0.6115108132362366,
                                    -0.016411276534199715,
                                    -0.29804056882858276,
                                    0.1721629798412323,
                                    -0.188241645693779,
                                    0.03470912203192711
                                ],
                                [
                                    -0.09761020541191101,
                                    0.08702031522989273,
                                    -0.06631986796855927,
                                    -0.21872082352638245,
                                    -0.2666740417480469,
                                    -0.35408514738082886,
                                    0.05751490965485573,
                                    0.14595432579517365
                                ]
                            ],
                            [
                                [
                                    0.4369538724422455,
                                    -0.16253742575645447,
                                    -0.02349916659295559,
                                    0.3925463557243347,
                                    -0.15767017006874084,
                                    0.1467992514371872,
                                    0.06226387247443199,
                                    -0.20875467360019684
                                ],
                                [
                                    -0.30030351877212524,
                                    0.5249846577644348,
                                    0.5275638699531555,
                                    -0.23474350571632385,
                                    0.3695856034755707,
                                    -0.2679305374622345,
                                    0.473928838968277,
                                    0.28413334488868713
                                ],
                                [
                                    0.20865748822689056,
                                    0.0419895313680172,
                                    0.3335791826248169,
                                    0.1877058446407318,
                                    -0.12203013896942139,
                                    -0.4864036440849304,
                                    0.041678786277770996,
                                    0.12586762011051178
                                ],
                                [
                                    -0.10595110058784485,
                                    -0.21717692911624908,
                                    0.3701205253601074,
                                    0.15493878722190857,
                                    -0.21998733282089233,
                                    0.37314167618751526,
                                    0.4608050584793091,
                                    0.37012210488319397
                                ]
                            ],
                            [
                                [
                                    -0.06595832854509354,
                                    -0.10557454824447632,
                                    -0.020279310643672943,
                                    -0.12458563596010208,
                                    0.1487852782011032,
                                    0.052495766431093216,
                                    -0.1715029925107956,
                                    0.37138786911964417
                                ],
                                [
                                    -0.6782698631286621,
                                    0.5241292119026184,
                                    0.09306507557630539,
                                    -1.089444875717163,
                                    0.512978732585907,
                                    0.43533745408058167,
                                    -0.3627595007419586,
                                    -0.5952047109603882
                                ],
                                [
                                    0.05974467471241951,
                                    -0.02092505246400833,
                                    -0.3798412084579468,
                                    0.25025036931037903,
                                    -0.14212100207805634,
                                    0.7646428346633911,
                                    0.7070106863975525,
                                    -0.20293767750263214
                                ],
                                [
                                    0.7356707453727722,
                                    -0.47507938742637634,
                                    0.31980857253074646,
                                    0.92389315366745,
                                    -0.7248238921165466,
                                    0.05084589868783951,
                                    0.1870935559272766,
                                    0.7585656642913818
                                ]
                            ],
                            [
                                [
                                    0.062334273010492325,
                                    0.027062702924013138,
                                    0.024581147357821465,
                                    0.1825234293937683,
                                    0.2798956334590912,
                                    -0.007342393510043621,
                                    0.00975978747010231,
                                    0.040435850620269775
                                ],
                                [
                                    -0.12144044786691666,
                                    -0.19730128347873688,
                                    0.239014133810997,
                                    -0.06953077018260956,
                                    0.18157489597797394,
                                    -0.2191029191017151,
                                    0.2043916881084442,
                                    -0.011457209475338459
                                ],
                                [
                                    -0.19738928973674774,
                                    -0.11145761609077454,
                                    0.4491081237792969,
                                    0.11654676496982574,
                                    -0.18282145261764526,
                                    0.1000632718205452,
                                    -0.37450000643730164,
                                    0.1260773241519928
                                ],
                                [
                                    -0.02462608553469181,
                                    -0.15216092765331268,
                                    0.07195441424846649,
                                    0.20782555639743805,
                                    0.20181789994239807,
                                    -0.136474147439003,
                                    0.11047065258026123,
                                    0.03862195834517479
                                ]
                            ],
                            [
                                [
                                    0.23727354407310486,
                                    0.3618467152118683,
                                    -0.35947853326797485,
                                    -0.3503543734550476,
                                    0.04838702082633972,
                                    -0.1524811089038849,
                                    -0.22158515453338623,
                                    0.35898929834365845
                                ],
                                [
                                    0.2644440531730652,
                                    0.10084190964698792,
                                    -0.24405242502689362,
                                    0.159922793507576,
                                    -0.2866499722003937,
                                    -0.09943179786205292,
                                    0.3071822226047516,
                                    -0.3034276068210602
                                ],
                                [
                                    -0.18619529902935028,
                                    0.01772208884358406,
                                    -0.187147855758667,
                                    0.06833875924348831,
                                    0.686818540096283,
                                    -0.43320295214653015,
                                    -0.1968402862548828,
                                    -0.22512519359588623
                                ],
                                [
                                    0.2805621027946472,
                                    -0.13321280479431152,
                                    0.1835491806268692,
                                    0.49380698800086975,
                                    -0.28432297706604004,
                                    0.10363137722015381,
                                    0.4632449746131897,
                                    0.07347641885280609
                                ]
                            ],
                            [
                                [
                                    0.0621948167681694,
                                    0.46300992369651794,
                                    0.14469511806964874,
                                    0.36369428038597107,
                                    0.1642599105834961,
                                    0.24064552783966064,
                                    0.28051507472991943,
                                    -0.10392121970653534
                                ],
                                [
                                    0.40842682123184204,
                                    -0.1289299726486206,
                                    -0.3665142357349396,
                                    0.6792557239532471,
                                    -0.5142806768417358,
                                    0.6217300295829773,
                                    -0.6399857401847839,
                                    -0.11870341002941132
                                ],
                                [
                                    0.46438899636268616,
                                    0.08360397070646286,
                                    0.32319149374961853,
                                    0.05148019641637802,
                                    0.05345987156033516,
                                    0.17851120233535767,
                                    -0.13567769527435303,
                                    0.1383126825094223
                                ],
                                [
                                    0.09174693375825882,
                                    0.014459535479545593,
                                    -0.5110039114952087,
                                    -0.7040004730224609,
                                    0.41472578048706055,
                                    0.16892185807228088,
                                    0.0016497969627380371,
                                    -0.3214865028858185
                                ]
                            ],
                            [
                                [
                                    0.01623898558318615,
                                    0.19749777019023895,
                                    -0.09749773144721985,
                                    0.28763172030448914,
                                    0.08928251266479492,
                                    -0.14484408497810364,
                                    0.07201743125915527,
                                    0.22355493903160095
                                ],
                                [
                                    0.2776428461074829,
                                    0.26293525099754333,
                                    0.3520728051662445,
                                    0.04620685055851936,
                                    -0.08090312033891678,
                                    -0.3040046989917755,
                                    0.23006783425807953,
                                    0.5121567249298096
                                ],
                                [
                                    0.27787309885025024,
                                    -0.043076809495687485,
                                    -0.11998310685157776,
                                    -0.11089344322681427,
                                    0.10286250710487366,
                                    0.09807322174310684,
                                    0.09715462476015091,
                                    -0.16255441308021545
                                ],
                                [
                                    -0.01063327956944704,
                                    0.38260528445243835,
                                    0.008751305751502514,
                                    -0.009602111764252186,
                                    0.3649877607822418,
                                    0.2199450582265854,
                                    -0.11400159448385239,
                                    0.01820415072143078
                                ]
                            ],
                            [
                                [
                                    0.016762059181928635,
                                    0.1333310306072235,
                                    -0.004870459903031588,
                                    -0.04659603536128998,
                                    0.19761623442173004,
                                    0.09954634308815002,
                                    -0.10681124031543732,
                                    0.13691946864128113
                                ],
                                [
                                    0.2089533507823944,
                                    -0.32542771100997925,
                                    -0.5521345734596252,
                                    0.4717237055301666,
                                    -0.6661418676376343,
                                    0.45842528343200684,
                                    -0.8059804439544678,
                                    -0.09034115076065063
                                ],
                                [
                                    0.2845667600631714,
                                    0.3343640863895416,
                                    0.1673639565706253,
                                    -0.14737339317798615,
                                    -0.11089877039194107,
                                    0.1004590392112732,
                                    0.11461461335420609,
                                    -0.10849116742610931
                                ],
                                [
                                    -0.34190523624420166,
                                    0.22752678394317627,
                                    -0.12567771971225739,
                                    -0.7419350743293762,
                                    0.7305366396903992,
                                    -0.35031241178512573,
                                    -0.379653662443161,
                                    -0.0660046860575676
                                ]
                            ],
                            [
                                [
                                    -0.023568373173475266,
                                    0.0665983110666275,
                                    -0.3184676766395569,
                                    0.24825303256511688,
                                    -0.1424875110387802,
                                    0.14566020667552948,
                                    -0.2067430317401886,
                                    0.16908518970012665
                                ],
                                [
                                    0.11427488923072815,
                                    0.21334239840507507,
                                    -0.24176694452762604,
                                    0.06773112714290619,
                                    -0.22772037982940674,
                                    -0.4929746389389038,
                                    0.5839914679527283,
                                    0.3378472626209259
                                ],
                                [
                                    -0.14474019408226013,
                                    0.2878560721874237,
                                    -0.24104364216327667,
                                    -0.195871964097023,
                                    0.0316062793135643,
                                    -0.163351371884346,
                                    0.45130205154418945,
                                    -0.14689210057258606
                                ],
                                [
                                    0.08468175679445267,
                                    0.2584317922592163,
                                    0.21180088818073273,
                                    -0.39730677008628845,
                                    0.09787668287754059,
                                    -0.4316033720970154,
                                    -0.0012550532119348645,
                                    -0.08429637551307678
                                ]
                            ],
                            [
                                [
                                    0.200735941529274,
                                    -0.38602399826049805,
                                    0.2269282042980194,
                                    -0.035495612770318985,
                                    -0.4649827778339386,
                                    -0.06704133003950119,
                                    0.027123568579554558,
                                    0.05359143018722534
                                ],
                                [
                                    0.4790251553058624,
                                    0.09003543108701706,
                                    -0.34481939673423767,
                                    0.43473947048187256,
                                    -0.3317716121673584,
                                    0.3282195031642914,
                                    -0.07201573252677917,
                                    -0.026102449744939804
                                ],
                                [
                                    0.057094600051641464,
                                    -0.003917941823601723,
                                    -0.04660431295633316,
                                    -0.2298315018415451,
                                    -0.3547568619251251,
                                    -0.2854248583316803,
                                    0.042727526277303696,
                                    -0.1407698392868042
                                ],
                                [
                                    -0.2847760319709778,
                                    -0.010544570162892342,
                                    0.2636939585208893,
                                    -0.476226806640625,
                                    0.20606733858585358,
                                    -0.17448431253433228,
                                    -0.0034940079785883427,
                                    0.1981165111064911
                                ]
                            ],
                            [
                                [
                                    0.041434768587350845,
                                    0.06251299381256104,
                                    -0.2544718086719513,
                                    0.05324647203087807,
                                    0.05716140940785408,
                                    -0.03531141206622124,
                                    0.214064821600914,
                                    0.15529856085777283
                                ],
                                [
                                    -0.018964266404509544,
                                    -0.25226426124572754,
                                    0.35048726201057434,
                                    0.06629958748817444,
                                    0.07237590849399567,
                                    -0.5978888869285583,
                                    0.6352673768997192,
                                    0.19434231519699097
                                ],
                                [
                                    -0.18952372670173645,
                                    0.2782241106033325,
                                    -0.17427919805049896,
                                    -0.45732107758522034,
                                    0.7562333941459656,
                                    -0.6941840052604675,
                                    -0.1595963090658188,
                                    -0.6520861983299255
                                ],
                                [
                                    -0.2978493571281433,
                                    0.27842482924461365,
                                    -0.21216221153736115,
                                    0.0738065093755722,
                                    0.06962090730667114,
                                    0.09967442601919174,
                                    0.08780587464570999,
                                    -0.3842039406299591
                                ]
                            ],
                            [
                                [
                                    -0.04880908876657486,
                                    0.320266991853714,
                                    -0.09444084018468857,
                                    0.12682479619979858,
                                    -0.26303979754447937,
                                    0.08096901327371597,
                                    0.13724637031555176,
                                    -0.04966245964169502
                                ],
                                [
                                    0.2487456351518631,
                                    -0.06438852846622467,
                                    -0.12251696735620499,
                                    -0.17419962584972382,
                                    0.0003520432219374925,
                                    0.23978765308856964,
                                    -0.23698721826076508,
                                    0.035848651081323624
                                ],
                                [
                                    0.6137539744377136,
                                    0.8418457508087158,
                                    0.09887108206748962,
                                    -0.08955792337656021,
                                    -0.15418051183223724,
                                    0.29159435629844666,
                                    0.6237283945083618,
                                    0.41154399514198303
                                ],
                                [
                                    -0.1152096688747406,
                                    -0.06231113523244858,
                                    -0.19367820024490356,
                                    -0.33318135142326355,
                                    0.3795609474182129,
                                    -0.028089649975299835,
                                    -0.0711730420589447,
                                    -0.13793136179447174
                                ]
                            ],
                            [
                                [
                                    -0.1706504374742508,
                                    -0.07831598073244095,
                                    0.2398757040500641,
                                    -0.21003003418445587,
                                    0.298272043466568,
                                    0.11355406045913696,
                                    -0.18328380584716797,
                                    0.004089479800313711
                                ],
                                [
                                    0.14558762311935425,
                                    -0.33772727847099304,
                                    0.18356460332870483,
                                    0.06660456210374832,
                                    0.07429823279380798,
                                    -0.14879173040390015,
                                    0.7937723994255066,
                                    -0.11676231026649475
                                ],
                                [
                                    -0.2458065003156662,
                                    -0.30940404534339905,
                                    -0.1863725185394287,
                                    0.15009556710720062,
                                    0.5272048115730286,
                                    -0.48710334300994873,
                                    -0.5593820214271545,
                                    -0.5084097981452942
                                ],
                                [
                                    0.06607207655906677,
                                    0.06877672672271729,
                                    0.15010632574558258,
                                    0.15798576176166534,
                                    0.0954567939043045,
                                    -0.28170719742774963,
                                    0.027711980044841766,
                                    0.1850469410419464
                                ]
                            ],
                            [
                                [
                                    0.24450995028018951,
                                    -0.037775587290525436,
                                    0.23431727290153503,
                                    0.13340041041374207,
                                    0.1763996183872223,
                                    0.17910972237586975,
                                    0.21599428355693817,
                                    -0.11528737097978592
                                ],
                                [
                                    -0.03095805086195469,
                                    -0.1395016312599182,
                                    0.017098208889365196,
                                    0.09395767003297806,
                                    -0.30737701058387756,
                                    0.12189482152462006,
                                    -0.46460360288619995,
                                    -0.09984225034713745
                                ],
                                [
                                    0.3014316260814667,
                                    0.3581598103046417,
                                    0.5970463752746582,
                                    0.2002241164445877,
                                    -0.007288743741810322,
                                    -0.026382191106677055,
                                    -0.08728362619876862,
                                    0.3672347068786621
                                ],
                                [
                                    0.06383879482746124,
                                    0.14527250826358795,
                                    0.12271077930927277,
                                    -0.1133553609251976,
                                    -0.00027292754384689033,
                                    -0.060782890766859055,
                                    0.06325887143611908,
                                    -0.1451638638973236
                                ]
                            ],
                            [
                                [
                                    -0.23857496678829193,
                                    0.2526598870754242,
                                    -0.013052144087851048,
                                    -0.02107124589383602,
                                    -0.24283118546009064,
                                    0.007892334833741188,
                                    0.0910799577832222,
                                    0.3364889919757843
                                ],
                                [
                                    -0.02214023284614086,
                                    -0.20181038975715637,
                                    0.17018800973892212,
                                    0.12980209290981293,
                                    0.18902282416820526,
                                    -0.25097522139549255,
                                    -0.10883262008428574,
                                    -0.05191267654299736
                                ],
                                [
                                    -0.1817120909690857,
                                    -0.030398067086935043,
                                    0.291565865278244,
                                    0.07951192557811737,
                                    -0.077750563621521,
                                    -0.04709571599960327,
                                    -0.05211876705288887,
                                    -0.13482274115085602
                                ],
                                [
                                    0.20748436450958252,
                                    0.2941227853298187,
                                    0.3451420068740845,
                                    0.1983320713043213,
                                    -0.38311445713043213,
                                    0.27189746499061584,
                                    0.0680382028222084,
                                    -0.09024890512228012
                                ]
                            ],
                            [
                                [
                                    0.18815089762210846,
                                    0.2622458040714264,
                                    -0.04410219192504883,
                                    0.046752963215112686,
                                    -0.1276652216911316,
                                    0.09041456878185272,
                                    -0.022905921563506126,
                                    0.10684788972139359
                                ],
                                [
                                    -0.0583345852792263,
                                    0.010446358472108841,
                                    0.07561154663562775,
                                    0.024126902222633362,
                                    0.011647124774754047,
                                    0.08344900608062744,
                                    0.08206365257501602,
                                    -0.022287091240286827
                                ],
                                [
                                    -0.11523353308439255,
                                    -0.09425882995128632,
                                    0.004392850212752819,
                                    0.12314023822546005,
                                    0.07160121202468872,
                                    -0.3137814402580261,
                                    0.1616966724395752,
                                    0.12881748378276825
                                ],
                                [
                                    -0.1490265280008316,
                                    0.32843223214149475,
                                    0.1462840586900711,
                                    0.08140755444765091,
                                    -0.2168084979057312,
                                    0.029488103464245796,
                                    -0.0529232881963253,
                                    -0.12016460299491882
                                ]
                            ],
                            [
                                [
                                    -0.019092177972197533,
                                    -0.17393146455287933,
                                    0.03973932936787605,
                                    0.034051693975925446,
                                    0.05619867891073227,
                                    0.3882778584957123,
                                    -0.050424445420503616,
                                    -0.14254729449748993
                                ],
                                [
                                    -0.3093324899673462,
                                    0.09194814413785934,
                                    0.20930352807044983,
                                    -0.21860763430595398,
                                    0.25810617208480835,
                                    -0.14253298938274384,
                                    0.7100105881690979,
                                    0.28704833984375
                                ],
                                [
                                    -0.009113901294767857,
                                    -0.14694224298000336,
                                    0.1870807409286499,
                                    0.021953415125608444,
                                    0.03576114401221275,
                                    0.024510378018021584,
                                    -0.00560782803222537,
                                    -0.07398957014083862
                                ],
                                [
                                    -0.2667444348335266,
                                    -0.12799645960330963,
                                    0.7834161520004272,
                                    0.23221388459205627,
                                    -0.28839799761772156,
                                    0.1360100358724594,
                                    0.18443633615970612,
                                    0.5496671795845032
                                ]
                            ],
                            [
                                [
                                    0.1052885428071022,
                                    -0.3774653375148773,
                                    -0.2816980481147766,
                                    0.1590673178434372,
                                    -0.02870285138487816,
                                    0.12164832651615143,
                                    -0.32019534707069397,
                                    -0.332865834236145
                                ],
                                [
                                    0.17065081000328064,
                                    0.25905561447143555,
                                    0.19132892787456512,
                                    -0.20072846114635468,
                                    -0.26476800441741943,
                                    0.06668709963560104,
                                    -0.028707973659038544,
                                    0.395616352558136
                                ],
                                [
                                    0.05907966196537018,
                                    -0.15718021988868713,
                                    0.0009067992796190083,
                                    -0.04971183091402054,
                                    0.06728165596723557,
                                    0.2090463638305664,
                                    0.012637042440474033,
                                    0.15360628068447113
                                ],
                                [
                                    0.060484517365694046,
                                    -0.3960646688938141,
                                    0.2265911102294922,
                                    -0.45494115352630615,
                                    0.3237532079219818,
                                    0.02446533925831318,
                                    -0.0228105541318655,
                                    0.04393426328897476
                                ]
                            ],
                            [
                                [
                                    0.21640808880329132,
                                    -0.3450404405593872,
                                    0.44268086552619934,
                                    0.0578734464943409,
                                    -0.39737287163734436,
                                    0.04090014845132828,
                                    -0.013644837774336338,
                                    -0.030597476288676262
                                ],
                                [
                                    -0.27984005212783813,
                                    -0.22746632993221283,
                                    0.2505497932434082,
                                    -0.0040341150015592575,
                                    0.19577179849147797,
                                    -0.08827688544988632,
                                    0.5324684381484985,
                                    0.13774412870407104
                                ],
                                [
                                    -0.5439430475234985,
                                    -0.2821408212184906,
                                    -0.17558816075325012,
                                    -0.1737184077501297,
                                    0.34237924218177795,
                                    -0.31514084339141846,
                                    -0.26663675904273987,
                                    -0.3065822124481201
                                ],
                                [
                                    -0.0619242861866951,
                                    -0.029600748792290688,
                                    -0.16019207239151,
                                    0.12476665526628494,
                                    -0.17732030153274536,
                                    -0.15361638367176056,
                                    -0.1664506047964096,
                                    -0.009142297320067883
                                ]
                            ],
                            [
                                [
                                    0.11828554421663284,
                                    0.1162976324558258,
                                    -0.007223057560622692,
                                    0.26969996094703674,
                                    -0.06664096564054489,
                                    -0.004018027801066637,
                                    0.07100202888250351,
                                    -0.045492589473724365
                                ],
                                [
                                    0.30187758803367615,
                                    -0.26352110505104065,
                                    -0.4036411941051483,
                                    0.16397051513195038,
                                    -0.519566535949707,
                                    0.02245507761836052,
                                    -0.42224472761154175,
                                    -0.08673179894685745
                                ],
                                [
                                    0.18365570902824402,
                                    0.30189868807792664,
                                    0.3489554524421692,
                                    -0.03315179795026779,
                                    -0.05336097627878189,
                                    -0.4421321451663971,
                                    0.061294738203287125,
                                    0.8322564959526062
                                ],
                                [
                                    0.030573885887861252,
                                    -0.07812529802322388,
                                    -0.1820942908525467,
                                    -0.15700717270374298,
                                    -0.16842341423034668,
                                    0.4946511685848236,
                                    0.057736773043870926,
                                    -0.2812992334365845
                                ]
                            ]
                        ]
                    },
                    "out": {
                        "bias": [
                            -0.10038819909095764,
                            -0.2526305019855499,
                            0.00014005917182657868,
                            -0.2082107812166214,
                            0.17809821665287018,
                            -0.10484882444143295,
                            0.19253358244895935,
                            -0.17552432417869568,
                            0.21514421701431274,
                            0.02181329019367695,
                            -0.20510059595108032,
                            -0.2018601894378662,
                            -0.3226170241832733,
                            -0.3492319881916046,
                            0.024263201281428337,
                            0.26162785291671753,
                            0.020873935893177986,
                            -0.14367066323757172,
                            0.3749323785305023,
                            0.0907699391245842,
                            0.306853324174881,
                            -0.24418838322162628,
                            -0.18579132854938507,
                            0.044603701680898666,
                            0.07022874057292938,
                            -0.1696709245443344,
                            0.035938262939453125,
                            0.20569747686386108,
                            0.07833833247423172,
                            -0.3329913914203644,
                            0.10058151930570602,
                            0.17430269718170166
                        ],
                        "kernel": [
                            [
                                [
                                    0.09896797686815262,
                                    0.004328938201069832,
                                    0.046048760414123535,
                                    0.0028901712503284216,
                                    0.014013570733368397,
                                    0.22180406749248505,
                                    0.18955226242542267,
                                    -0.034381236881017685,
                                    0.06350669264793396,
                                    -0.05788922309875488,
                                    -0.08618845790624619,
                                    0.09864268451929092,
                                    0.1382680982351303,
                                    0.294512540102005,
                                    -0.07706954330205917,
                                    0.07639549672603607,
                                    0.14073990285396576,
                                    0.10091602057218552,
                                    -0.1447504162788391,
                                    0.16781604290008545,
                                    -0.1903086006641388,
                                    0.13327781856060028,
                                    0.11571471393108368,
                                    -0.3916548192501068,
                                    -0.07339748740196228,
                                    -0.044785428792238235,
                                    0.23506388068199158,
                                    0.17081044614315033,
                                    0.13835500180721283,
                                    -0.057609476149082184,
                                    -0.00069444376276806,
                                    -0.08768366277217865
                                ],
                                [
                                    0.03990248590707779,
                                    0.023961134254932404,
                                    -0.1384703516960144,
                                    0.07163547724485397,
                                    -0.044759295880794525,
                                    0.072923943400383,
                                    0.03778328001499176,
                                    -0.04415593668818474,
                                    0.1994684636592865,
                                    0.09427843242883682,
                                    0.2513126730918884,
                                    0.0689079686999321,
                                    0.07831601053476334,
                                    0.1210942193865776,
                                    0.16061030328273773,
                                    -0.046685852110385895,
                                    0.12751688063144684,
                                    0.04841617867350578,
                                    0.12979696691036224,
                                    0.051468025892972946,
                                    -0.06945972144603729,
                                    0.15780726075172424,
                                    -0.012274086475372314,
                                    -0.10567190498113632,
                                    -0.04305180907249451,
                                    -0.10149990022182465,
                                    0.17795462906360626,
                                    0.051554251462221146,
                                    0.14742901921272278,
                                    0.01830398105084896,
                                    -0.02648778446018696,
                                    0.07566073536872864
                                ],
                                [
                                    0.17540393769741058,
                                    0.031842730939388275,
                                    -0.03785404562950134,
                                    0.009157568216323853,
                                    0.015724211931228638,
                                    -0.08656392246484756,
                                    -0.07781268656253815,
                                    0.1541377305984497,
                                    0.017689965665340424,
                                    -0.07500362396240234,
                                    -0.05745139345526695,
                                    -0.03805450722575188,
                                    -0.03539146110415459,
                                    -0.17582498490810394,
                                    -0.11627321690320969,
                                    0.006296148058027029,
                                    0.01691005751490593,
                                    -0.014051096513867378,
                                    -0.015556995756924152,
                                    0.013412941247224808,
                                    0.00884616281837225,
                                    -0.06558339297771454,
                                    0.012226616032421589,
                                    0.07352983206510544,
                                    -0.10167009383440018,
                                    0.12466157972812653,
                                    -0.014888135716319084,
                                    -0.08815883845090866,
                                    -0.13549022376537323,
                                    0.005035500507801771,
                                    0.12373132258653641,
                                    0.06486573815345764
                                ],
                                [
                                    0.1474650502204895,
                                    -0.06906695663928986,
                                    -0.21461781859397888,
                                    0.009051689878106117,
                                    -0.05948739871382713,
                                    -0.006247921381145716,
                                    -0.016425034031271935,
                                    0.0489618293941021,
                                    0.12878446280956268,
                                    -0.2005220204591751,
                                    -0.10108504444360733,
                                    0.02853790856897831,
                                    -0.05431649833917618,
                                    0.022306835278868675,
                                    -0.09136489778757095,
                                    0.09497488290071487,
                                    -0.013944212347269058,
                                    -0.01776019297540188,
                                    -0.1800621598958969,
                                    0.058665502816438675,
                                    -0.016952989622950554,
                                    -0.0599089041352272,
                                    -0.031132856383919716,
                                    -0.23774728178977966,
                                    0.016885535791516304,
                                    -0.20450043678283691,
                                    0.09245087206363678,
