{
    "CNN_input_1": [
        {
            "b": [
                -0.16836392879486084,
                -0.03873062878847122,
                0.053282540291547775,
                -0.08374990522861481,
                -0.191500723361969,
                -0.1356191188097,
                0.1115422397851944,
                0.057414378970861435,
                -0.13484551012516022,
                -0.07721530646085739,
                0.03168511018157005,
                -0.08081843703985214,
                -0.037039030343294144,
                0.09491753578186035,
                -0.010659598745405674,
                0.012779777869582176,
                0.04996548593044281,
                -0.9431400895118713,
                -0.0356268510222435,
                0.04088288173079491,
                0.07361377030611038,
                0.001647837576456368,
                -0.11766861379146576,
                -0.09848888218402863
            ],
            "w": [
                [
                    [
                        [
                            -0.2245318740606308,
                            -0.14519768953323364
                        ],
                        [
                            -0.03510584682226181,
                            -0.179746612906456
                        ]
                    ]
                ],
                [
                    [
                        [
                            -0.40117576718330383,
                            0.059532687067985535
                        ],
                        [
                            0.14874733984470367,
                            -0.0005252320552244782
                        ]
                    ]
                ],
                [
                    [
                        [
                            0.07427925616502762,
                            -0.14029835164546967
                        ],
                        [
                            0.01681259460747242,
                            -0.1946997493505478
                        ]
                    ]
                ],
                [
                    [
                        [
                            -0.09019963443279266,
                            0.09729519486427307
                        ],
                        [
                            0.14120258390903473,
                            -0.22694550454616547
                        ]
                    ]
                ],
                [
                    [
                        [
                            0.14026302099227905,
                            0.46472811698913574
                        ],
                        [
                            -0.13481073081493378,
                            0.46144962310791016
                        ]
                    ]
                ],
                [
                    [
                        [
                            -0.0754455178976059,
                            -0.05083165317773819
                        ],
                        [
                            0.043065015226602554,
                            -0.2210276871919632
                        ]
                    ]
                ],
                [
                    [
                        [
                            0.0031328934710472822,
                            0.02362155355513096
                        ],
                        [
                            0.059275608509778976,
                            -0.018808303400874138
                        ]
                    ]
                ],
                [
                    [
                        [
                            -0.2218559831380844,
                            0.04465789347887039
                        ],
                        [
                            -0.29620665311813354,
                            -0.26102015376091003
                        ]
                    ]
                ],
                [
                    [
                        [
                            0.030537156388163567,
                            -0.13459618389606476
                        ],
                        [
                            -0.06647477298974991,
                            0.0391375869512558
                        ]
                    ]
                ],
                [
                    [
                        [
                            -0.19151261448860168,
                            0.13801828026771545
                        ],
                        [
                            -0.03999332711100578,
                            0.05789493769407272
                        ]
                    ]
                ],
                [
                    [
                        [
                            -0.12529213726520538,
                            -0.06805524230003357
                        ],
                        [
                            0.06420847773551941,
                            0.043416235595941544
                        ]
                    ]
                ],
                [
                    [
                        [
                            0.17022857069969177,
                            0.013602343387901783
                        ],
                        [
                            0.03220251202583313,
                            0.02049548178911209
                        ]
                    ]
                ],
                [
                    [
                        [
                            -0.12715356051921844,
                            -0.2713625729084015
                        ],
                        [
                            0.0456230528652668,
                            -0.13254407048225403
                        ]
                    ]
                ],
                [
                    [
                        [
                            0.06314821541309357,
                            0.043941743671894073
                        ],
                        [
                            0.12097610533237457,
                            -0.3359335660934448
                        ]
                    ]
                ],
                [
                    [
                        [
                            -0.13277111947536469,
                            -0.06190893426537514
                        ],
                        [
                            -0.05060325935482979,
                            0.19763760268688202
                        ]
                    ]
                ],
                [
                    [
                        [
                            -0.03518994525074959,
                            0.03768806904554367
                        ],
                        [
                            0.0834888145327568,
                            0.12058096379041672
                        ]
                    ]
                ],
                [
                    [
                        [
                            0.05580863729119301,
                            0.0821794793009758
                        ],
                        [
                            -0.3775232434272766,
                            -0.13324205577373505
                        ]
                    ]
                ],
                [
                    [
                        [
                            -0.15316130220890045,
                            -0.1984713226556778
                        ],
                        [
                            -0.2293197065591812,
                            -0.2125881165266037
                        ]
                    ]
                ],
                [
                    [
                        [
                            -0.042893290519714355,
                            -0.04005616903305054
                        ],
                        [
                            0.1276288777589798,
                            0.06251350790262222
                        ]
                    ]
                ],
                [
                    [
                        [
                            -0.2092682272195816,
                            -0.014631303027272224
                        ],
                        [
                            0.07997432351112366,
                            -0.046072036027908325
                        ]
                    ]
                ],
                [
                    [
                        [
                            -0.07007227092981339,
                            0.06739991903305054
                        ],
                        [
                            -0.11725969612598419,
                            -0.16262757778167725
                        ]
                    ]
                ],
                [
                    [
                        [
                            -0.49997320771217346,
                            -0.02947373129427433
                        ],
                        [
                            -0.26813122630119324,
                            -0.5890960693359375
                        ]
                    ]
                ],
                [
                    [
                        [
                            0.006796989589929581,
                            -0.06936664134263992
                        ],
                        [
                            -0.09514506906270981,
                            0.04215994477272034
                        ]
                    ]
                ],
                [
                    [
                        [
                            0.23413224518299103,
                            0.1335211992263794
                        ],
                        [
                            0.34581321477890015,
                            -0.07247613370418549
                        ]
                    ]
                ]
            ]
        }
    ],
    "CNN_input_2": [
        {
            "b": [
                0.6419852375984192,
                0.08298773318529129,
                0.12226856499910355,
                0.15217134356498718,
                -0.07919565588235855,
                0.3803245723247528,
                0.2078670859336853,
                0.09028986841440201,
                0.31738370656967163,
                0.09566193073987961,
                0.0625535175204277,
                -0.22282889485359192,
                -0.0005666384240612388,
                0.3661360442638397,
                -0.14798840880393982,
                0.10005634278059006,
                0.3103601634502411,
                -0.39053013920783997,
                0.0047195483930408955,
                -0.5877076983451843,
                -0.38634824752807617,
                -0.5168424844741821,
                -0.13137634098529816,
                0.10134081542491913
            ],
            "w": [
                [
                    [
                        [
                            -0.5096192955970764
                        ]
                    ],
                    [
                        [
                            0.5689793229103088
                        ]
                    ],
                    [
                        [
                            -0.43272387981414795
                        ]
                    ],
                    [
                        [
                            -0.6180473566055298
                        ]
                    ],
                    [
                        [
                            -0.5783367156982422
                        ]
                    ],
                    [
                        [
                            -0.1324964165687561
                        ]
                    ]
                ],
                [
                    [
                        [
                            -0.08942990750074387
                        ]
                    ],
                    [
                        [
                            -0.18593361973762512
                        ]
                    ],
                    [
                        [
                            -0.0558750219643116
                        ]
                    ],
                    [
                        [
                            -0.13316430151462555
                        ]
                    ],
                    [
                        [
                            -1.2806291580200195
                        ]
                    ],
                    [
                        [
                            -0.6812795400619507
                        ]
                    ]
                ],
                [
                    [
                        [
                            0.03962653502821922
                        ]
                    ],
                    [
                        [
                            0.7495042085647583
                        ]
                    ],
                    [
                        [
                            0.04820858687162399
                        ]
                    ],
                    [
                        [
                            -0.02251420170068741
                        ]
                    ],
                    [
                        [
                            -0.6401609182357788
                        ]
                    ],
                    [
                        [
                            -0.8364660143852234
                        ]
                    ]
                ],
                [
                    [
                        [
                            -0.16275310516357422
                        ]
                    ],
                    [
                        [
                            -1.3274178504943848
                        ]
                    ],
                    [
                        [
                            -0.10371968895196915
                        ]
                    ],
                    [
                        [
                            -0.08358839154243469
                        ]
                    ],
                    [
                        [
                            1.302126169204712
                        ]
                    ],
                    [
                        [
                            -0.3764478862285614
                        ]
                    ]
                ],
                [
                    [
                        [
                            0.03360958397388458
                        ]
                    ],
                    [
                        [
                            -0.33115798234939575
                        ]
                    ],
                    [
                        [
                            0.07522951811552048
                        ]
                    ],
                    [
                        [
                            0.05542895942926407
                        ]
                    ],
                    [
                        [
                            0.9659534096717834
                        ]
                    ],
                    [
                        [
                            -0.32298776507377625
                        ]
                    ]
                ],
                [
                    [
                        [
                            -0.4424230754375458
                        ]
                    ],
                    [
                        [
                            -0.2594663202762604
                        ]
                    ],
                    [
                        [
                            -0.318153977394104
                        ]
                    ],
                    [
                        [
                            -0.2827761471271515
                        ]
                    ],
                    [
                        [
                            0.42717230319976807
                        ]
                    ],
                    [
                        [
                            -1.0921913385391235
                        ]
                    ]
                ],
                [
                    [
                        [
                            -0.06839193403720856
                        ]
                    ],
                    [
                        [
                            0.5812631845474243
                        ]
                    ],
                    [
                        [
                            -0.1848958432674408
                        ]
                    ],
                    [
                        [
                            -0.21976955235004425
                        ]
                    ],
                    [
                        [
                            0.5748758316040039
                        ]
                    ],
                    [
                        [
                            0.4521998465061188
                        ]
                    ]
                ],
                [
                    [
                        [
                            -0.12602382898330688
                        ]
                    ],
                    [
                        [
                            0.07795652747154236
                        ]
                    ],
                    [
                        [
                            -0.05338853597640991
                        ]
                    ],
                    [
                        [
                            -0.011157036758959293
                        ]
                    ],
                    [
                        [
                            0.463077187538147
                        ]
                    ],
                    [
                        [
                            -0.03451327979564667
                        ]
                    ]
                ],
                [
                    [
                        [
                            -0.19567865133285522
                        ]
                    ],
                    [
                        [
                            -0.037170205265283585
                        ]
                    ],
                    [
                        [
                            -0.4588007628917694
                        ]
                    ],
                    [
                        [
                            -0.2285253405570984
                        ]
                    ],
                    [
                        [
                            -0.13013362884521484
                        ]
                    ],
                    [
                        [
                            0.7147462368011475
                        ]
                    ]
                ],
                [
                    [
                        [
                            0.04984653368592262
                        ]
                    ],
                    [
                        [
                            -0.23135650157928467
                        ]
                    ],
                    [
                        [
                            -0.26537787914276123
                        ]
                    ],
                    [
                        [
                            0.009170186705887318
                        ]
                    ],
                    [
                        [
                            -0.5825557112693787
                        ]
                    ],
                    [
                        [
                            0.45361799001693726
                        ]
                    ]
                ],
                [
                    [
                        [
                            -0.11861482262611389
                        ]
                    ],
                    [
                        [
                            0.568853497505188
                        ]
                    ],
                    [
                        [
                            -0.14542460441589355
                        ]
                    ],
                    [
                        [
                            0.1044546589255333
                        ]
                    ],
                    [
                        [
                            0.24059328436851501
                        ]
                    ],
                    [
                        [
                            0.3888132572174072
                        ]
                    ]
                ],
                [
                    [
                        [
                            0.308904230594635
                        ]
                    ],
                    [
                        [
                            0.6432448625564575
                        ]
                    ],
                    [
                        [
                            0.3792335093021393
                        ]
                    ],
                    [
                        [
                            0.4451585114002228
                        ]
                    ],
                    [
                        [
                            -0.39402925968170166
                        ]
                    ],
                    [
                        [
                            0.4683728814125061
                        ]
                    ]
                ],
                [
                    [
                        [
                            -0.03690185770392418
                        ]
                    ],
                    [
                        [
                            0.23354719579219818
                        ]
                    ],
                    [
                        [
                            -0.030980780720710754
                        ]
                    ],
                    [
                        [
                            0.15275418758392334
                        ]
                    ],
                    [
                        [
                            0.0016936741303652525
                        ]
                    ],
                    [
                        [
                            0.3748880624771118
                        ]
                    ]
                ],
                [
                    [
                        [
                            -0.3339795470237732
                        ]
                    ],
                    [
                        [
                            -0.19968460500240326
                        ]
                    ],
                    [
                        [
                            -0.417673796415329
                        ]
                    ],
                    [
                        [
                            -0.3958815634250641
                        ]
                    ],
                    [
                        [
                            -0.5305464863777161
                        ]
                    ],
                    [
                        [
                            0.753064751625061
                        ]
                    ]
                ],
                [
                    [
                        [
                            0.28364846110343933
                        ]
                    ],
                    [
                        [
                            -0.023778894916176796
                        ]
                    ],
                    [
                        [
                            0.18872708082199097
                        ]
                    ],
                    [
                        [
                            0.10995090007781982
                        ]
                    ],
                    [
                        [
                            -0.3890380561351776
                        ]
                    ],
                    [
                        [
                            0.38344132900238037
                        ]
                    ]
                ],
                [
                    [
                        [
                            0.001280490425415337
                        ]
                    ],
                    [
                        [
                            0.0861557126045227
                        ]
                    ],
                    [
                        [
                            -0.08224203437566757
                        ]
                    ],
                    [
                        [
                            0.05312979593873024
                        ]
                    ],
                    [
                        [
                            0.647459089756012
                        ]
                    ],
                    [
                        [
                            0.4534779489040375
                        ]
                    ]
                ],
                [
                    [
                        [
                            -0.16245801746845245
                        ]
                    ],
                    [
                        [
                            -0.5840282440185547
                        ]
                    ],
                    [
                        [
                            -0.19192878901958466
                        ]
                    ],
                    [
                        [
                            -0.33777180314064026
                        ]
                    ],
                    [
                        [
                            0.025518184527754784
                        ]
                    ],
                    [
                        [
                            -0.1389068067073822
                        ]
                    ]
                ],
                [
                    [
                        [
                            -0.685199499130249
                        ]
                    ],
                    [
                        [
                            -0.6244142055511475
                        ]
                    ],
                    [
                        [
                            -0.531184196472168
                        ]
                    ],
                    [
                        [
                            -0.3969463109970093
                        ]
                    ],
                    [
                        [
                            0.026826022192835808
                        ]
                    ],
                    [
                        [
                            -0.022575804963707924
                        ]
                    ]
                ],
                [
                    [
                        [
                            -0.22077330946922302
                        ]
                    ],
                    [
                        [
                            0.9123830795288086
                        ]
                    ],
                    [
                        [
                            0.0011354258749634027
                        ]
                    ],
                    [
                        [
                            0.20983411371707916
                        ]
                    ],
                    [
                        [
                            -0.01168898306787014
                        ]
                    ],
                    [
                        [
                            -0.6915347576141357
                        ]
                    ]
                ],
                [
                    [
                        [
                            0.44634878635406494
                        ]
                    ],
                    [
                        [
                            0.48152199387550354
                        ]
                    ],
                    [
                        [
                            0.33761832118034363
                        ]
                    ],
                    [
                        [
                            0.5106598734855652
                        ]
                    ],
                    [
                        [
                            -1.069475531578064
                        ]
                    ],
                    [
                        [
                            0.15681244432926178
                        ]
                    ]
                ],
                [
                    [
                        [
                            0.32300323247909546
                        ]
                    ],
                    [
                        [
                            -1.013489842414856
                        ]
                    ],
                    [
                        [
                            0.3639439642429352
                        ]
                    ],
                    [
                        [
                            0.4031558632850647
                        ]
                    ],
                    [
                        [
                            -0.5574894547462463
                        ]
                    ],
                    [
                        [
                            0.5802856683731079
                        ]
                    ]
                ],
                [
                    [
                        [
                            0.5663670897483826
                        ]
                    ],
                    [
                        [
                            0.13335268199443817
                        ]
                    ],
                    [
                        [
                            0.5370383262634277
                        ]
                    ],
                    [
                        [
                            0.513753354549408
                        ]
                    ],
                    [
                        [
                            0.03827366605401039
                        ]
                    ],
                    [
                        [
                            0.38517284393310547
                        ]
                    ]
                ],
                [
                    [
                        [
                            0.28654608130455017
                        ]
                    ],
                    [
                        [
                            0.6854918599128723
                        ]
                    ],
                    [
                        [
                            0.10827405005693436
                        ]
                    ],
                    [
                        [
                            0.3495124280452728
                        ]
                    ],
                    [
                        [
                            0.532768726348877
                        ]
                    ],
                    [
                        [
                            -0.8638507723808289
                        ]
                    ]
                ],
                [
                    [
                        [
                            -0.17162735760211945
                        ]
                    ],
                    [
                        [
                            -0.1018114760518074
                        ]
                    ],
                    [
                        [
                            -0.07157526910305023
                        ]
                    ],
                    [
                        [
                            -0.0720238983631134
                        ]
                    ],
                    [
                        [
                            0.5649306774139404
                        ]
                    ],
                    [
                        [
                            0.27802127599716187
                        ]
                    ]
                ]
            ]
        }
    ],
    "CNN_stage_2": [
        {
            "b": [
                -0.23620344698429108,
                -0.20031526684761047,
                -0.10571557283401489,
                0.029568392783403397,
                -0.7494087815284729,
                -0.4441537857055664,
                -0.21450088918209076,
                -0.2099159061908722,
                0.18924258649349213,
                -0.1966368705034256,
                -0.3799002468585968,
                0.22632558643817902,
                -0.26462996006011963,
                -0.16999857127666473,
                -0.28037574887275696,
                -0.013057203032076359,
                0.239076167345047,
                0.21640317142009735,
                -0.17100563645362854,
                -0.5347917675971985,
                -0.31277698278427124,
                -0.0455351285636425,
                -0.2148262858390808,
                -0.3682830333709717
            ],
            "w": [
                [
                    [
                        [
                            -0.025350380688905716,
                            -0.5462038516998291
                        ],
                        [
                            1.0279682874679565,
                            0.5450268983840942
                        ]
                    ],
                    [
                        [
                            0.1486842930316925,
                            -0.24467578530311584
                        ],
                        [
                            -1.1850947141647339,
                            0.9111061692237854
                        ]
                    ],
                    [
                        [
                            -0.33133572340011597,
                            -0.21673224866390228
                        ],
                        [
                            0.25278669595718384,
                            -0.34130215644836426
                        ]
                    ],
                    [
                        [
                            0.8665655851364136,
                            -1.893310785293579
                        ],
                        [
                            -0.1494428962469101,
                            1.9100285768508911
                        ]
                    ],
                    [
                        [
                            1.48700749874115,
                            -0.14028634130954742
                        ],
                        [
                            -1.22393798828125,
                            0.9769043922424316
                        ]
                    ],
                    [
                        [
                            0.13795436918735504,
                            -0.08913840353488922
                        ],
                        [
                            -0.23799701035022736,
                            -0.10424583405256271
                        ]
                    ],
                    [
                        [
                            -0.2789250314235687,
                            1.389737606048584
                        ],
                        [
                            -0.22725676000118256,
                            -0.7605558037757874
                        ]
                    ],
                    [
                        [
                            1.1889327764511108,
                            -2.4703798294067383
                        ],
                        [
                            2.513702869415283,
                            0.29935961961746216
                        ]
                    ],
                    [
                        [
                            0.2019370049238205,
                            -0.07652885466814041
                        ],
                        [
                            0.032664705067873,
                            0.040345411747694016
                        ]
                    ],
                    [
                        [
                            0.018658030778169632,
                            0.27665767073631287
                        ],
                        [
                            0.9014968276023865,
                            0.15061677992343903
                        ]
                    ],
                    [
                        [
                            0.5268820524215698,
                            1.7463077306747437
                        ],
                        [
                            1.5065886974334717,
                            -1.1265169382095337
                        ]
                    ],
                    [
                        [
                            -0.5316867232322693,
                            -0.40638497471809387
                        ],
                        [
                            0.3415871560573578,
                            0.023880505934357643
                        ]
                    ],
                    [
                        [
                            -1.080727219581604,
                            -0.21918556094169617
                        ],
                        [
                            0.34208056330680847,
                            2.01908802986145
                        ]
                    ],
                    [
                        [
                            0.029289789497852325,
                            0.8748027086257935
                        ],
                        [
                            1.428765892982483,
                            1.5525641441345215
                        ]
                    ],
                    [
                        [
                            1.0278428792953491,
                            -0.9202398061752319
                        ],
                        [
                            0.27066171169281006,
                            0.233860045671463
                        ]
                    ],
                    [
                        [
                            0.03431498631834984,
                            0.011030633002519608
                        ],
                        [
                            0.19262173771858215,
                            0.09466452896595001
                        ]
                    ],
                    [
                        [
                            0.6514762043952942,
                            0.3156375288963318
                        ],
                        [
                            0.25453630089759827,
                            -0.48102235794067383
                        ]
                    ],
                    [
                        [
                            0.24004709720611572,
                            -0.2611860930919647
                        ],
                        [
                            -0.05981798470020294,
                            0.15658216178417206
                        ]
                    ],
                    [
                        [
                            1.220869779586792,
                            1.1941149234771729
                        ],
                        [
                            -1.239084243774414,
                            -0.6809769868850708
                        ]
                    ],
                    [
                        [
                            -0.4454957842826843,
                            0.07973213493824005
                        ],
                        [
                            0.28976234793663025,
                            0.21467016637325287
                        ]
                    ],
                    [
                        [
                            1.3724193572998047,
                            -2.531219244003296
                        ],
                        [
                            1.7793854475021362,
                            0.5123458504676819
                        ]
                    ],
                    [
                        [
                            0.5757875442504883,
                            -1.610260009765625
                        ],
                        [
                            -1.183915138244629,
                            -0.5203949809074402
                        ]
                    ],
                    [
                        [
                            -1.2601733207702637,
                            0.2829115092754364
                        ],
                        [
                            -1.030959963798523,
                            1.3329709768295288
                        ]
                    ],
                    [
                        [
                            -0.19718055427074432,
                            -0.4764430820941925
                        ],
                        [
                            2.451326847076416,
                            2.155190944671631
                        ]
                    ]
                ],
                [
                    [
                        [
                            -1.620511770248413,
                            1.674516201019287
                        ],
                        [
                            1.4322906732559204,
                            2.212183713912964
                        ]
                    ],
                    [
                        [
                            1.1096785068511963,
                            -0.5178683400154114
                        ],
                        [
                            -0.4305253326892853,
                            -0.01834794133901596
                        ]
                    ],
                    [
                        [
                            -0.2104974240064621,
                            -0.5287508964538574
                        ],
                        [
                            -0.14956600964069366,
                            0.2632778584957123
                        ]
                    ],
                    [
                        [
                            1.2914788722991943,
                            0.9613825678825378
                        ],
                        [
                            -1.7227576971054077,
                            -0.7254853248596191
                        ]
                    ],
                    [
                        [
                            -0.925061047077179,
                            -0.8078212738037109
                        ],
                        [
                            -1.0746272802352905,
                            -1.5291403532028198
                        ]
                    ],
                    [
                        [
                            0.3492873013019562,
                            0.4382336139678955
                        ],
                        [
                            -0.47623878717422485,
                            0.008354315534234047
                        ]
                    ],
                    [
                        [
                            -1.144197702407837,
                            0.03408009558916092
                        ],
                        [
                            1.476761817932129,
                            -0.382285475730896
                        ]
                    ],
                    [
                        [
                            2.011012315750122,
                            2.3156731128692627
                        ],
                        [
                            0.29978030920028687,
                            3.0400309562683105
                        ]
                    ],
                    [
                        [
                            0.03675511106848717,
                            0.3798670768737793
                        ],
                        [
                            -0.2638787031173706,
                            0.16006043553352356
                        ]
                    ],
                    [
                        [
                            0.58920818567276,
                            0.11516428738832474
                        ],
                        [
                            -0.583478569984436,
                            -0.203364297747612
                        ]
                    ],
                    [
                        [
                            -0.7472764253616333,
                            -1.2135730981826782
                        ],
                        [
                            -1.3893024921417236,
                            -0.1634419709444046
                        ]
                    ],
                    [
                        [
                            -1.280463457107544,
                            -0.0656014010310173
                        ],
                        [
                            0.843769371509552,
                            0.4982750713825226
                        ]
                    ],
                    [
                        [
                            -1.2404377460479736,
                            1.2707645893096924
                        ],
                        [
                            2.1147119998931885,
                            0.4128473103046417
                        ]
                    ],
                    [
                        [
                            1.338638186454773,
                            2.303032875061035
                        ],
                        [
                            -0.23726016283035278,
                            1.2770600318908691
                        ]
                    ],
                    [
                        [
                            -1.8987274169921875,
                            0.7271140813827515
                        ],
                        [
                            2.1055684089660645,
                            -0.2570052742958069
                        ]
                    ],
                    [
                        [
                            0.3386898338794708,
                            0.12738874554634094
                        ],
                        [
                            -0.1665635108947754,
                            0.1411556899547577
                        ]
                    ],
                    [
                        [
                            -0.514039158821106,
                            0.19994346797466278
                        ],
                        [
                            0.017682792618870735,
                            -0.20231911540031433
                        ]
                    ],
                    [
                        [
                            0.11995670944452286,
                            0.03812459856271744
                        ],
                        [
                            -0.09729824960231781,
                            0.17192550003528595
                        ]
                    ],
                    [
                        [
                            -0.09280635416507721,
                            -0.7769138813018799
                        ],
                        [
                            -0.889313280582428,
                            -1.0839102268218994
                        ]
                    ],
                    [
                        [
                            -0.6350998878479004,
                            -0.037476345896720886
                        ],
                        [
                            0.2836337387561798,
                            0.10526777058839798
                        ]
                    ],
                    [
                        [
                            0.5022950172424316,
                            1.7210254669189453
                        ],
                        [
                            0.19642482697963715,
                            2.1952991485595703
                        ]
                    ],
                    [
                        [
                            1.2364190816879272,
                            -1.145377278327942
                        ],
                        [
                            -1.3320035934448242,
                            -0.6575837731361389
                        ]
                    ],
                    [
                        [
                            0.3663644790649414,
                            0.47295284271240234
                        ],
                        [
                            0.7562394738197327,
                            -0.7522230744361877
                        ]
                    ],
                    [
                        [
                            -0.9046998023986816,
                            1.4041180610656738
                        ],
                        [
                            1.0479217767715454,
                            -0.9466713070869446
                        ]
                    ]
                ],
                [
                    [
                        [
                            1.161787986755371,
                            1.5760372877120972
                        ],
                        [
                            -0.15394195914268494,
                            -2.5354442596435547
                        ]
                    ],
                    [
                        [
                            -0.5277743339538574,
                            0.5054765343666077
                        ],
                        [
                            0.2203597128391266,
                            -0.3035661578178406
                        ]
                    ],
                    [
                        [
                            0.6501290202140808,
                            -0.6632121801376343
                        ],
                        [
                            -0.36858847737312317,
                            0.9672983288764954
                        ]
                    ],
                    [
                        [
                            1.5015860795974731,
                            0.5929118990898132
                        ],
                        [
                            1.135329008102417,
                            -0.5441403388977051
                        ]
                    ],
                    [
                        [
                            0.14884600043296814,
                            -0.513174295425415
                        ],
                        [
                            1.4857444763183594,
                            -1.5356413125991821
                        ]
                    ],
                    [
                        [
                            0.14097841084003448,
                            -0.20970432460308075
                        ],
                        [
                            -0.2104939967393875,
                            -0.5422054529190063
                        ]
                    ],
                    [
                        [
                            0.5662955045700073,
                            -0.8324018716812134
                        ],
                        [
                            -0.45673900842666626,
                            -0.052956610918045044
                        ]
                    ],
                    [
                        [
                            1.5931814908981323,
                            1.914138674736023
                        ],
                        [
                            0.018640931695699692,
                            2.7947311401367188
                        ]
                    ],
                    [
                        [
                            -0.24537453055381775,
                            0.24052244424819946
                        ],
                        [
                            0.41480255126953125,
                            -0.37388116121292114
                        ]
                    ],
                    [
                        [
                            -0.7199791073799133,
                            0.234467014670372
                        ],
                        [
                            0.8737746477127075,
                            0.015985993668437004
                        ]
                    ],
                    [
                        [
                            2.27473521232605,
                            0.37317249178886414
                        ],
                        [
                            -0.19308161735534668,
                            -0.6467790007591248
                        ]
                    ],
                    [
                        [
                            0.4430495798587799,
                            -0.22289754450321198
                        ],
                        [
                            -0.08001712709665298,
                            -0.35054251551628113
                        ]
                    ],
                    [
                        [
                            -2.4358346462249756,
                            1.1071974039077759
                        ],
                        [
                            -0.36774399876594543,
                            1.032796859741211
                        ]
                    ],
                    [
                        [
                            -1.702294945716858,
                            -0.28831762075424194
                        ],
                        [
                            -1.0103437900543213,
                            -1.4572385549545288
                        ]
                    ],
                    [
                        [
                            -0.6118757128715515,
                            -0.8877256512641907
                        ],
                        [
                            -1.1611610651016235,
                            1.2624924182891846
                        ]
                    ],
                    [
                        [
                            0.002319199498742819,
                            0.20383508503437042
                        ],
                        [
                            0.0343165248632431,
                            -0.07470943033695221
                        ]
                    ],
                    [
                        [
                            0.32845062017440796,
                            0.3199419677257538
                        ],
                        [
                            -0.25728341937065125,
                            -0.4062623083591461
                        ]
                    ],
                    [
                        [
                            -0.0461387112736702,
                            0.36486366391181946
                        ],
                        [
                            0.08678022027015686,
                            -0.3956352174282074
                        ]
                    ],
                    [
                        [
                            0.19436483085155487,
                            -0.8146136999130249
                        ],
                        [
                            -0.2126496285200119,
                            0.09692031890153885
                        ]
                    ],
                    [
                        [
                            0.4377404749393463,
                            0.02114802598953247
                        ],
                        [
                            -0.5383866429328918,
                            0.18516625463962555
                        ]
                    ],
                    [
                        [
                            1.0886048078536987,
                            0.39920496940612793
                        ],
                        [
                            0.17011860013008118,
                            -0.2046056091785431
                        ]
                    ],
                    [
                        [
                            -2.376361846923828,
                            2.6910407543182373
                        ],
                        [
                            -0.35851460695266724,
                            0.8557450175285339
                        ]
                    ],
                    [
                        [
                            1.6623409986495972,
                            0.5775221586227417
                        ],
                        [
                            -0.08175431936979294,
                            -0.15014411509037018
                        ]
                    ],
                    [
                        [
                            -2.5899455547332764,
                            -2.220386266708374
                        ],
                        [
                            1.0831462144851685,
                            0.3742394745349884
                        ]
                    ]
                ],
                [
                    [
                        [
                            -1.1349447965621948,
                            -0.3743353486061096
                        ],
                        [
                            0.7671943306922913,
                            -2.0172648429870605
                        ]
                    ],
                    [
                        [
                            0.7114369869232178,
                            -0.046263694763183594
                        ],
                        [
                            0.04475565627217293,
                            0.37422677874565125
                        ]
                    ],
                    [
                        [
                            0.4194118082523346,
                            0.28358426690101624
                        ],
                        [
                            -0.019770706072449684,
                            0.47591131925582886
                        ]
                    ],
                    [
                        [
                            0.7455577254295349,
                            1.2170958518981934
                        ],
                        [
                            -0.07094261795282364,
                            -1.7103387117385864
                        ]
                    ],
                    [
                        [
                            -1.0237374305725098,
                            -0.6946872472763062
                        ],
                        [
                            0.3832205832004547,
                            -2.2075490951538086
                        ]
                    ],
                    [
                        [
                            0.9025595784187317,
                            -0.8254020810127258
                        ],
                        [
                            -0.052001677453517914,
                            -0.0951022282242775
                        ]
                    ],
                    [
                        [
                            -0.6228415369987488,
                            -1.143337368965149
                        ],
                        [
                            0.23271630704402924,
                            0.7528312802314758
                        ]
                    ],
                    [
                        [
                            1.1479073762893677,
                            -0.9403696060180664
                        ],
                        [
                            -0.2949000597000122,
                            0.321471631526947
                        ]
                    ],
                    [
                        [
                            -0.3603728115558624,
                            0.12949120998382568
                        ],
                        [
                            -0.3650452494621277,
                            -0.022030476480722427
                        ]
                    ],
                    [
                        [
                            -0.5300173759460449,
                            -0.165521502494812
                        ],
                        [
                            0.5177394151687622,
                            -0.5651570558547974
                        ]
                    ],
                    [
                        [
                            2.616532564163208,
                            1.6257750988006592
                        ],
                        [
                            -0.3908784091472626,
                            1.0817989110946655
                        ]
                    ],
                    [
                        [
                            -0.4399243891239166,
                            -0.23674196004867554
                        ],
                        [
                            0.15249276161193848,
                            -0.12876185774803162
                        ]
                    ],
                    [
                        [
                            -0.46699294447898865,
                            0.6327062249183655
                        ],
                        [
                            -0.5581771731376648,
                            2.0561883449554443
                        ]
                    ],
                    [
                        [
                            -1.9489054679870605,
                            -0.06469031423330307
                        ],
                        [
                            0.06558070331811905,
                            1.0411601066589355
                        ]
                    ],
                    [
                        [
                            -0.493793249130249,
                            0.785499632358551
                        ],
                        [
                            -0.35948628187179565,
                            -0.07769918441772461
                        ]
                    ],
                    [
                        [
                            -0.13175971806049347,
                            -0.4554152488708496
                        ],
                        [
                            0.36549052596092224,
                            0.05839516595005989
                        ]
                    ],
                    [
                        [
                            0.46619027853012085,
                            0.22221814095973969
                        ],
                        [
                            -0.047058407217264175,
                            -0.023869194090366364
                        ]
                    ],
                    [
                        [
                            -0.12988249957561493,
                            0.1379142850637436
                        ],
                        [
                            -0.21614466607570648,
                            -0.03220217302441597
                        ]
                    ],
                    [
                        [
                            0.5759132504463196,
                            0.01891639456152916
                        ],
                        [
                            0.39792463183403015,
                            -0.8942786455154419
                        ]
                    ],
                    [
                        [
                            0.4325754642486572,
                            -0.24832308292388916
                        ],
                        [
                            -0.10316447913646698,
                            0.16678138077259064
                        ]
                    ],
                    [
                        [
                            -0.9094529747962952,
                            -0.6739210486412048
                        ],
                        [
                            -0.11712565273046494,
                            -1.9888246059417725
                        ]
                    ],
                    [
                        [
                            -1.3019450902938843,
                            1.7813411951065063
                        ],
                        [
                            0.5329684615135193,
                            2.2502479553222656
                        ]
                    ],
                    [
                        [
                            0.7365908622741699,
                            2.273455858230591
                        ],
                        [
                            0.9275340437889099,
                            -1.506174921989441
                        ]
                    ],
                    [
                        [
                            -1.967944860458374,
                            -2.1864712238311768
                        ],
                        [
                            -0.09420283883810043,
                            -0.46198132634162903
                        ]
                    ]
                ],
                [
                    [
                        [
                            0.41021406650543213,
                            -1.34676194190979
                        ],
                        [
                            1.8841211795806885,
                            0.357982337474823
                        ]
                    ],
                    [
                        [
                            0.4731864333152771,
                            -1.1093300580978394
                        ],
                        [
                            0.1782766878604889,
                            0.9922651052474976
                        ]
                    ],
                    [
                        [
                            0.6713375449180603,
                            0.3021605908870697
                        ],
                        [
                            -0.20178651809692383,
                            -0.34833765029907227
                        ]
                    ],
                    [
                        [
                            -0.04757673665881157,
                            -2.319596767425537
                        ],
                        [
                            1.6659317016601562,
                            1.684180498123169
                        ]
                    ],
                    [
                        [
                            1.209743857383728,
                            -1.9424867630004883
                        ],
                        [
                            0.5966638326644897,
                            0.5230062007904053
                        ]
                    ],
                    [
                        [
                            -0.3195178210735321,
                            -0.4672929346561432
                        ],
                        [
                            0.19778203964233398,
                            0.513966977596283
                        ]
                    ],
                    [
                        [
                            -0.4816870093345642,
                            0.9216688871383667
                        ],
                        [
                            -0.6816621422767639,
                            -0.8295862078666687
                        ]
                    ],
                    [
                        [
                            1.3369823694229126,
                            1.4944260120391846
                        ],
                        [
                            -0.5514044165611267,
                            0.28646862506866455
                        ]
                    ],
                    [
                        [
                            -0.46081528067588806,
                            0.22730514407157898
                        ],
                        [
                            0.44044962525367737,
                            -0.24306181073188782
                        ]
                    ],
                    [
                        [
                            -0.23374010622501373,
                            1.1872053146362305
                        ],
                        [
                            0.27979612350463867,
                            -0.21763481199741364
                        ]
                    ],
                    [
                        [
                            -3.4433679580688477,
                            2.278101921081543
                        ],
                        [
                            -2.9774889945983887,
                            -0.4710487723350525
                        ]
                    ],
                    [
                        [
                            -0.6044743061065674,
                            -0.933817982673645
                        ],
                        [
                            0.6143200993537903,
                            0.02263697423040867
                        ]
                    ],
                    [
                        [
                            -3.1003525257110596,
                            -0.2527558207511902
                        ],
                        [
                            -0.4997809827327728,
                            0.46837499737739563
                        ]
                    ],
                    [
                        [
                            -2.0387585163116455,
                            1.1199852228164673
                        ],
                        [
                            0.18012283742427826,
                            1.3528352975845337
                        ]
                    ],
                    [
                        [
                            -2.228346824645996,
                            -0.5765628218650818
                        ],
                        [
                            0.34562554955482483,
                            -1.1335258483886719
                        ]
                    ],
                    [
                        [
                            -0.22739151120185852,
                            -0.023943565785884857
                        ],
                        [
                            -0.09355524182319641,
                            0.2736709713935852
                        ]
                    ],
                    [
                        [
                            -1.142042875289917,
                            0.3022727370262146
                        ],
                        [
                            -0.6165358424186707,
                            -0.5812162160873413
                        ]
                    ],
                    [
                        [
                            0.09600667655467987,
                            -0.2564837336540222
                        ],
                        [
                            0.6599448323249817,
                            0.5319253206253052
                        ]
                    ],
                    [
                        [
                            -1.3438959121704102,
                            0.032133158296346664
                        ],
                        [
                            -0.5066256523132324,
                            -1.435697078704834
                        ]
                    ],
                    [
                        [
                            -0.4955774247646332,
                            0.24291987717151642
                        ],
                        [
                            -0.19577424228191376,
                            -0.36310911178588867
                        ]
                    ],
                    [
                        [
                            0.9207006096839905,
                            -0.771457314491272
                        ],
                        [
                            0.850382924079895,
                            0.42032018303871155
                        ]
                    ],
                    [
                        [
                            0.8034514784812927,
                            -1.2292765378952026
                        ],
                        [
                            -4.23518180847168,
                            0.4026040732860565
                        ]
                    ],
                    [
                        [
                            -1.0431725978851318,
                            -1.194079875946045
                        ],
                        [
                            1.724961280822754,
                            0.8765382766723633
                        ]
                    ],
                    [
                        [
                            -1.4575315713882446,
                            -2.0634002685546875
                        ],
                        [
                            2.6646525859832764,
                            -0.3186309337615967
                        ]
                    ]
                ],
                [
                    [
                        [
                            -0.29725754261016846,
                            -0.028352685272693634
                        ],
                        [
                            0.8735044598579407,
                            1.2616485357284546
                        ]
                    ],
                    [
                        [
                            0.09972511976957321,
                            0.23255449533462524
                        ],
                        [
                            0.1844823956489563,
                            0.6370829939842224
                        ]
                    ],
                    [
                        [
                            -0.19289733469486237,
                            0.0631512850522995
                        ],
                        [
                            0.09038500487804413,
                            -0.3414444625377655
                        ]
                    ],
                    [
                        [
                            0.2901234030723572,
                            -0.1771940439939499
                        ],
                        [
                            -0.10160963982343674,
                            0.5278705954551697
                        ]
                    ],
                    [
                        [
                            -0.36824238300323486,
                            0.2813943922519684
                        ],
                        [
                            -2.227329969406128,
                            -1.3857355117797852
                        ]
                    ],
                    [
                        [
                            -0.14338146150112152,
                            0.08739176392555237
                        ],
                        [
                            0.3607569634914398,
                            0.207302987575531
                        ]
                    ],
                    [
                        [
                            0.31070154905319214,
                            0.15393272042274475
                        ],
                        [
                            -0.002083961386233568,
                            -0.20361195504665375
                        ]
                    ],
                    [
                        [
                            0.45380255579948425,
                            -0.8888064622879028
                        ],
                        [
                            2.9473628997802734,
                            1.1614078283309937
                        ]
                    ],
                    [
                        [
                            0.23844029009342194,
                            -0.30850571393966675
                        ],
                        [
                            0.2090555727481842,
                            0.11014887690544128
                        ]
                    ],
                    [
                        [
                            0.3401434123516083,
                            -0.1385643035173416
                        ],
                        [
                            0.30650559067726135,
                            0.05030452087521553
                        ]
                    ],
                    [
                        [
                            0.842271625995636,
                            -0.25323763489723206
                        ],
                        [
                            -1.2683830261230469,
                            -1.3432615995407104
                        ]
                    ],
                    [
                        [
                            0.1615035980939865,
                            -0.23828071355819702
                        ],
                        [
                            0.3069525957107544,
                            0.14143769443035126
                        ]
                    ],
                    [
                        [
                            -0.07412964105606079,
                            -1.036108136177063
                        ],
                        [
                            0.2867291569709778,
                            1.2384129762649536
                        ]
                    ],
                    [
                        [
                            0.7951656579971313,
                            0.5828179121017456
                        ],
                        [
                            -0.624565839767456,
                            1.0211231708526611
                        ]
                    ],
                    [
                        [
                            0.48077788949012756,
                            -0.4095665514469147
                        ],
                        [
                            0.01467314176261425,
                            0.8730639815330505
                        ]
                    ],
                    [
                        [
                            0.16612175107002258,
                            -0.17464780807495117
                        ],
                        [
                            0.2565482556819916,
                            0.0029812806751579046
                        ]
                    ],
                    [
                        [
                            0.3516364097595215,
                            -0.29330554604530334
                        ],
                        [
                            -0.07506974041461945,
                            -0.46112027764320374
                        ]
                    ],
                    [
                        [
                            -0.44006937742233276,
                            -0.3087728023529053
                        ],
                        [
                            0.9775276780128479,
                            0.2027362734079361
                        ]
                    ],
                    [
                        [
                            0.5934382677078247,
                            1.2062077522277832
                        ],
                        [
                            -2.456470251083374,
                            -1.3015258312225342
                        ]
                    ],
                    [
                        [
                            0.0006871601799502969,
                            -0.2811499536037445
                        ],
                        [
                            -0.1414046287536621,
                            0.11782842874526978
                        ]
                    ],
                    [
                        [
                            0.0315355509519577,
                            -0.6488418579101562
                        ],
                        [
                            1.1261595487594604,
                            0.7876300811767578
                        ]
                    ],
                    [
                        [
                            -1.438072681427002,
                            -1.1647716760635376
                        ],
                        [
                            -0.4908524751663208,
                            -1.1103558540344238
                        ]
                    ],
                    [
                        [
                            0.8394981622695923,
                            -0.5112953186035156
                        ],
                        [
                            -0.34716466069221497,
                            0.8179668188095093
                        ]
                    ],
                    [
                        [
                            0.6313619017601013,
                            -0.016895098611712456
                        ],
                        [
                            -0.18333029747009277,
                            1.8147189617156982
                        ]
                    ]
                ],
                [
                    [
                        [
                            -0.7822503447532654,
                            1.7020100355148315
                        ],
                        [
                            -0.04557286947965622,
                            0.44084838032722473
                        ]
                    ],
                    [
                        [
                            -0.8156594038009644,
                            -0.6178873181343079
                        ],
                        [
                            -0.4213411509990692,
                            0.5498396158218384
                        ]
                    ],
                    [
                        [
                            -0.7221135497093201,
                            0.3202739655971527
                        ],
                        [
                            0.12578055262565613,
                            -0.15872223675251007
                        ]
                    ],
                    [
                        [
                            0.44914332032203674,
                            -1.3029335737228394
                        ],
                        [
                            -0.6585467457771301,
                            0.8210112452507019
                        ]
                    ],
                    [
                        [
                            2.1265130043029785,
                            -0.7766516208648682
                        ],
                        [
                            0.2733966112136841,
                            1.7029510736465454
                        ]
                    ],
                    [
                        [
                            1.2343357801437378,
                            -0.44636473059654236
                        ],
                        [
                            -0.31140080094337463,
                            -0.10224445164203644
                        ]
                    ],
                    [
                        [
                            0.42287182807922363,
                            0.4569542407989502
                        ],
                        [
                            0.5439077019691467,
                            -0.4800918400287628
                        ]
                    ],
                    [
                        [
                            -1.4120932817459106,
                            0.138651043176651
                        ],
                        [
                            0.3404850959777832,
                            -0.343380331993103
                        ]
                    ],
                    [
                        [
                            -0.11205695569515228,
                            0.08172155916690826
                        ],
                        [
                            0.47479915618896484,
                            -0.19494067132472992
                        ]
                    ],
                    [
                        [
                            -0.08519933372735977,
                            0.5651720762252808
                        ],
                        [
                            0.46666455268859863,
                            0.25636419653892517
                        ]
                    ],
                    [
                        [
                            0.3010605275630951,
                            -1.52306067943573
                        ],
                        [
                            1.1736047267913818,
                            0.27780577540397644
                        ]
                    ],
                    [
                        [
                            0.5840147733688354,
                            -0.5228776335716248
                        ],
                        [
                            0.50191730260849,
                            -0.5887218117713928
                        ]
                    ],
                    [
                        [
                            0.7737913727760315,
                            1.1320515871047974
                        ],
                        [
                            0.4097256660461426,
                            -1.9745413064956665
                        ]
                    ],
                    [
                        [
                            -0.5753297209739685,
                            0.7878676652908325
                        ],
                        [
                            0.4067189395427704,
                            2.203672409057617
                        ]
                    ],
                    [
                        [
                            -0.07825672626495361,
                            1.3079159259796143
                        ],
                        [
                            0.4191727340221405,
                            -0.9113488793373108
                        ]
                    ],
                    [
                        [
                            0.030476076528429985,
                            0.2120092362165451
                        ],
                        [
                            0.01922548934817314,
                            0.02352818101644516
                        ]
                    ],
                    [
                        [
                            -0.009465149603784084,
                            -0.03399944677948952
                        ],
                        [
                            0.17408224940299988,
                            0.05691506713628769
                        ]
                    ],
                    [
                        [
                            -0.11652731150388718,
                            0.22600966691970825
                        ],
                        [
                            -0.23443542420864105,
                            0.2039058953523636
                        ]
                    ],
                    [
                        [
                            -0.02915271930396557,
                            -0.47877025604248047
                        ],
                        [
                            0.1621154546737671,
                            1.1925462484359741
                        ]
                    ],
                    [
                        [
                            0.14065824449062347,
                            0.17713381350040436
                        ],
                        [
                            -0.12459097802639008,
                            -0.17174971103668213
                        ]
                    ],
                    [
                        [
                            1.4549956321716309,
                            -0.9847800731658936
                        ],
                        [
                            -0.5490516424179077,
                            0.673139214515686
                        ]
                    ],
                    [
                        [
                            0.7168444395065308,
                            -0.32226529717445374
                        ],
                        [
                            -0.30335715413093567,
                            0.22251485288143158
                        ]
                    ],
                    [
                        [
                            -0.5934954285621643,
                            -1.4133107662200928
                        ],
                        [
                            -1.2213512659072876,
                            -1.3098164796829224
                        ]
                    ],
                    [
                        [
                            1.682202696800232,
                            -0.49281492829322815
                        ],
                        [
                            0.0013917582109570503,
                            -1.3961714506149292
                        ]
                    ]
                ],
                [
                    [
                        [
                            -0.14204621315002441,
                            1.191585659980774
                        ],
                        [
                            -0.22517229616641998,
                            -0.20282289385795593
                        ]
                    ],
                    [
                        [
                            -0.42060357332229614,
                            0.820196807384491
                        ],
                        [
                            -0.6391706466674805,
                            1.0813462734222412
                        ]
                    ],
                    [
                        [
                            -0.05431576445698738,
                            -0.8411750793457031
                        ],
                        [
                            0.4659304618835449,
                            0.13963750004768372
                        ]
                    ],
                    [
                        [
                            -0.8846620917320251,
                            1.1352242231369019
                        ],
                        [
                            -0.6883493065834045,
                            -0.09534171968698502
                        ]
                    ],
                    [
                        [
                            0.9377453327178955,
                            2.393223285675049
                        ],
                        [
                            0.25730082392692566,
                            -1.2009670734405518
                        ]
                    ],
                    [
                        [
                            0.035790178924798965,
                            0.5197175741195679
                        ],
                        [
                            -0.18266117572784424,
                            -0.13184061646461487
                        ]
                    ],
                    [
                        [
                            0.7958575487136841,
                            -1.1466360092163086
                        ],
                        [
                            0.6519730687141418,
                            0.0939541831612587
                        ]
                    ],
                    [
                        [
                            1.0500370264053345,
                            -0.8856260776519775
                        ],
                        [
                            -1.9439163208007812,
                            -0.6304072737693787
                        ]
                    ],
                    [
                        [
                            0.20041705667972565,
                            0.1645910143852234
                        ],
                        [
                            0.05171460285782814,
                            -0.07241777330636978
                        ]
                    ],
                    [
                        [
                            -0.03242136910557747,
                            -0.19092178344726562
                        ],
                        [
                            0.4185245633125305,
                            -0.7391486763954163
                        ]
                    ],
                    [
                        [
                            -1.4598321914672852,
                            -1.622835397720337
                        ],
                        [
                            2.60569429397583,
                            -0.26845410466194153
                        ]
                    ],
                    [
                        [
                            0.16435246169567108,
                            -0.09166066348552704
                        ],
                        [
                            0.18632763624191284,
                            -0.07295655459165573
                        ]
                    ],
                    [
                        [
                            -2.28947377204895,
                            0.06404054909944534
                        ],
                        [
                            0.6271131038665771,
                            -0.34776580333709717
                        ]
                    ],
                    [
                        [
                            -0.5609961152076721,
                            0.8374125361442566
                        ],
                        [
                            0.3088798522949219,
                            -0.5446332097053528
                        ]
                    ],
                    [
                        [
                            -0.29793083667755127,
                            -0.15558643639087677
                        ],
                        [
                            -0.9804418683052063,
                            0.05577661469578743
                        ]
                    ],
                    [
                        [
                            0.1564788520336151,
                            -0.11240901052951813
                        ],
                        [
                            0.18466949462890625,
                            -0.0707637146115303
                        ]
                    ],
                    [
                        [
                            -0.2283632904291153,
                            -0.05335751175880432
                        ],
                        [
                            0.6686314344406128,
                            -0.7818174958229065
                        ]
                    ],
                    [
                        [
                            0.10658365488052368,
                            -0.2253178209066391
                        ],
                        [
                            -0.21544978022575378,
                            0.3160575330257416
                        ]
                    ],
                    [
                        [
                            -1.0767823457717896,
                            0.514629065990448
                        ],
                        [
                            2.584991693496704,
                            0.4854711890220642
                        ]
                    ],
                    [
                        [
                            -0.284959077835083,
                            -0.14928875863552094
                        ],
                        [
                            0.30413535237312317,
                            -0.10808040201663971
                        ]
                    ],
                    [
                        [
                            1.7816855907440186,
                            1.0430638790130615
                        ],
                        [
                            -0.9493690729141235,
                            -0.5621834397315979
                        ]
                    ],
                    [
                        [
                            -1.6266454458236694,
                            1.745080828666687
                        ],
                        [
                            0.15831677615642548,
                            -1.185076355934143
                        ]
                    ],
                    [
                        [
                            -0.9748306274414062,
                            0.7846729159355164
                        ],
                        [
                            -2.150895357131958,
                            0.523237407207489
                        ]
                    ],
                    [
                        [
                            -0.5863956212997437,
                            0.07402420789003372
                        ],
                        [
                            1.4225283861160278,
                            0.12785349786281586
