{
    "CNN_input_1": [
        {
            "b": [
                0.09976422786712646,
                -0.00826278142631054,
                0.14518028497695923,
                -0.05042721703648567,
                -0.13597863912582397,
                -0.10693193227052689,
                0.07783196866512299,
                0.08790195733308792,
                -0.009592568501830101,
                -0.28541651368141174,
                -0.017376691102981567,
                0.08621326088905334,
                -0.023215780034661293,
                0.008667967282235622,
                -0.16064120829105377,
                -0.17214566469192505,
                0.024614036083221436,
                -0.02604200318455696,
                -0.03019460290670395,
                0.1550852209329605,
                0.15158870816230774,
                0.1685851663351059,
                -0.10983137786388397,
                -0.04674695059657097
            ],
            "w": [
                [
                    [
                        [
                            -1.044412612915039,
                            -0.020988566800951958
                        ],
                        [
                            -0.2923656404018402,
                            -0.709821343421936
                        ]
                    ]
                ],
                [
                    [
                        [
                            -0.08038379997015,
                            0.10808254778385162
                        ],
                        [
                            0.011121271178126335,
                            0.011414985172450542
                        ]
                    ]
                ],
                [
                    [
                        [
                            -0.1522187888622284,
                            -0.3562037944793701
                        ],
                        [
                            -0.6095743179321289,
                            -0.5731877088546753
                        ]
                    ]
                ],
                [
                    [
                        [
                            0.20665857195854187,
                            0.030202364549040794
                        ],
                        [
                            0.07320642471313477,
                            0.06603176891803741
                        ]
                    ]
                ],
                [
                    [
                        [
                            0.3373125493526459,
                            0.32048627734184265
                        ],
                        [
                            0.29313716292381287,
                            0.7292182445526123
                        ]
                    ]
                ],
                [
                    [
                        [
                            1.3972944021224976,
                            0.8506335616111755
                        ],
                        [
                            0.9032903909683228,
                            0.09129892289638519
                        ]
                    ]
                ],
                [
                    [
                        [
                            -0.4741407036781311,
                            0.9892640113830566
                        ],
                        [
                            0.9111620783805847,
                            0.05776739865541458
                        ]
                    ]
                ],
                [
                    [
                        [
                            -0.17688672244548798,
                            0.10119498521089554
                        ],
                        [
                            -0.3327691853046417,
                            -0.27505630254745483
                        ]
                    ]
                ],
                [
                    [
                        [
                            0.1677253693342209,
                            -0.19057734310626984
                        ],
                        [
                            -0.13488684594631195,
                            -0.04217478260397911
                        ]
                    ]
                ],
                [
                    [
                        [
                            0.2605130672454834,
                            -0.04108373448252678
                        ],
                        [
                            0.05744129419326782,
                            0.3499431610107422
                        ]
                    ]
                ],
                [
                    [
                        [
                            -0.6143172979354858,
                            -0.17929509282112122
                        ],
                        [
                            0.9362408518791199,
                            0.1476222574710846
                        ]
                    ]
                ],
                [
                    [
                        [
                            1.2144962549209595,
                            -0.911016047000885
                        ],
                        [
                            1.061316728591919,
                            -0.5416231155395508
                        ]
                    ]
                ],
                [
                    [
                        [
                            0.5135312080383301,
                            -0.8548099994659424
                        ],
                        [
                            0.5432649850845337,
                            -0.3062073290348053
                        ]
                    ]
                ],
                [
                    [
                        [
                            -0.07302675396203995,
                            0.08424949645996094
                        ],
                        [
                            -0.08293285220861435,
                            0.013044225051999092
                        ]
                    ]
                ],
                [
                    [
                        [
                            -0.4724917411804199,
                            -0.6021063327789307
                        ],
                        [
                            -0.5985854268074036,
                            0.921175479888916
                        ]
                    ]
                ],
                [
                    [
                        [
                            0.6568812727928162,
                            0.7762840390205383
                        ],
                        [
                            -0.974452555179596,
                            1.0298731327056885
                        ]
                    ]
                ],
                [
                    [
                        [
                            -0.0533466637134552,
                            0.03642993047833443
                        ],
                        [
                            -0.013161655515432358,
                            0.030705533921718597
                        ]
                    ]
                ],
                [
                    [
                        [
                            -0.14604318141937256,
                            -0.039414726197719574
                        ],
                        [
                            -0.0557950958609581,
                            -0.0038602864369750023
                        ]
                    ]
                ],
                [
                    [
                        [
                            0.18443073332309723,
                            0.18851573765277863
                        ],
                        [
                            0.3864414691925049,
                            0.14796315133571625
                        ]
                    ]
                ],
                [
                    [
                        [
                            0.5767051577568054,
                            -0.24307741224765778
                        ],
                        [
                            -0.4504022002220154,
                            -0.710119903087616
                        ]
                    ]
                ],
                [
                    [
                        [
                            -0.1463032215833664,
                            0.9622191190719604
                        ],
                        [
                            0.013264043256640434,
                            -0.07438552379608154
                        ]
                    ]
                ],
                [
                    [
                        [
                            -0.26094120740890503,
                            0.4934369921684265
                        ],
                        [
                            -0.1124134212732315,
                            -0.7022489905357361
                        ]
                    ]
                ],
                [
                    [
                        [
                            0.6303279995918274,
                            -0.8559029698371887
                        ],
                        [
                            -0.8702808022499084,
                            0.217344731092453
                        ]
                    ]
                ],
                [
                    [
                        [
                            0.962603747844696,
                            0.024410495534539223
                        ],
                        [
                            0.3790256381034851,
                            0.03756026178598404
                        ]
                    ]
                ]
            ]
        }
    ],
    "CNN_input_2": [
        {
            "b": [
                -0.012872178107500076,
                -0.19067755341529846,
                -0.031314436346292496,
                -0.19815956056118011,
                0.19065503776073456,
                0.09122469276189804,
                -0.057323068380355835,
                0.12762455642223358,
                0.028519930317997932,
                0.14290381968021393,
                0.1448160707950592,
                -0.0252506285905838,
                0.027069611474871635,
                -0.03184208646416664,
                -0.15300486981868744,
                0.03741288557648659,
                0.16698895394802094,
                0.1229318380355835,
                0.011353589594364166,
                -0.29463404417037964,
                -0.03870529681444168,
                -0.09416097402572632,
                0.1109488233923912,
                0.15347442030906677
            ],
            "w": [
                [
                    [
                        [
                            -1.2333216667175293
                        ]
                    ],
                    [
                        [
                            0.5689793229103088
                        ]
                    ],
                    [
                        [
                            -0.21933427453041077
                        ]
                    ],
                    [
                        [
                            -1.08896803855896
                        ]
                    ],
                    [
                        [
                            -0.5783367156982422
                        ]
                    ],
                    [
                        [
                            -0.1324964165687561
                        ]
                    ]
                ],
                [
                    [
                        [
                            -0.8814168572425842
                        ]
                    ],
                    [
                        [
                            -0.18593361973762512
                        ]
                    ],
                    [
                        [
                            0.1783718317747116
                        ]
                    ],
                    [
                        [
                            -0.19833403825759888
                        ]
                    ],
                    [
                        [
                            -1.2806291580200195
                        ]
                    ],
                    [
                        [
                            -0.6812795400619507
                        ]
                    ]
                ],
                [
                    [
                        [
                            -0.6356144547462463
                        ]
                    ],
                    [
                        [
                            0.7495042085647583
                        ]
                    ],
                    [
                        [
                            -0.1441916525363922
                        ]
                    ],
                    [
                        [
                            0.6344296932220459
                        ]
                    ],
                    [
                        [
                            -0.6401609182357788
                        ]
                    ],
                    [
                        [
                            -0.8364660143852234
                        ]
                    ]
                ],
                [
                    [
                        [
                            -0.7434431314468384
                        ]
                    ],
                    [
                        [
                            -1.3274178504943848
                        ]
                    ],
                    [
                        [
                            0.15226320922374725
                        ]
                    ],
                    [
                        [
                            0.1402912437915802
                        ]
                    ],
                    [
                        [
                            1.302126169204712
                        ]
                    ],
                    [
                        [
                            -0.3764478862285614
                        ]
                    ]
                ],
                [
                    [
                        [
                            -0.30076631903648376
                        ]
                    ],
                    [
                        [
                            -0.33115798234939575
                        ]
                    ],
                    [
                        [
                            -0.2437364012002945
                        ]
                    ],
                    [
                        [
                            0.8875043988227844
                        ]
                    ],
                    [
                        [
                            0.9659534096717834
                        ]
                    ],
                    [
                        [
                            -0.32298776507377625
                        ]
                    ]
                ],
                [
                    [
                        [
                            -1.163248062133789
                        ]
                    ],
                    [
                        [
                            -0.2594663202762604
                        ]
                    ],
                    [
                        [
                            -0.30206501483917236
                        ]
                    ],
                    [
                        [
                            -0.07890486717224121
                        ]
                    ],
                    [
                        [
                            0.42717230319976807
                        ]
                    ],
                    [
                        [
                            -1.0921913385391235
                        ]
                    ]
                ],
                [
                    [
                        [
                            0.20232072472572327
                        ]
                    ],
                    [
                        [
                            0.5812631845474243
                        ]
                    ],
                    [
                        [
                            -0.4341185688972473
                        ]
                    ],
                    [
                        [
                            -0.4391981363296509
                        ]
                    ],
                    [
                        [
                            0.5748758316040039
                        ]
                    ],
                    [
                        [
                            0.4521998465061188
                        ]
                    ]
                ],
                [
                    [
                        [
                            -1.7525267601013184
                        ]
                    ],
                    [
                        [
                            0.07795652747154236
                        ]
                    ],
                    [
                        [
                            -0.06858665496110916
                        ]
                    ],
                    [
                        [
                            1.1232199668884277
                        ]
                    ],
                    [
                        [
                            0.463077187538147
                        ]
                    ],
                    [
                        [
                            -0.03451327979564667
                        ]
                    ]
                ],
                [
                    [
                        [
                            -0.4121165871620178
                        ]
                    ],
                    [
                        [
                            -0.037170205265283585
                        ]
                    ],
                    [
                        [
                            -0.08741729706525803
                        ]
                    ],
                    [
                        [
                            -0.9106022119522095
                        ]
                    ],
                    [
                        [
                            -0.13013362884521484
                        ]
                    ],
                    [
                        [
                            0.7147462368011475
                        ]
                    ]
                ],
                [
                    [
                        [
                            0.06313078105449677
                        ]
                    ],
                    [
                        [
                            -0.23135650157928467
                        ]
                    ],
                    [
                        [
                            -0.13318970799446106
                        ]
                    ],
                    [
                        [
                            -0.3091094195842743
                        ]
                    ],
                    [
                        [
                            -0.5825557112693787
                        ]
                    ],
                    [
                        [
                            0.45361799001693726
                        ]
                    ]
                ],
                [
                    [
                        [
                            -0.6980897784233093
                        ]
                    ],
                    [
                        [
                            0.568853497505188
                        ]
                    ],
                    [
                        [
                            -0.8623302578926086
                        ]
                    ],
                    [
                        [
                            0.9816998839378357
                        ]
                    ],
                    [
                        [
                            0.24059328436851501
                        ]
                    ],
                    [
                        [
                            0.3888132572174072
                        ]
                    ]
                ],
                [
                    [
                        [
                            0.3609480857849121
                        ]
                    ],
                    [
                        [
                            0.6432448625564575
                        ]
                    ],
                    [
                        [
                            0.4404536485671997
                        ]
                    ],
                    [
                        [
                            0.4508953392505646
                        ]
                    ],
                    [
                        [
                            -0.39402925968170166
                        ]
                    ],
                    [
                        [
                            0.4683728814125061
                        ]
                    ]
                ],
                [
                    [
                        [
                            -0.7058289051055908
                        ]
                    ],
                    [
                        [
                            0.23354719579219818
                        ]
                    ],
                    [
                        [
                            -0.05132439360022545
                        ]
                    ],
                    [
                        [
                            0.3675040304660797
                        ]
                    ],
                    [
                        [
                            0.0016936741303652525
                        ]
                    ],
                    [
                        [
                            0.3748880624771118
                        ]
                    ]
                ],
                [
                    [
                        [
                            -0.7214171886444092
                        ]
                    ],
                    [
                        [
                            -0.19968460500240326
                        ]
                    ],
                    [
                        [
                            0.058748871088027954
                        ]
                    ],
                    [
                        [
                            0.003106797579675913
                        ]
                    ],
                    [
                        [
                            -0.5305464863777161
                        ]
                    ],
                    [
                        [
                            0.753064751625061
                        ]
                    ]
                ],
                [
                    [
                        [
                            0.12430237978696823
                        ]
                    ],
                    [
                        [
                            -0.023778894916176796
                        ]
                    ],
                    [
                        [
                            0.37649407982826233
                        ]
                    ],
                    [
                        [
                            -0.23655547201633453
                        ]
                    ],
                    [
                        [
                            -0.3890380561351776
                        ]
                    ],
                    [
                        [
                            0.38344132900238037
                        ]
                    ]
                ],
                [
                    [
                        [
                            -0.31675830483436584
                        ]
                    ],
                    [
                        [
                            0.0861557126045227
                        ]
                    ],
                    [
                        [
                            0.08551334589719772
                        ]
                    ],
                    [
                        [
                            0.1660691201686859
                        ]
                    ],
                    [
                        [
                            0.647459089756012
                        ]
                    ],
                    [
                        [
                            0.4534779489040375
                        ]
                    ]
                ],
                [
                    [
                        [
                            0.01598968356847763
                        ]
                    ],
                    [
                        [
                            -0.5840282440185547
                        ]
                    ],
                    [
                        [
                            -0.1433529555797577
                        ]
                    ],
                    [
                        [
                            -0.14859779179096222
                        ]
                    ],
                    [
                        [
                            0.025518184527754784
                        ]
                    ],
                    [
                        [
                            -0.1389068067073822
                        ]
                    ]
                ],
                [
                    [
                        [
                            -0.5180583596229553
                        ]
                    ],
                    [
                        [
                            -0.6244142055511475
                        ]
                    ],
                    [
                        [
                            -0.06524956226348877
                        ]
                    ],
                    [
                        [
                            -0.3009602129459381
                        ]
                    ],
                    [
                        [
                            0.026826022192835808
                        ]
                    ],
                    [
                        [
                            -0.022575804963707924
                        ]
                    ]
                ],
                [
                    [
                        [
                            -0.29445338249206543
                        ]
                    ],
                    [
                        [
                            0.9123830795288086
                        ]
                    ],
                    [
                        [
                            -0.01256989873945713
                        ]
                    ],
                    [
                        [
                            0.15301182866096497
                        ]
                    ],
                    [
                        [
                            -0.01168898306787014
                        ]
                    ],
                    [
                        [
                            -0.6915347576141357
                        ]
                    ]
                ],
                [
                    [
                        [
                            0.7064498662948608
                        ]
                    ],
                    [
                        [
                            0.48152199387550354
                        ]
                    ],
                    [
                        [
                            0.5928434133529663
                        ]
                    ],
                    [
                        [
                            0.6671751141548157
                        ]
                    ],
                    [
                        [
                            -1.069475531578064
                        ]
                    ],
                    [
                        [
                            0.15681244432926178
                        ]
                    ]
                ],
                [
                    [
                        [
                            -0.5353457927703857
                        ]
                    ],
                    [
                        [
                            -1.013489842414856
                        ]
                    ],
                    [
                        [
                            0.37269994616508484
                        ]
                    ],
                    [
                        [
                            0.7068362236022949
                        ]
                    ],
                    [
                        [
                            -0.5574894547462463
                        ]
                    ],
                    [
                        [
                            0.5802856683731079
                        ]
                    ]
                ],
                [
                    [
                        [
                            0.5591495037078857
                        ]
                    ],
                    [
                        [
                            0.13335268199443817
                        ]
                    ],
                    [
                        [
                            0.12910982966423035
                        ]
                    ],
                    [
                        [
                            0.01710427738726139
                        ]
                    ],
                    [
                        [
                            0.03827366605401039
                        ]
                    ],
                    [
                        [
                            0.38517284393310547
                        ]
                    ]
                ],
                [
                    [
                        [
                            0.8484799861907959
                        ]
                    ],
                    [
                        [
                            0.6854918599128723
                        ]
                    ],
                    [
                        [
                            -0.20806121826171875
                        ]
                    ],
                    [
                        [
                            0.41102126240730286
                        ]
                    ],
                    [
                        [
                            0.532768726348877
                        ]
                    ],
                    [
                        [
                            -0.8638507723808289
                        ]
                    ]
                ],
                [
                    [
                        [
                            -0.27041783928871155
                        ]
                    ],
                    [
                        [
                            -0.1018114760518074
                        ]
                    ],
                    [
                        [
                            -0.4843396544456482
                        ]
                    ],
                    [
                        [
                            0.38126668334007263
                        ]
                    ],
                    [
                        [
                            0.5649306774139404
                        ]
                    ],
                    [
                        [
                            0.27802127599716187
                        ]
                    ]
                ]
            ]
        }
    ],
    "CNN_stage_2": [
        {
            "b": [
                -0.3738364577293396,
                -0.46665114164352417,
                -0.24103502929210663,
                -0.5029840469360352,
                -0.1870693415403366,
                0.23370417952537537,
                -0.09573321044445038,
                -0.1414041817188263,
                -0.18856748938560486,
                -0.072295181453228,
                -0.4318341910839081,
                -0.10247130692005157,
                -0.22887462377548218,
                -0.4890037477016449,
                -0.16843178868293762,
                -0.2889356315135956,
                -0.3868967890739441,
                -0.1184077188372612,
                -0.21381893754005432,
                -0.28883200883865356,
                -0.44050848484039307,
                0.023066723719239235,
                -0.3099624216556549,
                -0.1782871037721634
            ],
            "w": [
                [
                    [
                        [
                            -0.7839421033859253,
                            0.3232933282852173
                        ],
                        [
                            0.12156606465578079,
                            -0.2033093124628067
                        ]
                    ],
                    [
                        [
                            0.047689422965049744,
                            -0.04113660752773285
                        ],
                        [
                            0.16993989050388336,
                            0.19157183170318604
                        ]
                    ],
                    [
                        [
                            -0.026143919676542282,
                            0.2143414318561554
                        ],
                        [
                            -0.05085597187280655,
                            -0.1462622433900833
                        ]
                    ],
                    [
                        [
                            -0.05119851231575012,
                            -0.4116135835647583
                        ],
                        [
                            -0.2203090637922287,
                            0.1936383843421936
                        ]
                    ],
                    [
                        [
                            0.09597890079021454,
                            -0.31755515933036804
                        ],
                        [
                            -0.05884365364909172,
                            0.572310745716095
                        ]
                    ],
                    [
                        [
                            0.1470320224761963,
                            -0.5415428280830383
                        ],
                        [
                            -0.15354472398757935,
                            -0.3147920072078705
                        ]
                    ],
                    [
                        [
                            -0.3144894242286682,
                            0.4420999586582184
                        ],
                        [
                            0.08903685957193375,
                            -0.056720443069934845
                        ]
                    ],
                    [
                        [
                            -0.22596009075641632,
                            -0.3033064007759094
                        ],
                        [
                            0.24969932436943054,
                            0.008002525195479393
                        ]
                    ],
                    [
                        [
                            0.4637620747089386,
                            -0.36649805307388306
                        ],
                        [
                            0.14634749293327332,
                            -0.340546578168869
                        ]
                    ],
                    [
                        [
                            -0.07014574855566025,
                            -0.6285776495933533
                        ],
                        [
                            -0.2508324682712555,
                            0.242777481675148
                        ]
                    ],
                    [
                        [
                            -0.25838515162467957,
                            0.33079078793525696
                        ],
                        [
                            0.2865939736366272,
                            0.19167499244213104
                        ]
                    ],
                    [
                        [
                            -0.8178072571754456,
                            0.04760025441646576
                        ],
                        [
                            -0.11882733553647995,
                            0.17717432975769043
                        ]
                    ],
                    [
                        [
                            -0.022690804675221443,
                            -0.0644022524356842
                        ],
                        [
                            0.1602797955274582,
                            0.007821601815521717
                        ]
                    ],
                    [
                        [
                            -0.059330374002456665,
                            0.26149240136146545
                        ],
                        [
                            0.04718327522277832,
                            0.12798084318637848
                        ]
                    ],
                    [
                        [
                            -0.00885020848363638,
                            -0.11910861730575562
                        ],
                        [
                            -0.1592215597629547,
                            -0.6655364632606506
                        ]
                    ],
                    [
                        [
                            0.05878950655460358,
                            0.286960244178772
                        ],
                        [
                            0.21762388944625854,
                            -0.3941279649734497
                        ]
                    ],
                    [
                        [
                            0.25890517234802246,
                            0.07612742483615875
                        ],
                        [
                            0.02496405877172947,
                            -0.06452685594558716
                        ]
                    ],
                    [
                        [
                            -0.06326372921466827,
                            -0.34681662917137146
                        ],
                        [
                            0.052409958094358444,
                            0.053573377430438995
                        ]
                    ],
                    [
                        [
                            -0.21435779333114624,
                            -0.4379051625728607
                        ],
                        [
                            -0.019032679498195648,
                            0.08535541594028473
                        ]
                    ],
                    [
                        [
                            -0.4731004536151886,
                            0.4061308801174164
                        ],
                        [
                            -0.01848098635673523,
                            0.2842695713043213
                        ]
                    ],
                    [
                        [
                            0.31036025285720825,
                            -0.1712406724691391
                        ],
                        [
                            0.10481321811676025,
                            0.35493552684783936
                        ]
                    ],
                    [
                        [
                            0.20287616550922394,
                            -0.513691782951355
                        ],
                        [
                            -0.006007528398185968,
                            0.6853222250938416
                        ]
                    ],
                    [
                        [
                            0.34588006138801575,
                            -0.08128317445516586
                        ],
                        [
                            -0.12001557648181915,
                            0.3184518814086914
                        ]
                    ],
                    [
                        [
                            0.6861493587493896,
                            -0.6489591598510742
                        ],
                        [
                            0.16112467646598816,
                            -0.11725205928087234
                        ]
                    ]
                ],
                [
                    [
                        [
                            -0.4775390326976776,
                            0.1528196930885315
                        ],
                        [
                            0.18012844026088715,
                            0.22316037118434906
                        ]
                    ],
                    [
                        [
                            -0.010060234926640987,
                            0.19235920906066895
                        ],
                        [
                            -0.2392631471157074,
                            -0.09975487738847733
                        ]
                    ],
                    [
                        [
                            -0.14867796003818512,
                            -0.032611194998025894
                        ],
                        [
                            0.10966144502162933,
                            0.5318648815155029
                        ]
                    ],
                    [
                        [
                            0.1735413521528244,
                            -0.10350104421377182
                        ],
                        [
                            -0.26252126693725586,
                            0.030317433178424835
                        ]
                    ],
                    [
                        [
                            0.13549193739891052,
                            0.29108765721321106
                        ],
                        [
                            -0.23731684684753418,
                            -0.369053453207016
                        ]
                    ],
                    [
                        [
                            0.7542920112609863,
                            0.4002923369407654
                        ],
                        [
                            0.05676206201314926,
                            -0.07435902953147888
                        ]
                    ],
                    [
                        [
                            -0.1526486724615097,
                            0.4761548340320587
                        ],
                        [
                            0.02194787748157978,
                            -0.22283197939395905
                        ]
                    ],
                    [
                        [
                            -0.05500577390193939,
                            0.11361243575811386
                        ],
                        [
                            -0.23010189831256866,
                            -0.14061638712882996
                        ]
                    ],
                    [
                        [
                            -0.23677319288253784,
                            -0.07816996425390244
                        ],
                        [
                            -0.06336340308189392,
                            -0.07793449610471725
                        ]
                    ],
                    [
                        [
                            -0.18812327086925507,
                            -0.48495569825172424
                        ],
                        [
                            -0.4156096875667572,
                            -0.38736408948898315
                        ]
                    ],
                    [
                        [
                            -0.2679803669452667,
                            -0.16556215286254883
                        ],
                        [
                            -0.14717258512973785,
                            -0.1296936720609665
                        ]
                    ],
                    [
                        [
                            -0.4232577383518219,
                            0.10033870488405228
                        ],
                        [
                            -0.3244764804840088,
                            0.3469107151031494
                        ]
                    ],
                    [
                        [
                            0.11966662853956223,
                            -0.11851076781749725
                        ],
                        [
                            0.10103708505630493,
                            0.019469091668725014
                        ]
                    ],
                    [
                        [
                            0.059641893953084946,
                            0.2530086934566498
                        ],
                        [
                            -0.06469082832336426,
                            0.13835598528385162
                        ]
                    ],
                    [
                        [
                            0.26583772897720337,
                            0.31519588828086853
                        ],
                        [
                            0.5436475276947021,
                            0.14172424376010895
                        ]
                    ],
                    [
                        [
                            -0.271433562040329,
                            0.13947169482707977
                        ],
                        [
                            0.3218163847923279,
                            -0.006896493025124073
                        ]
                    ],
                    [
                        [
                            0.20686660706996918,
                            -0.043041784316301346
                        ],
                        [
                            -0.13130229711532593,
                            0.03006157837808132
                        ]
                    ],
                    [
                        [
                            -0.09239966422319412,
                            -0.06470250338315964
                        ],
                        [
                            -0.04566335678100586,
                            0.15893933176994324
                        ]
                    ],
                    [
                        [
                            0.3280612826347351,
                            0.2842545211315155
                        ],
                        [
                            -0.007605318911373615,
                            -0.16041313111782074
                        ]
                    ],
                    [
                        [
                            -0.14847926795482635,
                            -0.13724885880947113
                        ],
                        [
                            -0.10916009545326233,
                            -0.39659571647644043
                        ]
                    ],
                    [
                        [
                            -0.09342889487743378,
                            -0.49527615308761597
                        ],
                        [
                            -0.19680385291576385,
                            -0.07266789674758911
                        ]
                    ],
                    [
                        [
                            0.21273173391819,
                            -0.23451276123523712
                        ],
                        [
                            -0.15839743614196777,
                            -0.2764369547367096
                        ]
                    ],
                    [
                        [
                            0.0939713642001152,
                            -0.18359380960464478
                        ],
                        [
                            -0.11094226688146591,
                            0.1271636188030243
                        ]
                    ],
                    [
                        [
                            0.49573877453804016,
                            -0.22409410774707794
                        ],
                        [
                            0.37560227513313293,
                            -0.09649039059877396
                        ]
                    ]
                ],
                [
                    [
                        [
                            -0.08808263391256332,
                            0.09545523673295975
                        ],
                        [
                            -0.2869579792022705,
                            -0.4449318051338196
                        ]
                    ],
                    [
                        [
                            0.11310970038175583,
                            -0.19517876207828522
                        ],
                        [
                            0.3776610791683197,
                            0.12310679256916046
                        ]
                    ],
                    [
                        [
                            -0.17541943490505219,
                            0.02398616075515747
                        ],
                        [
                            -0.47261202335357666,
                            0.12318409234285355
                        ]
                    ],
                    [
                        [
                            0.1607070118188858,
                            -0.09534979611635208
                        ],
                        [
                            -0.16552649438381195,
                            0.23498064279556274
                        ]
                    ],
                    [
                        [
                            0.472610205411911,
                            -0.23980428278446198
                        ],
                        [
                            0.19626812636852264,
                            0.2057146579027176
                        ]
                    ],
                    [
                        [
                            0.07244452834129333,
                            0.2891606390476227
                        ],
                        [
                            0.45198240876197815,
                            -0.24398557841777802
                        ]
                    ],
                    [
                        [
                            0.3203922212123871,
                            0.007730607409030199
                        ],
                        [
                            0.3216559886932373,
                            -0.1097995713353157
                        ]
                    ],
                    [
                        [
                            -0.24855461716651917,
                            0.09759822487831116
                        ],
                        [
                            0.09216145426034927,
                            -0.07328202575445175
                        ]
                    ],
                    [
                        [
                            0.027776040136814117,
                            -0.24860210716724396
                        ],
                        [
                            0.02160041034221649,
                            -0.16597814857959747
                        ]
                    ],
                    [
                        [
                            -0.042920392006635666,
                            -0.4062684178352356
                        ],
                        [
                            -0.0015428339829668403,
                            0.11277952790260315
                        ]
                    ],
                    [
                        [
                            0.36778905987739563,
                            -0.5038731098175049
                        ],
                        [
                            0.22712184488773346,
                            0.15524794161319733
                        ]
                    ],
                    [
                        [
                            0.06842153519392014,
                            -0.18172085285186768
                        ],
                        [
                            -0.28647708892822266,
                            -0.05773384869098663
                        ]
                    ],
                    [
                        [
                            -0.13445882499217987,
                            -0.43827956914901733
                        ],
                        [
                            -0.31319093704223633,
                            0.1672658771276474
                        ]
                    ],
                    [
                        [
                            -0.2769352197647095,
                            -0.18682511150836945
                        ],
                        [
                            -0.0088596036657691,
                            0.1597457379102707
                        ]
                    ],
                    [
                        [
                            0.27573731541633606,
                            0.501440703868866
                        ],
                        [
                            0.5302028059959412,
                            -0.2598309814929962
                        ]
                    ],
                    [
                        [
                            -0.13960708677768707,
                            0.16775143146514893
                        ],
                        [
                            0.019483808428049088,
                            -0.15316329896450043
                        ]
                    ],
                    [
                        [
                            -0.06580624729394913,
                            -0.00757746072486043
                        ],
                        [
                            -0.06224300339818001,
                            -0.3364693224430084
                        ]
                    ],
                    [
                        [
                            -0.25074049830436707,
                            0.05502516031265259
                        ],
                        [
                            0.011553285643458366,
                            -0.17017264664173126
                        ]
                    ],
                    [
                        [
                            0.5619779229164124,
                            0.057079579681158066
                        ],
                        [
                            0.4505978524684906,
                            -0.07089883834123611
                        ]
                    ],
                    [
                        [
                            -0.013547263108193874,
                            -0.2716619670391083
                        ],
                        [
                            -0.28656038641929626,
                            -0.13958877325057983
                        ]
                    ],
                    [
                        [
                            -0.05322115123271942,
                            -0.4433635175228119
                        ],
                        [
                            -0.11054570227861404,
                            0.29459434747695923
                        ]
                    ],
                    [
                        [
                            0.09708977490663528,
                            -0.3022400140762329
                        ],
                        [
                            -0.3111423850059509,
                            0.4671456813812256
                        ]
                    ],
                    [
                        [
                            -0.15724784135818481,
                            -0.34195008873939514
                        ],
                        [
                            -0.4176754653453827,
                            0.3066243529319763
                        ]
                    ],
                    [
                        [
                            -0.0816088616847992,
                            0.2678665518760681
                        ],
                        [
                            0.49518856406211853,
                            -0.2487880289554596
                        ]
                    ]
                ],
                [
                    [
                        [
                            -0.11427366733551025,
                            -0.12357889860868454
                        ],
                        [
                            -0.14964477717876434,
                            -0.10575064271688461
                        ]
                    ],
                    [
                        [
                            -0.19557344913482666,
                            -0.020616760477423668
                        ],
                        [
                            -0.021923985332250595,
                            -0.2807823121547699
                        ]
                    ],
                    [
                        [
                            -0.1960497796535492,
                            -0.2410327047109604
                        ],
                        [
                            -0.29166826605796814,
                            0.07890299707651138
                        ]
                    ],
                    [
                        [
                            -0.11844062060117722,
                            -0.06920623034238815
                        ],
                        [
                            0.101860910654068,
                            0.06687600910663605
                        ]
                    ],
                    [
                        [
                            0.15868841111660004,
                            0.2638796269893646
                        ],
                        [
                            0.02012571692466736,
                            0.029556069523096085
                        ]
                    ],
                    [
                        [
                            -0.0014642757596448064,
                            0.0583602674305439
                        ],
                        [
                            0.10723698139190674,
                            0.14760075509548187
                        ]
                    ],
                    [
                        [
                            0.05658876150846481,
                            -0.054644644260406494
                        ],
                        [
                            0.25446417927742004,
                            -0.1413991004228592
                        ]
                    ],
                    [
                        [
                            0.06138323247432709,
                            -0.17338085174560547
                        ],
                        [
                            -0.19778475165367126,
                            -0.154142364859581
                        ]
                    ],
                    [
                        [
                            -0.2984788715839386,
                            -0.33925846219062805
                        ],
                        [
                            -0.2550908029079437,
                            -0.059422388672828674
                        ]
                    ],
                    [
                        [
                            -0.0940617099404335,
                            -0.3919323980808258
                        ],
                        [
                            -0.02810511738061905,
                            0.07688025385141373
                        ]
                    ],
                    [
                        [
                            0.2737787663936615,
                            -0.05877595394849777
                        ],
                        [
                            -0.16607095301151276,
                            -0.0018960360903292894
                        ]
                    ],
                    [
                        [
                            -0.06147471442818642,
                            -0.01724262908101082
                        ],
                        [
                            -0.02483486197888851,
                            0.19323016703128815
                        ]
                    ],
                    [
                        [
                            -0.08413771539926529,
                            0.1357017308473587
                        ],
                        [
                            -0.06648480892181396,
                            -0.03373568505048752
                        ]
                    ],
                    [
                        [
                            -0.0035670713987201452,
                            -0.1378091275691986
                        ],
                        [
                            -0.03571813553571701,
                            0.2842995524406433
                        ]
                    ],
                    [
                        [
                            0.18691912293434143,
                            0.17357578873634338
                        ],
                        [
                            0.23425297439098358,
                            -0.03273208066821098
                        ]
                    ],
                    [
                        [
                            -0.011198953725397587,
                            -0.19051142036914825
                        ],
                        [
                            0.029633386060595512,
                            0.09104432910680771
                        ]
                    ],
                    [
                        [
                            -0.2551313042640686,
                            0.047599710524082184
                        ],
                        [
                            -0.2905285954475403,
                            -0.09005921334028244
                        ]
                    ],
                    [
                        [
                            -0.2576395869255066,
                            -0.21051330864429474
                        ],
                        [
                            0.03197648376226425,
                            -0.18139326572418213
                        ]
                    ],
                    [
                        [
                            0.22199317812919617,
                            0.2506350576877594
                        ],
                        [
                            -0.14926472306251526,
                            0.18284888565540314
                        ]
                    ],
                    [
                        [
                            0.09038112312555313,
                            -0.1305137574672699
                        ],
                        [
                            -0.20466065406799316,
                            0.1627124547958374
                        ]
                    ],
                    [
                        [
                            -0.26068735122680664,
                            -0.283885657787323
                        ],
                        [
                            -0.31068193912506104,
                            -0.2280377298593521
                        ]
                    ],
                    [
                        [
                            -0.09044193476438522,
                            -0.1946045607328415
                        ],
                        [
                            0.030571039766073227,
                            0.3613787889480591
                        ]
                    ],
                    [
                        [
                            -0.21678201854228973,
                            0.009009056724607944
                        ],
                        [
                            -0.041839584708213806,
                            0.2862597107887268
                        ]
                    ],
                    [
                        [
                            -0.24514400959014893,
                            -0.13848580420017242
                        ],
                        [
                            0.14660197496414185,
                            0.09775283187627792
                        ]
                    ]
                ],
                [
                    [
                        [
                            0.06957285106182098,
                            -0.3662831485271454
                        ],
                        [
                            -0.44191375374794006,
                            -0.08404569327831268
                        ]
                    ],
                    [
                        [
                            -0.13381366431713104,
                            -0.16940565407276154
                        ],
                        [
                            0.036135394126176834,
                            -0.15862248837947845
                        ]
                    ],
                    [
                        [
                            -0.24895749986171722,
                            0.1315426379442215
                        ],
                        [
                            -0.03747903183102608,
                            -0.5250639915466309
                        ]
                    ],
                    [
                        [
                            -0.36860379576683044,
                            0.14754149317741394
                        ],
                        [
                            0.3263910114765167,
                            0.12589086592197418
                        ]
                    ],
                    [
                        [
                            -0.11385457217693329,
                            0.28766846656799316
                        ],
                        [
                            0.3434876501560211,
                            0.20731309056282043
                        ]
                    ],
                    [
                        [
                            -0.16857659816741943,
                            0.24131999909877777
                        ],
                        [
                            -0.09629172831773758,
                            0.34405210614204407
                        ]
                    ],
                    [
                        [
                            0.2809392213821411,
                            0.13062134385108948
                        ],
                        [
                            -0.33422771096229553,
                            0.6215574145317078
                        ]
                    ],
                    [
                        [
                            0.07419691234827042,
                            0.2718702554702759
                        ],
                        [
                            -0.037575263530015945,
                            -0.3520708382129669
                        ]
                    ],
                    [
                        [
                            -0.16413632035255432,
                            0.012688584625720978
                        ],
                        [
                            -0.05894004553556442,
                            -0.33247095346450806
                        ]
                    ],
                    [
                        [
                            -0.5385343432426453,
                            0.04799069091677666
                        ],
                        [
                            0.14978119730949402,
                            -0.057433176785707474
                        ]
                    ],
                    [
                        [
                            0.5779644846916199,
                            -0.08939202129840851
                        ],
                        [
                            -0.42196303606033325,
                            0.5362080931663513
                        ]
                    ],
                    [
                        [
                            0.37595677375793457,
                            -0.0427975058555603
                        ],
                        [
                            0.2848248779773712,
                            0.05326566845178604
                        ]
                    ],
                    [
                        [
                            -0.3078993558883667,
                            -0.1696435660123825
                        ],
                        [
                            -0.12224410474300385,
                            0.08079791814088821
                        ]
                    ],
                    [
                        [
                            0.24029070138931274,
                            0.09144788235425949
                        ],
                        [
                            -0.03252759203314781,
                            0.15517526865005493
                        ]
                    ],
                    [
                        [
                            -0.06529036164283752,
                            -0.15786300599575043
                        ],
                        [
                            -0.12802422046661377,
                            0.11882925778627396
                        ]
                    ],
                    [
                        [
                            0.6064243316650391,
                            -0.39284881949424744
                        ],
                        [
                            -0.07418039441108704,
                            -0.11131159216165543
                        ]
                    ],
                    [
                        [
                            0.10877449810504913,
                            0.020485416054725647
                        ],
                        [
                            -0.16397227346897125,
                            0.010535145178437233
                        ]
                    ],
                    [
                        [
                            0.0828186497092247,
                            0.1496579647064209
                        ],
                        [
                            0.24376791715621948,
                            -0.07624154537916183
                        ]
                    ],
                    [
                        [
                            0.003928000573068857,
                            0.1589168906211853
                        ],
                        [
                            -0.01885354332625866,
                            0.3086670935153961
                        ]
                    ],
                    [
                        [
                            0.2025357186794281,
                            0.30109572410583496
                        ],
                        [
                            0.15282824635505676,
                            0.13131533563137054
                        ]
                    ],
                    [
                        [
                            -0.30957531929016113,
                            -0.3632805347442627
                        ],
                        [
                            0.1763734072446823,
                            -0.23325838148593903
                        ]
                    ],
                    [
                        [
                            -0.4804403781890869,
                            -0.04745100438594818
                        ],
                        [
                            0.24056221544742584,
                            0.2613135576248169
                        ]
                    ],
                    [
                        [
                            -0.41138964891433716,
                            -0.16510604321956635
                        ],
                        [
                            0.13483430445194244,
                            -0.5932601690292358
                        ]
                    ],
                    [
                        [
                            -0.45341387391090393,
                            -0.0003481463354546577
                        ],
                        [
                            0.03661198168992996,
                            0.08015778660774231
                        ]
                    ]
                ],
                [
                    [
                        [
                            -0.6521962285041809,
                            -0.3173382878303528
                        ],
                        [
                            0.12052682787179947,
                            -0.27496665716171265
                        ]
                    ],
                    [
                        [
                            -0.05136851966381073,
                            0.0626741275191307
                        ],
                        [
                            -0.002659035148099065,
                            0.14857788383960724
                        ]
                    ],
                    [
                        [
                            -0.6828294396400452,
                            -0.5539288520812988
                        ],
                        [
                            -0.14902834594249725,
                            -0.18923722207546234
                        ]
                    ],
                    [
                        [
                            0.0679619237780571,
                            -0.020449858158826828
                        ],
                        [
                            0.42251813411712646,
                            -0.13201332092285156
                        ]
                    ],
                    [
                        [
                            0.6631103754043579,
                            0.40458348393440247
                        ],
                        [
                            0.006043051835149527,
                            0.5848404765129089
                        ]
                    ],
                    [
                        [
                            0.8436284065246582,
                            0.6801520586013794
                        ],
                        [
                            0.15241023898124695,
                            0.32490381598472595
                        ]
                    ],
                    [
                        [
                            0.20020470023155212,
                            0.4920470118522644
                        ],
                        [
                            0.2062096893787384,
                            -0.024613380432128906
                        ]
                    ],
                    [
                        [
                            0.11204206943511963,
                            0.0912354364991188
                        ],
                        [
                            0.2665115296840668,
                            0.24354152381420135
                        ]
                    ],
                    [
                        [
                            0.21134215593338013,
                            -0.28846266865730286
                        ],
                        [
                            -0.07513324171304703,
                            0.07234955579042435
                        ]
                    ],
                    [
                        [
                            -0.07418978214263916,
                            0.10567352175712585
                        ],
                        [
                            -0.06064406782388687,
                            0.23994314670562744
                        ]
                    ],
                    [
                        [
                            0.01422241423279047,
                            -0.1611270308494568
                        ],
                        [
                            -0.0012140496401116252,
                            -0.03098220005631447
                        ]
                    ],
                    [
                        [
                            -0.18146640062332153,
                            -0.06733478605747223
                        ],
                        [
                            -0.19279733300209045,
                            0.43789413571357727
                        ]
                    ],
                    [
                        [
                            0.1567862331867218,
                            -0.2676478922367096
                        ],
                        [
                            0.08207810670137405,
                            0.2010466456413269
                        ]
                    ],
                    [
                        [
                            -0.13674330711364746,
                            -0.030061516910791397
                        ],
                        [
                            -0.1810496300458908,
                            0.07983055710792542
                        ]
                    ],
                    [
                        [
                            0.432853639125824,
                            0.40783703327178955
                        ],
                        [
                            0.40701860189437866,
                            -0.3843144178390503
                        ]
                    ],
                    [
                        [
                            -0.5396655201911926,
                            -0.23499558866024017
                        ],
                        [
                            -0.18553383648395538,
                            -0.37500783801078796
                        ]
                    ],
                    [
                        [
                            -0.13260520994663239,
                            -0.18086110055446625
                        ],
                        [
                            -0.06559913605451584,
                            -0.13205495476722717
                        ]
                    ],
                    [
                        [
                            0.02649752050638199,
                            -0.24029484391212463
                        ],
                        [
                            0.2209627628326416,
                            0.04071686789393425
                        ]
                    ],
                    [
                        [
                            0.3617396950721741,
                            0.444121390581131
                        ],
                        [
                            -0.052519604563713074,
                            0.21222208440303802
                        ]
                    ],
                    [
                        [
                            0.15107226371765137,
                            0.29399004578590393
                        ],
                        [
                            -0.08010978996753693,
                            0.367488294839859
                        ]
                    ],
                    [
                        [
                            0.01861916482448578,
                            -0.26575541496276855
                        ],
                        [
                            -0.07367152720689774,
                            -0.03448624908924103
                        ]
                    ],
                    [
                        [
                            0.045742522925138474,
                            -0.3020189702510834
                        ],
                        [
                            0.08815799653530121,
                            0.32612112164497375
                        ]
                    ],
                    [
                        [
                            0.2455078512430191,
                            -0.20275962352752686
                        ],
                        [
                            -0.05289289727807045,
                            0.10368996113538742
                        ]
                    ],
                    [
                        [
                            0.5007556080818176,
                            0.23855479061603546
                        ],
                        [
                            0.25587475299835205,
                            -0.1198202520608902
                        ]
                    ]
                ],
                [
                    [
                        [
                            -0.28386810421943665,
                            -0.2821768820285797
                        ],
                        [
                            0.1123279258608818,
                            0.42088428139686584
                        ]
                    ],
                    [
                        [
                            0.02252485230565071,
                            0.032246630638837814
                        ],
                        [
                            -0.20949719846248627,
                            -0.08000275492668152
                        ]
                    ],
                    [
                        [
                            -0.11400095373392105,
                            0.0795612633228302
                        ],
                        [
                            -0.07273763418197632,
                            0.4792120158672333
                        ]
                    ],
                    [
                        [
                            0.10517190396785736,
                            -0.17902976274490356
                        ],
                        [
                            -0.2941321134567261,
                            -0.10419090837240219
                        ]
                    ],
                    [
                        [
                            0.19396930932998657,
                            0.12665386497974396
                        ],
                        [
                            -0.22956542670726776,
                            -0.4073405861854553
                        ]
                    ],
                    [
                        [
                            0.21463358402252197,
                            0.01443429198116064
                        ],
                        [
                            -0.04225509986281395,
                            0.1974913477897644
                        ]
                    ],
                    [
                        [
                            -0.12803645431995392,
                            -0.12866225838661194
                        ],
                        [
                            0.26330751180648804,
                            -0.16830629110336304
                        ]
                    ],
                    [
                        [
                            0.08392119407653809,
                            -0.03762313351035118
                        ],
                        [
                            -0.16429413855075836,
                            0.11700698733329773
                        ]
                    ],
                    [
                        [
                            0.08716613799333572,
                            0.18833060562610626
                        ],
                        [
                            -0.3462172746658325,
                            0.4811493456363678
                        ]
                    ],
                    [
                        [
                            0.13188061118125916,
                            -0.13527119159698486
                        ],
                        [
                            -0.12065570801496506,
                            -0.2517659068107605
                        ]
                    ],
                    [
                        [
                            -0.4825546443462372,
                            -0.5996395945549011
                        ],
                        [
                            0.311897337436676,
                            -0.013382713310420513
                        ]
                    ],
                    [
                        [
                            -0.12547630071640015,
                            -0.32474395632743835
                        ],
                        [
                            -0.01673443429172039,
                            -0.2602383494377136
                        ]
                    ],
                    [
                        [
                            -0.27138206362724304,
                            0.27907106280326843
                        ],
                        [
                            0.3720841109752655,
                            -0.10597129911184311
                        ]
                    ],
                    [
                        [
                            -0.1541389673948288,
                            0.31102386116981506
                        ],
                        [
                            0.2036411166191101,
                            0.46946030855178833
                        ]
                    ],
                    [
                        [
                            0.18646104633808136,
                            0.09583687037229538
                        ],
                        [
                            0.12309226393699646,
                            0.5068703889846802
                        ]
                    ],
                    [
                        [
                            -0.5372892022132874,
                            0.061762381345033646
                        ],
                        [
                            0.17328467965126038,
                            0.5375840663909912
                        ]
                    ],
                    [
                        [
                            0.00848403014242649,
                            0.18185891211032867
                        ],
                        [
                            -0.10430318117141724,
                            0.16162602603435516
                        ]
                    ],
                    [
                        [
                            0.22891423106193542,
                            0.07851112633943558
                        ],
                        [
                            -0.18459585309028625,
                            0.3146952986717224
                        ]
                    ],
                    [
                        [
                            -0.01164316013455391,
                            0.1053466722369194
                        ],
                        [
                            0.0010571859311312437,
                            -0.06382632255554199
                        ]
                    ],
                    [
                        [
                            -0.22867806255817413,
                            -0.2989587187767029
                        ],
                        [
                            0.16730546951293945,
                            -0.579584538936615
                        ]
                    ],
                    [
                        [
                            -0.4738486707210541,
                            0.010435190983116627
                        ],
                        [
                            0.0899806097149849,
                            0.1292990744113922
                        ]
                    ],
                    [
                        [
                            -0.45379525423049927,
                            0.05383545160293579
                        ],
                        [
                            0.08117508143186569,
                            -0.4328351616859436
                        ]
                    ],
                    [
                        [
                            0.3539195954799652,
                            0.3644615709781647
                        ],
                        [
                            -0.175477996468544,
                            -0.3007732033729553
                        ]
                    ],
                    [
                        [
                            0.36698368191719055,
                            0.10305977612733841
                        ],
                        [
                            -0.2629539370536804,
                            0.03101038560271263
                        ]
                    ]
                ],
                [
                    [
                        [
                            0.11623500287532806,
                            -0.5301723480224609
                        ],
                        [
                            -0.08593819290399551,
                            0.4576570689678192
                        ]
                    ],
                    [
                        [
                            -0.28431567549705505,
                            0.24745601415634155
                        ],
                        [
                            -0.2811949849128723,
                            -0.15453511476516724
                        ]
                    ],
                    [
                        [
                            0.16843116283416748,
                            -1.0216983556747437
                        ],
                        [
                            -0.5221301317214966,
                            0.08184394240379333
                        ]
                    ],
                    [
                        [
                            0.10143521428108215,
                            -0.15094928443431854
                        ],
                        [
                            0.045218076556921005,
                            0.07022940367460251
                        ]
                    ],
                    [
                        [
                            0.2755386531352997,
                            1.0040627717971802
                        ],
                        [
                            0.5435211062431335,
                            -0.4034111797809601
                        ]
                    ],
                    [
                        [
                            -0.28322580456733704,
                            0.5803118944168091
                        ],
                        [
                            0.016266044229269028,
                            0.3358798623085022
                        ]
                    ],
                    [
                        [
                            0.2665995657444,
                            0.3341429531574249
                        ],
                        [
                            0.48983675241470337,
                            0.2472260296344757
                        ]
                    ],
                    [
                        [
                            0.18580342829227448,
                            0.17808391153812408
                        ],
                        [
                            -0.15686693787574768,
                            0.27394795417785645
                        ]
                    ],
                    [
                        [
                            0.0665028989315033,
                            0.07275853306055069
                        ],
                        [
                            -0.20741242170333862,
                            0.079631008207798
                        ]
                    ],
                    [
                        [
                            0.09052719175815582,
                            0.2797568440437317
                        ],
                        [
                            0.19320856034755707,
                            -0.6923906207084656
                        ]
                    ],
                    [
                        [
                            0.2384125143289566,
                            -0.24904465675354004
                        ],
                        [
                            0.45833802223205566,
                            -0.30799204111099243
                        ]
                    ],
                    [
                        [
                            0.5394468903541565,
                            0.2942940592765808
                        ],
                        [
                            -0.019248144701123238,
                            -0.44754350185394287
                        ]
                    ],
                    [
                        [
                            -0.10478789359331131,
                            0.07631734758615494
                        ],
                        [
                            0.2026640623807907,
                            0.003166621783748269
                        ]
                    ],
                    [
                        [
                            0.012427117675542831,
                            0.2055763304233551
                        ],
                        [
                            -0.13886311650276184,
                            -0.08678048849105835
                        ]
                    ],
                    [
                        [
                            0.1443428248167038,
                            -0.03391209989786148
                        ],
                        [
                            0.2434072643518448,
                            1.0534917116165161
                        ]
                    ],
                    [
                        [
                            -0.07569117844104767,
                            -0.7311201691627502
                        ],
                        [
                            -0.016757093369960785,
                            0.13005273044109344
                        ]
                    ],
                    [
                        [
                            0.2061159312725067,
                            -0.15705783665180206
                        ],
                        [
                            0.050068385899066925,
                            0.18627899885177612
                        ]
                    ],
                    [
                        [
                            0.05285784229636192,
                            -0.25362205505371094
                        ],
                        [
                            0.06267847120761871,
                            0.29045331478118896
                        ]
                    ],
                    [
                        [
                            -0.24060407280921936,
                            0.5794048309326172
                        ],
                        [
                            0.25145041942596436,
                            0.17251817882061005
                        ]
                    ],
                    [
                        [
                            0.44317540526390076,
                            0.3636679947376251
                        ],
                        [
                            0.14750947058200836,
                            -0.4989706873893738
                        ]
                    ],
                    [
                        [
                            -0.10642242431640625,
                            -0.3189786374568939
                        ],
                        [
                            0.133616104722023,
                            -0.41917720437049866
                        ]
                    ],
                    [
                        [
                            -0.01074726041406393,
                            0.42552444338798523
                        ],
                        [
                            0.12210910022258759,
                            -0.4687515199184418
                        ]
                    ],
                    [
                        [
                            -0.23558205366134644,
                            -0.07070394605398178
                        ],
                        [
                            -0.3362776041030884,
                            -0.6052325963973999
                        ]
